{
  "weights": {
    "type": "LSTM",
    "options": {
      "inputSize": 18,
      "inputRange": 18,
      "hiddenSizes": [
        20,
        20
      ],
      "outputSize": 18,
      "learningRate": 0.01,
      "decayRate": 0.999,
      "smoothEps": 1e-8,
      "regc": 0.000001,
      "clipval": 5,
      "json": null,
      "dataFormatter": {
        "values": [
          "i do thisno",
          "i like laravellaravel",
          "i work with laravellaravel",
          "like",
          "neutral"
        ],
        "indexTable": {
          "i": 0,
          " ": 1,
          "d": 2,
          "o": 3,
          "t": 4,
          "h": 5,
          "s": 6,
          "n": 7,
          "l": 8,
          "k": 9,
          "e": 10,
          "a": 11,
          "r": 12,
          "v": 13,
          "w": 14,
          "u": 15,
          "stop-input": 16,
          "start-output": 17
        },
        "characterTable": {
          "0": "i",
          "1": " ",
          "2": "d",
          "3": "o",
          "4": "t",
          "5": "h",
          "6": "s",
          "7": "n",
          "8": "l",
          "9": "k",
          "10": "e",
          "11": "a",
          "12": "r",
          "13": "v",
          "14": "w",
          "15": "u",
          "16": "stop-input",
          "17": "start-output"
        },
        "characters": [
          "i",
          " ",
          "d",
          "o",
          "t",
          "h",
          "s",
          "n",
          "l",
          "k",
          "e",
          "a",
          "r",
          "v",
          "w",
          "u",
          "stop-input",
          "start-output"
        ]
      }
    },
    "input": {
      "rows": 19,
      "columns": 18,
      "weights": {
        "0": 0.7540345191955566,
        "1": -0.2993234694004059,
        "2": -1.045609474182129,
        "3": -0.27491846680641174,
        "4": 0.12499295920133591,
        "5": -0.19392365217208862,
        "6": -0.13027416169643402,
        "7": -0.40068838000297546,
        "8": 0.48398521542549133,
        "9": 0.28933098912239075,
        "10": 0.0645659938454628,
        "11": 0.3601331412792206,
        "12": 0.23448368906974792,
        "13": 0.4007799029350281,
        "14": 0.055037494748830795,
        "15": -0.40820375084877014,
        "16": 0.10247018188238144,
        "17": -0.6375735998153687,
        "18": 0.7848347425460815,
        "19": -0.3360100984573364,
        "20": 0.22045688331127167,
        "21": -0.7288689613342285,
        "22": 0.5568713545799255,
        "23": -0.7321688532829285,
        "24": -0.670850396156311,
        "25": -0.1775951385498047,
        "26": 0.6306278705596924,
        "27": 0.47551482915878296,
        "28": 0.5601339936256409,
        "29": 0.26579439640045166,
        "30": 0.7243732810020447,
        "31": 0.40273916721343994,
        "32": 0.10889842361211777,
        "33": -0.08855801820755005,
        "34": 0.47031310200691223,
        "35": -0.4171290397644043,
        "36": -0.4665723443031311,
        "37": -0.10526718199253082,
        "38": 0.9989038109779358,
        "39": -0.4862324893474579,
        "40": 0.31413576006889343,
        "41": -0.41840651631355286,
        "42": -0.13299024105072021,
        "43": -0.4470314383506775,
        "44": 0.36309361457824707,
        "45": 0.18149392306804657,
        "46": 0.15522323548793793,
        "47": 0.3546035885810852,
        "48": 0.2170042097568512,
        "49": -0.3668889105319977,
        "50": 0.36814209818840027,
        "51": -0.2734237015247345,
        "52": 0.5097070932388306,
        "53": -0.23859316110610962,
        "54": -0.13877199590206146,
        "55": 0.34969866275787354,
        "56": -1.1676148176193237,
        "57": -0.46051353216171265,
        "58": 0.09740843623876572,
        "59": -0.6794483661651611,
        "60": -0.24638982117176056,
        "61": 0.10548581928014755,
        "62": 0.6677061319351196,
        "63": -0.16430656611919403,
        "64": -0.11590694636106491,
        "65": -0.10686289519071579,
        "66": 0.6623496413230896,
        "67": -0.09031981974840164,
        "68": -1.0509523153305054,
        "69": -0.11748509109020233,
        "70": 0.05955108627676964,
        "71": -0.7136700749397278,
        "72": 0.46620267629623413,
        "73": -0.7965908646583557,
        "74": 0.4222114384174347,
        "75": -1.418358325958252,
        "76": -0.459263414144516,
        "77": -1.3609039783477783,
        "78": -1.4132003784179688,
        "79": 0.773249089717865,
        "80": 1.330794095993042,
        "81": 0.9285340905189514,
        "82": 1.2120128870010376,
        "83": 0.789534866809845,
        "84": 1.333830714225769,
        "85": 0.565293550491333,
        "86": 0.6969998478889465,
        "87": 1.0832372903823853,
        "88": -0.39881786704063416,
        "89": 0.6680401563644409,
        "90": -0.7706193923950195,
        "91": 0.362890362739563,
        "92": 1.3025857210159302,
        "93": -0.7182480692863464,
        "94": 0.6486368179321289,
        "95": -0.7703460454940796,
        "96": -0.5721304416656494,
        "97": -0.34184297919273376,
        "98": 0.6142342686653137,
        "99": 0.0035022981464862823,
        "100": 0.05700521916151047,
        "101": 0.11158861964941025,
        "102": 0.31263113021850586,
        "103": -0.6891250014305115,
        "104": -0.6239585876464844,
        "105": -0.05375393480062485,
        "106": 0.837299644947052,
        "107": -0.3904895782470703,
        "108": -0.24817177653312683,
        "109": 0.5170810222625732,
        "110": -0.271469384431839,
        "111": 1.5982457399368286,
        "112": -0.1090686023235321,
        "113": 0.9663474559783936,
        "114": 0.7389522790908813,
        "115": -0.4320160746574402,
        "116": -0.8695331811904907,
        "117": -0.7333980202674866,
        "118": -0.8202214241027832,
        "119": 0.14894156157970428,
        "120": -0.7817445397377014,
        "121": -0.021111635491251945,
        "122": -0.2823137640953064,
        "123": -0.958655834197998,
        "124": 0.1423027217388153,
        "125": -0.12585055828094482,
        "126": 0.0254508126527071,
        "127": 0.1084543988108635,
        "128": -1.1534432172775269,
        "129": 1.8832308053970337,
        "130": -0.8093107342720032,
        "131": 1.6462559700012207,
        "132": 0.43618059158325195,
        "133": 0.08181274682283401,
        "134": -0.5713550448417664,
        "135": -0.2784298062324524,
        "136": -0.3542628288269043,
        "137": 1.3835121393203735,
        "138": -0.4499911367893219,
        "139": 0.6505076289176941,
        "140": 0.8570022583007812,
        "141": -1.3233743906021118,
        "142": -0.5181138515472412,
        "143": 1.035929560661316,
        "144": 1.6294081211090088,
        "145": -1.4819031953811646,
        "146": -1.502508521080017,
        "147": 0.421752005815506,
        "148": -2.0710225105285645,
        "149": -0.016675695776939392,
        "150": -0.051079388707876205,
        "151": 0.4343380928039551,
        "152": 0.06597734242677689,
        "153": 0.6317703127861023,
        "154": 0.10583746433258057,
        "155": 2.263615369796753,
        "156": 0.07006729394197464,
        "157": 1.8395389318466187,
        "158": 1.570745825767517,
        "159": -1.0742541551589966,
        "160": -1.800096869468689,
        "161": 1.8422505855560303,
        "162": -0.24335439503192902,
        "163": -0.15324969589710236,
        "164": 0.3588148355484009,
        "165": -0.05168752372264862,
        "166": -0.0042640408501029015,
        "167": -0.11410827934741974,
        "168": 0.07251764833927155,
        "169": -0.31000658869743347,
        "170": 0.1261531263589859,
        "171": 0.35642701387405396,
        "172": -0.05390191823244095,
        "173": 0.37308844923973083,
        "174": 0.007992440834641457,
        "175": -0.1700298935174942,
        "176": 0.542572021484375,
        "177": -0.32609322667121887,
        "178": 0.29980191588401794,
        "179": -0.18476516008377075,
        "180": -0.17982631921768188,
        "181": -0.36660653352737427,
        "182": 0.7286599278450012,
        "183": -0.5596730709075928,
        "184": 0.18986180424690247,
        "185": -0.5334396362304688,
        "186": -0.5180405378341675,
        "187": -0.2235669046640396,
        "188": 0.5471454858779907,
        "189": 0.4788680076599121,
        "190": 0.47702351212501526,
        "191": 0.5437361598014832,
        "192": 0.5326916575431824,
        "193": 0.6313232183456421,
        "194": 0.43827199935913086,
        "195": -0.11345602571964264,
        "196": 0.19421851634979248,
        "197": -0.03321102634072304,
        "198": -0.18456466495990753,
        "199": -0.344158798456192,
        "200": 1.2157506942749023,
        "201": -0.6426604390144348,
        "202": 0.1932743340730667,
        "203": -0.6857487559318542,
        "204": -0.20832277834415436,
        "205": -0.2764781415462494,
        "206": 0.7899678945541382,
        "207": 0.7394651174545288,
        "208": 0.07657722383737564,
        "209": 0.7318359017372131,
        "210": 0.4193526804447174,
        "211": 0.13913004100322723,
        "212": 0.7255322933197021,
        "213": -0.06273230910301208,
        "214": 0.27496692538261414,
        "215": 0.09672953933477402,
        "216": -0.9743835926055908,
        "217": 0.46069636940956116,
        "218": 0.17221656441688538,
        "219": 0.20608757436275482,
        "220": 1.0180909633636475,
        "221": 0.5046370029449463,
        "222": 0.4538305997848511,
        "223": -0.8002818822860718,
        "224": -0.4500866234302521,
        "225": -0.39175325632095337,
        "226": -0.24737431108951569,
        "227": -0.3572276532649994,
        "228": -0.4724717438220978,
        "229": -1.0498557090759277,
        "230": -0.25953420996665955,
        "231": -0.5021785497665405,
        "232": 0.8406798839569092,
        "233": -1.045815348625183,
        "234": -0.45917457342147827,
        "235": -0.0583542101085186,
        "236": 0.0903020054101944,
        "237": -0.02508237585425377,
        "238": 0.5273638367652893,
        "239": -0.1445043832063675,
        "240": -0.18839435279369354,
        "241": -0.429171085357666,
        "242": -0.002045124303549528,
        "243": 0.0950680822134018,
        "244": 0.14321058988571167,
        "245": 0.0689144879579544,
        "246": 0.1501428782939911,
        "247": -0.425026535987854,
        "248": 0.03969218581914902,
        "249": -0.3213457763195038,
        "250": 0.5336530804634094,
        "251": -0.6649467945098877,
        "252": -0.8549397587776184,
        "253": 0.4382261335849762,
        "254": 0.04300792142748833,
        "255": -0.03363398090004921,
        "256": 0.5576573014259338,
        "257": 0.183396577835083,
        "258": 0.0456555038690567,
        "259": -0.5589826107025146,
        "260": -0.2911706268787384,
        "261": -0.4312170743942261,
        "262": -0.09706684201955795,
        "263": -0.21298179030418396,
        "264": -0.24423465132713318,
        "265": -1.0922261476516724,
        "266": -0.17705368995666504,
        "267": -0.44526225328445435,
        "268": 0.6620867848396301,
        "269": -0.9996508955955505,
        "270": 0.4795394837856293,
        "271": -1.2682427167892456,
        "272": -0.6832441091537476,
        "273": -1.2914419174194336,
        "274": 0.42354437708854675,
        "275": -1.2220158576965332,
        "276": -1.1698267459869385,
        "277": -0.23887211084365845,
        "278": 1.1752876043319702,
        "279": 1.2423123121261597,
        "280": 1.1553452014923096,
        "281": 0.655288577079773,
        "282": 1.0764845609664917,
        "283": 0.40646520256996155,
        "284": -0.18445083498954773,
        "285": -0.1506929248571396,
        "286": 0.0685996413230896,
        "287": -0.15644153952598572,
        "288": 1.356277585029602,
        "289": -1.267291784286499,
        "290": 0.5527904629707336,
        "291": -1.7544193267822266,
        "292": -0.8518038988113403,
        "293": -1.6362005472183228,
        "294": -1.3910324573516846,
        "295": 1.2343120574951172,
        "296": 1.5958831310272217,
        "297": 1.6731274127960205,
        "298": 1.277413010597229,
        "299": 1.4498697519302368,
        "300": 1.441514253616333,
        "301": 1.3471856117248535,
        "302": 1.1751177310943604,
        "303": 1.765726923942566,
        "304": -1.3201626539230347,
        "305": 1.1471046209335327,
        "306": -1.139382243156433,
        "307": 0.3903123438358307,
        "308": 0.14701198041439056,
        "309": 0.3128286898136139,
        "310": 0.7783454656600952,
        "311": 0.29577136039733887,
        "312": 0.31730273365974426,
        "313": -0.8638176918029785,
        "314": -0.5233916640281677,
        "315": -0.35788393020629883,
        "316": -0.22224771976470947,
        "317": -0.1452753096818924,
        "318": -0.3712342381477356,
        "319": -1.2182862758636475,
        "320": -0.4238601624965668,
        "321": -0.8126639127731323,
        "322": 0.9450409412384033,
        "323": -1.1362006664276123,
        "324": -0.735196590423584,
        "325": 0.2774513065814972,
        "326": -0.08861258625984192,
        "327": 0.17135508358478546,
        "328": 0.6250811815261841,
        "329": 0.22804220020771027,
        "330": 0.33933159708976746,
        "331": -0.7281335592269897,
        "332": -0.2601999342441559,
        "333": -0.1261431723833084,
        "334": -0.24033035337924957,
        "335": 0.1037425771355629,
        "336": -0.4161573648452759,
        "337": -0.8432652354240417,
        "338": -0.26568564772605896,
        "339": -0.6415563821792603,
        "340": 0.7336863279342651,
        "341": -0.8689464330673218
      }
    },
    "hiddenLayers": [
      {
        "inputMatrix": {
          "rows": 20,
          "columns": 18,
          "weights": {
            "0": -0.31809669733047485,
            "1": 0.3514724373817444,
            "2": -0.3346875011920929,
            "3": 0.18803052604198456,
            "4": -0.08107109367847443,
            "5": 0.20788371562957764,
            "6": 0.33432430028915405,
            "7": -0.22668786346912384,
            "8": -0.3246277868747711,
            "9": -0.22053930163383484,
            "10": -0.32843801379203796,
            "11": -0.4589276611804962,
            "12": -0.29977941513061523,
            "13": -0.42368459701538086,
            "14": -0.4947597086429596,
            "15": -0.15378807485103607,
            "16": 0.2971721589565277,
            "17": -0.4803112745285034,
            "18": 0.33676445484161377,
            "19": -0.3637496829032898,
            "20": 0.5547336339950562,
            "21": -0.3497176766395569,
            "22": -0.07445817440748215,
            "23": -0.3904433846473694,
            "24": -0.3266626298427582,
            "25": 0.31331706047058105,
            "26": 0.3379532992839813,
            "27": 0.3200820982456207,
            "28": 0.3349020481109619,
            "29": 0.2715873420238495,
            "30": 0.31801873445510864,
            "31": 0.2838726341724396,
            "32": 0.38639968633651733,
            "33": 0.2526125907897949,
            "34": -0.18985974788665771,
            "35": 0.3055974245071411,
            "36": 0.28207457065582275,
            "37": -0.3535390794277191,
            "38": 0.6775566339492798,
            "39": -0.299360454082489,
            "40": -0.48089054226875305,
            "41": -0.300416499376297,
            "42": -0.30958372354507446,
            "43": 0.35051873326301575,
            "44": 0.3425506353378296,
            "45": 0.32734808325767517,
            "46": 0.2707979679107666,
            "47": 0.3296217918395996,
            "48": 0.24845574796199799,
            "49": 0.331790030002594,
            "50": 0.40708667039871216,
            "51": 0.31030410528182983,
            "52": -0.309737890958786,
            "53": 0.3594707250595093,
            "54": 0.2710169851779938,
            "55": -0.3245665431022644,
            "56": 0.5981437563896179,
            "57": -0.3141193389892578,
            "58": -0.4043582081794739,
            "59": -0.24859578907489777,
            "60": -0.2625124454498291,
            "61": 0.32847732305526733,
            "62": 0.32005104422569275,
            "63": 0.2654224932193756,
            "64": 0.30347907543182373,
            "65": 0.3017425239086151,
            "66": 0.2695872187614441,
            "67": 0.2352309674024582,
            "68": 0.3690599799156189,
            "69": 0.357548326253891,
            "70": -0.2699193060398102,
            "71": 0.4028746485710144,
            "72": 0.7733149528503418,
            "73": -0.01604396291077137,
            "74": -0.5098244547843933,
            "75": 0.3593307137489319,
            "76": -0.6577144861221313,
            "77": 0.3262306749820709,
            "78": 0.30836960673332214,
            "79": -0.19987592101097107,
            "80": -0.38056957721710205,
            "81": -0.17505766451358795,
            "82": -0.35071319341659546,
            "83": 0.6557194590568542,
            "84": -0.332834392786026,
            "85": 0.9084397554397583,
            "86": 0.4821285009384155,
            "87": -0.3192368745803833,
            "88": -0.6826000213623047,
            "89": 0.6145994067192078,
            "90": 0.19788269698619843,
            "91": -0.33749133348464966,
            "92": 0.45632585883140564,
            "93": -0.2883237302303314,
            "94": -0.14195097982883453,
            "95": -0.33080485463142395,
            "96": -0.26278823614120483,
            "97": 0.3263740837574005,
            "98": 0.35531818866729736,
            "99": 0.29796937108039856,
            "100": 0.3482760787010193,
            "101": 0.295918732881546,
            "102": 0.2584975063800812,
            "103": 0.3222815990447998,
            "104": 0.41209957003593445,
            "105": 0.2730962038040161,
            "106": -0.16931644082069397,
            "107": 0.33662140369415283,
            "108": 0.2696007788181305,
            "109": -0.2620035409927368,
            "110": 0.30255499482154846,
            "111": -0.3728117048740387,
            "112": -0.10553059726953506,
            "113": -0.3403649628162384,
            "114": -0.3237394392490387,
            "115": 0.21755698323249817,
            "116": 0.25994008779525757,
            "117": 0.29057639837265015,
            "118": 0.2336285263299942,
            "119": 0.40833577513694763,
            "120": 0.18332454562187195,
            "121": 0.3124339282512665,
            "122": 0.3970361053943634,
            "123": 0.22735127806663513,
            "124": -0.22544875741004944,
            "125": 0.3180258870124817,
            "126": 0.3532106578350067,
            "127": -0.2922494113445282,
            "128": 0.35485607385635376,
            "129": -0.2756081819534302,
            "130": -0.18002597987651825,
            "131": -0.2454148828983307,
            "132": -0.2687695324420929,
            "133": 0.29423442482948303,
            "134": 0.32932549715042114,
            "135": 0.3097403943538666,
            "136": 0.243136465549469,
            "137": 0.3532309830188751,
            "138": 0.23783008754253387,
            "139": 0.3707864582538605,
            "140": 0.36719685792922974,
            "141": 0.19679619371891022,
            "142": -0.26735618710517883,
            "143": 0.25656184554100037,
            "144": -0.15554317831993103,
            "145": 0.2335321605205536,
            "146": -0.12078215181827545,
            "147": 0.10025036334991455,
            "148": 0.9938338994979858,
            "149": 0.11996778100728989,
            "150": 0.2292637974023819,
            "151": -0.24337080121040344,
            "152": -0.19737805426120758,
            "153": -0.1745518147945404,
            "154": -0.1854856163263321,
            "155": -0.40232759714126587,
            "156": -0.22332900762557983,
            "157": -0.4302741289138794,
            "158": -0.46594804525375366,
            "159": -0.13203342258930206,
            "160": 0.4280741214752197,
            "161": -0.7001065611839294,
            "162": -0.06018894165754318,
            "163": 0.4342212378978729,
            "164": -0.9877245426177979,
            "165": 0.4205458164215088,
            "166": -0.17444075644016266,
            "167": 0.4478996992111206,
            "168": 0.47339680790901184,
            "169": -0.27326080203056335,
            "170": -0.4775194823741913,
            "171": -0.3493400514125824,
            "172": -0.42109015583992004,
            "173": -0.3621545433998108,
            "174": -0.42935711145401,
            "175": 0.13579878211021423,
            "176": -0.38798627257347107,
            "177": -0.43601906299591064,
            "178": 0.2012929618358612,
            "179": -0.22971567511558533,
            "180": 0.23808644711971283,
            "181": 0.05699217692017555,
            "182": -0.9929291009902954,
            "183": 0.15114739537239075,
            "184": -0.5693630576133728,
            "185": 0.20491459965705872,
            "186": 0.23118384182453156,
            "187": -0.0844423919916153,
            "188": -0.1331150382757187,
            "189": -0.04045967757701874,
            "190": -0.162148579955101,
            "191": -0.4092654585838318,
            "192": -0.26213759183883667,
            "193": 0.08036848157644272,
            "194": -0.12395955622196198,
            "195": -0.21622197329998016,
            "196": -0.09758860617876053,
            "197": -0.2826233208179474,
            "198": -0.27720972895622253,
            "199": 0.2872105836868286,
            "200": 0.3409503996372223,
            "201": -0.13450488448143005,
            "202": 0.30645930767059326,
            "203": -0.6635167598724365,
            "204": -0.020611658692359924,
            "205": -0.07902641594409943,
            "206": -0.014808719046413898,
            "207": -0.1098090186715126,
            "208": -0.10375716537237167,
            "209": -0.7590256929397583,
            "210": 0.050868649035692215,
            "211": -0.4642488956451416,
            "212": -0.34647825360298157,
            "213": 0.0941128134727478,
            "214": 0.2344767451286316,
            "215": -0.31010717153549194,
            "216": 1.035854697227478,
            "217": -0.5957809686660767,
            "218": -0.24910001456737518,
            "219": -0.3709363043308258,
            "220": 0.5668836832046509,
            "221": -0.4889217019081116,
            "222": -0.34797921776771545,
            "223": 0.05216225981712341,
            "224": 0.4827429950237274,
            "225": 0.6056622266769409,
            "226": 0.32594212889671326,
            "227": 1.108887791633606,
            "228": 0.3590174615383148,
            "229": 0.9503263831138611,
            "230": 0.044848546385765076,
            "231": 0.030667461454868317,
            "232": 0.08267083764076233,
            "233": -0.31335341930389404,
            "234": 0.20620091259479523,
            "235": -0.2759183645248413,
            "236": 0.28842684626579285,
            "237": -0.1984923630952835,
            "238": -0.20347854495048523,
            "239": -0.30591946840286255,
            "240": -0.27465763688087463,
            "241": 0.30894190073013306,
            "242": 0.2631043791770935,
            "243": 0.2774415910243988,
            "244": 0.2486085146665573,
            "245": 0.35223010182380676,
            "246": 0.26962992548942566,
            "247": 0.38628193736076355,
            "248": 0.3589351177215576,
            "249": 0.1777365654706955,
            "250": -0.22240933775901794,
            "251": 0.37110310792922974,
            "252": -0.27355650067329407,
            "253": 0.3069862723350525,
            "254": -0.8191527724266052,
            "255": 0.389244019985199,
            "256": 0.2525680661201477,
            "257": 0.3559558689594269,
            "258": 0.253702849149704,
            "259": -0.24248430132865906,
            "260": -0.3081956207752228,
            "261": -0.37613463401794434,
            "262": -0.2360486537218094,
            "263": -0.3773355484008789,
            "264": -0.23745045065879822,
            "265": -0.2939755618572235,
            "266": -0.5302333235740662,
            "267": -0.39141249656677246,
            "268": 0.24217049777507782,
            "269": -0.3803826868534088,
            "270": -0.3226661682128906,
            "271": 0.262264221906662,
            "272": -0.8807564973831177,
            "273": 0.25513264536857605,
            "274": 0.20691344141960144,
            "275": 0.3490219712257385,
            "276": 0.3059254288673401,
            "277": -0.23785273730754852,
            "278": -0.36811092495918274,
            "279": -0.3186607360839844,
            "280": -0.29137760400772095,
            "281": -0.4459703862667084,
            "282": -0.2571357190608978,
            "283": -0.21625450253486633,
            "284": -0.48443078994750977,
            "285": -0.36554571986198425,
            "286": 0.31421127915382385,
            "287": -0.31244561076164246,
            "288": 0.27224668860435486,
            "289": -0.2658092975616455,
            "290": 0.9898418188095093,
            "291": -0.39639812707901,
            "292": -0.4210641086101532,
            "293": -0.3419347405433655,
            "294": -0.2566756308078766,
            "295": 0.337197870016098,
            "296": 0.35328367352485657,
            "297": 0.30132976174354553,
            "298": 0.3015943169593811,
            "299": 0.40507158637046814,
            "300": 0.25658127665519714,
            "301": 0.34951722621917725,
            "302": 0.345782995223999,
            "303": 0.2909572720527649,
            "304": -0.3078087568283081,
            "305": 0.35893484950065613,
            "306": 0.2996366024017334,
            "307": -0.3032848834991455,
            "308": 0.2237524539232254,
            "309": -0.25603219866752625,
            "310": -0.19078373908996582,
            "311": -0.3277501165866852,
            "312": -0.3239934742450714,
            "313": 0.31460481882095337,
            "314": 0.31530216336250305,
            "315": 0.27955755591392517,
            "316": 0.27292147278785706,
            "317": 0.4849388301372528,
            "318": 0.29606151580810547,
            "319": 0.34553995728492737,
            "320": 0.4009590446949005,
            "321": 0.25364360213279724,
            "322": -0.24631057679653168,
            "323": 0.23994451761245728,
            "324": -0.07500284910202026,
            "325": 0.2342442125082016,
            "326": -1.3199759721755981,
            "327": 0.2956981658935547,
            "328": 0.08401039242744446,
            "329": 0.272765189409256,
            "330": 0.14587678015232086,
            "331": -0.2581614851951599,
            "332": -0.21707728505134583,
            "333": -0.18405045568943024,
            "334": -0.1459609419107437,
            "335": -0.25321295857429504,
            "336": -0.13016346096992493,
            "337": -0.05841732770204544,
            "338": -0.30233293771743774,
            "339": -0.2713976800441742,
            "340": 0.14397460222244263,
            "341": -0.23722417652606964,
            "342": 0.237551748752594,
            "343": -0.29896119236946106,
            "344": 0.5161537528038025,
            "345": -0.3675246238708496,
            "346": -0.08244536072015762,
            "347": -0.3005214035511017,
            "348": -0.23513881862163544,
            "349": 0.27763694524765015,
            "350": 0.23978088796138763,
            "351": 0.2667565941810608,
            "352": 0.21858592331409454,
            "353": 0.28061434626579285,
            "354": 0.33051079511642456,
            "355": 0.27397164702415466,
            "356": 0.3473665416240692,
            "357": 0.30079808831214905,
            "358": -0.27229395508766174,
            "359": 0.3013398349285126
          }
        },
        "inputHidden": {
          "rows": 20,
          "columns": 20,
          "weights": {
            "0": -0.34037548303604126,
            "1": -0.4078366160392761,
            "2": -0.12078873813152313,
            "3": -0.17554429173469543,
            "4": 0.015088167041540146,
            "5": -0.4215085208415985,
            "6": -0.32889828085899353,
            "7": -0.3832419216632843,
            "8": -0.467654287815094,
            "9": -0.2947925329208374,
            "10": 0.3829563558101654,
            "11": -0.28516680002212524,
            "12": 1.368632435798645,
            "13": 0.3453240692615509,
            "14": -0.346278578042984,
            "15": 0.24784035980701447,
            "16": -0.18350423872470856,
            "17": 0.41712716221809387,
            "18": -0.23871085047721863,
            "19": 0.25141504406929016,
            "20": 0.3100599944591522,
            "21": 0.24754668772220612,
            "22": 0.32679468393325806,
            "23": 0.2724585235118866,
            "24": 0.4090413749217987,
            "25": 0.3875795304775238,
            "26": 0.3704584240913391,
            "27": 0.36961933970451355,
            "28": 0.4103923439979553,
            "29": 0.3603608012199402,
            "30": -0.39330345392227173,
            "31": 0.361476868391037,
            "32": -0.6034053564071655,
            "33": -0.23926064372062683,
            "34": 0.2969793379306793,
            "35": -0.3459732234477997,
            "36": 0.35409441590309143,
            "37": -0.32542914152145386,
            "38": 0.402801513671875,
            "39": -0.354678750038147,
            "40": 0.42091381549835205,
            "41": 0.26620620489120483,
            "42": 0.24004137516021729,
            "43": 0.22999070584774017,
            "44": 0.2631063759326935,
            "45": 0.31360214948654175,
            "46": 0.27252671122550964,
            "47": 0.26625335216522217,
            "48": 0.3389080762863159,
            "49": 0.37394648790359497,
            "50": -0.31500086188316345,
            "51": 0.32502320408821106,
            "52": -0.19336695969104767,
            "53": -0.26002371311187744,
            "54": 0.42102667689323425,
            "55": -0.28247395157814026,
            "56": 0.3732091784477234,
            "57": -0.38104894757270813,
            "58": 0.37471142411231995,
            "59": -0.26455235481262207,
            "60": 0.2979416251182556,
            "61": 0.3660721480846405,
            "62": 0.29411059617996216,
            "63": 0.3604549765586853,
            "64": 0.3602314889431,
            "65": 0.3116050064563751,
            "66": 0.3854379951953888,
            "67": 0.28625524044036865,
            "68": 0.3588084280490875,
            "69": 0.2707977294921875,
            "70": -0.2879472076892853,
            "71": 0.3389405906200409,
            "72": -0.5913896560668945,
            "73": -0.3123103976249695,
            "74": 0.2888891100883484,
            "75": -0.28964561223983765,
            "76": 0.21957212686538696,
            "77": -0.36982595920562744,
            "78": 0.33665379881858826,
            "79": -0.3685232400894165,
            "80": 0.3765762448310852,
            "81": 0.2849857211112976,
            "82": 0.6946882605552673,
            "83": 0.3932514786720276,
            "84": 0.5040293335914612,
            "85": 0.24824273586273193,
            "86": 0.11330051720142365,
            "87": 0.1301984339952469,
            "88": 0.29650694131851196,
            "89": 0.407878041267395,
            "90": -0.22696316242218018,
            "91": 0.30344158411026,
            "92": 0.6751117706298828,
            "93": -0.25960978865623474,
            "94": 0.3840794265270233,
            "95": -0.42009076476097107,
            "96": 0.4378809630870819,
            "97": -0.18971222639083862,
            "98": 0.42606544494628906,
            "99": -0.22912900149822235,
            "100": 0.28905633091926575,
            "101": 0.2847038209438324,
            "102": 0.2388225942850113,
            "103": 0.22144919633865356,
            "104": 0.21309421956539154,
            "105": 0.24661052227020264,
            "106": 0.36987316608428955,
            "107": 0.3547370731830597,
            "108": 0.3383687138557434,
            "109": 0.3554478585720062,
            "110": -0.3219343423843384,
            "111": 0.40628308057785034,
            "112": -0.7508302927017212,
            "113": -0.35233259201049805,
            "114": 0.373611718416214,
            "115": -0.4241744875907898,
            "116": 0.28491857647895813,
            "117": -0.3300229012966156,
            "118": 0.2925121486186981,
            "119": -0.23908071219921112,
            "120": 0.2558774948120117,
            "121": 0.26408514380455017,
            "122": 0.2738892436027527,
            "123": 0.21528418362140656,
            "124": 0.34983935952186584,
            "125": 0.27102965116500854,
            "126": 0.38747966289520264,
            "127": 0.31393614411354065,
            "128": 0.34998056292533875,
            "129": 0.31636181473731995,
            "130": -0.19095537066459656,
            "131": 0.28599458932876587,
            "132": -0.6598163843154907,
            "133": -0.2660441994667053,
            "134": 0.43073487281799316,
            "135": -0.31227976083755493,
            "136": 0.26908838748931885,
            "137": -0.32573777437210083,
            "138": 0.32831284403800964,
            "139": -0.32130345702171326,
            "140": 0.3018641173839569,
            "141": 0.2981782555580139,
            "142": 0.3089405596256256,
            "143": 0.21495823562145233,
            "144": 0.19057218730449677,
            "145": 0.38684406876564026,
            "146": 0.27856066823005676,
            "147": 0.2912599444389343,
            "148": 0.3691624104976654,
            "149": 0.3564392030239105,
            "150": -0.24966742098331451,
            "151": 0.3512229323387146,
            "152": -0.7083790302276611,
            "153": -0.382642924785614,
            "154": 0.36031273007392883,
            "155": -0.41742458939552307,
            "156": 0.17302866280078888,
            "157": -0.2891826927661896,
            "158": 0.4178154170513153,
            "159": -0.2254396229982376,
            "160": -0.544492781162262,
            "161": -0.3146508038043976,
            "162": -0.37582674622535706,
            "163": -0.37449321150779724,
            "164": 0.15163984894752502,
            "165": -0.43337205052375793,
            "166": -0.3325885832309723,
            "167": -0.4497911334037781,
            "168": -0.5082167983055115,
            "169": -0.17754054069519043,
            "170": 0.6935740113258362,
            "171": -0.41464611887931824,
            "172": -0.24822288751602173,
            "173": 0.34281596541404724,
            "174": -0.19072282314300537,
            "175": 0.09603514522314072,
            "176": -0.1981239765882492,
            "177": 0.35779306292533875,
            "178": -0.17919921875,
            "179": 0.44609957933425903,
            "180": -0.2769814133644104,
            "181": -0.2783300280570984,
            "182": -0.05895313620567322,
            "183": -0.2714306116104126,
            "184": 0.04002267122268677,
            "185": -0.42963671684265137,
            "186": -0.3100244998931885,
            "187": -0.4210265278816223,
            "188": -0.29583871364593506,
            "189": -0.36076757311820984,
            "190": 0.029086655005812645,
            "191": -0.20037893950939178,
            "192": 0.9143374562263489,
            "193": 0.41389918327331543,
            "194": -0.34270450472831726,
            "195": 0.34098193049430847,
            "196": -0.27697867155075073,
            "197": 0.4544484615325928,
            "198": -0.34447571635246277,
            "199": 0.39283236861228943,
            "200": -0.7988283634185791,
            "201": -0.5719178915023804,
            "202": 0.5431758761405945,
            "203": 0.2308676838874817,
            "204": 0.10355596989393234,
            "205": -0.9311842918395996,
            "206": -1.0099016427993774,
            "207": -0.9748130440711975,
            "208": -0.8331632018089294,
            "209": -0.9238295555114746,
            "210": 0.1796967089176178,
            "211": -0.6478861570358276,
            "212": 1.4475221633911133,
            "213": 0.7916750311851501,
            "214": -0.85407555103302,
            "215": 0.8059321045875549,
            "216": 0.5029401779174805,
            "217": 0.7719911336898804,
            "218": -0.7888146042823792,
            "219": 0.824804425239563,
            "220": -0.41363492608070374,
            "221": -0.46091026067733765,
            "222": -0.21700312197208405,
            "223": -0.1762630045413971,
            "224": -0.049011386930942535,
            "225": -0.3923815190792084,
            "226": -0.4310244023799896,
            "227": -0.3659553825855255,
            "228": -0.5416722297668457,
            "229": -0.3825344741344452,
            "230": 0.4227335751056671,
            "231": -0.2695305645465851,
            "232": 0.7848142385482788,
            "233": 0.42044585943222046,
            "234": -0.3218289911746979,
            "235": 0.41909897327423096,
            "236": -0.1645386815071106,
            "237": 0.3784258961677551,
            "238": -0.34817075729370117,
            "239": 0.45595425367355347,
            "240": -0.08589757978916168,
            "241": -0.14459951221942902,
            "242": -0.7012734413146973,
            "243": -0.352460652589798,
            "244": -0.7347567081451416,
            "245": -0.05410456657409668,
            "246": 0.11509046703577042,
            "247": 0.006322188302874565,
            "248": -0.06754416227340698,
            "249": -0.04235687479376793,
            "250": -0.1159767284989357,
            "251": -0.24215926229953766,
            "252": -0.44162699580192566,
            "253": -0.009804445318877697,
            "254": -0.07489769160747528,
            "255": 0.00427408330142498,
            "256": -0.40349194407463074,
            "257": 0.03161584213376045,
            "258": -0.03218851238489151,
            "259": -0.0029457351192831993,
            "260": 0.4478210508823395,
            "261": 0.30331987142562866,
            "262": 0.27048006653785706,
            "263": 0.19490748643875122,
            "264": 0.14971190690994263,
            "265": 0.39140477776527405,
            "266": 0.31198182702064514,
            "267": 0.2800995707511902,
            "268": 0.4113515019416809,
            "269": 0.34423404932022095,
            "270": -0.2901114523410797,
            "271": 0.43204131722450256,
            "272": -0.8705002665519714,
            "273": -0.2417811006307602,
            "274": 0.30848246812820435,
            "275": -0.36644673347473145,
            "276": 0.12304529547691345,
            "277": -0.36987555027008057,
            "278": 0.3891485631465912,
            "279": -0.25298622250556946,
            "280": -0.2482374608516693,
            "281": -0.21683938801288605,
            "282": -0.31535300612449646,
            "283": -0.2236262708902359,
            "284": -0.19287148118019104,
            "285": -0.2635166347026825,
            "286": -0.28183281421661377,
            "287": -0.2913755774497986,
            "288": -0.21683081984519958,
            "289": -0.30742913484573364,
            "290": 0.2444729506969452,
            "291": -0.15189635753631592,
            "292": 0.5411394238471985,
            "293": 0.2899567782878876,
            "294": -0.28138136863708496,
            "295": 0.28332293033599854,
            "296": -0.18527857959270477,
            "297": 0.2721775770187378,
            "298": -0.2925052344799042,
            "299": 0.22681912779808044,
            "300": -0.26014670729637146,
            "301": -0.1924751102924347,
            "302": -0.28211989998817444,
            "303": -0.24870197474956512,
            "304": -0.05900131165981293,
            "305": -0.3534754514694214,
            "306": -0.25516650080680847,
            "307": -0.3570863604545593,
            "308": -0.26337629556655884,
            "309": -0.38154008984565735,
            "310": 0.25189605355262756,
            "311": -0.1305581033229828,
            "312": 0.8019656538963318,
            "313": 0.35869643092155457,
            "314": -0.27423813939094543,
            "315": 0.33124077320098877,
            "316": -0.1906786859035492,
            "317": 0.33391493558883667,
            "318": -0.40887171030044556,
            "319": 0.31096675992012024,
            "320": 0.33903267979621887,
            "321": 0.35377490520477295,
            "322": 0.2891786992549896,
            "323": 0.3343893885612488,
            "324": 0.404851496219635,
            "325": 0.3401802182197571,
            "326": 0.2591093182563782,
            "327": 0.33102643489837646,
            "328": 0.3495955169200897,
            "329": 0.26209476590156555,
            "330": -0.17651471495628357,
            "331": 0.2982746958732605,
            "332": -0.5863752961158752,
            "333": -0.3392373025417328,
            "334": 0.2648080587387085,
            "335": -0.25605592131614685,
            "336": 0.25276803970336914,
            "337": -0.3060758113861084,
            "338": 0.28016993403434753,
            "339": -0.3514905273914337,
            "340": 0.30230414867401123,
            "341": 0.26740333437919617,
            "342": 0.2944650650024414,
            "343": 0.20628145337104797,
            "344": 0.23061423003673553,
            "345": 0.3679869771003723,
            "346": 0.3531818091869354,
            "347": 0.35130518674850464,
            "348": 0.3730189800262451,
            "349": 0.3102974593639374,
            "350": -0.271493136882782,
            "351": 0.30057236552238464,
            "352": -0.9867076873779297,
            "353": -0.3445606231689453,
            "354": 0.4174885153770447,
            "355": -0.3938693702220917,
            "356": 0.2778037190437317,
            "357": -0.3391152024269104,
            "358": 0.41348162293434143,
            "359": -0.3801090121269226,
            "360": -0.3676868975162506,
            "361": -0.3423518240451813,
            "362": -0.30818477272987366,
            "363": -0.28886517882347107,
            "364": -0.06460399180650711,
            "365": -0.29898902773857117,
            "366": -0.31255000829696655,
            "367": -0.3004288971424103,
            "368": -0.4222770631313324,
            "369": -0.32242536544799805,
            "370": 0.5563191175460815,
            "371": -0.35171782970428467,
            "372": 0.6545058488845825,
            "373": 0.3712930381298065,
            "374": -0.43296748399734497,
            "375": 0.4122799336910248,
            "376": -0.28346002101898193,
            "377": 0.42561277747154236,
            "378": -0.3090191185474396,
            "379": 0.249749556183815,
            "380": 0.3027215898036957,
            "381": 0.2481277585029602,
            "382": 0.24644368886947632,
            "383": 0.28051573038101196,
            "384": 0.2500358819961548,
            "385": 0.3280516266822815,
            "386": 0.38272833824157715,
            "387": 0.3296622931957245,
            "388": 0.3879019618034363,
            "389": 0.29584506154060364,
            "390": -0.304710328578949,
            "391": 0.3538532257080078,
            "392": -0.6487560272216797,
            "393": -0.30096927285194397,
            "394": 0.4415539503097534,
            "395": -0.37596726417541504,
            "396": 0.28077802062034607,
            "397": -0.3892567753791809,
            "398": 0.28759878873825073,
            "399": -0.32714441418647766
          }
        },
        "inputBias": {
          "rows": 20,
          "columns": 1,
          "weights": {
            "0": 0.5101933479309082,
            "1": -0.599609375,
            "2": 0.1026323139667511,
            "3": -0.4058225452899933,
            "4": 1.3091129064559937,
            "5": -0.2922835946083069,
            "6": -0.22480154037475586,
            "7": -0.2620805501937866,
            "8": 0.7701917886734009,
            "9": -0.3231157660484314,
            "10": 1.04585862159729,
            "11": -0.13019569218158722,
            "12": 0.4630667567253113,
            "13": -0.25222495198249817,
            "14": 0.14078988134860992,
            "15": -0.1674697995185852,
            "16": -0.30643898248672485,
            "17": -0.20080982148647308,
            "18": 0.002522773575037718,
            "19": -0.3067721724510193
          }
        },
        "forgetMatrix": {
          "rows": 20,
          "columns": 18,
          "weights": {
            "0": -0.10876418650150299,
            "1": 0.012849778868258,
            "2": -0.6808484196662903,
            "3": 0.39326027035713196,
            "4": 0.25318020582199097,
            "5": 0.1765880286693573,
            "6": 0.18033334612846375,
            "7": -0.468535840511322,
            "8": -0.25021180510520935,
            "9": -0.0854443609714508,
            "10": -0.2491137832403183,
            "11": 0.18165940046310425,
            "12": -0.15316537022590637,
            "13": -0.037043243646621704,
            "14": 0.25056108832359314,
            "15": -1.3092222213745117,
            "16": 0.17578855156898499,
            "17": -0.12325464934110641,
            "18": 0.20500098168849945,
            "19": -0.2634936571121216,
            "20": 0.6278342604637146,
            "21": -0.379180371761322,
            "22": -0.3497292101383209,
            "23": -0.3452838063240051,
            "24": -0.31715869903564453,
            "25": 0.3713502287864685,
            "26": 0.28172624111175537,
            "27": 0.35863611102104187,
            "28": 0.2775614857673645,
            "29": 0.3554900586605072,
            "30": 0.3339897096157074,
            "31": 0.2810162901878357,
            "32": 0.32511401176452637,
            "33": 0.3306925892829895,
            "34": -0.35059383511543274,
            "35": 0.30406859517097473,
            "36": 0.48266932368278503,
            "37": -0.3682437539100647,
            "38": -0.5726302862167358,
            "39": -0.04069219157099724,
            "40": -0.6499936580657959,
            "41": -0.15702836215496063,
            "42": -0.186410591006279,
            "43": 0.5453834533691406,
            "44": 0.18366985023021698,
            "45": 0.2811526358127594,
            "46": 0.286551296710968,
            "47": 0.15964877605438232,
            "48": 0.20807793736457825,
            "49": 0.5490882396697998,
            "50": 0.1569041609764099,
            "51": 0.5807164311408997,
            "52": -0.5850708484649658,
            "53": 0.6094105839729309,
            "54": 0.35685285925865173,
            "55": -0.3796667158603668,
            "56": -0.8674505949020386,
            "57": -0.3065774440765381,
            "58": -0.46494391560554504,
            "59": -0.24314989149570465,
            "60": -0.2449757158756256,
            "61": 0.39561688899993896,
            "62": 0.21287766098976135,
            "63": 0.2716166079044342,
            "64": 0.27622076869010925,
            "65": 0.27170661091804504,
            "66": 0.3270527720451355,
            "67": 0.39939427375793457,
            "68": 0.35061997175216675,
            "69": 0.3854863941669464,
            "70": -0.4231989085674286,
            "71": 0.4549706280231476,
            "72": 0.6308718919754028,
            "73": -0.36920517683029175,
            "74": -0.5328325629234314,
            "75": -0.22676880657672882,
            "76": -0.5335860252380371,
            "77": -0.21554474532604218,
            "78": -0.19452419877052307,
            "79": 0.566750705242157,
            "80": 0.29007551074028015,
            "81": 0.3315349519252777,
            "82": 0.24062342941761017,
            "83": -0.3096178472042084,
            "84": 0.32980093359947205,
            "85": 0.521904706954956,
            "86": 0.19979920983314514,
            "87": 0.5881446003913879,
            "88": -0.5043873190879822,
            "89": 0.4590119421482086,
            "90": 0.26132673025131226,
            "91": -0.3683619499206543,
            "92": 1.2438920736312866,
            "93": -0.416572630405426,
            "94": -0.25641772150993347,
            "95": -0.3520609140396118,
            "96": -0.26046764850616455,
            "97": 0.3404323160648346,
            "98": 0.3646959662437439,
            "99": 0.26701804995536804,
            "100": 0.3233441710472107,
            "101": 0.38166797161102295,
            "102": 0.328319787979126,
            "103": 0.19373349845409393,
            "104": 0.3163166046142578,
            "105": 0.21222850680351257,
            "106": -0.2751224935054779,
            "107": 0.2945975959300995,
            "108": 0.32801011204719543,
            "109": -0.2518972158432007,
            "110": 0.9633241295814514,
            "111": -0.27536723017692566,
            "112": -0.2934657633304596,
            "113": -0.46073970198631287,
            "114": -0.2767123878002167,
            "115": 0.3057177662849426,
            "116": 0.29685962200164795,
            "117": 0.31271058320999146,
            "118": 0.3363685607910156,
            "119": 0.4106670320034027,
            "120": 0.28230032324790955,
            "121": 0.307824969291687,
            "122": 0.3688308596611023,
            "123": 0.2331857681274414,
            "124": -0.26092907786369324,
            "125": 0.2504188120365143,
            "126": 0.29543381929397583,
            "127": -0.23977944254875183,
            "128": 0.8430649042129517,
            "129": -0.4465307891368866,
            "130": -0.09707187861204147,
            "131": -0.4854295253753662,
            "132": -0.3139438033103943,
            "133": 0.24539566040039062,
            "134": 0.31408238410949707,
            "135": 0.35143789649009705,
            "136": 0.38444963097572327,
            "137": 0.3542538285255432,
            "138": 0.425932914018631,
            "139": 0.2911292314529419,
            "140": 0.4373524785041809,
            "141": 0.33172449469566345,
            "142": -0.2529706060886383,
            "143": 0.20756450295448303,
            "144": -0.15915028750896454,
            "145": -0.051464322954416275,
            "146": -0.5762834548950195,
            "147": 0.588477611541748,
            "148": 0.3084109425544739,
            "149": 0.34746643900871277,
            "150": 0.25436848402023315,
            "151": -0.5461758971214294,
            "152": -0.28246763348579407,
            "153": 0.02711958810687065,
            "154": -0.2878666818141937,
            "155": 0.26254260540008545,
            "156": -0.23611409962177277,
            "157": -0.1508253961801529,
            "158": 0.39368802309036255,
            "159": -1.4322422742843628,
            "160": 0.28120118379592896,
            "161": -0.33941173553466797,
            "162": -0.1784251630306244,
            "163": -0.0665677934885025,
            "164": -0.5192981958389282,
            "165": 0.3809257447719574,
            "166": 0.1074739545583725,
            "167": 0.19020715355873108,
            "168": 0.2685970664024353,
            "169": -0.4460766911506653,
            "170": -0.1624673753976822,
            "171": -0.024572933092713356,
            "172": -0.17349837720394135,
            "173": 0.33315545320510864,
            "174": -0.1946372389793396,
            "175": -0.0636042058467865,
            "176": 0.2059791535139084,
            "177": -1.120786190032959,
            "178": 0.15709741413593292,
            "179": -0.17553479969501495,
            "180": -0.4414348304271698,
            "181": -0.17241846024990082,
            "182": -0.5276318788528442,
            "183": 0.43244609236717224,
            "184": -0.23634591698646545,
            "185": 0.17142818868160248,
            "186": 0.18251508474349976,
            "187": -0.5537155270576477,
            "188": -0.12638218700885773,
            "189": 0.015118267387151718,
            "190": -0.13278746604919434,
            "191": 0.4952217638492584,
            "192": -0.09376869350671768,
            "193": -0.12118498980998993,
            "194": 0.661699652671814,
            "195": -0.7446108460426331,
            "196": 0.23034152388572693,
            "197": -0.21976830065250397,
            "198": -0.15173101425170898,
            "199": 0.035715747624635696,
            "200": -0.69883131980896,
            "201": 0.4664379954338074,
            "202": -0.05075386166572571,
            "203": 0.32411956787109375,
            "204": 0.3174854516983032,
            "205": -0.4960121810436249,
            "206": -0.3635614514350891,
            "207": -0.1713658720254898,
            "208": -0.2954564094543457,
            "209": 0.3439929783344269,
            "210": -0.27145683765411377,
            "211": 0.15235310792922974,
            "212": 0.16438519954681396,
            "213": -1.0815062522888184,
            "214": 0.09195475280284882,
            "215": -0.2310730218887329,
            "216": 0.9252351522445679,
            "217": 0.4275282621383667,
            "218": -0.2192559838294983,
            "219": 0.03277132287621498,
            "220": 0.9661704897880554,
            "221": -0.01327813696116209,
            "222": -0.009715930558741093,
            "223": -0.38335585594177246,
            "224": -0.3524360656738281,
            "225": -0.4967978894710541,
            "226": -0.012478185817599297,
            "227": -0.40559449791908264,
            "228": 0.027841437608003616,
            "229": 0.4329046607017517,
            "230": -1.071236252784729,
            "231": -0.3481595814228058,
            "232": 0.6480892300605774,
            "233": -0.8529139757156372,
            "234": 0.33165422081947327,
            "235": -0.22401666641235352,
            "236": 1.3449684381484985,
            "237": -0.420720636844635,
            "238": -0.14655421674251556,
            "239": -0.42289572954177856,
            "240": -0.31167033314704895,
            "241": 0.2823750376701355,
            "242": 0.3116616904735565,
            "243": 0.2511298358440399,
            "244": 0.3602921962738037,
            "245": 0.33666902780532837,
            "246": 0.37222519516944885,
            "247": 0.18188874423503876,
            "248": 0.374967098236084,
            "249": 0.32300013303756714,
            "250": -0.28897494077682495,
            "251": 0.2528461515903473,
            "252": -0.13072769343852997,
            "253": 0.04555826634168625,
            "254": -0.44975700974464417,
            "255": 0.37838441133499146,
            "256": -0.06474991142749786,
            "257": 0.20664004981517792,
            "258": 0.14436253905296326,
            "259": -0.41503429412841797,
            "260": -0.17265674471855164,
            "261": -0.11385414749383926,
            "262": -0.22221635282039642,
            "263": 0.37163230776786804,
            "264": -0.14244423806667328,
            "265": 0.17991416156291962,
            "266": 0.2456084042787552,
            "267": -1.2188364267349243,
            "268": 0.04646998271346092,
            "269": -0.10658419877290726,
            "270": -0.22415287792682648,
            "271": 0.10437287390232086,
            "272": -0.322597473859787,
            "273": 0.44679945707321167,
            "274": -0.06427954137325287,
            "275": 0.1657657027244568,
            "276": 0.23484870791435242,
            "277": -0.3681356608867645,
            "278": -0.25455719232559204,
            "279": 0.011084799654781818,
            "280": -0.13309764862060547,
            "281": 0.536963701248169,
            "282": -0.1905984878540039,
            "283": 0.025760319083929062,
            "284": 0.18210230767726898,
            "285": -1.1435121297836304,
            "286": 0.1102328673005104,
            "287": -0.10103774070739746,
            "288": 0.4556010067462921,
            "289": -0.2481202930212021,
            "290": -1.327356219291687,
            "291": -0.21575915813446045,
            "292": -0.5496435761451721,
            "293": -0.16845248639583588,
            "294": -0.28362786769866943,
            "295": 0.3668319284915924,
            "296": 0.31844550371170044,
            "297": 0.2302662879228592,
            "298": 0.23494870960712433,
            "299": 0.12831366062164307,
            "300": 0.34039002656936646,
            "301": 0.5086454153060913,
            "302": 0.15088233351707458,
            "303": 0.3592565357685089,
            "304": -0.44445812702178955,
            "305": 0.44620439410209656,
            "306": 0.17409247159957886,
            "307": -0.22873805463314056,
            "308": 1.0037041902542114,
            "309": -0.426178514957428,
            "310": -0.16017574071884155,
            "311": -0.4113472104072571,
            "312": -0.3748643398284912,
            "313": 0.22050300240516663,
            "314": 0.4142283797264099,
            "315": 0.2868107855319977,
            "316": 0.29980480670928955,
            "317": 0.44901013374328613,
            "318": 0.3597613275051117,
            "319": 0.24169640243053436,
            "320": 0.31512585282325745,
            "321": 0.27271080017089844,
            "322": -0.15514987707138062,
            "323": 0.24045369029045105,
            "324": -0.04373854026198387,
            "325": 0.05553009361028671,
            "326": 0.016491498798131943,
            "327": 0.4266141653060913,
            "328": -0.07983410358428955,
            "329": 0.2040570080280304,
            "330": 0.21495454013347626,
            "331": -0.3864911198616028,
            "332": -0.2360851764678955,
            "333": -0.04109402373433113,
            "334": -0.23706577718257904,
            "335": 0.4540243446826935,
            "336": -0.09903489798307419,
            "337": 0.1129160076379776,
            "338": 0.21927058696746826,
            "339": -1.1265777349472046,
            "340": 0.14123840630054474,
            "341": -0.025443879887461662,
            "342": 0.248043492436409,
            "343": -0.3625222444534302,
            "344": 0.8652273416519165,
            "345": -0.3270180821418762,
            "346": -0.2661024034023285,
            "347": -0.322261244058609,
            "348": -0.3173789978027344,
            "349": 0.23751091957092285,
            "350": 0.39649713039398193,
            "351": 0.35651683807373047,
            "352": 0.23795762658119202,
            "353": 0.3798049986362457,
            "354": 0.342791348695755,
            "355": 0.255901038646698,
            "356": 0.2827819883823395,
            "357": 0.3509613871574402,
            "358": -0.18279053270816803,
            "359": 0.21871206164360046
          }
        },
        "forgetHidden": {
          "rows": 20,
          "columns": 20,
          "weights": {
            "0": -0.5357987880706787,
            "1": -0.22927334904670715,
            "2": -0.2532114088535309,
            "3": -0.36431971192359924,
            "4": 0.0994366854429245,
            "5": -0.33929017186164856,
            "6": -0.3394048511981964,
            "7": -0.31298643350601196,
            "8": -0.7176503539085388,
            "9": -0.5389425158500671,
            "10": 0.6847631335258484,
            "11": -0.8233567476272583,
            "12": -0.20002630352973938,
            "13": 0.31994158029556274,
            "14": -0.6502054929733276,
            "15": 0.5498209595680237,
            "16": -0.30664798617362976,
            "17": 0.2890578508377075,
            "18": -0.6710346341133118,
            "19": 0.26811686158180237,
            "20": 0.37121593952178955,
            "21": 0.2861064076423645,
            "22": 0.37273746728897095,
            "23": 0.24675840139389038,
            "24": 0.4703748822212219,
            "25": 0.36699312925338745,
            "26": 0.3556083142757416,
            "27": 0.3239730894565582,
            "28": 0.18190214037895203,
            "29": 0.28525590896606445,
            "30": -0.3503383696079254,
            "31": 0.40134209394454956,
            "32": 0.19811367988586426,
            "33": -0.4107245206832886,
            "34": 0.3307918608188629,
            "35": -0.3640238344669342,
            "36": 0.3497295081615448,
            "37": -0.34828853607177734,
            "38": 0.2908552289009094,
            "39": -0.41751590371131897,
            "40": 0.25577548146247864,
            "41": 0.3066313564777374,
            "42": 0.5719402432441711,
            "43": 0.4222397208213806,
            "44": 0.7563056945800781,
            "45": 0.22448311746120453,
            "46": 0.19377407431602478,
            "47": 0.2559341788291931,
            "48": 0.2852461040019989,
            "49": 0.35273870825767517,
            "50": -0.4056791663169861,
            "51": 0.2760966122150421,
            "52": 0.9531974196434021,
            "53": -0.18605707585811615,
            "54": 0.26931846141815186,
            "55": -0.262484073638916,
            "56": 0.3659026622772217,
            "57": -0.22768212854862213,
            "58": 0.2825147807598114,
            "59": -0.18057292699813843,
            "60": 0.3807528018951416,
            "61": 0.3194418251514435,
            "62": 0.36493220925331116,
            "63": 0.3057798445224762,
            "64": 0.4072100818157196,
            "65": 0.29266127943992615,
            "66": 0.3480357825756073,
            "67": 0.33891552686691284,
            "68": 0.32860058546066284,
            "69": 0.3883802592754364,
            "70": -0.28827381134033203,
            "71": 0.36237406730651855,
            "72": 0.6513455510139465,
            "73": -0.36633604764938354,
            "74": 0.3663486838340759,
            "75": -0.2556290030479431,
            "76": 0.2945517897605896,
            "77": -0.2270103096961975,
            "78": 0.24643497169017792,
            "79": -0.23446397483348846,
            "80": -0.15554951131343842,
            "81": 0.31099748611450195,
            "82": 0.637811541557312,
            "83": 0.533234715461731,
            "84": 0.25692206621170044,
            "85": 0.2619837522506714,
            "86": -0.6272052526473999,
            "87": 0.25353696942329407,
            "88": -0.24092133343219757,
            "89": 0.49994662404060364,
            "90": 0.1227293387055397,
            "91": 0.5946393609046936,
            "92": -0.10287543386220932,
            "93": -0.17173875868320465,
            "94": 0.50751131772995,
            "95": -0.6206088662147522,
            "96": 0.47001299262046814,
            "97": -0.1792355179786682,
            "98": 0.5142701864242554,
            "99": -0.18086770176887512,
            "100": 0.3783167600631714,
            "101": 0.34007781744003296,
            "102": 0.2944224178791046,
            "103": 0.3282616138458252,
            "104": 0.10088992863893509,
            "105": 0.41122302412986755,
            "106": 0.30096307396888733,
            "107": 0.38665732741355896,
            "108": 0.29111984372138977,
            "109": 0.32403016090393066,
            "110": -0.28824344277381897,
            "111": 0.24454648792743683,
            "112": 0.07898535579442978,
            "113": -0.34528133273124695,
            "114": 0.30071526765823364,
            "115": -0.36436396837234497,
            "116": 0.3131175935268402,
            "117": -0.40919029712677,
            "118": 0.3413805067539215,
            "119": -0.40914735198020935,
            "120": 0.2708284258842468,
            "121": 0.39083337783813477,
            "122": 0.3329225778579712,
            "123": 0.28237566351890564,
            "124": -0.9561976194381714,
            "125": 0.32148560881614685,
            "126": 0.348297655582428,
            "127": 0.34900569915771484,
            "128": 0.2525670528411865,
            "129": 0.2962547838687897,
            "130": -0.2523473799228668,
            "131": 0.3854975998401642,
            "132": 0.22303396463394165,
            "133": -0.4036674201488495,
            "134": 0.32681989669799805,
            "135": -0.24747583270072937,
            "136": 0.25781670212745667,
            "137": -0.2893531024456024,
            "138": 0.35142695903778076,
            "139": -0.31115221977233887,
            "140": 0.3038272559642792,
            "141": 0.38883283734321594,
            "142": 0.29946452379226685,
            "143": 0.343142569065094,
            "144": 0.08709517866373062,
            "145": 0.3487151861190796,
            "146": 0.28285372257232666,
            "147": 0.4215943217277527,
            "148": 0.2577980160713196,
            "149": 0.3437596261501312,
            "150": -0.3376361131668091,
            "151": 0.30619436502456665,
            "152": 0.00003684836337924935,
            "153": -0.3089630901813507,
            "154": 0.3184290826320648,
            "155": -0.333541601896286,
            "156": 0.2040005475282669,
            "157": -0.4354647397994995,
            "158": 0.35107824206352234,
            "159": -0.40545764565467834,
            "160": -0.6490760445594788,
            "161": -0.36948686838150024,
            "162": -0.30183327198028564,
            "163": -0.2738349437713623,
            "164": 0.6167038679122925,
            "165": -0.354150652885437,
            "166": -0.30188214778900146,
            "167": -0.37045857310295105,
            "168": -0.7214598655700684,
            "169": -0.565198540687561,
            "170": 0.797238826751709,
            "171": -0.8791988492012024,
            "172": -0.24572233855724335,
            "173": 0.24432536959648132,
            "174": -0.5523166656494141,
            "175": 0.6743482947349548,
            "176": -0.3019867241382599,
            "177": 0.23335181176662445,
            "178": -0.7086280584335327,
            "179": 0.32931438088417053,
            "180": -0.6653391718864441,
            "181": -0.38684606552124023,
            "182": -0.2476440817117691,
            "183": -0.3177024722099304,
            "184": 0.08874930441379547,
            "185": -0.312054306268692,
            "186": -0.3849465548992157,
            "187": -0.3690480887889862,
            "188": -0.6949432492256165,
            "189": -0.48264071345329285,
            "190": 0.9291841387748718,
            "191": -0.8041155934333801,
            "192": -0.02322198450565338,
            "193": 0.3623007833957672,
            "194": -0.5942978262901306,
            "195": 0.6705548167228699,
            "196": -0.36487698554992676,
            "197": 0.26970356702804565,
            "198": -0.6769645810127258,
            "199": 0.314263254404068,
            "200": -0.5289058089256287,
            "201": -0.284726619720459,
            "202": -0.18768472969532013,
            "203": -0.18624521791934967,
            "204": 0.055522371083498,
            "205": -0.3787795305252075,
            "206": -0.35746344923973083,
            "207": -0.34129995107650757,
            "208": -0.7233772277832031,
            "209": -0.7200568318367004,
            "210": 0.5587682723999023,
            "211": -0.5070361495018005,
            "212": 0.04477342963218689,
            "213": 0.33687034249305725,
            "214": -0.8388139605522156,
            "215": 0.9082658290863037,
            "216": -0.3179730176925659,
            "217": 0.38368451595306396,
            "218": -0.765421450138092,
            "219": 0.238311305642128,
            "220": -0.6136922240257263,
            "221": -0.3264436721801758,
            "222": -0.13567224144935608,
            "223": -0.3510837256908417,
            "224": -0.03958967700600624,
            "225": -0.2860157787799835,
            "226": -0.3306959271430969,
            "227": -0.32177674770355225,
            "228": -0.6766347885131836,
            "229": -0.6017197966575623,
            "230": 0.48642024397850037,
            "231": -0.6207591891288757,
            "232": 0.5794861912727356,
            "233": 0.2532062530517578,
            "234": -0.5412107110023499,
            "235": 0.5477603077888489,
            "236": -0.22184011340141296,
            "237": 0.2575642466545105,
            "238": -0.5644963979721069,
            "239": 0.2614590525627136,
            "240": 0.5069117546081543,
            "241": 0.21354153752326965,
            "242": 0.6191762089729309,
            "243": 0.7215049266815186,
            "244": -0.4198242127895355,
            "245": 0.04411550611257553,
            "246": 0.20136971771717072,
            "247": 0.0714632049202919,
            "248": 0.7935822010040283,
            "249": 0.4080246090888977,
            "250": -0.7469346523284912,
            "251": 0.4420618414878845,
            "252": 0.4164976477622986,
            "253": -0.08014717698097229,
            "254": 0.792688250541687,
            "255": -0.8317620754241943,
            "256": 0.25882723927497864,
            "257": -0.10303442925214767,
            "258": 0.718414306640625,
            "259": -0.0335390605032444,
            "260": 0.35316553711891174,
            "261": 0.37440693378448486,
            "262": 0.30346885323524475,
            "263": 0.26306870579719543,
            "264": 0.2276672124862671,
            "265": 0.3030431270599365,
            "266": 0.38750648498535156,
            "267": 0.27740103006362915,
            "268": 0.2787383198738098,
            "269": 0.30069223046302795,
            "270": -0.3191355764865875,
            "271": 0.3275406062602997,
            "272": 0.04881346598267555,
            "273": -0.25468695163726807,
            "274": 0.24945659935474396,
            "275": -0.2743515372276306,
            "276": 0.2537618577480316,
            "277": -0.2878849506378174,
            "278": 0.2467006891965866,
            "279": -0.3866156041622162,
            "280": -0.6406723856925964,
            "281": -0.33450406789779663,
            "282": -0.26171115040779114,
            "283": -0.32730481028556824,
            "284": 0.09852568805217743,
            "285": -0.2998959422111511,
            "286": -0.34317296743392944,
            "287": -0.29831263422966003,
            "288": -0.6325109004974365,
            "289": -0.3333430886268616,
            "290": 1.189640998840332,
            "291": -0.8904982805252075,
            "292": 0.0013448854442685843,
            "293": 0.3217869699001312,
            "294": -0.4745326638221741,
            "295": 0.42681223154067993,
            "296": -0.2994762659072876,
            "297": 0.3045167624950409,
            "298": -0.43768036365509033,
            "299": 0.2598228454589844,
            "300": -0.7460111975669861,
            "301": -0.2353428304195404,
            "302": -0.2358425259590149,
            "303": -0.30631399154663086,
            "304": -0.026577051728963852,
            "305": -0.2414625883102417,
            "306": -0.34729236364364624,
            "307": -0.3274344205856323,
            "308": -0.6993915438652039,
            "309": -0.5033671855926514,
            "310": 0.929076611995697,
            "311": -0.8549907207489014,
            "312": 0.13515706360340118,
            "313": 0.26908260583877563,
            "314": -0.6068511605262756,
            "315": 0.6290150880813599,
            "316": -0.3129083514213562,
            "317": 0.27278104424476624,
            "318": -0.5054727792739868,
            "319": 0.33922046422958374,
            "320": 0.28071117401123047,
            "321": 0.26100027561187744,
            "322": 0.4401531219482422,
            "323": 0.3745420575141907,
            "324": 0.448550283908844,
            "325": 0.27397167682647705,
            "326": 0.24694794416427612,
            "327": 0.16782985627651215,
            "328": 0.20679399371147156,
            "329": 0.3319490849971771,
            "330": -0.26202765107154846,
            "331": 0.38540175557136536,
            "332": 0.14204469323158264,
            "333": -0.24853520095348358,
            "334": 0.27703264355659485,
            "335": -0.37185126543045044,
            "336": 0.33907994627952576,
            "337": -0.28678756952285767,
            "338": 0.2852265238761902,
            "339": -0.2642393410205841,
            "340": 0.26515138149261475,
            "341": 0.3188949525356293,
            "342": 0.17034311592578888,
            "343": 0.18841500580310822,
            "344": 0.14764758944511414,
            "345": 0.38665875792503357,
            "346": 0.35439807176589966,
            "347": 0.43338271975517273,
            "348": 0.28263944387435913,
            "349": 0.3208219110965729,
            "350": -0.31413137912750244,
            "351": 0.24114979803562164,
            "352": -0.22134315967559814,
            "353": -0.3616742789745331,
            "354": 0.30220600962638855,
            "355": -0.3143257200717926,
            "356": 0.2927519977092743,
            "357": -0.39314597845077515,
            "358": 0.3486020267009735,
            "359": -0.36894509196281433,
            "360": -0.7697605490684509,
            "361": -0.3310564160346985,
            "362": -0.36842450499534607,
            "363": -0.32082149386405945,
            "364": 0.02276432514190674,
            "365": -0.3113132417201996,
            "366": -0.37415561079978943,
            "367": -0.38399162888526917,
            "368": -0.8303988575935364,
            "369": -0.3842986822128296,
            "370": 1.3080940246582031,
            "371": -0.8284108638763428,
            "372": 0.5506227612495422,
            "373": 0.28632959723472595,
            "374": -0.6072167754173279,
            "375": 0.4827579855918884,
            "376": -0.26827099919319153,
            "377": 0.252096027135849,
            "378": -0.5460275411605835,
            "379": 0.24587146937847137,
            "380": 0.2925812005996704,
            "381": 0.31514450907707214,
            "382": 0.22339050471782684,
            "383": 0.34094205498695374,
            "384": 0.2531888782978058,
            "385": 0.29380786418914795,
            "386": 0.2954622805118561,
            "387": 0.32026588916778564,
            "388": 0.2518611550331116,
            "389": 0.26651158928871155,
            "390": -0.3395533561706543,
            "391": 0.37518376111984253,
            "392": 0.11415841430425644,
            "393": -0.37131842970848083,
            "394": 0.29728394746780396,
            "395": -0.3325003981590271,
            "396": 0.22922225296497345,
            "397": -0.3226684331893921,
            "398": 0.3319278061389923,
            "399": -0.37284812331199646
          }
        },
        "forgetBias": {
          "rows": 20,
          "columns": 1,
          "weights": {
            "0": 0,
            "1": 0,
            "2": 0,
            "3": 0,
            "4": 0,
            "5": 0,
            "6": 0,
            "7": 0,
            "8": 0,
            "9": 0,
            "10": 0,
            "11": 0,
            "12": 0,
            "13": 0,
            "14": 0,
            "15": 0,
            "16": 0,
            "17": 0,
            "18": 0,
            "19": 0
          }
        },
        "outputMatrix": {
          "rows": 20,
          "columns": 18,
          "weights": {
            "0": -0.3682549297809601,
            "1": 0.2903751730918884,
            "2": -0.3003569543361664,
            "3": 0.30931031703948975,
            "4": 0.295193612575531,
            "5": 0.29073262214660645,
            "6": 0.3449787199497223,
            "7": -0.38865453004837036,
            "8": -0.31177473068237305,
            "9": -0.30254486203193665,
            "10": -0.289267361164093,
            "11": -0.38947197794914246,
            "12": -0.31197553873062134,
            "13": -0.5450238585472107,
            "14": -0.5058204531669617,
            "15": -0.20840905606746674,
            "16": 0.342968612909317,
            "17": -0.5310406684875488,
            "18": 0.3161046504974365,
            "19": -0.30413806438446045,
            "20": 0.683141827583313,
            "21": -0.34105950593948364,
            "22": -0.1683131754398346,
            "23": -0.3277101218700409,
            "24": -0.3276030421257019,
            "25": 0.2941645681858063,
            "26": 0.3986509442329407,
            "27": 0.38385283946990967,
            "28": 0.24009032547473907,
            "29": 0.2585873305797577,
            "30": 0.34122031927108765,
            "31": 0.25681373476982117,
            "32": 0.3058294951915741,
            "33": 0.3229006230831146,
            "34": -0.1842219978570938,
            "35": 0.2894226610660553,
            "36": 0.2674338221549988,
            "37": -0.3871241509914398,
            "38": 0.32869043946266174,
            "39": -0.2766536772251129,
            "40": -0.5476206541061401,
            "41": -0.31997302174568176,
            "42": -0.2671196758747101,
            "43": 0.34114697575569153,
            "44": 0.34029439091682434,
            "45": 0.2960960268974304,
            "46": 0.21798987686634064,
            "47": 0.3151848018169403,
            "48": 0.35378628969192505,
            "49": 0.343936026096344,
            "50": 0.3528675138950348,
            "51": 0.26942160725593567,
            "52": -0.46240583062171936,
            "53": 0.4323340356349945,
            "54": 0.3662916123867035,
            "55": -0.29174095392227173,
            "56": 0.46602439880371094,
            "57": -0.3623791038990021,
            "58": -0.455698162317276,
            "59": -0.31766247749328613,
            "60": -0.32120516896247864,
            "61": 0.3485715389251709,
            "62": 0.3728679418563843,
            "63": 0.27005457878112793,
            "64": 0.23786087334156036,
            "65": 0.3594130575656891,
            "66": 0.25895583629608154,
            "67": 0.2622286081314087,
            "68": 0.3596765697002411,
            "69": 0.26103606820106506,
            "70": -0.3233811557292938,
            "71": 0.32395055890083313,
            "72": 0.736895740032196,
            "73": -0.4128994345664978,
            "74": -0.7645647525787354,
            "75": 0.6097850203514099,
            "76": -0.6741786599159241,
            "77": 0.4724007248878479,
            "78": 0.48032325506210327,
            "79": -0.14841797947883606,
            "80": -0.4295913279056549,
            "81": -0.27154484391212463,
            "82": -0.5718782544136047,
            "83": 0.2280142456293106,
            "84": -0.443745493888855,
            "85": 0.5594842433929443,
            "86": 0.2745688259601593,
            "87": -0.23601165413856506,
            "88": -0.5966444611549377,
            "89": 0.6001434922218323,
            "90": 0.2884499430656433,
            "91": -0.2389756143093109,
            "92": 0.5938919186592102,
            "93": -0.34460362792015076,
            "94": 0.0018710156437009573,
            "95": -0.2975989878177643,
            "96": -0.2233479768037796,
            "97": 0.23722544312477112,
            "98": 0.3895849585533142,
            "99": 0.24448786675930023,
            "100": 0.23601920902729034,
            "101": 0.38069140911102295,
            "102": 0.23934242129325867,
            "103": 0.30207598209381104,
            "104": 0.43327590823173523,
            "105": 0.2608862519264221,
            "106": -0.15208320319652557,
            "107": 0.2834498882293701,
            "108": 0.33336466550827026,
            "109": -0.3304210603237152,
            "110": 0.5082072615623474,
            "111": -0.2541448771953583,
            "112": -0.07374761998653412,
            "113": -0.25571826100349426,
            "114": -0.2547778785228729,
            "115": 0.2685111165046692,
            "116": 0.290223091840744,
            "117": 0.25564461946487427,
            "118": 0.20404259860515594,
            "119": 0.43397265672683716,
            "120": 0.18070411682128906,
            "121": 0.31899067759513855,
            "122": 0.3453962206840515,
            "123": 0.2585133910179138,
            "124": -0.14691080152988434,
            "125": 0.28664112091064453,
            "126": 0.3444570302963257,
            "127": -0.19445069134235382,
            "128": 0.6362407207489014,
            "129": -0.2908296287059784,
            "130": -0.11679387837648392,
            "131": -0.314581960439682,
            "132": -0.3329339623451233,
            "133": 0.2615080773830414,
            "134": 0.23488737642765045,
            "135": 0.3405667841434479,
            "136": 0.2357044667005539,
            "137": 0.48068538308143616,
            "138": 0.3122154474258423,
            "139": 0.3047045171260834,
            "140": 0.4220966398715973,
            "141": 0.18445900082588196,
            "142": -0.2837623953819275,
            "143": 0.3157466650009155,
            "144": -0.3733211159706116,
            "145": 0.21112340688705444,
            "146": -0.20259961485862732,
            "147": 0.061485450714826584,
            "148": 0.9833229780197144,
            "149": 0.0920870378613472,
            "150": 0.27809736132621765,
            "151": -0.3047388195991516,
            "152": -0.08456116914749146,
            "153": -0.15546821057796478,
            "154": -0.2171512097120285,
            "155": -0.5657433271408081,
            "156": -0.20826655626296997,
            "157": -0.5802304744720459,
            "158": -0.38565677404403687,
            "159": -0.2948402762413025,
            "160": 0.5258018970489502,
            "161": -0.7544424533843994,
            "162": -0.3726245164871216,
            "163": 0.39597731828689575,
            "164": -0.49799060821533203,
            "165": 0.4178473651409149,
            "166": 0.5025179982185364,
            "167": 0.43094468116760254,
            "168": 0.41906043887138367,
            "169": -0.47794926166534424,
            "170": -0.3560023903846741,
            "171": -0.36431220173835754,
            "172": -0.44676312804222107,
            "173": -0.3219132423400879,
            "174": -0.485493928194046,
            "175": -0.3445557653903961,
            "176": -0.4045250415802002,
            "177": -0.3798038065433502,
            "178": 0.43430110812187195,
            "179": -0.5516231060028076,
            "180": -0.25984030961990356,
            "181": 0.21490561962127686,
            "182": -0.7139846086502075,
            "183": 0.182752788066864,
            "184": -0.2506842613220215,
            "185": 0.22021852433681488,
            "186": 0.360973060131073,
            "187": -0.4577995836734772,
            "188": -0.21287521719932556,
            "189": -0.25361335277557373,
            "190": -0.3633483052253723,
            "191": -0.25116628408432007,
            "192": -0.28327757120132446,
            "193": -0.3893044888973236,
            "194": -0.04506705328822136,
            "195": -0.4499698877334595,
            "196": 0.3213290870189667,
            "197": -0.5367275476455688,
            "198": -0.172416090965271,
            "199": 0.0899956151843071,
            "200": -0.24547307193279266,
            "201": 0.3995097875595093,
            "202": 0.08904974907636642,
            "203": 0.34024107456207275,
            "204": 0.24360445141792297,
            "205": -0.30994725227355957,
            "206": -0.2753008008003235,
            "207": -0.1778559684753418,
            "208": -0.23052239418029785,
            "209": -0.10089078545570374,
            "210": -0.25566723942756653,
            "211": -0.04839694872498512,
            "212": -0.21339599788188934,
            "213": -0.6450174450874329,
            "214": 0.05672728270292282,
            "215": -0.18045073747634888,
            "216": 1.639518141746521,
            "217": -0.7050420045852661,
            "218": -0.22937937080860138,
            "219": -0.7686368227005005,
            "220": 0.7473266124725342,
            "221": -0.6096816658973694,
            "222": -0.5528926849365234,
            "223": 0.17056412994861603,
            "224": 0.7400053143501282,
            "225": 0.8321830630302429,
            "226": 0.4663681983947754,
            "227": 0.6323441863059998,
            "228": 0.5277652740478516,
            "229": 1.4588359594345093,
            "230": -0.41686931252479553,
            "231": 0.21407033503055573,
            "232": -0.22549238801002502,
            "233": -0.2162909060716629,
            "234": 0.30371180176734924,
            "235": -0.2644977271556854,
            "236": 0.6130645871162415,
            "237": -0.2383347898721695,
            "238": -0.15179939568042755,
            "239": -0.2604787349700928,
            "240": -0.1064472571015358,
            "241": 0.2671777307987213,
            "242": 0.25006890296936035,
            "243": 0.28111881017684937,
            "244": 0.2339845597743988,
            "245": 0.37511396408081055,
            "246": 0.2576208710670471,
            "247": 0.2539505064487457,
            "248": 0.3747113049030304,
            "249": 0.21907515823841095,
            "250": -0.23873035609722137,
            "251": 0.3666988015174866,
            "252": -0.18226951360702515,
            "253": 0.23503562808036804,
            "254": -0.9774140119552612,
            "255": 0.3946285545825958,
            "256": 0.2565649449825287,
            "257": 0.25658276677131653,
            "258": 0.24882417917251587,
            "259": -0.289459228515625,
            "260": -0.28877541422843933,
            "261": -0.3634495139122009,
            "262": -0.3471621870994568,
            "263": -0.21109263598918915,
            "264": -0.2592799663543701,
            "265": -0.08211614191532135,
            "266": -0.29278692603111267,
            "267": -0.552715539932251,
            "268": 0.2757977545261383,
            "269": -0.3859933912754059,
            "270": -0.4538270831108093,
            "271": 0.2089630663394928,
            "272": -0.5884937644004822,
            "273": 0.2410355508327484,
            "274": 0.45938101410865784,
            "275": 0.2427958995103836,
            "276": 0.27721071243286133,
            "277": -0.3058653175830841,
            "278": -0.2949862480163574,
            "279": -0.35968267917633057,
            "280": -0.24630694091320038,
            "281": -0.24559363722801208,
            "282": -0.30425962805747986,
            "283": -0.3229507803916931,
            "284": -0.3601904511451721,
            "285": -0.4803600311279297,
            "286": 0.36623045802116394,
            "287": -0.3906758725643158,
            "288": 0.2764650881290436,
            "289": -0.30182555317878723,
            "290": 0.8365437388420105,
            "291": -0.24872133135795593,
            "292": -0.4778023660182953,
            "293": -0.29978087544441223,
            "294": -0.2837557792663574,
            "295": 0.3153736889362335,
            "296": 0.27726081013679504,
            "297": 0.2709042727947235,
            "298": 0.37770870327949524,
            "299": 0.4559587240219116,
            "300": 0.3034192621707916,
            "301": 0.2315390259027481,
            "302": 0.2851850390434265,
            "303": 0.3088827431201935,
            "304": -0.4119865596294403,
            "305": 0.45192062854766846,
            "306": 0.3386023938655853,
            "307": -0.26730117201805115,
            "308": 0.5976461172103882,
            "309": -0.30118653178215027,
            "310": -0.1874498873949051,
            "311": -0.3936595618724823,
            "312": -0.3372958302497864,
            "313": 0.27767735719680786,
            "314": 0.2812667787075043,
            "315": 0.3791878819465637,
            "316": 0.2984755039215088,
            "317": 0.4905789792537689,
            "318": 0.3517833352088928,
            "319": 0.2157098650932312,
            "320": 0.3901754319667816,
            "321": 0.23876024782657623,
            "322": -0.28850841522216797,
            "323": 0.29377806186676025,
            "324": -0.19291430711746216,
            "325": 0.26669734716415405,
            "326": -0.9433236122131348,
            "327": 0.15807761251926422,
            "328": 0.40911734104156494,
            "329": 0.264976441860199,
            "330": 0.1955120861530304,
            "331": -0.31477975845336914,
            "332": -0.29107755422592163,
            "333": -0.2211964875459671,
            "334": -0.1973533183336258,
            "335": -0.2939442992210388,
            "336": -0.2266739308834076,
            "337": -0.20110222697257996,
            "338": -0.23749692738056183,
            "339": -0.35970935225486755,
            "340": 0.3786202073097229,
            "341": -0.38335171341896057,
            "342": 0.2043776512145996,
            "343": -0.3520618677139282,
            "344": 0.6363385915756226,
            "345": -0.27903318405151367,
            "346": -0.16327926516532898,
            "347": -0.29280397295951843,
            "348": -0.25446438789367676,
            "349": 0.19794081151485443,
            "350": 0.3562583029270172,
            "351": 0.3149819076061249,
            "352": 0.20493394136428833,
            "353": 0.27897489070892334,
            "354": 0.21336928009986877,
            "355": 0.23188084363937378,
            "356": 0.2867109179496765,
            "357": 0.3069932162761688,
            "358": -0.2530217468738556,
            "359": 0.23950964212417603
          }
        },
        "outputHidden": {
          "rows": 20,
          "columns": 20,
          "weights": {
            "0": -0.5018774271011353,
            "1": -0.24165502190589905,
            "2": -0.2498393952846527,
            "3": -0.21459022164344788,
            "4": 0.14294002950191498,
            "5": -0.30082574486732483,
            "6": -0.3415144681930542,
            "7": -0.3735966086387634,
            "8": -0.6162235140800476,
            "9": -0.3820226192474365,
            "10": 0.6209965348243713,
            "11": -0.483781635761261,
            "12": 0.29714587330818176,
            "13": 0.277228444814682,
            "14": -0.44714024662971497,
            "15": 0.376871258020401,
            "16": -0.26168888807296753,
            "17": 0.36614686250686646,
            "18": -0.3857690989971161,
            "19": 0.2533329725265503,
            "20": 0.3496955633163452,
            "21": 0.41091012954711914,
            "22": 0.29445967078208923,
            "23": 0.2855645418167114,
            "24": 0.35893553495407104,
            "25": 0.2750469744205475,
            "26": 0.3948354423046112,
            "27": 0.38612139225006104,
            "28": 0.39409035444259644,
            "29": 0.37805527448654175,
            "30": -0.33779704570770264,
            "31": 0.4640633165836334,
            "32": -0.5494554042816162,
            "33": -0.29633891582489014,
            "34": 0.3386616110801697,
            "35": -0.40765634179115295,
            "36": 0.3107183873653412,
            "37": -0.4133684039115906,
            "38": 0.37973839044570923,
            "39": -0.3188674747943878,
            "40": 0.4039769172668457,
            "41": 0.3079732060432434,
            "42": 0.28111523389816284,
            "43": 0.31307458877563477,
            "44": 0.27664273977279663,
            "45": 0.2235277146100998,
            "46": 0.36894404888153076,
            "47": 0.3793267607688904,
            "48": 0.48301970958709717,
            "49": 0.27569326758384705,
            "50": -0.46497613191604614,
            "51": 0.38693690299987793,
            "52": 0.48554736375808716,
            "53": -0.27383744716644287,
            "54": 0.2757384777069092,
            "55": -0.3762513995170593,
            "56": 0.25009211897850037,
            "57": -0.31245508790016174,
            "58": 0.3308603763580322,
            "59": -0.30576926469802856,
            "60": 0.29414695501327515,
            "61": 0.25943809747695923,
            "62": 0.2955515682697296,
            "63": 0.34240448474884033,
            "64": 0.4413674771785736,
            "65": 0.289057195186615,
            "66": 0.25962957739830017,
            "67": 0.24863341450691223,
            "68": 0.2883448302745819,
            "69": 0.2610883414745331,
            "70": -0.33369213342666626,
            "71": 0.328889399766922,
            "72": -0.42268508672714233,
            "73": -0.31093698740005493,
            "74": 0.39248937368392944,
            "75": -0.37791600823402405,
            "76": 0.2723621726036072,
            "77": -0.2802627682685852,
            "78": 0.3611968755722046,
            "79": -0.27750250697135925,
            "80": 0.44296786189079285,
            "81": 0.16218669712543488,
            "82": 0.8020729422569275,
            "83": 0.4691796600818634,
            "84": 0.3903057873249054,
            "85": 0.19927991926670074,
            "86": 0.06857580691576004,
            "87": 0.12489909678697586,
            "88": 0.13088150322437286,
            "89": 0.45681726932525635,
            "90": 0.40950897336006165,
            "91": 0.43601030111312866,
            "92": 0.345542848110199,
            "93": -0.21298730373382568,
            "94": 0.32100385427474976,
            "95": -0.3881026804447174,
            "96": 0.6002909541130066,
            "97": -0.19564951956272125,
            "98": 0.33040541410446167,
            "99": -0.16352973878383636,
            "100": 0.382656455039978,
            "101": 0.3104819655418396,
            "102": 0.2856951653957367,
            "103": 0.3188655972480774,
            "104": 0.2026328593492508,
            "105": 0.2795170545578003,
            "106": 0.29901745915412903,
            "107": 0.29220741987228394,
            "108": 0.40171727538108826,
            "109": 0.320698082447052,
            "110": -0.25289076566696167,
            "111": 0.2865350544452667,
            "112": -0.5788524150848389,
            "113": -0.36508527398109436,
            "114": 0.3675205111503601,
            "115": -0.30651047825813293,
            "116": 0.2669455409049988,
            "117": -0.3439846634864807,
            "118": 0.2779574394226074,
            "119": -0.26990097761154175,
            "120": 0.27416449785232544,
            "121": 0.34269005060195923,
            "122": 0.1508987843990326,
            "123": 0.268522173166275,
            "124": 0.18889352679252625,
            "125": 0.2869144082069397,
            "126": 0.36201319098472595,
            "127": 0.29853370785713196,
            "128": 0.304546058177948,
            "129": 0.4140990674495697,
            "130": -0.2858615517616272,
            "131": 0.37500765919685364,
            "132": -0.26432812213897705,
            "133": -0.37430188059806824,
            "134": 0.3588636517524719,
            "135": -0.354648619890213,
            "136": 0.170610710978508,
            "137": -0.2813665568828583,
            "138": 0.35211363434791565,
            "139": -0.2564556300640106,
            "140": 0.41343954205513,
            "141": 0.31628870964050293,
            "142": 0.17716972529888153,
            "143": 0.3203119933605194,
            "144": 0.2772141396999359,
            "145": 0.25930503010749817,
            "146": 0.2865009307861328,
            "147": 0.40034306049346924,
            "148": 0.3787224590778351,
            "149": 0.4006985127925873,
            "150": -0.2588348686695099,
            "151": 0.4397878348827362,
            "152": -1.412539005279541,
            "153": -0.2553592622280121,
            "154": 0.4237159490585327,
            "155": -0.29031258821487427,
            "156": 0.29201191663742065,
            "157": -0.2569420635700226,
            "158": 0.41062745451927185,
            "159": -0.35589179396629333,
            "160": -0.5675279498100281,
            "161": -0.4149593412876129,
            "162": -0.24121880531311035,
            "163": -0.39565563201904297,
            "164": 0.3159598112106323,
            "165": -0.42729902267456055,
            "166": -0.41840094327926636,
            "167": -0.41510435938835144,
            "168": -0.6534909605979919,
            "169": -0.2565978467464447,
            "170": 0.6083802580833435,
            "171": -0.564996063709259,
            "172": 0.0197282787412405,
            "173": 0.3615580201148987,
            "174": -0.24215960502624512,
            "175": 0.20070452988147736,
            "176": -0.18773125112056732,
            "177": 0.32704848051071167,
            "178": -0.3506091237068176,
            "179": 0.3811330795288086,
            "180": -0.4672750234603882,
            "181": -0.31854262948036194,
            "182": -0.255185067653656,
            "183": -0.3153865337371826,
            "184": 0.18538036942481995,
            "185": -0.287283718585968,
            "186": -0.3814208507537842,
            "187": -0.27993905544281006,
            "188": -0.4250457286834717,
            "189": -0.2704058587551117,
            "190": 0.6735681295394897,
            "191": -0.3953687250614166,
            "192": 0.22233866155147552,
            "193": 0.26713624596595764,
            "194": -0.4075068533420563,
            "195": 0.33064356446266174,
            "196": -0.19866658747196198,
            "197": 0.36434122920036316,
            "198": -0.3605800271034241,
            "199": 0.2720203697681427,
            "200": -0.4966409206390381,
            "201": -0.475320041179657,
            "202": 0.36867013573646545,
            "203": 0.0320269912481308,
            "204": -0.11497994512319565,
            "205": -0.5980815887451172,
            "206": -0.5721860527992249,
            "207": -0.5866230130195618,
            "208": -0.6057422161102295,
            "209": -0.6591892838478088,
            "210": 0.5836313962936401,
            "211": -0.6183666586875916,
            "212": 0.3408876061439514,
            "213": 0.5201936960220337,
            "214": -0.6617329716682434,
            "215": 0.7303062677383423,
            "216": 0.33008837699890137,
            "217": 0.589292049407959,
            "218": -0.7002251148223877,
            "219": 0.5518510341644287,
            "220": -0.6380223631858826,
            "221": -0.34106454253196716,
            "222": -0.15059469640254974,
            "223": -0.26194411516189575,
            "224": -0.015042298473417759,
            "225": -0.3229750096797943,
            "226": -0.45583808422088623,
            "227": -0.3906993865966797,
            "228": -0.7684192061424255,
            "229": -0.418194055557251,
            "230": 0.8023000955581665,
            "231": -0.6500898599624634,
            "232": 0.9026306867599487,
            "233": 0.39492592215538025,
            "234": -0.46124011278152466,
            "235": 0.5252662897109985,
            "236": -0.1658153533935547,
            "237": 0.3293937146663666,
            "238": -0.5376558303833008,
            "239": 0.39997395873069763,
            "240": 0.4425075054168701,
            "241": -1.0085458755493164,
