{
  "weights": {
    "type": "LSTM",
    "options": {
      "inputSize": 18,
      "inputRange": 18,
      "hiddenSizes": [
        20,
        20
      ],
      "outputSize": 18,
      "learningRate": 0.01,
      "decayRate": 0.999,
      "smoothEps": 1e-8,
      "regc": 0.000001,
      "clipval": 5,
      "json": null,
      "dataFormatter": {
        "values": [
          "i do thisno",
          "i like laravellaravel",
          "i work with laravellaravel",
          "like",
          "neutral"
        ],
        "indexTable": {
          "i": 0,
          " ": 1,
          "d": 2,
          "o": 3,
          "t": 4,
          "h": 5,
          "s": 6,
          "n": 7,
          "l": 8,
          "k": 9,
          "e": 10,
          "a": 11,
          "r": 12,
          "v": 13,
          "w": 14,
          "u": 15,
          "stop-input": 16,
          "start-output": 17
        },
        "characterTable": {
          "0": "i",
          "1": " ",
          "2": "d",
          "3": "o",
          "4": "t",
          "5": "h",
          "6": "s",
          "7": "n",
          "8": "l",
          "9": "k",
          "10": "e",
          "11": "a",
          "12": "r",
          "13": "v",
          "14": "w",
          "15": "u",
          "16": "stop-input",
          "17": "start-output"
        },
        "characters": [
          "i",
          " ",
          "d",
          "o",
          "t",
          "h",
          "s",
          "n",
          "l",
          "k",
          "e",
          "a",
          "r",
          "v",
          "w",
          "u",
          "stop-input",
          "start-output"
        ]
      }
    },
    "input": {
      "rows": 19,
      "columns": 18,
      "weights": {
        "0": 1.2826489210128784,
        "1": -0.4647858142852783,
        "2": -0.4045045077800751,
        "3": 0.40894952416419983,
        "4": -0.8760800361633301,
        "5": 0.009711235761642456,
        "6": 0.6281532645225525,
        "7": -0.5979951620101929,
        "8": 0.2320323884487152,
        "9": -1.0926252603530884,
        "10": -0.149277925491333,
        "11": -0.3958222568035126,
        "12": -0.6725589632987976,
        "13": -0.6046766638755798,
        "14": -0.7533952593803406,
        "15": 1.0630719661712646,
        "16": 0.13166244328022003,
        "17": -0.751575231552124,
        "18": -0.0023956194054335356,
        "19": 0.8892710208892822,
        "20": 0.6742313504219055,
        "21": -0.2657815217971802,
        "22": -0.4465108811855316,
        "23": 0.4655863344669342,
        "24": 0.5994651913642883,
        "25": 0.16131234169006348,
        "26": -0.4496276378631592,
        "27": -0.3206414580345154,
        "28": 0.38759762048721313,
        "29": 0.750240683555603,
        "30": 0.0479351244866848,
        "31": -0.20818014442920685,
        "32": -0.20658722519874573,
        "33": 0.5804195404052734,
        "34": -0.18952563405036926,
        "35": 0.05999297276139259,
        "36": 0.9465128183364868,
        "37": 0.045566730201244354,
        "38": 0.29684633016586304,
        "39": -0.4459275007247925,
        "40": -0.4734586179256439,
        "41": -0.775780975818634,
        "42": 0.8046795725822449,
        "43": 0.8342925310134888,
        "44": -0.7574599981307983,
        "45": 0.5101624727249146,
        "46": 0.8295789957046509,
        "47": 0.3826570212841034,
        "48": 0.8579249382019043,
        "49": 0.28409379720687866,
        "50": 0.7445822954177856,
        "51": -1.016524314880371,
        "52": -0.7914740443229675,
        "53": 1.163980484008789,
        "54": -0.20152750611305237,
        "55": 1.257241129875183,
        "56": 1.897508144378662,
        "57": -1.4330623149871826,
        "58": -1.8401778936386108,
        "59": 0.12354565411806107,
        "60": 1.6002798080444336,
        "61": -1.8181674480438232,
        "62": -1.306148648262024,
        "63": -1.6483820676803589,
        "64": 1.4249173402786255,
        "65": 1.1760098934173584,
        "66": -0.26548394560813904,
        "67": 2.5640501976013184,
        "68": -0.4607884883880615,
        "69": 0.49088117480278015,
        "70": -1.9483551979064941,
        "71": -1.3867127895355225,
        "72": -0.4112987518310547,
        "73": -0.6628550887107849,
        "74": 0.22696737945079803,
        "75": -0.7469160556793213,
        "76": -0.40372341871261597,
        "77": 0.5456480383872986,
        "78": 0.4933907389640808,
        "79": -0.48748478293418884,
        "80": -0.7299000024795532,
        "81": -0.3332861065864563,
        "82": 0.6547514796257019,
        "83": 0.49745145440101624,
        "84": -0.3905000388622284,
        "85": 1.278756856918335,
        "86": -0.44639459252357483,
        "87": 0.3945184648036957,
        "88": -0.32836997509002686,
        "89": -0.3626878261566162,
        "90": -1.0097202062606812,
        "91": 1.4019931554794312,
        "92": 1.544492483139038,
        "93": -0.953770637512207,
        "94": -0.7351073622703552,
        "95": 0.6634666919708252,
        "96": 0.748225212097168,
        "97": -1.2396072149276733,
        "98": -0.8560718894004822,
        "99": -0.8087065815925598,
        "100": 0.6758835315704346,
        "101": 0.7291112542152405,
        "102": -0.8550783395767212,
        "103": 0.24769781529903412,
        "104": -0.6381012797355652,
        "105": 1.0118274688720703,
        "106": -2.1210598945617676,
        "107": -1.1017372608184814,
        "108": -0.45407670736312866,
        "109": 0.08293244987726212,
        "110": -0.3739614188671112,
        "111": -0.571875810623169,
        "112": -0.5493084192276001,
        "113": 0.7378925085067749,
        "114": 0.6956945061683655,
        "115": -0.41820812225341797,
        "116": -0.5789268612861633,
        "117": -0.4139459431171417,
        "118": 0.5919737219810486,
        "119": -0.0980212539434433,
        "120": -0.4160047471523285,
        "121": 1.476456642150879,
        "122": -0.6031649112701416,
        "123": 0.8355044722557068,
        "124": 0.46717438101768494,
        "125": -0.6866535544395447,
        "126": -0.8001853823661804,
        "127": 0.4466102123260498,
        "128": 0.6704698204994202,
        "129": -0.5894805788993835,
        "130": -0.5074476599693298,
        "131": 0.5289769172668457,
        "132": 0.16681669652462006,
        "133": -0.25265559554100037,
        "134": -0.7670120596885681,
        "135": 0.2292517125606537,
        "136": 0.9187142848968506,
        "137": 0.6275634169578552,
        "138": -0.42034485936164856,
        "139": 0.3730795085430145,
        "140": -0.4105393886566162,
        "141": 0.11252515763044357,
        "142": -0.5148795247077942,
        "143": -0.015845393761992455,
        "144": -0.14187349379062653,
        "145": 1.2519046068191528,
        "146": 2.1154215335845947,
        "147": -1.175219178199768,
        "148": -2.1536033153533936,
        "149": 0.04330703988671303,
        "150": 1.6224961280822754,
        "151": -2.2657134532928467,
        "152": -1.0614871978759766,
        "153": -2.094939947128296,
        "154": 1.181277871131897,
        "155": 1.0476970672607422,
        "156": -0.9390257596969604,
        "157": 2.295142889022827,
        "158": -1.1077439785003662,
        "159": 0.9816741943359375,
        "160": -2.275470018386841,
        "161": -2.1148881912231445,
        "162": -1.0562870502471924,
        "163": -0.64515620470047,
        "164": -0.5602079033851624,
        "165": 0.6360480785369873,
        "166": 0.8306200504302979,
        "167": 0.31807708740234375,
        "168": -0.5440423488616943,
        "169": -0.7963564991950989,
        "170": 0.7147760987281799,
        "171": -0.6463379859924316,
        "172": -0.1834142655134201,
        "173": -0.6942567825317383,
        "174": -0.8421045541763306,
        "175": -0.22775965929031372,
        "176": -0.3995664119720459,
        "177": 0.5024938583374023,
        "178": 0.22135168313980103,
        "179": -0.3164798319339752,
        "180": -0.00533668790012598,
        "181": 1.0839641094207764,
        "182": 0.9556850790977478,
        "183": -0.4948132336139679,
        "184": -0.5736747980117798,
        "185": 0.15949155390262604,
        "186": 0.8174551725387573,
        "187": -0.9855031967163086,
        "188": -0.5445815920829773,
        "189": -0.41507336497306824,
        "190": 0.3037761449813843,
        "191": 0.7303811311721802,
        "192": -0.42155471444129944,
        "193": -0.20028746128082275,
        "194": -1.0293049812316895,
        "195": 0.74324631690979,
        "196": -0.8547545671463013,
        "197": -0.22786937654018402,
        "198": -0.6316364407539368,
        "199": 0.878331184387207,
        "200": 0.8989063501358032,
        "201": -1.0390419960021973,
        "202": -0.16171737015247345,
        "203": -0.39157652854919434,
        "204": -0.24065344035625458,
        "205": 0.4033689498901367,
        "206": -0.973087728023529,
        "207": 0.5624342560768127,
        "208": 1.0436440706253052,
        "209": 0.7701706290245056,
        "210": 0.29472124576568604,
        "211": 0.05710488557815552,
        "212": 0.37464430928230286,
        "213": -0.21118979156017303,
        "214": -0.7325370907783508,
        "215": 0.0012136801378801465,
        "216": -0.5465491414070129,
        "217": 0.8339675068855286,
        "218": 0.7588359713554382,
        "219": -0.4924306869506836,
        "220": -0.473839670419693,
        "221": -0.34199196100234985,
        "222": 0.2531581223011017,
        "223": 0.10072958469390869,
        "224": -0.6482105851173401,
        "225": 0.7449352145195007,
        "226": 0.5614500045776367,
        "227": 0.9042478203773499,
        "228": -0.034648649394512177,
        "229": -0.43901586532592773,
        "230": 0.14440904557704926,
        "231": -0.9754175543785095,
        "232": -0.7961041927337646,
        "233": 0.2549228072166443,
        "234": 0.17012739181518555,
        "235": -0.7532930374145508,
        "236": -0.8721752166748047,
        "237": 0.5401255488395691,
        "238": 0.6456030011177063,
        "239": -0.9905052781105042,
        "240": -0.5758174657821655,
        "241": 0.8292602300643921,
        "242": 0.5003092885017395,
        "243": 1.0598986148834229,
        "244": -0.21613234281539917,
        "245": -0.7130500078201294,
        "246": 1.285666584968567,
        "247": -1.0340218544006348,
        "248": 1.1167277097702026,
        "249": -1.075372576713562,
        "250": 0.672592282295227,
        "251": 0.8870939612388611,
        "252": 0.1839418262243271,
        "253": 0.5925316214561462,
        "254": 0.6354875564575195,
        "255": -0.4477381408214569,
        "256": -0.7930561304092407,
        "257": -0.4954107105731964,
        "258": 0.06509917974472046,
        "259": 0.0048302351497113705,
        "260": -0.6597016453742981,
        "261": 0.7362306714057922,
        "262": 0.06071580573916435,
        "263": 0.583724856376648,
        "264": 0.26991671323776245,
        "265": 0.4045252799987793,
        "266": -0.20732051134109497,
        "267": 0.14312928915023804,
        "268": -0.7405291795730591,
        "269": 0.1575881689786911,
        "270": -0.5951932072639465,
        "271": 0.7970764636993408,
        "272": 0.7320208549499512,
        "273": -0.8524612784385681,
        "274": -0.7989455461502075,
        "275": 0.8520342111587524,
        "276": 0.7259635925292969,
        "277": -0.2047944813966751,
        "278": -0.8680266737937927,
        "279": -0.774160623550415,
        "280": 0.7959518432617188,
        "281": 0.8712409734725952,
        "282": 0.4580700695514679,
        "283": 0.8423755168914795,
        "284": 0.6920204162597656,
        "285": 0.8476857542991638,
        "286": -0.721866250038147,
        "287": -0.8585662245750427,
        "288": -1.192506194114685,
        "289": 0.3129856288433075,
        "290": 0.9245168566703796,
        "291": -0.9508324861526489,
        "292": -0.9029359817504883,
        "293": 2.0603535175323486,
        "294": -0.2933664917945862,
        "295": -0.5087998509407043,
        "296": -0.9137693047523499,
        "297": -0.2578532099723816,
        "298": 0.6713699698448181,
        "299": 1.0968866348266602,
        "300": -1.194430947303772,
        "301": 2.447145700454712,
        "302": -1.1382851600646973,
        "303": 0.7005979418754578,
        "304": -0.4515713155269623,
        "305": -1.030692219734192,
        "306": 1.1751952171325684,
        "307": -0.26754018664360046,
        "308": -0.4622567296028137,
        "309": 0.4833223521709442,
        "310": 0.811775267124176,
        "311": -0.33938467502593994,
        "312": 0.4943099617958069,
        "313": -0.5296780467033386,
        "314": 0.424843430519104,
        "315": -1.7946293354034424,
        "316": -0.046413250267505646,
        "317": -0.8020097613334656,
        "318": -0.42620405554771423,
        "319": -0.8005732297897339,
        "320": -0.2096347063779831,
        "321": 0.2680666446685791,
        "322": 0.2526788115501404,
        "323": 0.17617684602737427,
        "324": 0.388410359621048,
        "325": 0.3894955813884735,
        "326": 0.5326773524284363,
        "327": -0.7762110233306885,
        "328": -1.5807777643203735,
        "329": 0.35173237323760986,
        "330": 1.0473815202713013,
        "331": -0.49188119173049927,
        "332": -0.5669249296188354,
        "333": -0.11795760691165924,
        "334": 0.6620662808418274,
        "335": 0.4312095642089844,
        "336": 0.26044902205467224,
        "337": 1.7946332693099976,
        "338": 0.09216652810573578,
        "339": 1.1348741054534912,
        "340": -0.8942546248435974,
        "341": -1.0441763401031494
      }
    },
    "hiddenLayers": [
      {
        "inputMatrix": {
          "rows": 20,
          "columns": 18,
          "weights": {
            "0": 0.06034185737371445,
            "1": 0.8932427167892456,
            "2": 0.9734598398208618,
            "3": -1.088983416557312,
            "4": -0.8866677284240723,
            "5": 0.27282917499542236,
            "6": 0.8514320850372314,
            "7": -0.35980895161628723,
            "8": -0.959155797958374,
            "9": -0.24207602441310883,
            "10": 0.9039170742034912,
            "11": 1.048890471458435,
            "12": -0.41987958550453186,
            "13": -0.0713074803352356,
            "14": -0.38095059990882874,
            "15": 0.17921100556850433,
            "16": -0.8740748167037964,
            "17": -0.31328338384628296,
            "18": 0.10870032757520676,
            "19": 0.17393475770950317,
            "20": 0.28934749960899353,
            "21": -0.5248799324035645,
            "22": -0.8204649686813354,
            "23": 0.3600003719329834,
            "24": 0.16426238417625427,
            "25": -0.6864047050476074,
            "26": -0.2262974977493286,
            "27": -0.3821110725402832,
            "28": 0.1581321507692337,
            "29": 0.24733930826187134,
            "30": -0.4951362609863281,
            "31": 0.22287523746490479,
            "32": -0.734744131565094,
            "33": 0.7169130444526672,
            "34": -0.2701828181743622,
            "35": -0.6435380578041077,
            "36": -0.2855638861656189,
            "37": 0.12438664585351944,
            "38": 0.19758237898349762,
            "39": 0.6163840293884277,
            "40": 0.4853309988975525,
            "41": -0.08651820570230484,
            "42": -1.0374845266342163,
            "43": 0.5943122506141663,
            "44": 0.1413026750087738,
            "45": 1.1628646850585938,
            "46": -0.21957896649837494,
            "47": 0.6865025758743286,
            "48": -0.06389857083559036,
            "49": -0.7802781462669373,
            "50": 0.11118258535861969,
            "51": -0.6680663228034973,
            "52": 0.6146267056465149,
            "53": 0.6203345060348511,
            "54": -0.24531805515289307,
            "55": -0.13529406487941742,
            "56": -0.5256789922714233,
            "57": -0.20579999685287476,
            "58": 0.5020354390144348,
            "59": -0.9199191927909851,
            "60": -0.3204217553138733,
            "61": 0.9669974446296692,
            "62": -0.10620174556970596,
            "63": 0.44365742802619934,
            "64": 0.3475319445133209,
            "65": -0.1282181292772293,
            "66": 1.0409724712371826,
            "67": -0.5206566452980042,
            "68": 0.9589695334434509,
            "69": -0.844847559928894,
            "70": 0.5577359795570374,
            "71": 0.7998802661895752,
            "72": -0.5134653449058533,
            "73": 0.8893110156059265,
            "74": 0.859081506729126,
            "75": -1.1352828741073608,
            "76": -0.6001924872398376,
            "77": 0.1685056984424591,
            "78": -0.2384592741727829,
            "79": -0.0820254534482956,
            "80": -1.0995386838912964,
            "81": -0.06536667048931122,
            "82": 0.020551783964037895,
            "83": 1.1912038326263428,
            "84": -0.21979784965515137,
            "85": 0.31178122758865356,
            "86": -0.2921505570411682,
            "87": 0.09814190864562988,
            "88": -0.4451468884944916,
            "89": -0.10323001444339752,
            "90": -0.28660112619400024,
            "91": 1.005503535270691,
            "92": 0.863257646560669,
            "93": -1.1369237899780273,
            "94": -0.8076744079589844,
            "95": 0.2726900577545166,
            "96": 0.7436367869377136,
            "97": -0.20434200763702393,
            "98": -1.1053506135940552,
            "99": 0.18431393802165985,
            "100": 0.9151802659034729,
            "101": 1.0512208938598633,
            "102": -0.2528412938117981,
            "103": 0.5334950089454651,
            "104": -0.06008739024400711,
            "105": 0.013540247455239296,
            "106": -0.7346415519714355,
            "107": -0.2701111137866974,
            "108": 1.0488749742507935,
            "109": 0.13049663603305817,
            "110": 0.3911871612071991,
            "111": 0.07361756265163422,
            "112": -0.93755042552948,
            "113": -0.08232097327709198,
            "114": 0.3494328260421753,
            "115": -0.01954936794936657,
            "116": -0.32718467712402344,
            "117": 0.007312214467674494,
            "118": 0.00392454769462347,
            "119": 0.3279642164707184,
            "120": 0.007448744960129261,
            "121": 0.7621720433235168,
            "122": -0.626834511756897,
            "123": 0.515561580657959,
            "124": -0.15105973184108734,
            "125": -0.01486279722303152,
            "126": 0.4829067289829254,
            "127": 0.48830607533454895,
            "128": 0.42746180295944214,
            "129": -0.04161359742283821,
            "130": -0.37377694249153137,
            "131": 0.5324028134346008,
            "132": 0.08770519495010376,
            "133": -0.7729232907295227,
            "134": 0.23458929359912872,
            "135": -0.7642022967338562,
            "136": -0.31238603591918945,
            "137": 0.33392664790153503,
            "138": -0.5287361145019531,
            "139": 0.6908806562423706,
            "140": -1.2570133209228516,
            "141": 1.6007542610168457,
            "142": 0.15570245683193207,
            "143": -0.9278510808944702,
            "144": 0.7741754055023193,
            "145": -0.3831120729446411,
            "146": -0.4313189685344696,
            "147": 0.5910460948944092,
            "148": 0.7647117376327515,
            "149": -0.4782821238040924,
            "150": -0.27396079897880554,
            "151": 0.4611598253250122,
            "152": 0.3832562565803528,
            "153": -0.06848521530628204,
            "154": -0.28327760100364685,
            "155": -0.14921249449253082,
            "156": 0.3598427176475525,
            "157": -0.8714891076087952,
            "158": 0.12888824939727783,
            "159": -0.7251262068748474,
            "160": 0.6280381679534912,
            "161": 0.8601139187812805,
            "162": 2.0264055728912354,
            "163": 0.6674395203590393,
            "164": 0.0945834219455719,
            "165": -0.07977158576250076,
            "166": -0.7455122470855713,
            "167": -0.9852773547172546,
            "168": 1.934729814529419,
            "169": 0.30986058712005615,
            "170": -0.34025678038597107,
            "171": -0.3516862094402313,
            "172": 0.5375276207923889,
            "173": -0.062244515866041183,
            "174": 0.8630020618438721,
            "175": -0.874254047870636,
            "176": 0.8543714880943298,
            "177": -0.02226349711418152,
            "178": -0.7026854157447815,
            "179": 0.6752914786338806,
            "180": 0.6559739708900452,
            "181": -0.5061611533164978,
            "182": 0.03227097541093826,
            "183": 0.1418057382106781,
            "184": -0.5983867645263672,
            "185": -0.5437676310539246,
            "186": 0.20445172488689423,
            "187": -0.4482422471046448,
            "188": 0.3108542561531067,
            "189": -0.30373433232307434,
            "190": -0.16439276933670044,
            "191": -0.5154617428779602,
            "192": 0.3608695864677429,
            "193": 1.0696176290512085,
            "194": 0.5504092574119568,
            "195": 0.14439541101455688,
            "196": -0.9534018635749817,
            "197": -0.21383295953273773,
            "198": -0.22226755321025848,
            "199": 0.03384532779455185,
            "200": -0.09549656510353088,
            "201": -0.7520542144775391,
            "202": -0.3157736659049988,
            "203": 0.3347570598125458,
            "204": -0.5389491319656372,
            "205": -0.2629257142543793,
            "206": -0.017890699207782745,
            "207": -0.16745883226394653,
            "208": -0.24253766238689423,
            "209": -0.5057832598686218,
            "210": -0.20849551260471344,
            "211": 1.1661086082458496,
            "212": 0.047115225344896317,
            "213": 0.13640005886554718,
            "214": -0.5420122146606445,
            "215": -0.5326971411705017,
            "216": 0.15616600215435028,
            "217": 1.0713762044906616,
            "218": 1.0576558113098145,
            "219": -1.0376191139221191,
            "220": -1.1153700351715088,
            "221": 0.3740210235118866,
            "222": 0.9951140880584717,
            "223": -0.30383700132369995,
            "224": -1.1713577508926392,
            "225": -0.27591991424560547,
            "226": 0.9521489143371582,
            "227": 1.0530753135681152,
            "228": -0.519625723361969,
            "229": -0.1131717637181282,
            "230": -0.26188626885414124,
            "231": 0.2960926592350006,
            "232": -0.838520348072052,
            "233": -0.3657202124595642,
            "234": 0.3303297162055969,
            "235": -0.49178382754325867,
            "236": -0.33008649945259094,
            "237": -0.10945804417133331,
            "238": -0.3209748864173889,
            "239": -0.040024325251579285,
            "240": -0.15165776014328003,
            "241": 1.1413607597351074,
            "242": -0.05826357752084732,
            "243": 0.9721843600273132,
            "244": 0.2937638461589813,
            "245": -0.08392097055912018,
            "246": 0.6760980486869812,
            "247": 0.1870056688785553,
            "248": 0.5805375576019287,
            "249": -0.323598176240921,
            "250": 0.40642064809799194,
            "251": 0.32142874598503113,
            "252": 0.896794855594635,
            "253": 0.9065054059028625,
            "254": 0.8237714767456055,
            "255": -1.048512578010559,
            "256": -1.2607120275497437,
            "257": 0.3027838170528412,
            "258": 1.4234471321105957,
            "259": -0.31480860710144043,
            "260": -1.221969723701477,
            "261": -0.5817810893058777,
            "262": 1.2321531772613525,
            "263": 0.9041820764541626,
            "264": -0.34658563137054443,
            "265": -0.37207862734794617,
            "266": -0.10095211118459702,
            "267": 0.6440014243125916,
            "268": -0.9592404365539551,
            "269": -0.4156459867954254,
            "270": 0.5589573383331299,
            "271": -1.7577030658721924,
            "272": -1.4724327325820923,
            "273": 1.4321671724319458,
            "274": 1.4093246459960938,
            "275": 0.029065091162919998,
            "276": -0.69325852394104,
            "277": -0.36067476868629456,
            "278": 1.3727742433547974,
            "279": -0.9682826995849609,
            "280": -1.234566569328308,
            "281": -1.5978600978851318,
            "282": -0.5226433277130127,
            "283": -0.4408840537071228,
            "284": -0.4600945711135864,
            "285": -0.4932605028152466,
            "286": 1.0390368700027466,
            "287": 0.25749391317367554,
            "288": 0.21226158738136292,
            "289": 0.8434892892837524,
            "290": 1.0149123668670654,
            "291": -1.0040345191955566,
            "292": -0.8060108423233032,
            "293": 0.06458469480276108,
            "294": 0.922389030456543,
            "295": -0.17100127041339874,
            "296": -0.9661901593208313,
            "297": 0.31762561202049255,
            "298": 0.9283279776573181,
            "299": 0.9482198357582092,
            "300": 0.05934213474392891,
            "301": 0.4897065758705139,
            "302": 0.6044551730155945,
            "303": 0.19931991398334503,
            "304": -1.1051099300384521,
            "305": -0.06656010448932648,
            "306": 0.9101071357727051,
            "307": -0.4934222102165222,
            "308": -0.5217272639274597,
            "309": -0.27073419094085693,
            "310": 0.18605096638202667,
            "311": -0.8317890763282776,
            "312": 0.030271435156464577,
            "313": 0.9361532926559448,
            "314": -0.26440542936325073,
            "315": 0.8999226689338684,
            "316": 0.40903669595718384,
            "317": -0.5548606514930725,
            "318": 0.784607470035553,
            "319": -0.03410905972123146,
            "320": 0.8917507529258728,
            "321": -0.5785706043243408,
            "322": 0.21742212772369385,
            "323": 0.7549160122871399,
            "324": -0.9510306715965271,
            "325": -1.0359684228897095,
            "326": -0.8564172983169556,
            "327": 0.8188629150390625,
            "328": 0.6276395320892334,
            "329": -0.7223554849624634,
            "330": -1.279543161392212,
            "331": 1.3573390245437622,
            "332": 0.8541724681854248,
            "333": 1.3185319900512695,
            "334": -0.8918682932853699,
            "335": -0.9467462301254272,
            "336": 1.157925009727478,
            "337": -0.5739497542381287,
            "338": 0.8051766753196716,
            "339": -0.9738600850105286,
            "340": 0.7908195853233337,
            "341": 0.7619737386703491,
            "342": 0.2973085045814514,
            "343": -0.1475195735692978,
            "344": -0.1720387190580368,
            "345": 0.2827136516571045,
            "346": -0.22320601344108582,
            "347": -0.06825011968612671,
            "348": 0.06307847797870636,
            "349": 0.09009692072868347,
            "350": 0.2460487335920334,
            "351": -0.018670277670025826,
            "352": -0.21381422877311707,
            "353": -0.07924149185419083,
            "354": -0.10181073099374771,
            "355": -0.19376789033412933,
            "356": -0.043871767818927765,
            "357": 0.14472024142742157,
            "358": 0.10054931789636612,
            "359": -0.24331435561180115
          }
        },
        "inputHidden": {
          "rows": 20,
          "columns": 20,
          "weights": {
            "0": 0.016561033204197884,
            "1": 0.34276020526885986,
            "2": 0.4281465709209442,
            "3": 0.2842426300048828,
            "4": -0.11222134530544281,
            "5": 0.05389019101858139,
            "6": 0.4158160090446472,
            "7": 0.1243157833814621,
            "8": 0.012936008162796497,
            "9": 0.03743910789489746,
            "10": -0.4676128625869751,
            "11": 0.2830277681350708,
            "12": 0.022415300831198692,
            "13": -0.4831867218017578,
            "14": 0.36266422271728516,
            "15": 0.2246672660112381,
            "16": 0.07804378867149353,
            "17": -1.0459282398223877,
            "18": 0.10192299634218216,
            "19": 0.07545863091945648,
            "20": 0.23074039816856384,
            "21": -0.30909645557403564,
            "22": 0.44817352294921875,
            "23": 1.3602534532546997,
            "24": -0.2371905893087387,
            "25": -0.22012010216712952,
            "26": 0.775874137878418,
            "27": 0.11030849069356918,
            "28": 0.516273558139801,
            "29": 1.5210944414138794,
            "30": 0.0832073912024498,
            "31": 0.08188480138778687,
            "32": -0.24356769025325775,
            "33": -0.38330769538879395,
            "34": -0.16676363348960876,
            "35": 0.2923285663127899,
            "36": 0.243782177567482,
            "37": 0.061114486306905746,
            "38": 0.8675965666770935,
            "39": -0.7336071729660034,
            "40": 0.3912653923034668,
            "41": 0.5194981098175049,
            "42": -1.3516483306884766,
            "43": 0.2574996054172516,
            "44": 0.6870816946029663,
            "45": 0.04146423935890198,
            "46": 0.3055349588394165,
            "47": 0.8766075968742371,
            "48": -1.9350001811981201,
            "49": 0.14711403846740723,
            "50": 0.09394875913858414,
            "51": 0.7319546341896057,
            "52": -0.36576229333877563,
            "53": 0.7182297110557556,
            "54": -0.5060117840766907,
            "55": -1.5139212608337402,
            "56": 0.33667221665382385,
            "57": 0.5891342163085938,
            "58": -1.5573720932006836,
            "59": -1.9396852254867554,
            "60": -0.4981498420238495,
            "61": 0.13502942025661469,
            "62": 0.5262415409088135,
            "63": -0.28696727752685547,
            "64": -0.06316982209682465,
            "65": 0.48690974712371826,
            "66": 0.26547932624816895,
            "67": 0.2859676778316498,
            "68": 0.3488914966583252,
            "69": -0.7375297546386719,
            "70": -0.5273119211196899,
            "71": 0.14706428349018097,
            "72": 0.5061236619949341,
            "73": 0.9467313289642334,
            "74": 0.47882503271102905,
            "75": 0.3575966954231262,
            "76": -0.6097273230552673,
            "77": -0.49788698554039,
            "78": 0.3751230537891388,
            "79": -0.4160344898700714,
            "80": -0.1426653116941452,
            "81": -0.3065139949321747,
            "82": -0.636327862739563,
            "83": -0.22189585864543915,
            "84": -0.34258732199668884,
            "85": 0.6582738161087036,
            "86": -0.042882513254880905,
            "87": 0.27982014417648315,
            "88": -0.9427922964096069,
            "89": 0.791716992855072,
            "90": -0.3476746082305908,
            "91": -0.05023637413978577,
            "92": 0.18040820956230164,
            "93": 0.32395151257514954,
            "94": -0.2704774737358093,
            "95": -1.8679872751235962,
            "96": -0.36021295189857483,
            "97": -0.620074987411499,
            "98": -1.710253119468689,
            "99": 0.06199086457490921,
            "100": 0.028849616646766663,
            "101": 0.32528117299079895,
            "102": 0.15793396532535553,
            "103": -0.14798292517662048,
            "104": -0.4502967596054077,
            "105": 0.009962587617337704,
            "106": 0.4297369718551636,
            "107": -0.14118841290473938,
            "108": -0.02928715944290161,
            "109": 0.053081996738910675,
            "110": -0.43387138843536377,
            "111": 0.1372026801109314,
            "112": 0.04767778888344765,
            "113": -0.5595190525054932,
            "114": 0.2988724112510681,
            "115": 0.08491325378417969,
            "116": -0.04978786036372185,
            "117": -0.8791557550430298,
            "118": -0.09013230353593826,
            "119": 0.3353806138038635,
            "120": 0.2564617097377777,
            "121": 0.6270360946655273,
            "122": 0.6198307871818542,
            "123": 1.9890459775924683,
            "124": 0.5176271200180054,
            "125": -0.40240028500556946,
            "126": 0.48681047558784485,
            "127": 0.5183401107788086,
            "128": 0.021482592448592186,
            "129": -0.2762707471847534,
            "130": -0.011174115352332592,
            "131": 0.5242822170257568,
            "132": -0.40196582674980164,
            "133": 0.35906437039375305,
            "134": 0.02745034173130989,
            "135": -0.35324281454086304,
            "136": 0.3956637680530548,
            "137": 1.7765166759490967,
            "138": 1.0503438711166382,
            "139": 0.3722696900367737,
            "140": -0.22095990180969238,
            "141": -0.00952763669192791,
            "142": 0.3373517394065857,
            "143": 0.8364055752754211,
            "144": 0.46342945098876953,
            "145": 0.20675376057624817,
            "146": -1.7143614292144775,
            "147": -1.131070613861084,
            "148": 0.05541452765464783,
            "149": 0.513795018196106,
            "150": -0.5968589186668396,
            "151": 0.06821781396865845,
            "152": 0.33671805262565613,
            "153": -0.2966444492340088,
            "154": 0.4959292411804199,
            "155": -0.5639533400535583,
            "156": -0.12697315216064453,
            "157": 0.3877127766609192,
            "158": 0.8584120273590088,
            "159": 1.0278066396713257,
            "160": -0.40036141872406006,
            "161": -0.24275290966033936,
            "162": -0.8746058940887451,
            "163": 0.055087219923734665,
            "164": -0.0822886973619461,
            "165": 0.37931787967681885,
            "166": -0.8536030650138855,
            "167": -0.12041418254375458,
            "168": -0.8015366792678833,
            "169": 0.1669546514749527,
            "170": -0.03823236748576164,
            "171": 0.9134858250617981,
            "172": 0.44602566957473755,
            "173": 1.2949799299240112,
            "174": 0.6588865518569946,
            "175": -0.46137839555740356,
            "176": -0.4159720540046692,
            "177": 0.6220799684524536,
            "178": -0.7655324339866638,
            "179": -0.05811529606580734,
            "180": -0.28566238284111023,
            "181": -0.4662109315395355,
            "182": -0.2509627640247345,
            "183": -0.08990834653377533,
            "184": -0.2848517894744873,
            "185": 0.28660184144973755,
            "186": -1.684733510017395,
            "187": -1.0438257455825806,
            "188": -0.3603452742099762,
            "189": 0.42349007725715637,
            "190": 0.14742256700992584,
            "191": -0.2561526596546173,
            "192": 0.21353484690189362,
            "193": -0.6055889129638672,
            "194": -0.09369413554668427,
            "195": -0.30237579345703125,
            "196": -0.2330697774887085,
            "197": -0.33911752700805664,
            "198": -0.5889927744865417,
            "199": 0.797657310962677,
            "200": 0.24978548288345337,
            "201": 0.11684459447860718,
            "202": 1.1004453897476196,
            "203": -0.09643212705850601,
            "204": -0.10062796622514725,
            "205": -0.5558249354362488,
            "206": 0.8318514227867126,
            "207": -0.4509541988372803,
            "208": 0.7952238917350769,
            "209": -0.6359735727310181,
            "210": 0.489653080701828,
            "211": -0.20290778577327728,
            "212": -0.26940998435020447,
            "213": -1.4343483448028564,
            "214": 0.09856415539979935,
            "215": 1.4395209550857544,
            "216": 0.36867019534111023,
            "217": -0.046239063143730164,
            "218": 1.2626272439956665,
            "219": 0.6167442798614502,
            "220": -0.2744984030723572,
            "221": -0.21697700023651123,
            "222": 0.8852218389511108,
            "223": -0.5991684794425964,
            "224": -0.36390721797943115,
            "225": -0.12506628036499023,
            "226": 0.46201997995376587,
            "227": -0.5717322826385498,
            "228": 1.098737120628357,
            "229": -0.378367155790329,
            "230": -1.2101162672042847,
            "231": -0.8208054304122925,
            "232": 0.5279902815818787,
            "233": -0.3378501534461975,
            "234": 1.5599782466888428,
            "235": 1.246924638748169,
            "236": -0.14485576748847961,
            "237": 0.9359394311904907,
            "238": 1.3371278047561646,
            "239": 0.181346595287323,
            "240": 0.008350114338099957,
            "241": 0.33959025144577026,
            "242": 0.3691743314266205,
            "243": 0.12118379026651382,
            "244": -0.24849794805049896,
            "245": 0.03565027937293053,
            "246": 0.4202004373073578,
            "247": 0.00691167451441288,
            "248": -0.036154527217149734,
            "249": -0.30799853801727295,
            "250": -0.011627303436398506,
            "251": 0.28533735871315,
            "252": 0.023782044649124146,
            "253": -0.46586453914642334,
            "254": -0.14971862733364105,
            "255": 0.1857527494430542,
            "256": 0.08623325079679489,
            "257": -0.9525610208511353,
            "258": -0.024934107437729836,
            "259": 0.1945488601922989,
            "260": -0.7344085574150085,
            "261": -0.3213264048099518,
            "262": 0.6123018860816956,
            "263": 0.2627159655094147,
            "264": -0.39260637760162354,
            "265": 0.5184038877487183,
            "266": 0.27753743529319763,
            "267": -0.051437150686979294,
            "268": 0.446504682302475,
            "269": 0.48315536975860596,
            "270": -1.1929563283920288,
            "271": -1.022725224494934,
            "272": 0.7593151926994324,
            "273": 0.19083617627620697,
            "274": 0.8213801980018616,
            "275": 0.5638030767440796,
            "276": -0.5027132630348206,
            "277": -0.17026282846927643,
            "278": 0.8482775092124939,
            "279": -0.2576298415660858,
            "280": -0.09652994573116302,
            "281": 0.17413845658302307,
            "282": 0.6827303171157837,
            "283": 0.22509340941905975,
            "284": -0.6152326464653015,
            "285": 0.10334648191928864,
            "286": 0.25990280508995056,
            "287": 0.09906233847141266,
            "288": 0.33785280585289,
            "289": 0.06845340877771378,
            "290": -0.5543860197067261,
            "291": 0.21263207495212555,
            "292": 0.13815970718860626,
            "293": -0.32647505402565,
            "294": 0.4576610028743744,
            "295": 0.5492417216300964,
            "296": -0.22755806148052216,
            "297": -1.1371392011642456,
            "298": 0.38702747225761414,
            "299": -0.023231668397784233,
            "300": 0.21999499201774597,
            "301": 0.10930909961462021,
            "302": -0.3401638865470886,
            "303": 0.06706547737121582,
            "304": 0.2731253206729889,
            "305": 0.03456522151827812,
            "306": 0.02349463663995266,
            "307": 0.141549214720726,
            "308": 0.15805023908615112,
            "309": -0.5334928035736084,
            "310": 0.3094664514064789,
            "311": 0.24562866985797882,
            "312": -0.16683147847652435,
            "313": -0.03709501028060913,
            "314": -0.23832212388515472,
            "315": 1.008359432220459,
            "316": 0.3325926959514618,
            "317": 0.5781232714653015,
            "318": -0.1749418079853058,
            "319": -0.532600998878479,
            "320": 0.33629363775253296,
            "321": 0.15417736768722534,
            "322": 0.42728134989738464,
            "323": -0.2123589962720871,
            "324": -0.494037926197052,
            "325": -0.2875148355960846,
            "326": 0.44076550006866455,
            "327": 0.27721676230430603,
            "328": 0.514850378036499,
            "329": -0.6103480458259583,
            "330": -0.1447697877883911,
            "331": -0.21492494642734528,
            "332": -0.26801440119743347,
            "333": -0.9100630879402161,
            "334": -0.09330753237009048,
            "335": 0.5702085494995117,
            "336": 0.27395591139793396,
            "337": -1.0394366979599,
            "338": 0.32342997193336487,
            "339": 0.18158389627933502,
            "340": 0.2193814367055893,
            "341": 0.14610408246517181,
            "342": 0.203810915350914,
            "343": 0.5674489140510559,
            "344": -0.42973393201828003,
            "345": -0.5258461833000183,
            "346": 0.2731761336326599,
            "347": -0.30771681666374207,
            "348": 0.5438265204429626,
            "349": 0.808256983757019,
            "350": 0.3262086808681488,
            "351": 0.027391720563173294,
            "352": -0.17799030244350433,
            "353": -0.10696874558925629,
            "354": -0.1559949666261673,
            "355": 0.41154852509498596,
            "356": 0.43407076597213745,
            "357": 0.9311898350715637,
            "358": 0.8078615069389343,
            "359": 0.05334394797682762,
            "360": 0.4602343738079071,
            "361": 0.2027650773525238,
            "362": -1.0094197988510132,
            "363": -0.5632391571998596,
            "364": 0.3488214910030365,
            "365": -0.38609540462493896,
            "366": 0.21128913760185242,
            "367": 1.0985572338104248,
            "368": 0.09508444368839264,
            "369": -0.6601781845092773,
            "370": 0.4950334429740906,
            "371": -0.04504069685935974,
            "372": -0.4127832353115082,
            "373": 1.2107394933700562,
            "374": -0.3841714859008789,
            "375": 0.36898624897003174,
            "376": 0.400434285402298,
            "377": 1.402972936630249,
            "378": 0.5417788028717041,
            "379": -1.0997451543807983,
            "380": 0.7548362612724304,
            "381": 0.5669660568237305,
            "382": 0.609035313129425,
            "383": 0.7565733194351196,
            "384": 0.7391709089279175,
            "385": -0.817291259765625,
            "386": -0.43546032905578613,
            "387": 0.0920257493853569,
            "388": 0.9176819920539856,
            "389": -0.020703893154859543,
            "390": 0.6767857074737549,
            "391": 0.3302607536315918,
            "392": -0.9991328120231628,
            "393": -1.4592134952545166,
            "394": -1.3318804502487183,
            "395": 0.33998286724090576,
            "396": 0.8789380788803101,
            "397": -0.2409491389989853,
            "398": 1.2575403451919556,
            "399": 0.8510817885398865
          }
        },
        "inputBias": {
          "rows": 20,
          "columns": 1,
          "weights": {
            "0": -0.6151400804519653,
            "1": -0.6528601050376892,
            "2": 0.042979396879673004,
            "3": 0.3841685354709625,
            "4": -0.30104008316993713,
            "5": -1.0789498090744019,
            "6": 1.0124330520629883,
            "7": 0.15210311114788055,
            "8": -0.1645626723766327,
            "9": 1.0122301578521729,
            "10": 0.6573594212532043,
            "11": -0.747414767742157,
            "12": -0.2658846080303192,
            "13": -0.48313143849372864,
            "14": 0.14087237417697906,
            "15": 0.3431248962879181,
            "16": -0.2860453724861145,
            "17": -0.591159999370575,
            "18": -0.03654441237449646,
            "19": 1.019593358039856
          }
        },
        "forgetMatrix": {
          "rows": 20,
          "columns": 18,
          "weights": {
            "0": -0.7677160501480103,
            "1": 0.4583868086338043,
            "2": 0.33427080512046814,
            "3": -0.5422892570495605,
            "4": -0.34752586483955383,
            "5": 0.8723287582397461,
            "6": -0.1177128404378891,
            "7": -0.6255140900611877,
            "8": -0.28817304968833923,
            "9": -0.41893795132637024,
            "10": 0.3331323266029358,
            "11": 0.3742899000644684,
            "12": -0.6903334259986877,
            "13": 0.5626027584075928,
            "14": -0.6985551118850708,
            "15": 0.9004514217376709,
            "16": 0.17045192420482635,
            "17": -0.7588000893592834,
            "18": -0.6608412265777588,
            "19": 0.46753954887390137,
            "20": 0.8056288957595825,
            "21": -0.10953325778245926,
            "22": -0.5641618967056274,
            "23": 0.32700979709625244,
            "24": 0.07164015620946884,
            "25": -0.2591332495212555,
            "26": -0.08272307366132736,
            "27": 0.25699102878570557,
            "28": 0.004555094987154007,
            "29": 0.21172763407230377,
            "30": -0.04681399092078209,
            "31": 0.7813973426818848,
            "32": -0.04771028459072113,
            "33": 0.026329852640628815,
            "34": -0.5778841972351074,
            "35": -0.2749282419681549,
            "36": 0.16343359649181366,
            "37": -1.1038849353790283,
            "38": -1.1865301132202148,
            "39": 0.9895975589752197,
            "40": 1.1531585454940796,
            "41": -0.8485302925109863,
            "42": -0.7018699049949646,
            "43": 0.40185683965682983,
            "44": 1.206610083580017,
            "45": 0.007189429365098476,
            "46": -0.8381673693656921,
            "47": -1.2450684309005737,
            "48": 0.5068376064300537,
            "49": -0.31107449531555176,
            "50": 0.38384538888931274,
            "51": -0.47828012704849243,
            "52": 0.7708095908164978,
            "53": 0.49055176973342896,
            "54": -1.0770262479782104,
            "55": -0.2507757246494293,
            "56": -0.011359365656971931,
            "57": -0.08590944111347198,
            "58": 0.3077901601791382,
            "59": 0.02420983649790287,
            "60": -0.9818993210792542,
            "61": -0.12199573218822479,
            "62": 0.24534805119037628,
            "63": -0.0037736245431005955,
            "64": -0.2033730447292328,
            "65": -0.10889921337366104,
            "66": -0.13798876106739044,
            "67": 0.01659359782934189,
            "68": -0.004417798947542906,
            "69": -0.03417280688881874,
            "70": 0.44989949464797974,
            "71": -0.37199339270591736,
            "72": 0.17324668169021606,
            "73": 0.13576647639274597,
            "74": -0.6159951090812683,
            "75": 0.47101321816444397,
            "76": 0.35449784994125366,
            "77": 0.426018625497818,
            "78": -0.2293485552072525,
            "79": 0.35416802763938904,
            "80": 0.43641164898872375,
            "81": 0.43534359335899353,
            "82": -0.6542046666145325,
            "83": -0.26911091804504395,
            "84": 0.15152715146541595,
            "85": -0.3962247669696808,
            "86": 0.21398115158081055,
            "87": -0.4458731412887573,
            "88": 0.7875115871429443,
            "89": 0.2441159188747406,
            "90": -0.7624400854110718,
            "91": -0.07144194841384888,
            "92": -0.1212616041302681,
            "93": -0.5452086329460144,
            "94": 0.05597399175167084,
            "95": 0.7798879742622375,
            "96": -0.16243422031402588,
            "97": -0.5984416007995605,
            "98": -0.3709990382194519,
            "99": -0.4492173194885254,
            "100": 0.16749365627765656,
            "101": -0.003957493230700493,
            "102": -0.4892023503780365,
            "103": 0.8920937776565552,
            "104": -0.5072463750839233,
            "105": 0.5842697024345398,
            "106": 0.491544246673584,
            "107": -0.6081216335296631,
            "108": 0.5174862742424011,
            "109": 0.05783233419060707,
            "110": -0.16252341866493225,
            "111": 0.6879249215126038,
            "112": 0.2515260875225067,
            "113": -1.1043394804000854,
            "114": -0.008099889382719994,
            "115": 1.11735200881958,
            "116": 0.20465297996997833,
            "117": 0.5736291408538818,
            "118": -0.09043387323617935,
            "119": -0.1149107813835144,
            "120": 0.784142017364502,
            "121": -1.060102939605713,
            "122": 0.2633756101131439,
            "123": -1.1553903818130493,
            "124": 0.13691088557243347,
            "125": 1.0024181604385376,
            "126": 0.33763882517814636,
            "127": 0.246074840426445,
            "128": 0.10517160594463348,
            "129": 0.005464683286845684,
            "130": 0.35473987460136414,
            "131": -0.9932284951210022,
            "132": -0.1252003163099289,
            "133": 0.9968148469924927,
            "134": -0.027990899980068207,
            "135": 0.8085852265357971,
            "136": 0.1645747274160385,
            "137": 0.07464122772216797,
            "138": 0.6127231121063232,
            "139": -0.8313114643096924,
            "140": 0.6277672648429871,
            "141": -0.9192078113555908,
            "142": -0.2313760221004486,
            "143": 1.1063580513000488,
            "144": 0.4405023753643036,
            "145": -0.4309162199497223,
            "146": -0.3890172243118286,
            "147": 0.7979326844215393,
            "148": 0.7540048360824585,
            "149": -0.8984189033508301,
            "150": -0.5255345106124878,
            "151": 0.7196518778800964,
            "152": 0.6054790616035461,
            "153": 0.1329161375761032,
            "154": -0.7191142439842224,
            "155": -0.37088900804519653,
            "156": 0.5130816698074341,
            "157": -0.38684698939323425,
            "158": 0.715384840965271,
            "159": -0.9473924040794373,
            "160": 0.3206024169921875,
            "161": 0.8143635392189026,
            "162": -0.17171254754066467,
            "163": -0.4353475272655487,
            "164": -0.2811826169490814,
            "165": -0.2276230901479721,
            "166": -0.3958670496940613,
            "167": -0.24277830123901367,
            "168": -0.5043898820877075,
            "169": 1.235295295715332,
            "170": -0.6107802391052246,
            "171": 1.4959722757339478,
            "172": 0.2685089409351349,
            "173": 0.3377940356731415,
            "174": 1.2714717388153076,
            "175": 0.8438798189163208,
            "176": 1.09226655960083,
            "177": -1.15440034866333,
            "178": 0.25846877694129944,
            "179": 0.5217171311378479,
            "180": -0.9887401461601257,
            "181": 0.9019566178321838,
            "182": 0.9349708557128906,
            "183": -0.515874981880188,
            "184": -0.6588691473007202,
            "185": 0.076190285384655,
            "186": -0.2887045741081238,
            "187": -0.2875957787036896,
            "188": -0.4419950246810913,
            "189": 0.5929370522499084,
            "190": 0.3740498125553131,
            "191": 0.889532208442688,
            "192": -0.2245894968509674,
            "193": 0.23354150354862213,
            "194": -0.07619313150644302,
            "195": 0.4733026325702667,
            "196": -0.8049255609512329,
            "197": -0.7133593559265137,
            "198": -1.1277096271514893,
            "199": 0.14838533103466034,
            "200": -0.06325066089630127,
            "201": 0.540694534778595,
            "202": 0.739176869392395,
            "203": -0.258762925863266,
            "204": -0.7377633452415466,
            "205": -0.1355224996805191,
            "206": 0.4621589779853821,
            "207": -0.5502596497535706,
            "208": -0.5357007384300232,
            "209": -0.32086166739463806,
            "210": -0.27278220653533936,
            "211": -0.8409285545349121,
            "212": 0.016600536182522774,
            "213": -0.07595716416835785,
            "214": 0.341570109128952,
            "215": -0.06895650923252106,
            "216": -0.9029751420021057,
            "217": 0.1900792419910431,
            "218": 0.21767613291740417,
            "219": -0.6224185824394226,
            "220": -0.2596029043197632,
            "221": 0.8049152493476868,
            "222": -0.20518696308135986,
            "223": -0.4991418719291687,
            "224": -0.4942459762096405,
            "225": -0.20001220703125,
            "226": 0.36358943581581116,
            "227": 0.34944871068000793,
            "228": -0.6188879013061523,
            "229": 0.7108651995658875,
            "230": -0.5888962745666504,
            "231": 0.6508777141571045,
            "232": 0.046048618853092194,
            "233": -0.6714761853218079,
            "234": 1.929816484451294,
            "235": -0.1121576726436615,
            "236": -0.38404983282089233,
            "237": 0.11370141804218292,
            "238": -0.0030517573468387127,
            "239": -1.0493611097335815,
            "240": 0.38174325227737427,
            "241": 0.8742800354957581,
            "242": -0.09981071203947067,
            "243": 0.5380204916000366,
            "244": 0.16507619619369507,
            "245": -0.20570287108421326,
            "246": 1.2031968832015991,
            "247": -0.9944467544555664,
            "248": 1.122741937637329,
            "249": -0.6787335276603699,
            "250": 0.12126201391220093,
            "251": 1.3473488092422485,
            "252": -1.0633429288864136,
            "253": 0.5441363453865051,
            "254": 0.9508512616157532,
            "255": -0.856553852558136,
            "256": -1.2822158336639404,
            "257": 0.8986392617225647,
            "258": -0.20988503098487854,
            "259": -0.2977646291255951,
            "260": -0.9019812941551208,
            "261": 0.860503077507019,
            "262": 0.5300660133361816,
            "263": 1.1132298707962036,
            "264": -0.3149201273918152,
            "265": 1.4078260660171509,
            "266": -0.05785830691456795,
            "267": 0.22061145305633545,
            "268": -0.6821039915084839,
            "269": -0.6668161749839783,
            "270": 0.3591543436050415,
            "271": -1.522736668586731,
            "272": -1.5725619792938232,
            "273": 1.0601755380630493,
            "274": 1.5930933952331543,
            "275": -0.4673016369342804,
            "276": -0.656856119632721,
            "277": -0.15070085227489471,
            "278": 1.3697534799575806,
            "279": -0.2573503255844116,
            "280": -1.2399007081985474,
            "281": -1.6339445114135742,
            "282": 0.36308273673057556,
            "283": 0.06693161278963089,
            "284": 0.41123083233833313,
            "285": -0.4406132400035858,
            "286": 0.8404217958450317,
            "287": 0.27265140414237976,
            "288": -0.7700140476226807,
            "289": -0.06449312716722488,
            "290": -0.05855365842580795,
            "291": -0.3931364119052887,
            "292": -0.0655529573559761,
            "293": 0.32622426748275757,
            "294": -0.2854149341583252,
            "295": -0.2127429097890854,
            "296": -0.34770411252975464,
            "297": 0.08841539174318314,
            "298": 0.388698548078537,
            "299": 0.14508283138275146,
            "300": -0.18357083201408386,
            "301": 0.5393613576889038,
            "302": -0.17707404494285583,
            "303": 0.08723533898591995,
            "304": -0.009652097709476948,
            "305": -0.2791832685470581,
            "306": 0.08522731065750122,
            "307": 0.16018949449062347,
            "308": 0.30786699056625366,
            "309": -0.5793908834457397,
            "310": -0.2917095720767975,
            "311": -0.8448318839073181,
            "312": 0.2072990983724594,
            "313": 0.6338126063346863,
            "314": -0.48721984028816223,
            "315": 0.879226565361023,
            "316": 0.6151875257492065,
            "317": 0.21528217196464539,
            "318": 0.3567216396331787,
            "319": -0.33402907848358154,
            "320": 0.8852569460868835,
            "321": -1.0481288433074951,
            "322": -0.173127219080925,
            "323": 1.0250290632247925,
            "324": 0.42521655559539795,
            "325": -0.8331396579742432,
            "326": -0.8574334383010864,
            "327": 0.9368944764137268,
            "328": 0.8462857604026794,
            "329": 0.10411828756332397,
            "330": -0.5074231624603271,
            "331": -0.05107136443257332,
            "332": 0.8200744986534119,
            "333": -0.5733298063278198,
            "334": -0.9432756304740906,
            "335": -0.9013049602508545,
            "336": 0.19798851013183594,
            "337": -0.21828055381774902,
            "338": 0.13017089664936066,
            "339": -0.08142877370119095,
            "340": 0.7897986173629761,
            "341": -0.1211196780204773,
            "342": 0.45277172327041626,
            "343": 0.8536713123321533,
            "344": 0.7548753023147583,
            "345": -0.8058428168296814,
            "346": -0.4520752727985382,
            "347": -0.09428193420171738,
            "348": 0.7223629355430603,
            "349": 0.19245374202728271,
            "350": -1.3571720123291016,
            "351": 0.0158251840621233,
            "352": 0.8508602380752563,
            "353": 1.1113507747650146,
            "354": -0.016906065866351128,
            "355": -0.7019192576408386,
            "356": -0.03026113286614418,
            "357": 0.07417578995227814,
            "358": -0.30757439136505127,
            "359": 0.0943119153380394
          }
        },
        "forgetHidden": {
          "rows": 20,
          "columns": 20,
          "weights": {
            "0": -0.5682783126831055,
            "1": -0.5339838862419128,
            "2": -0.13435395061969757,
            "3": -0.4158237874507904,
            "4": 0.15659095346927643,
            "5": 0.48849916458129883,
            "6": -0.2920389473438263,
            "7": -0.08403138071298599,
            "8": -0.003129224292933941,
            "9": -0.8207451701164246,
            "10": -0.5462836623191833,
            "11": -0.3749816119670868,
            "12": 0.46323302388191223,
            "13": 0.18191492557525635,
            "14": 0.5357002019882202,
            "15": -0.21492759883403778,
            "16": -0.5848937034606934,
            "17": -0.8300828337669373,
            "18": -0.336505264043808,
            "19": 0.2547164857387543,
            "20": -0.021809017285704613,
            "21": -0.7466071844100952,
            "22": -0.04896281659603119,
            "23": -0.8531567454338074,
            "24": -0.6747571229934692,
            "25": 0.08972207456827164,
            "26": 0.35081276297569275,
            "27": 0.19648563861846924,
            "28": 1.0117257833480835,
            "29": -0.024073338136076927,
            "30": -0.1001167744398117,
            "31": -0.3392835259437561,
            "32": 0.10063472390174866,
            "33": -0.7175479531288147,
            "34": 0.058441996574401855,
            "35": 0.2755591571331024,
            "36": -0.2460140734910965,
            "37": -0.3792904019355774,
            "38": 1.1883368492126465,
            "39": -0.2582942545413971,
            "40": -0.15191589295864105,
            "41": -0.3326955735683441,
            "42": 0.7819880843162537,
            "43": -0.3180044889450073,
            "44": -0.5539591312408447,
            "45": 0.02141757123172283,
            "46": 0.29313284158706665,
            "47": -0.3439317047595978,
            "48": 0.38623639941215515,
            "49": 0.44116297364234924,
            "50": 0.05647200718522072,
            "51": -0.20401529967784882,
            "52": 0.23818837106227875,
            "53": 0.1452116221189499,
            "54": 0.19257569313049316,
            "55": 0.8011684417724609,
            "56": -0.3226485252380371,
            "57": 0.16140639781951904,
            "58": 0.5596873164176941,
            "59": 0.18126417696475983,
            "60": -0.4705478250980377,
            "61": -0.3738560974597931,
            "62": -0.41112270951271057,
            "63": -0.920304000377655,
            "64": -0.5032248497009277,
            "65": 0.6723333597183228,
            "66": -0.00528305908665061,
            "67": 0.07339710742235184,
            "68": -0.21100254356861115,
            "69": -0.9421685338020325,
            "70": -0.5660185217857361,
            "71": -0.8007736802101135,
            "72": 0.6663094758987427,
            "73": -0.5163588523864746,
            "74": 0.6944250464439392,
            "75": -0.26108720898628235,
            "76": -0.49877119064331055,
            "77": -0.2947947084903717,
            "78": -0.4726147949695587,
            "79": 0.2813776731491089,
            "80": -0.7157471179962158,
            "81": -0.6108294129371643,
            "82": 0.5586314797401428,
            "83": -0.8810830116271973,
            "84": -0.9770536422729492,
            "85": 0.7519509196281433,
            "86": -0.4459482431411743,
            "87": -0.3519800901412964,
            "88": 0.9492027759552002,
            "89": 0.28202494978904724,
            "90": -0.6996755599975586,
            "91": -0.13704614341259003,
            "92": 0.6612856388092041,
            "93": 0.41572126746177673,
            "94": 0.7218548655509949,
            "95": 1.5532385110855103,
            "96": -0.7573227286338806,
            "97": -0.5877861380577087,
            "98": 0.3240519165992737,
            "99": 0.09377138316631317,
            "100": -0.4998011291027069,
            "101": -0.7210844159126282,
            "102": -0.31414687633514404,
            "103": -0.48388808965682983,
            "104": -0.24701225757598877,
            "105": 0.6690331697463989,
            "106": -0.30098310112953186,
            "107": -0.2679623067378998,
            "108": 0.36920422315597534,
            "109": 0.24301069974899292,
            "110": -0.6199225783348083,
            "111": -0.513884961605072,
            "112": 0.6205496191978455,
            "113": 0.32149967551231384,
            "114": 0.5270012617111206,
            "115": 0.02783077210187912,
            "116": -0.5570538640022278,
            "117": -0.7626214623451233,
            "118": 0.17295464873313904,
            "119": 0.20912539958953857,
            "120": 0.6026769280433655,
            "121": 0.6276634335517883,
            "122": -0.69959557056427,
            "123": -0.05251408368349075,
            "124": 0.5402899384498596,
            "125": -0.6162117123603821,
            "126": -0.09082035720348358,
            "127": 0.2919076383113861,
            "128": -0.10222725570201874,
            "129": -0.5712072849273682,
            "130": 0.07474057376384735,
            "131": 0.033405136317014694,
            "132": -0.559242308139801,
            "133": -0.04088844358921051,
            "134": -0.9980038404464722,
            "135": 0.1865105777978897,
            "136": 0.5709508061408997,
            "137": 0.06547368317842484,
            "138": 0.08333054929971695,
            "139": 0.08826432377099991,
            "140": 0.7957056164741516,
            "141": 0.10709793120622635,
            "142": -0.551971971988678,
            "143": -0.2772165536880493,
            "144": 0.12481530010700226,
            "145": -0.5869092345237732,
            "146": 0.12428354471921921,
            "147": 0.07977431267499924,
            "148": 0.1172584667801857,
            "149": -0.6616852879524231,
            "150": 0.6403872966766357,
            "151": -0.3172164559364319,
            "152": -0.7944833040237427,
            "153": -0.25464093685150146,
            "154": -1.092140555381775,
            "155": 0.6959479451179504,
            "156": 0.8044551610946655,
            "157": -0.1842706948518753,
            "158": 0.1319299191236496,
            "159": 0.1775878220796585,
            "160": -0.8745368123054504,
            "161": -0.2928129732608795,
            "162": -1.0712809562683105,
            "163": -0.4970368444919586,
            "164": 0.3224577307701111,
            "165": 0.6904004812240601,
            "166": -0.45470893383026123,
            "167": -0.4680964946746826,
            "168": -0.7973269820213318,
            "169": -0.7954375743865967,
            "170": 0.12579888105392456,
            "171": -0.033340394496917725,
            "172": 0.6135911345481873,
            "173": 0.15177619457244873,
            "174": 0.48540493845939636,
            "175": -0.7722318172454834,
            "176": -0.2741817235946655,
            "177": 0.7174826264381409,
            "178": -0.48864954710006714,
            "179": 0.7560979127883911,
            "180": -0.5625846982002258,
            "181": -0.882080614566803,
            "182": -0.1879909634590149,
            "183": -0.2807375192642212,
            "184": -0.999250054359436,
            "185": 0.49051907658576965,
            "186": -0.11873132735490799,
            "187": -0.5901181101799011,
            "188": -0.7045611143112183,
            "189": 0.9478845596313477,
            "190": -0.3301136791706085,
            "191": -0.49642321467399597,
            "192": 0.45040959119796753,
            "193": 0.2946011424064636,
            "194": 0.2975638508796692,
            "195": -0.5090979337692261,
            "196": -0.5541189908981323,
            "197": -0.79777991771698,
            "198": -0.508583128452301,
            "199": 0.45959773659706116,
            "200": 0.2650165855884552,
            "201": 0.4405028820037842,
            "202": -0.20137734711170197,
            "203": -0.8398323059082031,
            "204": 0.4156247675418854,
            "205": -0.14388412237167358,
            "206": -0.05012176185846329,
            "207": 0.8354077935218811,
            "208": -0.030440231785178185,
            "209": -1.1060163974761963,
            "210": 0.31906604766845703,
            "211": 0.29009580612182617,
            "212": -0.2318151295185089,
            "213": 0.17548242211341858,
            "214": -0.383175790309906,
            "215": -0.0916999951004982,
            "216": 0.18412159383296967,
            "217": -0.007131857331842184,
            "218": -0.18001137673854828,
            "219": 0.00950127374380827,
            "220": -0.01930125057697296,
            "221": -0.17336887121200562,
            "222": -0.5979945063591003,
            "223": 0.1826014667749405,
            "224": 0.07496800273656845,
            "225": 0.1706022322177887,
            "226": 0.13957065343856812,
            "227": 0.08514552563428879,
            "228": -0.38927772641181946,
            "229": -0.7562611103057861,
            "230": 0.016931472346186638,
            "231": -0.0918586403131485,
            "232": 0.054287832230329514,
            "233": 0.27377375960350037,
            "234": -0.060434430837631226,
            "235": -0.8757733106613159,
            "236": 0.051345594227313995,
            "237": 0.20707713067531586,
            "238": -0.35677459836006165,
            "239": 0.5483954548835754,
            "240": -0.5763527750968933,
            "241": -0.6730066537857056,
            "242": -0.04517842456698418,
            "243": -0.5068131685256958,
            "244": 0.05974092334508896,
            "245": 0.5688115358352661,
            "246": -0.3825492858886719,
            "247": -0.42904558777809143,
            "248": 0.0015326427528634667,
            "249": 0.09864234924316406,
            "250": -0.6193495988845825,
            "251": -0.5104591250419617,
            "252": 0.4866713881492615,
            "253": -0.06771039217710495,
            "254": 0.4558439254760742,
            "255": -0.2981678247451782,
            "256": -0.5878389477729797,
            "257": -0.93243408203125,
            "258": -0.12293160706758499,
            "259": 0.3682979345321655,
            "260": 0.5010650753974915,
            "261": 0.34452369809150696,
            "262": -0.4801066815853119,
            "263": 0.3931199610233307,
            "264": 0.390132874250412,
            "265": -0.5249898433685303,
            "266": 0.19851061701774597,
            "267": -0.04346174746751785,
            "268": -0.11636210232973099,
            "269": 0.06690964847803116,
            "270": 0.055915411561727524,
            "271": -0.27482181787490845,
            "272": -0.427775502204895,
            "273": -0.9864841103553772,
            "274": -0.020100055262446404,
            "275": -0.059786368161439896,
            "276": 0.19937457144260406,
            "277": -0.9192234873771667,
            "278": -0.16838566958904266,
            "279": 0.20168904960155487,
            "280": -0.1824052631855011,
            "281": 0.9062485694885254,
            "282": -0.1891636699438095,
            "283": -0.4571950137615204,
            "284": 0.45128220319747925,
            "285": 0.04890984669327736,
            "286": -0.06080714240670204,
            "287": -0.03839999809861183,
            "288": -0.04115164279937744,
            "289": -1.2943334579467773,
            "290": -0.15798431634902954,
            "291": -0.23746997117996216,
            "292": 0.14320430159568787,
            "293": -0.47700461745262146,
            "294": 0.20242410898208618,
            "295": -0.07243547588586807,
            "296": -0.029164331033825874,
            "297": -0.6600019335746765,
            "298": -0.17692437767982483,
            "299": 0.1102520152926445,
            "300": -0.3735303580760956,
            "301": -0.23457759618759155,
            "302": 0.32853835821151733,
            "303": -0.18548321723937988,
            "304": -0.8107704520225525,
            "305": 0.4408312737941742,
            "306": 0.6417340040206909,
            "307": -0.3523538410663605,
            "308": 0.010417462326586246,
            "309": -0.4219937026500702,
            "310": -0.1487690657377243,
            "311": -0.5764025449752808,
            "312": 0.10028327256441116,
            "313": -0.020882297307252884,
            "314": 0.07196511328220367,
            "315": 0.7900420427322388,
            "316": 0.11157745122909546,
            "317": 0.5827634334564209,
            "318": 0.18877649307250977,
            "319": 0.39354559779167175,
            "320": -0.5632745027542114,
            "321": -0.8338477611541748,
            "322": -0.3986903727054596,
            "323": -0.45775872468948364,
            "324": -0.8120238780975342,
            "325": 0.7005289196968079,
            "326": -0.4643420875072479,
            "327": -0.517946720123291,
            "328": 0.21175622940063477,
            "329": 0.39849454164505005,
            "330": -0.5702440738677979,
            "331": -0.5742867588996887,
            "332": 0.6272023320198059,
            "333": 0.0920848473906517,
            "334": 0.6930938959121704,
            "335": -0.1445806920528412,
            "336": -0.731147825717926,
            "337": -0.9150274395942688,
            "338": -0.45744195580482483,
            "339": 0.5021629333496094,
            "340": 0.2667873799800873,
            "341": 0.36924290657043457,
            "342": -0.28391534090042114,
            "343": 0.20607542991638184,
            "344": 0.1128598004579544,
            "345": -0.17320162057876587,
            "346": 0.4057468771934509,
            "347": 0.12531393766403198,
            "348": -0.2607209086418152,
            "349": -0.15431168675422668,
            "350": -0.7025524973869324,
            "351": 0.13226619362831116,
            "352": -0.0899243950843811,
            "353": -0.3436390161514282,
            "354": 0.08188559859991074,
            "355": -0.39190858602523804,
            "356": 0.013466131873428822,
            "357": -0.4695291817188263,
            "358": -0.38813576102256775,
            "359": 0.6664056777954102,
            "360": -0.3476306200027466,
            "361": -0.3215109407901764,
            "362": -0.8002938628196716,
            "363": 0.36550426483154297,
            "364": 0.4062160849571228,
            "365": 0.31594860553741455,
            "366": -0.03882577642798424,
            "367": -0.21604259312152863,
            "368": -0.591373085975647,
            "369": 0.09782689809799194,
            "370": 0.137566477060318,
            "371": 0.20700542628765106,
            "372": 0.21866083145141602,
            "373": 0.7676748633384705,
            "374": -0.14220330119132996,
            "375": -0.5282896757125854,
            "376": 0.2581842839717865,
            "377": 0.9684175252914429,
            "378": -0.11547306180000305,
            "379": 0.21413911879062653,
            "380": -0.18911370635032654,
            "381": 0.3321819603443146,
            "382": -0.6631934642791748,
            "383": 0.4963272511959076,
            "384": 0.4019668400287628,
            "385": 0.13239070773124695,
            "386": -0.33786460757255554,
            "387": -0.34197890758514404,
            "388": -0.5154870748519897,
            "389": -0.20897962152957916,
            "390": -0.18797816336154938,
            "391": -0.1531948298215866,
            "392": 0.06624333560466766,
            "393": 0.045514121651649475,
            "394": -0.13515284657478333,
            "395": -0.8333494067192078,
            "396": 0.00025241501862183213,
            "397": -0.6269157528877258,
            "398": -0.5984078049659729,
            "399": 0.3397922217845917
          }
        },
        "forgetBias": {
          "rows": 20,
          "columns": 1,
          "weights": {
            "0": 0,
            "1": 0,
            "2": 0,
            "3": 0,
            "4": 0,
            "5": 0,
            "6": 0,
            "7": 0,
            "8": 0,
            "9": 0,
            "10": 0,
            "11": 0,
            "12": 0,
            "13": 0,
            "14": 0,
            "15": 0,
            "16": 0,
            "17": 0,
            "18": 0,
            "19": 0
          }
        },
        "outputMatrix": {
          "rows": 20,
          "columns": 18,
          "weights": {
            "0": -0.6640895009040833,
            "1": 0.8229885697364807,
            "2": 0.7442516684532166,
            "3": -0.8315921425819397,
            "4": -0.7928938865661621,
            "5": 0.5414069890975952,
            "6": 0.4759058654308319,
            "7": -0.43604639172554016,
            "8": -0.6714550256729126,
            "9": -0.22643248736858368,
            "10": 0.5721998810768127,
            "11": 0.948944628238678,
            "12": -0.5009827017784119,
            "13": 0.2518058717250824,
            "14": -0.5746897459030151,
            "15": 0.515702486038208,
            "16": -0.43489694595336914,
            "17": -0.6793768405914307,
            "18": 0.0061722625978291035,
            "19": 0.7939020991325378,
            "20": 0.7302970886230469,
            "21": -0.8055169582366943,
            "22": -1.0363630056381226,
            "23": 0.14407841861248016,
            "24": 0.5316968560218811,
            "25": -0.17712950706481934,
            "26": -0.5990954041481018,
            "27": 0.019344870001077652,
            "28": 0.4632917642593384,
            "29": 0.9266406297683716,
            "30": -0.2563651204109192,
            "31": 0.49137982726097107,
            "32": -0.6169523596763611,
            "33": 0.3590899109840393,
            "34": -0.4721541404724121,
            "35": -0.2747960090637207,
            "36": -0.8546000123023987,
            "37": 0.12061140686273575,
            "38": 0.17011873424053192,
            "39": 0.7686728835105896,
            "40": 0.6768490076065063,
            "41": 0.4094390273094177,
            "42": -1.4403563737869263,
            "43": 0.2601807117462158,
            "44": 0.2837353050708771,
            "45": 0.8224663138389587,
            "46": -0.4616869390010834,
            "47": 0.6693170070648193,
            "48": -0.5121782422065735,
            "49": -0.9485747814178467,
            "50": -0.19232064485549927,
            "51": -0.6068130135536194,
            "52": 0.745019257068634,
            "53": 0.6796387434005737,
            "54": 0.13436543941497803,
            "55": -0.2694428563117981,
            "56": -0.26405563950538635,
            "57": -0.16538046300411224,
            "58": 0.31977373361587524,
            "59": -0.7956835627555847,
            "60": -0.6805834770202637,
            "61": 0.654999315738678,
            "62": -0.0043805125169456005,
            "63": 0.4440280497074127,
            "64": 0.18727225065231323,
            "65": -0.4067310392856598,
            "66": 0.7454813718795776,
            "67": 0.08593419194221497,
            "68": 0.550169050693512,
            "69": -0.5907905697822571,
            "70": 0.3188559114933014,
            "71": 0.6259317398071289,
            "72": -1.1560072898864746,
            "73": 1.27011239528656,
            "74": 1.1620275974273682,
            "75": -0.9091589450836182,
            "76": -0.7377179861068726,
            "77": 0.6582861542701721,
            "78": -0.8585370779037476,
            "79": 0.09245109558105469,
            "80": -0.9972105622291565,
            "81": 0.7525107264518738,
            "82": -0.009142093360424042,
            "83": 1.5769364833831787,
            "84": 0.005197011400014162,
            "85": 0.6560921669006348,
            "86": -0.1659143716096878,
            "87": 0.2923348546028137,
            "88": -0.4530301094055176,
            "89": -0.4073529839515686,
            "90": -0.787608802318573,
            "91": 0.6319103837013245,
            "92": 0.6558970808982849,
            "93": -0.9953696131706238,
            "94": -0.7329973578453064,
            "95": 0.5409029126167297,
            "96": 0.3025829493999481,
            "97": -0.393531858921051,
            "98": -0.7209317684173584,
            "99": 0.46169260144233704,
            "100": 0.6924024224281311,
            "101": 0.8582218885421753,
            "102": -0.45368170738220215,
            "103": 0.9169847369194031,
            "104": -0.4300369620323181,
            "105": 0.49026888608932495,
            "106": -0.38419875502586365,
            "107": -0.5704742670059204,
            "108": 0.3273198902606964,
            "109": 0.5345640778541565,
            "110": 0.8065574765205383,
            "111": -0.1799072027206421,
            "112": -1.419327735900879,
            "113": -0.6286075115203857,
            "114": 0.3768693506717682,
            "115": -0.028460150584578514,
            "116": -0.5528491735458374,
            "117": 0.3229244351387024,
            "118": 0.010530427098274231,
            "119": 0.8983345031738281,
            "120": 0.15818634629249573,
            "121": 0.2601923942565918,
            "122": -0.6873545050621033,
            "123": -0.07296137511730194,
            "124": -0.36802878975868225,
            "125": 0.009637154638767242,
            "126": 0.4412904977798462,
            "127": -0.1124894991517067,
            "128": -0.1637105941772461,
            "129": 0.15379661321640015,
            "130": -0.4905660152435303,
            "131": 0.16393545269966125,
            "132": 0.20462076365947723,
            "133": -0.6130292415618896,
            "134": 0.3404253423213959,
            "135": -0.5487328767776489,
            "136": -0.3569539487361908,
            "137": -0.06012270599603653,
            "138": -0.6384891867637634,
            "139": 1.0352227687835693,
            "140": -1.9563478231430054,
            "141": 1.0510947704315186,
            "142": 0.25334545969963074,
            "143": -0.8747758865356445,
            "144": 0.6355420351028442,
            "145": -0.5295833349227905,
            "146": -0.48598039150238037,
            "147": 0.5379253625869751,
            "148": 0.9925478100776672,
            "149": -0.412858784198761,
            "150": -0.5988059043884277,
            "151": 0.6048864722251892,
            "152": 0.5766319632530212,
            "153": 0.21856197714805603,
            "154": -0.4919278025627136,
            "155": -0.4800683259963989,
            "156": 0.6512890458106995,
            "157": -0.3409819006919861,
            "158": 0.5486695170402527,
            "159": -1.1632800102233887,
            "160": 0.6460554003715515,
            "161": 0.8502352237701416,
            "162": 0.43559762835502625,
            "163": 0.4067535698413849,
            "164": -0.09014961868524551,
            "165": -0.35624730587005615,
            "166": -0.4632338285446167,
            "167": -0.13786889612674713,
            "168": 0.710976243019104,
            "169": -0.062216807156801224,
            "170": -0.3966689705848694,
            "171": -0.37708044052124023,
            "172": 0.6200043559074402,
            "173": -0.12234092503786087,
            "174": 0.0772479847073555,
            "175": -0.46072715520858765,
            "176": 0.05236111208796501,
            "177": -0.02760280668735504,
            "178": -0.25020843744277954,
            "179": -0.21263834834098816,
            "180": 0.7851871848106384,
            "181": 0.6107469201087952,
            "182": 0.9830314517021179,
            "183": -0.6496254801750183,
            "184": -1.2362805604934692,
            "185": -0.19860687851905823,
            "186": 0.9072608351707458,
            "187": -0.026249544695019722,
            "188": -0.595217227935791,
            "189": 0.002026395173743367,
            "190": 0.5259081721305847,
            "191": 1.0397717952728271,
            "192": 0.07069523632526398,
            "193": 0.013181651942431927,
            "194": 0.41949790716171265,
            "195": 0.19094187021255493,
            "196": -1.4339919090270996,
            "197": -0.3284836709499359,
            "198": -0.8481096625328064,
            "199": 0.5026129484176636,
            "200": 0.3022344410419464,
            "201": -0.7478150129318237,
            "202": -0.7172466516494751,
            "203": 0.7230246067047119,
            "204": 0.09398933500051498,
            "205": 0.09546633809804916,
            "206": -0.5020226240158081,
            "207": -0.4944974184036255,
            "208": 0.17918556928634644,
            "209": 0.3752610385417938,
            "210": 0.2170812338590622,
            "211": 1.3389266729354858,
            "212": 0.22065837681293488,
            "213": 0.6307790279388428,
            "214": -0.3878442347049713,
            "215": -0.7233284711837769,
            "216": -0.5609911680221558,
            "217": 0.8011779189109802,
            "218": 0.9468424916267395,
            "219": -0.918782114982605,
            "220": -1.0401406288146973,
            "221": 0.5780980587005615,
            "222": 0.48433902859687805,
            "223": -0.3631608784198761,
            "224": -0.950977623462677,
            "225": 0.11972911655902863,
            "226": 0.7171529531478882,
            "227": 1.0370346307754517,
            "228": -0.4261883795261383,
            "229": 0.38741838932037354,
            "230": -0.23339873552322388,
            "231": 0.629183828830719,
            "232": -0.169430673122406,
            "233": -0.6944088935852051,
            "234": 0.8965548872947693,
            "235": -0.5879532098770142,
            "236": -0.3311960697174072,
            "237": -0.34753280878067017,
            "238": -0.4495241343975067,
            "239": 0.23123054206371307,
            "240": 0.20530939102172852,
            "241": 0.888022243976593,
            "242": -0.18748468160629272,
            "243": 0.8977063298225403,
            "244": 0.43550416827201843,
            "245": -0.1417565494775772,
            "246": 0.79632967710495,
            "247": 0.4785134196281433,
            "248": 0.7620362043380737,
            "249": -0.21957986056804657,
            "250": 0.4761984050273895,
            "251": 0.5600609183311462,
            "252": 0.5557502508163452,
            "253": 1.0439680814743042,
            "254": 1.0561248064041138,
            "255": -1.082241415977478,
            "256": -1.493134617805481,
            "257": 0.25244155526161194,
            "258": 1.1256593465805054,
            "259": -0.17608734965324402,
            "260": -1.3168137073516846,
            "261": -0.27575451135635376,
            "262": 1.3466306924819946,
            "263": 1.1114927530288696,
            "264": -0.3573310971260071,
            "265": 0.23504777252674103,
            "266": -0.003430032404139638,
            "267": 0.47669339179992676,
            "268": -1.0908470153808594,
            "269": -0.39464429020881653,
            "270": -0.40921324491500854,
            "271": -1.1307963132858276,
            "272": -0.7040374875068665,
            "273": 0.8067440986633301,
            "274": 0.9165289998054504,
            "275": 0.24521487951278687,
            "276": -0.47733181715011597,
            "277": -0.4286468029022217,
            "278": 1.0080868005752563,
            "279": -1.2051095962524414,
            "280": -0.8694248795509338,
            "281": -1.0933810472488403,
            "282": -0.9310665130615234,
            "283": -0.36363422870635986,
            "284": -1.0774403810501099,
            "285": -0.07224442809820175,
            "286": 0.6367350816726685,
            "287": 0.016012875363230705,
            "288": 0.009016603231430054,
            "289": 0.12652485072612762,
            "290": 0.22472470998764038,
            "291": -0.6949948072433472,
            "292": -0.7413047552108765,
            "293": 0.012610653415322304,
            "294": 0.11956548690795898,
            "295": -0.08792991936206818,
            "296": -0.46729761362075806,
            "297": 0.7227290868759155,
            "298": 0.41027915477752686,
            "299": 0.25147223472595215,
            "300": 0.34937864542007446,
            "301": 0.9194985032081604,
            "302": 0.5438005924224854,
            "303": -0.1853783130645752,
            "304": -0.585468590259552,
            "305": -0.1678837686777115,
            "306": 0.8464807868003845,
            "307": -0.35436898469924927,
            "308": -0.2774103283882141,
            "309": -0.223215252161026,
            "310": -0.6024797558784485,
            "311": -1.09669029712677,
            "312": 0.22624987363815308,
            "313": 1.027970552444458,
            "314": -0.3718542158603668,
            "315": 1.2431061267852783,
            "316": 0.4575333297252655,
            "317": -0.4886011481285095,
            "318": 0.858402669429779,
            "319": -0.28244414925575256,
            "320": 0.9526064395904541,
            "321": -1.236882209777832,
            "322": -0.39416736364364624,
            "323": 1.0338521003723145,
            "324": -0.5065317153930664,
            "325": -0.9210647940635681,
            "326": -0.848758339881897,
            "327": 0.8299047946929932,
            "328": 0.6789075136184692,
            "329": -0.8494393825531006,
            "330": -1.021971344947815,
            "331": 1.2784216403961182,
            "332": 0.7897056341171265,
            "333": 1.085655689239502,
            "334": -0.6660510897636414,
            "335": -0.8165075182914734,
            "336": 1.2104918956756592,
            "337": -0.5777245759963989,
            "338": 0.9627588391304016,
            "339": -0.986960232257843,
            "340": 0.7899093627929688,
            "341": 0.8731368184089661,
            "342": 0.06372718513011932,
            "343": 0.40334680676460266,
            "344": 0.3239896297454834,
            "345": 0.17366498708724976,
            "346": -0.27393507957458496,
            "347": 0.022636108100414276,
            "348": 0.4498417377471924,
            "349": -0.1948527991771698,
            "350": 0.07540088891983032,
            "351": -0.34589725732803345,
            "352": -0.2080502212047577,
            "353": 0.3000650405883789,
            "354": -0.4205489754676819,
            "355": -0.12297394871711731,
            "356": -0.30013367533683777,
            "357": 0.31195178627967834,
            "358": -0.25231030583381653,
            "359": -0.35049182176589966
          }
        },
        "outputHidden": {
          "rows": 20,
          "columns": 20,
          "weights": {
            "0": -0.5124724507331848,
            "1": 0.23064126074314117,
            "2": 0.1321091502904892,
            "3": -0.13315172493457794,
            "4": 0.15063194930553436,
            "5": 0.5198007225990295,
            "6": 1.4736278057098389,
            "7": 1.268751859664917,
            "8": 0.08239846676588058,
            "9": -1.124662160873413,
            "10": -1.1391527652740479,
            "11": 0.44658535718917847,
            "12": 0.8791196346282959,
            "13": -0.5060930252075195,
            "14": 1.1402298212051392,
            "15": 0.6361721754074097,
            "16": -0.6129058003425598,
            "17": -1.5950617790222168,
            "18": 0.18634754419326782,
            "19": -1.0942689180374146,
            "20": 0.2129431813955307,
            "21": -0.38008439540863037,
            "22": 0.33568447828292847,
            "23": 0.14901752769947052,
            "24": -0.1141139566898346,
            "25": -0.15602214634418488,
            "26": 0.6016486287117004,
            "27": 0.1536169946193695,
            "28": 1.0160026550292969,
            "29": 0.7989433407783508,
            "30": 0.04635890573263168,
            "31": -0.688594400882721,
            "32": -0.1687966287136078,
            "33": -0.9925710558891296,
            "34": -0.10208218544721603,
            "35": 0.6252390742301941,
            "36": 0.1502033919095993,
            "37": -0.06805122643709183,
            "38": 1.2727545499801636,
            "39": -0.6039137244224548,
            "40": 0.3011641204357147,
            "41": 0.7251177430152893,
            "42": -0.7521199584007263,
            "43": 0.06084064021706581,
            "44": 0.6879395842552185,
            "45": -0.1534191370010376,
            "46": 0.0718885213136673,
            "47": 0.6810179948806763,
            "48": -1.7761547565460205,
            "49": -0.3627307713031769,
            "50": 0.35158756375312805,
            "51": 0.9239646196365356,
            "52": -0.32450586557388306,
            "53": 0.33042240142822266,
            "54": -0.4952628016471863,
            "55": -1.4650958776474,
            "56": 0.3420215845108032,
            "57": 0.4041649103164673,
            "58": -1.4312375783920288,
            "59": -1.3801047801971436,
            "60": -0.9031102657318115,
            "61": -0.7663448452949524,
            "62": 0.8215487599372864,
            "63": -0.8160020112991333,
            "64": -0.4603349268436432,
            "65": 1.0551633834838867,
            "66": -0.278653085231781,
            "67": -0.3029443919658661,
            "68": 0.9019889831542969,
            "69": -0.9973629117012024,
            "70": -0.8068991899490356,
            "71": -0.7463152408599854,
            "72": 0.9486054182052612,
            "73": 1.2348371744155884,
            "74": 0.8762935400009155,
            "75": 0.49268004298210144,
            "76": -0.9537160992622375,
            "77": -0.4499009847640991,
            "78": 0.9872434139251709,
            "79": -0.07634411007165909,
            "80": -0.0588843859732151,
            "81": -0.12860164046287537,
            "82": -1.01954984664917,
            "83": 0.2103748321533203,
            "84": -0.4151296019554138,
            "85": 0.5990989208221436,
            "86": 0.15587478876113892,
            "87": 0.6940837502479553,
            "88": -0.4863433241844177,
            "89": 0.6553189158439636,
            "90": -0.2411992996931076,
            "91": 0.2411518692970276,
            "92": 0.027364227920770645,
            "93": 0.7657313346862793,
            "94": -0.18387068808078766,
            "95": -0.988736093044281,
            "96": -0.3725932538509369,
            "97": -0.7680439352989197,
            "98": -1.5204603672027588,
            "99": -1.1491090059280396,
            "100": -0.4453086256980896,
            "101": 0.2806777358055115,
            "102": 0.1488129049539566,
            "103": -0.09815330058336258,
            "104": -0.5173653960227966,
            "105": 0.6104421019554138,
            "106": 1.5568995475769043,
            "107": 1.4355740547180176,
            "108": 0.2216552197933197,
            "109": -1.6182820796966553,
            "110": -1.1020716428756714,
            "111": 0.5468606352806091,
            "112": 1.0022854804992676,
            "113": -0.8828279376029968,
            "114": 1.1121917963027954,
            "115": 0.5330735445022583,
            "116": -0.9654412269592285,
            "117": -1.5969339609146118,
            "118": 0.15475821495056152,
            "119": -0.7101919651031494,
            "120": 0.6781310439109802,
            "121": 0.8148725032806396,
            "122": 0.757134735584259,
            "123": 0.9322136640548706,
            "124": 0.5847812294960022,
            "125": -0.7914904356002808,
            "126": 0.9341668486595154,
            "127": 0.7522163987159729,
            "128": -0.5216152667999268,
            "129": -0.455012708902359,
            "130": 0.1776578724384308,
            "131": 0.32838183641433716,
            "132": -0.7089084386825562,
            "133": -0.5546147227287292,
            "134": -0.6715948581695557,
            "135": -0.4758099615573883,
            "136": 0.5804339647293091,
            "137": -0.06187327578663826,
            "138": 0.33547309041023254,
            "139": 0.3521992862224579,
            "140": 0.6868844032287598,
            "141": 0.7633647918701172,
            "142": 0.2617011070251465,
            "143": 1.610540747642517,
            "144": 1.6701778173446655,
            "145": -0.9048138856887817,
            "146": -1.5619744062423706,
            "147": -0.3690248727798462,
            "148": -0.33808133006095886,
            "149": 0.546108603477478,
            "150": -0.4871155321598053,
            "151": -0.11879279464483261,
            "152": -0.5058628916740417,
            "153": -1.4639484882354736,
            "154": -0.3233674168586731,
            "155": -0.9095983505249023,
            "156": 0.8255160450935364,
            "157": -0.04304360970854759,
            "158": 0.5317299365997314,
            "159": 0.9300931692123413,
            "160": -0.21178241074085236,
            "161": -0.41083410382270813,
            "162": -1.6199477910995483,
            "163": -0.0650193840265274,
            "164": 0.25067299604415894,
            "165": 0.12085554748773575,
            "166": -0.7810989618301392,
            "167": -0.15828245878219604,
            "168": -0.6239786744117737,
            "169": -0.31284990906715393,
            "170": -0.0874968022108078,
            "171": 0.3037135601043701,
            "172": 0.20890019834041595,
            "173": 1.9902355670928955,
            "174": 0.11384394019842148,
            "175": -1.5738880634307861,
            "176": 0.026892762631177902,
            "177": 2.461016893386841,
            "178": -0.42732831835746765,
            "179": -0.010152545757591724,
            "180": -0.82696533203125,
            "181": -0.4488224387168884,
            "182": 0.9911162257194519,
            "183": -0.3253675103187561,
            "184": -0.7732675671577454,
            "185": 0.6849104166030884,
            "186": -0.3921354115009308,
            "187": -1.0238807201385498,
            "188": -1.4149129390716553,
            "189": 0.8865382671356201,
            "190": -0.5141299962997437,
            "191": -0.4996398985385895,
            "192": 0.7261326909065247,
            "193": 0.8032373189926147,
            "194": 0.4693008065223694,
            "195": -0.8387768864631653,
            "196": -0.8907305598258972,
            "197": -0.8454123735427856,
            "198": -1.5817791223526,
            "199": 0.6915674209594727,
            "200": 0.35021868348121643,
            "201": 0.15075929462909698,
            "202": 0.6051547527313232,
            "203": -0.12857685983181,
            "204": 0.3402603566646576,
            "205": -0.3863779604434967,
            "206": 0.5090494155883789,
            "207": 0.450528085231781,
            "208": 0.5739870667457581,
            "209": -0.7933874130249023,
            "210": 0.4526400864124298,
            "211": -0.06062724068760872,
            "212": -0.3373449742794037,
            "213": -0.7638605237007141,
            "214": -0.3787561357021332,
            "215": 0.6960117220878601,
            "216": 0.30621442198753357,
            "217": -0.12681034207344055,
            "218": 0.648581326007843,
            "219": 0.2938000559806824,
            "220": 0.08282279223203659,
            "221": -0.18302009999752045,
            "222": 0.5266333222389221,
            "223": -0.07342033088207245,
            "224": 0.4842695891857147,
            "225": -0.2681162357330322,
            "226": -0.15180496871471405,
            "227": -0.30088216066360474,
            "228": 0.01388641633093357,
            "229": 0.06308204680681229,
            "230": -0.1515931487083435,
            "231": -0.3391593098640442,
            "232": -0.193182572722435,
            "233": -0.57938152551651,
            "234": -0.05170433223247528,
            "235": 0.23525062203407288,
            "236": 0.12737922370433807,
            "237": 0.4577391743659973,
            "238": 1.0641741752624512,
            "239": 0.575737476348877,
            "240": -0.3481634855270386,
            "241": 0.4435957074165344,
            "242": 0.692116916179657,
            "243": -0.10407202690839767,
            "244": -0.49127036333084106,
            "245": 0.35912325978279114,
            "246": 1.0467467308044434,
