{"weights":{"type":"LSTM","options":{"inputSize":18,"inputRange":18,"hiddenSizes":[20,20],"outputSize":18,"learningRate":0.01,"decayRate":0.999,"smoothEps":1e-8,"regc":0.000001,"clipval":5,"json":null,"dataFormatter":{"values":["i do thisno","i like laravellaravel","i work with laravellaravel","like","neutral"],"indexTable":{"i":0," ":1,"d":2,"o":3,"t":4,"h":5,"s":6,"n":7,"l":8,"k":9,"e":10,"a":11,"r":12,"v":13,"w":14,"u":15,"stop-input":16,"start-output":17},"characterTable":{"0":"i","1":" ","2":"d","3":"o","4":"t","5":"h","6":"s","7":"n","8":"l","9":"k","10":"e","11":"a","12":"r","13":"v","14":"w","15":"u","16":"stop-input","17":"start-output"},"characters":["i"," ","d","o","t","h","s","n","l","k","e","a","r","v","w","u","stop-input","start-output"]}},"input":{"rows":19,"columns":18,"weights":{"0":-0.8387940526008606,"1":0.25612929463386536,"2":0.0832216814160347,"3":0.00611747894436121,"4":-0.34745970368385315,"5":-0.48122039437294006,"6":0.20662178099155426,"7":0.19231876730918884,"8":0.19027578830718994,"9":0.2156207114458084,"10":-0.22810596227645874,"11":-0.17600928246974945,"12":-0.3020457923412323,"13":0.13287052512168884,"14":0.014906910248100758,"15":-0.23080061376094818,"16":-0.18737390637397766,"17":-0.23443172872066498,"18":-0.7416706085205078,"19":-0.17630180716514587,"20":-0.4707971215248108,"21":0.6970939636230469,"22":0.23113414645195007,"23":-0.9611934423446655,"24":0.024980243295431137,"25":1.0230833292007446,"26":-0.3471783995628357,"27":-0.4135293662548065,"28":-0.7526050209999084,"29":0.24826209247112274,"30":0.3631356656551361,"31":-0.19782385230064392,"32":0.9803895950317383,"33":0.6907250285148621,"34":0.11020086705684662,"35":0.1859218329191208,"36":0.5215402245521545,"37":0.2985968291759491,"38":-0.33670371770858765,"39":0.6834301352500916,"40":0.3143802583217621,"41":0.24509666860103607,"42":0.178429514169693,"43":-0.2516750395298004,"44":0.3413822054862976,"45":0.1585361808538437,"46":0.298400342464447,"47":-0.45476168394088745,"48":-0.5905807018280029,"49":-0.2956174314022064,"50":-0.04590930417180061,"51":-0.39078405499458313,"52":-0.37217476963996887,"53":0.7420427203178406,"54":0.00047825349611230195,"55":0.8396068811416626,"56":-0.5614277720451355,"57":0.35074251890182495,"58":-0.7632802724838257,"59":-0.4272080361843109,"60":-0.14928822219371796,"61":-1.1308034658432007,"62":-1.2696129083633423,"63":1.1811602115631104,"64":-0.2884674370288849,"65":-1.3646491765975952,"66":0.48873570561408997,"67":1.836167812347412,"68":-1.7512626647949219,"69":-1.6047195196151733,"70":-1.400647521018982,"71":-1.4508497714996338,"72":-0.5040428638458252,"73":-0.6060141324996948,"74":-0.16526345908641815,"75":0.4015945494174957,"76":0.5546894669532776,"77":-0.5975988507270813,"78":1.198051929473877,"79":0.6418452262878418,"80":0.4120135009288788,"81":-0.5503511428833008,"82":-0.5382195115089417,"83":0.7444485425949097,"84":0.21248023211956024,"85":-0.9978893995285034,"86":0.2592964768409729,"87":0.913650393486023,"88":0.5164406895637512,"89":1.0818548202514648,"90":-0.3255664110183716,"91":-0.26667219400405884,"92":-0.6079298853874207,"93":0.3716907501220703,"94":0.609580934047699,"95":-0.06462287157773972,"96":-0.028700847178697586,"97":-0.033317871391773224,"98":-1.0977938175201416,"99":0.7181164026260376,"100":-0.19113336503505707,"101":-0.9678146839141846,"102":0.7603237628936768,"103":1.1996619701385498,"104":-0.2804069221019745,"105":-0.5995481610298157,"106":-1.0656580924987793,"107":-0.9737483859062195,"108":-0.7231098413467407,"109":0.08105770498514175,"110":-0.8700175285339355,"111":1.1377557516098022,"112":1.0073689222335815,"113":-0.5375844240188599,"114":0.030984792858362198,"115":0.75367271900177,"116":-1.2774583101272583,"117":0.49455133080482483,"118":-0.6142159700393677,"119":-0.6131505370140076,"120":0.9038344025611877,"121":0.4236743748188019,"122":-0.040131065994501114,"123":-0.32311540842056274,"124":-0.34528765082359314,"125":-0.3006893992424011,"126":0.5334652662277222,"127":1.8441016674041748,"128":0.38106217980384827,"129":-0.1237364187836647,"130":-1.6291439533233643,"131":0.19587430357933044,"132":0.7026881575584412,"133":-1.3483452796936035,"134":1.0478373765945435,"135":0.9226685762405396,"136":0.5531184673309326,"137":-1.1507121324539185,"138":-0.23031485080718994,"139":0.7485688924789429,"140":-0.6885397434234619,"141":-1.8044835329055786,"142":-1.3397127389907837,"143":-0.6902151107788086,"144":-0.3780492842197418,"145":1.0304070711135864,"146":-0.49153652787208557,"147":0.21153977513313293,"148":-1.2322667837142944,"149":-0.5471845269203186,"150":-0.6402116417884827,"151":-0.4619884192943573,"152":-1.2162443399429321,"153":1.4733800888061523,"154":-0.3156479597091675,"155":-1.7756463289260864,"156":0.36324238777160645,"157":2.2338461875915527,"158":-1.726275086402893,"159":-1.982762098312378,"160":-1.7114819288253784,"161":-1.5280190706253052,"162":0.7132155299186707,"163":0.5529050827026367,"164":0.7482154369354248,"165":-0.4996563494205475,"166":-0.5690056681632996,"167":1.0572134256362915,"168":-1.0029352903366089,"169":-1.093923807144165,"170":0.07658851146697998,"171":0.8300970792770386,"172":0.8463698029518127,"173":-0.5243902206420898,"174":-0.5165684819221497,"175":0.9412174820899963,"176":-0.3964034616947174,"177":-0.8965060710906982,"178":-0.666723906993866,"179":-0.6994599103927612,"180":0.935667097568512,"181":0.8398308157920837,"182":1.3558427095413208,"183":-1.1142008304595947,"184":-0.6267309784889221,"185":1.094740390777588,"186":-0.7037819027900696,"187":-1.2064048051834106,"188":0.2695169448852539,"189":1.160517692565918,"190":1.4161947965621948,"191":-1.2767064571380615,"192":-0.4972659647464752,"193":0.3251858055591583,"194":-0.7990260720252991,"195":-1.1298129558563232,"196":-0.8599770069122314,"197":-0.4229397177696228,"198":0.2629987895488739,"199":1.6209874153137207,"200":0.9705415964126587,"201":-1.42771577835083,"202":-1.06624436378479,"203":0.7540733218193054,"204":0.08462877571582794,"205":-0.9917016625404358,"206":0.017601415514945984,"207":0.964029848575592,"208":1.0227190256118774,"209":-0.8155293464660645,"210":-0.017679497599601746,"211":0.20332734286785126,"212":-0.8097348809242249,"213":-1.0931968688964844,"214":-1.1418125629425049,"215":-0.03830618038773537,"216":1.2281326055526733,"217":0.5771726965904236,"218":1.2135752439498901,"219":-0.6911193132400513,"220":-1.0763455629348755,"221":0.2427176833152771,"222":0.0313592404127121,"223":-0.21212837100028992,"224":0.6198574900627136,"225":-0.0827881470322609,"226":0.8531157374382019,"227":0.31586968898773193,"228":-1.3279861211776733,"229":-0.6902409195899963,"230":0.5323910117149353,"231":-0.038064152002334595,"232":0.03406798094511032,"233":0.9064704179763794,"234":0.015641191974282265,"235":-0.06246368587017059,"236":-0.138853520154953,"237":-0.1729738563299179,"238":-0.06758338212966919,"239":0.062446970492601395,"240":0.5222296118736267,"241":0.042086269706487656,"242":0.6906406879425049,"243":-0.2579191327095032,"244":-0.100840263068676,"245":0.7216047644615173,"246":-0.29503658413887024,"247":-0.8418871164321899,"248":-0.005727497860789299,"249":0.2065359652042389,"250":0.2623656988143921,"251":0.6626890301704407,"252":0.8160136342048645,"253":0.4727352559566498,"254":0.6825776696205139,"255":-0.6837255954742432,"256":-0.6538277864456177,"257":0.5001618266105652,"258":1.1507678031921387,"259":-0.47499385476112366,"260":0.30430155992507935,"261":0.23377130925655365,"262":0.6845075488090515,"263":-0.2814632058143616,"264":-0.4599633812904358,"265":-1.1248899698257446,"266":-0.011086796410381794,"267":-0.4720920920372009,"268":-0.14809288084506989,"269":0.9711493253707886,"270":0.3434445858001709,"271":1.1244789361953735,"272":0.25685474276542664,"273":-0.051646504551172256,"274":-0.22644923627376556,"275":0.9658176898956299,"276":-0.6138795614242554,"277":-0.9906781315803528,"278":-0.04500756040215492,"279":1.4942615032196045,"280":0.7686843872070312,"281":-1.819021463394165,"282":-0.039121683686971664,"283":0.5253726243972778,"284":-0.648239254951477,"285":-1.4731194972991943,"286":-1.797576665878296,"287":-0.4531768262386322,"288":0.1037541851401329,"289":0.9072965979576111,"290":0.4172566533088684,"291":-1.2495136260986328,"292":-0.35112234950065613,"293":1.8177499771118164,"294":-0.1461557000875473,"295":-2.31834077835083,"296":-0.11761020123958588,"297":1.089738130569458,"298":0.7137271761894226,"299":-0.4450943171977997,"300":-0.05516251549124718,"301":0.7406989336013794,"302":-3.2638566493988037,"303":-2.056844472885132,"304":-0.6779833436012268,"305":-1.1431398391723633,"306":-0.17342515289783478,"307":0.7470541000366211,"308":0.35392555594444275,"309":0.11804831773042679,"310":-0.5622639656066895,"311":0.30847686529159546,"312":-0.8682134747505188,"313":-0.0543457493185997,"314":-0.8587464690208435,"315":0.5023929476737976,"316":0.14806054532527924,"317":-0.7898461222648621,"318":-0.2403096705675125,"319":0.9367602467536926,"320":0.36095839738845825,"321":-0.5086410045623779,"322":-0.5844156742095947,"323":-0.6042854189872742,"324":0.7392063736915588,"325":0.005980829242616892,"326":1.1546647548675537,"327":0.4731929898262024,"328":-0.22857774794101715,"329":-0.5605694055557251,"330":-1.6815952062606812,"331":0.41030949354171753,"332":-0.33981311321258545,"333":-0.09330422431230545,"334":0.2899153232574463,"335":-0.22453290224075317,"336":-0.8773462772369385,"337":0.7185736894607544,"338":1.4328854084014893,"339":-0.07981112599372864,"340":-0.2579326033592224,"341":0.2340165078639984}},"hiddenLayers":[{"inputMatrix":{"rows":20,"columns":18,"weights":{"0":-1.0953645706176758,"1":-0.6394558548927307,"2":-0.79923015832901,"3":0.22268517315387726,"4":0.35281315445899963,"5":-0.8319675326347351,"6":0.7388466000556946,"7":0.9417068362236023,"8":-0.05413825064897537,"9":-0.69037926197052,"10":-1.0773978233337402,"11":1.0295991897583008,"12":0.5706745386123657,"13":-0.4077949523925781,"14":0.2396756112575531,"15":0.7869481444358826,"16":0.5703853368759155,"17":0.16947703063488007,"18":-0.2772403359413147,"19":-0.2742758095264435,"20":-0.3257651925086975,"21":0.17261798679828644,"22":0.05215960741043091,"23":-0.8061600923538208,"24":0.493256539106369,"25":0.6679409742355347,"26":-0.01558272447437048,"27":-0.5060770511627197,"28":-0.4706728458404541,"29":0.7569916248321533,"30":-0.0761093944311142,"31":-0.5631858110427856,"32":0.32777950167655945,"33":0.6396780610084534,"34":0.42179861664772034,"35":0.5347080230712891,"36":0.3685452342033386,"37":0.4908294379711151,"38":0.5643330216407776,"39":-0.5566952228546143,"40":-0.6173478960990906,"41":0.4529101848602295,"42":-0.5276289582252502,"43":-0.4480924904346466,"44":-0.41947245597839355,"45":0.6611286401748657,"46":0.5724565982818604,"47":-0.6020728349685669,"48":-0.48527082800865173,"49":0.6424121856689453,"50":-0.24015472829341888,"51":-0.654593825340271,"52":-0.5398511290550232,"53":-0.6433373093605042,"54":-0.9248847365379333,"55":-0.8135080933570862,"56":-0.3850937485694885,"57":0.5327756404876709,"58":0.7675637602806091,"59":-0.8597548604011536,"60":0.5169020295143127,"61":0.9328356981277466,"62":-0.5957893133163452,"63":-0.7591346502304077,"64":-0.8888814449310303,"65":0.7683523297309875,"66":1.1375287771224976,"67":-0.6460171341896057,"68":0.2324516922235489,"69":1.0703750848770142,"70":0.9268488883972168,"71":0.567388653755188,"72":-0.47366762161254883,"73":0.39741259813308716,"74":-0.5435895919799805,"75":1.307167887687683,"76":0.2380758672952652,"77":-0.8933366537094116,"78":-0.6403352618217468,"79":0.4014972150325775,"80":-1.7818509340286255,"81":0.3304157853126526,"82":-0.1869884729385376,"83":-0.8783499002456665,"84":0.595091700553894,"85":0.7314838171005249,"86":0.8068937659263611,"87":-0.31940412521362305,"88":-0.6588238477706909,"89":0.08286794275045395,"90":-0.29680371284484863,"91":0.270433247089386,"92":-0.025656329467892647,"93":-0.2080872505903244,"94":-0.23519866168498993,"95":0.3438134789466858,"96":0.660912036895752,"97":-0.4578368663787842,"98":0.3016810715198517,"99":0.4523744285106659,"100":0.09075343608856201,"101":-0.32827022671699524,"102":-0.2433822751045227,"103":0.17702655494213104,"104":-1.167501449584961,"105":-0.3298705220222473,"106":-0.2953707277774811,"107":-0.8422725200653076,"108":0.37567460536956787,"109":0.347528874874115,"110":0.08137711882591248,"111":0.5605711340904236,"112":-0.006963649764657021,"113":-0.5202059149742126,"114":0.543641209602356,"115":0.5227360725402832,"116":-0.004981764126569033,"117":-0.30767950415611267,"118":-0.06596196442842484,"119":-0.10627900063991547,"120":-0.5314902067184448,"121":-1.5104511976242065,"122":1.1074296236038208,"123":0.3030789792537689,"124":-0.1929604709148407,"125":2.0558557510375977,"126":0.18022653460502625,"127":0.23272746801376343,"128":0.2939354479312897,"129":0.024020014330744743,"130":-0.18193817138671875,"131":-0.0004020522756036371,"132":0.03668344020843506,"133":-0.03925154358148575,"134":-0.3951443135738373,"135":-0.05894022062420845,"136":0.26409652829170227,"137":-0.24510592222213745,"138":-0.38765451312065125,"139":-0.09553878009319305,"140":0.058715544641017914,"141":-0.08718778938055038,"142":0.06989876925945282,"143":0.2493819296360016,"144":-0.21902884542942047,"145":-0.15013639628887177,"146":0.32804420590400696,"147":-0.08533491939306259,"148":-0.29891255497932434,"149":-0.7325665950775146,"150":0.029186517000198364,"151":0.5753784775733948,"152":0.3256891369819641,"153":-0.6640990376472473,"154":-0.20612357556819916,"155":1.186102032661438,"156":-0.05672282725572586,"157":-0.5603818297386169,"158":1.1309072971343994,"159":0.6808176040649414,"160":0.8149874806404114,"161":0.8264898657798767,"162":-1.0526853799819946,"163":-0.6223055720329285,"164":-0.240395188331604,"165":0.6462613940238953,"166":0.9792956709861755,"167":-0.8081928491592407,"168":0.32368457317352295,"169":0.8439072370529175,"170":-0.9413965344429016,"171":-0.39179325103759766,"172":-0.7957539558410645,"173":0.3157491981983185,"174":1.2797644138336182,"175":-0.2891184091567993,"176":0.37997978925704956,"177":0.8736806511878967,"178":0.5727762579917908,"179":0.09587644785642624,"180":1.4227910041809082,"181":0.785990834236145,"182":0.275326132774353,"183":-0.35092461109161377,"184":-0.7416630387306213,"185":0.8568117618560791,"186":-0.46716466546058655,"187":-0.6570063233375549,"188":-0.22111763060092926,"189":0.6347265243530273,"190":0.7089225649833679,"191":-0.6075732111930847,"192":-0.6779937744140625,"193":0.25979307293891907,"194":-0.39243119955062866,"195":-0.7791932225227356,"196":-0.9726555943489075,"197":0.030647512525320053,"198":0.6254004836082458,"199":0.08539685606956482,"200":0.6174057722091675,"201":-0.44841232895851135,"202":-0.19945555925369263,"203":0.6046557426452637,"204":-0.4462791085243225,"205":-0.276737779378891,"206":0.8952549695968628,"207":-0.0658363550901413,"208":0.5669742226600647,"209":0.2797054946422577,"210":-0.07300931215286255,"211":-0.2703614830970764,"212":0.19248177111148834,"213":0.17463894188404083,"214":0.2627970278263092,"215":0.04126102849841118,"216":-0.31807881593704224,"217":-0.714247465133667,"218":-0.3749324381351471,"219":0.5476090908050537,"220":0.6828354001045227,"221":-0.18747198581695557,"222":0.4012942910194397,"223":0.3924681842327118,"224":-0.4578087031841278,"225":-0.25130370259284973,"226":-0.3922075033187866,"227":0.1783084124326706,"228":0.7387166619300842,"229":-0.0502488911151886,"230":0.15079113841056824,"231":0.36495137214660645,"232":0.07767809182405472,"233":0.29286959767341614,"234":0.02641112729907036,"235":-0.6391257643699646,"236":0.21168401837348938,"237":0.684404730796814,"238":0.4541129767894745,"239":-0.5431860089302063,"240":-0.23947590589523315,"241":1.0831187963485718,"242":-0.369488924741745,"243":-0.8974164128303528,"244":-0.2069614678621292,"245":0.699188768863678,"246":0.22161920368671417,"247":-0.33655834197998047,"248":0.9657435417175293,"249":0.9577062726020813,"250":0.5758194923400879,"251":-0.0017228834331035614,"252":-0.8439390063285828,"253":-0.4535447657108307,"254":-0.7943288087844849,"255":0.2615717947483063,"256":0.30967411398887634,"257":-0.5926040410995483,"258":0.767303466796875,"259":0.4241746962070465,"260":0.2740452289581299,"261":-0.5954031944274902,"262":-0.7242505550384521,"263":0.9209315180778503,"264":0.4294375479221344,"265":-0.5467146039009094,"266":-0.0158216692507267,"267":0.6414160132408142,"268":0.46648404002189636,"269":0.4136735200881958,"270":-0.5797048807144165,"271":-0.3144734799861908,"272":-0.2337409108877182,"273":0.04270617663860321,"274":0.21507561206817627,"275":-0.4672405421733856,"276":1.1841893196105957,"277":0.36945316195487976,"278":0.15647627413272858,"279":-0.043721042573451996,"280":-0.5589466094970703,"281":0.24645759165287018,"282":0.6090542674064636,"283":-0.8692294955253601,"284":-0.15465232729911804,"285":0.32675063610076904,"286":-0.023211633786559105,"287":0.735131561756134,"288":-0.40413662791252136,"289":-0.5219177007675171,"290":-0.722560703754425,"291":1.2958592176437378,"292":0.9386436939239502,"293":-0.5089864134788513,"294":-0.13742443919181824,"295":0.5559958815574646,"296":-0.37078312039375305,"297":-0.01977544091641903,"298":-0.5571704506874084,"299":-0.14870372414588928,"300":0.46012285351753235,"301":0.1612827032804489,"302":0.33202919363975525,"303":0.06337980180978775,"304":-0.31905460357666016,"305":0.02804356999695301,"306":-0.5037915110588074,"307":-0.3050338327884674,"308":-0.48130330443382263,"309":0.0750294178724289,"310":0.12723661959171295,"311":-0.2566390931606293,"312":0.9265444874763489,"313":0.2974729537963867,"314":0.6972116827964783,"315":-0.7492063045501709,"316":-0.5561575889587402,"317":0.8546643853187561,"318":-0.06053192541003227,"319":-1.2272428274154663,"320":0.06944764405488968,"321":0.7336478233337402,"322":0.6556423902511597,"323":1.3999520540237427,"324":-0.5942975878715515,"325":-0.34068113565444946,"326":-0.17102955281734467,"327":0.7045456171035767,"328":0.34117868542671204,"329":-0.7483826875686646,"330":0.24009884893894196,"331":0.9292863607406616,"332":-0.5274595618247986,"333":-0.6803061366081238,"334":-0.5538561344146729,"335":0.5932454466819763,"336":0.9176065921783447,"337":-0.5314412713050842,"338":0.592923104763031,"339":1.0426719188690186,"340":0.6869249939918518,"341":0.6203155517578125,"342":-0.38766181468963623,"343":-0.40831458568573,"344":-0.5934231877326965,"345":0.11268971115350723,"346":0.08373244851827621,"347":-0.6737859845161438,"348":0.21445360779762268,"349":0.5679387450218201,"350":0.05544428154826164,"351":-0.6878101825714111,"352":-0.6734984517097473,"353":0.83670973777771,"354":0.14047783613204956,"355":-0.372415691614151,"356":0.18990324437618256,"357":0.6097468733787537,"358":0.6137747764587402,"359":0.0666099265217781}},"inputHidden":{"rows":20,"columns":20,"weights":{"0":-0.37187692523002625,"1":-0.296508252620697,"2":0.6552217602729797,"3":0.765070378780365,"4":0.23560331761837006,"5":0.3272131085395813,"6":-0.12362677603960037,"7":-0.03512631356716156,"8":-0.6303150653839111,"9":-0.2862134277820587,"10":-0.8848114013671875,"11":0.9282368421554565,"12":0.04722442850470543,"13":-0.15359289944171906,"14":-0.7120272517204285,"15":0.19472648203372955,"16":-0.256858766078949,"17":0.7257639765739441,"18":0.7292919754981995,"19":-0.11302175372838974,"20":0.05165023356676102,"21":0.394771009683609,"22":-0.02935042232275009,"23":0.600206732749939,"24":0.015276115387678146,"25":-0.2813021242618561,"26":-0.13281653821468353,"27":-0.7915721535682678,"28":0.06700709462165833,"29":-0.6449224352836609,"30":-0.3374605178833008,"31":-0.07713394612073898,"32":0.03070390596985817,"33":-0.613134503364563,"34":0.12989820539951324,"35":-0.048127662390470505,"36":0.3898185193538666,"37":-0.23739007115364075,"38":0.5670285224914551,"39":0.2310539335012436,"40":-0.6150822639465332,"41":-0.5755523443222046,"42":-0.12986844778060913,"43":-0.7082909941673279,"44":-0.7921087145805359,"45":-0.14736586809158325,"46":0.6621491312980652,"47":-0.012672536075115204,"48":-0.5240724086761475,"49":0.5801709294319153,"50":1.1352431774139404,"51":-0.1874820441007614,"52":-0.35986611247062683,"53":0.20772093534469604,"54":-0.8438915610313416,"55":0.6862895488739014,"56":-0.46878576278686523,"57":0.3438882827758789,"58":-0.5081986784934998,"59":-0.5019174218177795,"60":0.25277116894721985,"61":0.34965118765830994,"62":-0.5743477940559387,"63":0.05038778483867645,"64":-0.30779337882995605,"65":-0.6521530151367188,"66":0.42414695024490356,"67":-0.46656671166419983,"68":0.3316172957420349,"69":-0.11659878492355347,"70":1.2015408277511597,"71":-0.7627245783805847,"72":0.39801445603370667,"73":-0.2875964045524597,"74":0.3426057696342468,"75":0.31595247983932495,"76":0.20425957441329956,"77":-0.3562416136264801,"78":0.18884462118148804,"79":0.3226560354232788,"80":-0.6481181383132935,"81":-1.2574774026870728,"82":0.1802600771188736,"83":-1.3519096374511719,"84":-0.7676435112953186,"85":-0.17945168912410736,"86":1.0543843507766724,"87":-0.46450328826904297,"88":-0.29970064759254456,"89":1.3336070775985718,"90":0.8424879908561707,"91":0.34966161847114563,"92":0.3073500096797943,"93":1.1749110221862793,"94":-0.44379159808158875,"95":0.3169524371623993,"96":-0.6814255714416504,"97":0.6729674339294434,"98":-1.2664170265197754,"99":-1.1138237714767456,"100":-1.0093978643417358,"101":0.08366193622350693,"102":-0.2528449296951294,"103":0.1597817987203598,"104":-1.134366750717163,"105":-0.36393997073173523,"106":1.3615877628326416,"107":0.2300788164138794,"108":-0.8586472272872925,"109":-0.053801245987415314,"110":0.8231791257858276,"111":-0.7791000604629517,"112":-0.3721337914466858,"113":-0.02663763239979744,"114":-0.926842212677002,"115":0.9898476600646973,"116":-0.9898257255554199,"117":0.9501354694366455,"118":0.17316092550754547,"119":-0.4297221899032593,"120":0.060513705015182495,"121":-0.9824345707893372,"122":0.9736844301223755,"123":-1.6519126892089844,"124":-0.7258965969085693,"125":1.2379438877105713,"126":0.3797765374183655,"127":0.391915500164032,"128":0.39085426926612854,"129":1.824089527130127,"130":1.2145344018936157,"131":1.356248140335083,"132":0.17086240649223328,"133":1.8716708421707153,"134":-0.1248265728354454,"135":-0.16484680771827698,"136":-0.3336191177368164,"137":0.5127516984939575,"138":-1.2185255289077759,"139":-0.2915303707122803,"140":0.802092432975769,"141":0.19709816575050354,"142":-1.5009233951568604,"143":0.6116765737533569,"144":0.5515540838241577,"145":-1.4304674863815308,"146":-0.01815836690366268,"147":-0.5973931550979614,"148":0.8629281520843506,"149":-0.6935889720916748,"150":0.37502118945121765,"151":-1.3398542404174805,"152":0.042683448642492294,"153":-0.7430416941642761,"154":1.1021265983581543,"155":-0.6649909615516663,"156":0.3079068064689636,"157":-1.0701398849487305,"158":0.2510870099067688,"159":1.0844882726669312,"160":-0.1748875379562378,"161":0.028931913897395134,"162":0.8901541829109192,"163":0.28792160749435425,"164":0.6912147402763367,"165":0.7064199447631836,"166":-0.6064064502716064,"167":-0.13656111061573029,"168":-0.48883339762687683,"169":-0.2900446951389313,"170":-0.7612751126289368,"171":0.9401261210441589,"172":0.22025735676288605,"173":-0.2809161841869354,"174":-0.3623519539833069,"175":0.10536522418260574,"176":0.2614388167858124,"177":0.4364062547683716,"178":0.29179126024246216,"179":-0.17232850193977356,"180":-0.14049191772937775,"181":0.5416712164878845,"182":-0.5284338593482971,"183":0.41891592741012573,"184":0.6451669931411743,"185":-0.6699639558792114,"186":0.48282766342163086,"187":-0.5917652249336243,"188":0.22470247745513916,"189":-0.5199546813964844,"190":0.8047710061073303,"191":-0.5789790153503418,"192":0.04730589687824249,"193":-0.7734994888305664,"194":0.06544248759746552,"195":0.37372252345085144,"196":0.271563857793808,"197":-0.022501764819025993,"198":0.6805077195167542,"199":0.5563535094261169,"200":0.060579415410757065,"201":-0.25298771262168884,"202":1.1413942575454712,"203":-0.43193450570106506,"204":-0.5961965322494507,"205":0.8703161478042603,"206":0.08465023338794708,"207":0.4929806590080261,"208":0.013447681441903114,"209":0.7234832644462585,"210":-0.41202396154403687,"211":1.3589574098587036,"212":0.19089430570602417,"213":1.4739758968353271,"214":-0.026857947930693626,"215":-0.39061814546585083,"216":-0.7390804290771484,"217":0.7811318635940552,"218":-0.16711340844631195,"219":0.013370808213949203,"220":-0.8717859387397766,"221":-0.17035041749477386,"222":-0.28947383165359497,"223":-0.5622477531433105,"224":-2.1298515796661377,"225":-0.32300975918769836,"226":1.3741497993469238,"227":0.07316846400499344,"228":-0.7597811818122864,"229":0.4431932270526886,"230":1.4136831760406494,"231":-0.5579786896705627,"232":-0.822530210018158,"233":0.009934313595294952,"234":-0.9114299416542053,"235":0.9509056210517883,"236":-1.1416939496994019,"237":0.4932560622692108,"238":-0.5606065392494202,"239":-0.5424520969390869,"240":0.24394211173057556,"241":0.1187841147184372,"242":-1.0682910680770874,"243":0.5976707339286804,"244":0.5048771500587463,"245":-1.0174262523651123,"246":-0.17252226173877716,"247":0.12752816081047058,"248":0.24647194147109985,"249":-0.566688060760498,"250":-0.17313672602176666,"251":-1.45175039768219,"252":-0.019429579377174377,"253":-0.26474297046661377,"254":0.2386200726032257,"255":-0.07424411177635193,"256":0.03522755950689316,"257":0.11132199317216873,"258":0.5759432315826416,"259":0.11564625799655914,"260":-0.420858234167099,"261":-0.26494309306144714,"262":0.30934640765190125,"263":-0.15903811156749725,"264":0.05217278376221657,"265":0.03066905587911606,"266":0.8823473453521729,"267":0.2841127812862396,"268":-0.329799085855484,"269":0.13552601635456085,"270":1.2852288484573364,"271":-0.04741869494318962,"272":0.3750874400138855,"273":0.19637323915958405,"274":-0.5327032804489136,"275":0.13771499693393707,"276":-0.01009014155715704,"277":0.07859466969966888,"278":-0.11876653879880905,"279":-0.27350276708602905,"280":-0.34264686703681946,"281":0.20203272998332977,"282":0.38786211609840393,"283":0.8243917226791382,"284":0.11934641003608704,"285":0.31148219108581543,"286":-0.6758314371109009,"287":-0.41938915848731995,"288":-0.44368264079093933,"289":-0.6511558890342712,"290":-1.3603547811508179,"291":0.411242812871933,"292":-0.1267796754837036,"293":-0.360068142414093,"294":-0.2784506380558014,"295":0.3585304319858551,"296":0.18473628163337708,"297":0.3163471817970276,"298":0.7053326964378357,"299":0.009055311791598797,"300":0.20575866103172302,"301":0.4011393189430237,"302":-0.24952957034111023,"303":0.38043078780174255,"304":0.2625298798084259,"305":0.16220782697200775,"306":-1.0062249898910522,"307":-0.5300239324569702,"308":0.37193742394447327,"309":-0.4861804246902466,"310":-1.5427031517028809,"311":-0.294576495885849,"312":-0.2861874997615814,"313":-0.4271066188812256,"314":0.27678027749061584,"315":-0.607166588306427,"316":-0.3036978244781494,"317":-0.41432565450668335,"318":0.5196592211723328,"319":0.3135826587677002,"320":0.6780092120170593,"321":-0.383737713098526,"322":1.0336530208587646,"323":0.18444284796714783,"324":1.4019296169281006,"325":0.3928534686565399,"326":-1.1251652240753174,"327":0.3325003683567047,"328":-0.12267820537090302,"329":0.27604764699935913,"330":-0.7707246541976929,"331":1.3571665287017822,"332":0.7235655188560486,"333":0.278175413608551,"334":-0.24449637532234192,"335":-0.8601713180541992,"336":0.7521591186523438,"337":0.02292732335627079,"338":0.21599289774894714,"339":0.1707686334848404,"340":-0.7404004335403442,"341":-0.6008942127227783,"342":0.45459458231925964,"343":-0.34060725569725037,"344":-0.0717725157737732,"345":0.47809314727783203,"346":-0.09578333050012589,"347":0.5291879773139954,"348":-0.607358455657959,"349":0.5520265698432922,"350":-0.12634016573429108,"351":0.5598524212837219,"352":-0.02136729471385479,"353":0.5955425500869751,"354":-0.737765908241272,"355":0.47845926880836487,"356":-0.16748656332492828,"357":0.7570918202400208,"358":-0.2804661691188812,"359":-0.458587110042572,"360":0.4104161560535431,"361":0.21695740520954132,"362":-0.6439464688301086,"363":0.08050251007080078,"364":0.2039269059896469,"365":-0.549808144569397,"366":0.0245830025523901,"367":-0.4493805468082428,"368":0.3896646797657013,"369":-0.11737628281116486,"370":0.6509001851081848,"371":-0.6848813891410828,"372":0.3467269241809845,"373":-0.2664239704608917,"374":0.41919538378715515,"375":-0.22863180935382843,"376":0.3404224216938019,"377":-0.45396217703819275,"378":0.1099727526307106,"379":0.25240641832351685,"380":-0.19723588228225708,"381":0.3142869472503662,"382":0.40909460186958313,"383":0.9280655384063721,"384":0.4313286244869232,"385":-0.32776737213134766,"386":-0.512361466884613,"387":-0.9267592430114746,"388":-0.30703970789909363,"389":-0.9509527683258057,"390":-1.3046371936798096,"391":0.4356176555156708,"392":0.0002677585871424526,"393":-0.7389739751815796,"394":-0.24456949532032013,"395":0.16917364299297333,"396":0.3005228340625763,"397":0.10801427811384201,"398":0.7813897132873535,"399":0.06206687167286873}},"inputBias":{"rows":20,"columns":1,"weights":{"0":-0.03390752151608467,"1":-0.15171821415424347,"2":0.4536847472190857,"3":-0.45604875683784485,"4":-0.15191808342933655,"5":0.8410793542861938,"6":-0.2712779641151428,"7":-0.4794996380805969,"8":-0.002104785293340683,"9":-0.364533931016922,"10":-0.22283901274204254,"11":0.7113274931907654,"12":-0.46608853340148926,"13":-0.46027421951293945,"14":-0.05488916113972664,"15":-0.15699882805347443,"16":-0.2843947112560272,"17":-0.06084294617176056,"18":-0.5544861555099487,"19":-0.24584892392158508}},"forgetMatrix":{"rows":20,"columns":18,"weights":{"0":0.31943604350090027,"1":0.49004995822906494,"2":0.5059407353401184,"3":-0.9899164438247681,"4":-0.733036994934082,"5":0.1096687987446785,"6":0.8485510349273682,"7":-0.2860184609889984,"8":0.8407300114631653,"9":0.10717868059873581,"10":0.29931026697158813,"11":0.730522871017456,"12":-0.4988056421279907,"13":-0.8400866389274597,"14":-0.6118325591087341,"15":-0.09669386595487595,"16":0.3335462808609009,"17":0.43898114562034607,"18":-0.01315275952219963,"19":-0.1100522056221962,"20":0.22486340999603271,"21":0.043933238834142685,"22":-0.11755038797855377,"23":-0.2701394259929657,"24":0.9483383893966675,"25":-0.03611571714282036,"26":0.9006627798080444,"27":-0.01447619590908289,"28":0.014633286744356155,"29":-0.053434282541275024,"30":-0.6906424760818481,"31":-0.9559388756752014,"32":0.39397865533828735,"33":-0.0999312773346901,"34":0.41604962944984436,"35":0.8379386067390442,"36":-0.27398762106895447,"37":-0.3332000970840454,"38":-0.1268741637468338,"39":0.24405816197395325,"40":0.5153194069862366,"41":-0.4109445810317993,"42":0.6764259338378906,"43":0.5902522802352905,"44":0.25377023220062256,"45":-0.18193140625953674,"46":-0.47390568256378174,"47":0.42153942584991455,"48":0.06596382707357407,"49":-0.503833532333374,"50":0.8434858322143555,"51":0.3109152317047119,"52":0.337232768535614,"53":0.45715877413749695,"54":0.5367542505264282,"55":-0.01823538914322853,"56":-0.0006629435229115188,"57":-0.2080383002758026,"58":0.10892277210950851,"59":-0.020521728321909904,"60":0.9324579238891602,"61":-0.2809913754463196,"62":1.2398643493652344,"63":-0.5155547857284546,"64":0.13701298832893372,"65":0.5427864789962769,"66":-0.7919104695320129,"67":-0.984266459941864,"68":-0.3559892773628235,"69":0.09992595762014389,"70":0.5298193693161011,"71":0.9841127395629883,"72":-0.5558603405952454,"73":-0.5953165888786316,"74":-0.47868502140045166,"75":1.0885688066482544,"76":0.4694662094116211,"77":-1.0327954292297363,"78":-0.8146573305130005,"79":0.8772951364517212,"80":-1.2973694801330566,"81":-0.12807458639144897,"82":-0.7677239775657654,"83":0.10784348100423813,"84":0.4894452691078186,"85":0.5547768473625183,"86":0.3296479880809784,"87":0.33917543292045593,"88":-0.16024333238601685,"89":-0.5049715638160706,"90":0.041343946009874344,"91":0.36100494861602783,"92":0.6856883764266968,"93":-0.40036261081695557,"94":-0.5402145981788635,"95":-0.002961785066872835,"96":0.06725426018238068,"97":0.053958047181367874,"98":-0.013900704681873322,"99":0.4901539981365204,"100":0.39125198125839233,"101":-0.22732500731945038,"102":-0.6427780389785767,"103":0.2394665777683258,"104":0.32715848088264465,"105":-0.2704305648803711,"106":-0.6114557385444641,"107":-0.19960767030715942,"108":-0.4475540220737457,"109":-0.06739095598459244,"110":-0.7433952689170837,"111":1.2406119108200073,"112":-0.09710830450057983,"113":-0.43309321999549866,"114":0.8399747610092163,"115":0.23379015922546387,"116":0.51104336977005,"117":-0.366161584854126,"118":-0.5340708494186401,"119":0.5337086319923401,"120":-0.22757722437381744,"121":-0.4591139554977417,"122":0.1690022051334381,"123":0.20614026486873627,"124":0.03892550989985466,"125":0.7272645235061646,"126":-0.13691312074661255,"127":0.03379590064287186,"128":-0.24381524324417114,"129":-0.7629632353782654,"130":-0.36455845832824707,"131":-0.19863693416118622,"132":0.7273324131965637,"133":0.09331951290369034,"134":-0.24599912762641907,"135":-0.3446211814880371,"136":-0.17300255596637726,"137":0.3139207363128662,"138":0.5939407348632812,"139":-0.5249943733215332,"140":-0.04219247028231621,"141":0.17457397282123566,"142":0.35520198941230774,"143":0.06183426454663277,"144":0.610167920589447,"145":0.49764373898506165,"146":0.9407206773757935,"147":-0.9743732810020447,"148":-0.9104387164115906,"149":0.1374109536409378,"150":-0.4838692247867584,"151":-0.5393466353416443,"152":0.27897322177886963,"153":0.12287554889917374,"154":0.7890133857727051,"155":0.4083934426307678,"156":-0.5450582504272461,"157":0.07096225768327713,"158":0.10219525545835495,"159":-0.19172446429729462,"160":0.2999730110168457,"161":-0.2525893449783325,"162":0.7146548628807068,"163":-0.05302320048213005,"164":-0.25076940655708313,"165":-0.0271597933024168,"166":0.2795872986316681,"167":0.12887735664844513,"168":1.1624410152435303,"169":-0.4668634533882141,"170":1.2696864604949951,"171":-0.5026448965072632,"172":0.21162553131580353,"173":0.23960767686367035,"174":-1.0149805545806885,"175":-1.1255155801773071,"176":-0.39274147152900696,"177":-0.038165729492902756,"178":0.42693135142326355,"179":1.2855089902877808,"180":-0.8655838966369629,"181":-1.2158340215682983,"182":-1.1023271083831787,"183":0.21052467823028564,"184":1.160751461982727,"185":-0.6460584998130798,"186":0.8913040161132812,"187":0.6906267404556274,"188":0.15478847920894623,"189":-0.3685954213142395,"190":-0.8261976838111877,"191":0.7860789895057678,"192":0.48949921131134033,"193":-0.48098379373550415,"194":0.2123345136642456,"195":0.6326471567153931,"196":0.36993107199668884,"197":0.22681845724582672,"198":0.023716051131486893,"199":-0.6192396283149719,"200":0.3045309782028198,"201":0.2255285084247589,"202":0.25982943177223206,"203":-0.008776151575148106,"204":-0.05866385996341705,"205":0.42639195919036865,"206":0.457163542509079,"207":-0.27483218908309937,"208":-0.08163338154554367,"209":0.6647080183029175,"210":-0.8408719897270203,"211":-0.15996767580509186,"212":1.268478274345398,"213":0.48477962613105774,"214":0.5503607392311096,"215":0.27861350774765015,"216":-0.70644211769104,"217":-0.17863303422927856,"218":-0.5323740839958191,"219":-0.1764812171459198,"220":0.2446114420890808,"221":-0.415367066860199,"222":-0.3420272469520569,"223":0.2869190275669098,"224":-0.5849499106407166,"225":0.5078384280204773,"226":-0.5933980941772461,"227":-0.3395284414291382,"228":0.49790632724761963,"229":0.738906979560852,"230":-0.36238574981689453,"231":-0.16151799261569977,"232":-0.42487606406211853,"233":-0.752285361289978,"234":-0.12732483446598053,"235":0.10234180092811584,"236":-0.5965172648429871,"237":0.10048024356365204,"238":0.35093796253204346,"239":-0.3158969283103943,"240":-0.2593289315700531,"241":0.20269161462783813,"242":-0.691989004611969,"243":0.013740703463554382,"244":-0.1813126504421234,"245":-0.1339855194091797,"246":0.251863956451416,"247":0.17186346650123596,"248":-0.0010872703278437257,"249":0.016141729429364204,"250":-0.37028396129608154,"251":-0.6827758550643921,"252":0.5266655683517456,"253":0.1882341057062149,"254":0.8119285106658936,"255":-1.1773459911346436,"256":-0.94073486328125,"257":-0.19486850500106812,"258":0.3400910794734955,"259":-0.22186729311943054,"260":0.5753890872001648,"261":-0.036128196865320206,"262":0.4399935305118561,"263":0.637496829032898,"264":-0.5643851161003113,"265":-0.3511444628238678,"266":0.21941430866718292,"267":0.002548611257225275,"268":0.5447312593460083,"269":0.06892170757055283,"270":0.09306606650352478,"271":0.6945399641990662,"272":1.142457365989685,"273":-1.508965253829956,"274":-1.0925060510635376,"275":-0.005377605557441711,"276":0.1288919448852539,"277":-0.2423555850982666,"278":0.3186669647693634,"279":0.30154848098754883,"280":0.36711832880973816,"281":0.31957945227622986,"282":-0.3513651490211487,"283":-0.2232380509376526,"284":0.003615671768784523,"285":-0.05352071672677994,"286":0.17473062872886658,"287":0.008079313673079014,"288":-0.3520587980747223,"289":-0.22991104423999786,"290":-0.829281210899353,"291":0.13950084149837494,"292":0.30163130164146423,"293":0.26568400859832764,"294":0.5243517160415649,"295":0.013330437242984772,"296":0.2491993010044098,"297":-0.1490914672613144,"298":-0.4998038709163666,"299":0.33321213722229004,"300":-0.17565283179283142,"301":-0.05880943313241005,"302":-0.7084915041923523,"303":0.30152225494384766,"304":-0.015134777873754501,"305":-0.17856205999851227,"306":0.21787972748279572,"307":0.21932543814182281,"308":-0.17527426779270172,"309":0.07339290529489517,"310":0.14107686281204224,"311":0.2414890080690384,"312":0.35289466381073,"313":-0.12948207557201385,"314":0.28506630659103394,"315":0.11437292397022247,"316":0.06402401626110077,"317":0.04290875792503357,"318":-0.34938880801200867,"319":-0.2933419942855835,"320":-0.2907620370388031,"321":-0.06637599319219589,"322":-0.1473410278558731,"323":0.2279338836669922,"324":-0.29664087295532227,"325":-0.25277411937713623,"326":-0.5838542580604553,"327":0.10350001603364944,"328":0.519826352596283,"329":-0.5625829696655273,"330":0.8529085516929626,"331":0.29410308599472046,"332":0.7909303307533264,"333":-0.2971351742744446,"334":-0.5125610828399658,"335":0.213968425989151,"336":-0.04113836586475372,"337":-1.0509514808654785,"338":0.07077929377555847,"339":0.19104048609733582,"340":0.22498182952404022,"341":0.6884719133377075,"342":-0.026153061538934708,"343":0.14135129749774933,"344":0.5375996232032776,"345":-0.9895853400230408,"346":-0.5552674531936646,"347":0.08292965590953827,"348":0.47188514471054077,"349":-0.27307674288749695,"350":0.4360063076019287,"351":0.22959324717521667,"352":0.1082492470741272,"353":0.21182407438755035,"354":-0.17949117720127106,"355":-0.23319220542907715,"356":-0.2097156047821045,"357":-0.12245070934295654,"358":-0.061693187803030014,"359":0.016817493364214897}},"forgetHidden":{"rows":20,"columns":20,"weights":{"0":0.151748389005661,"1":-0.06731892377138138,"2":-0.445863276720047,"3":0.024151908233761787,"4":0.3087073266506195,"5":-0.6122583746910095,"6":-0.6973065733909607,"7":-0.49685221910476685,"8":0.1511852890253067,"9":-0.002417277544736862,"10":-0.545272946357727,"11":-0.5096582174301147,"12":0.2430092990398407,"13":-0.27837976813316345,"14":-0.033804308623075485,"15":-0.07086040824651718,"16":0.4708801805973053,"17":-0.20347915589809418,"18":0.1066138744354248,"19":-0.18593241274356842,"20":0.15621083974838257,"21":-0.02785489708185196,"22":-0.8646093606948853,"23":0.008107808418571949,"24":-0.04792163148522377,"25":-0.7178598642349243,"26":-0.5062337517738342,"27":-0.7049357891082764,"28":0.383089154958725,"29":-0.10985921323299408,"30":-0.820732831954956,"31":-0.8635445833206177,"32":-0.04940315708518028,"33":-0.099480539560318,"34":0.15950234234333038,"35":-0.19649367034435272,"36":0.1633090078830719,"37":-0.33183810114860535,"38":-0.0984681025147438,"39":0.08251695334911346,"40":-0.49768945574760437,"41":-0.6670117974281311,"42":0.5434098243713379,"43":-0.6610929369926453,"44":-0.08667059987783432,"45":0.6404920220375061,"46":-0.0008382805390283465,"47":0.12798793613910675,"48":-0.36961597204208374,"49":0.5464609265327454,"50":0.1926434338092804,"51":0.44864118099212646,"52":0.04953232780098915,"53":0.7569603323936462,"54":-0.5954318046569824,"55":0.4200923442840576,"56":-0.23436130583286285,"57":0.735816240310669,"58":-0.12389911711215973,"59":-0.09065753221511841,"60":0.34801414608955383,"61":0.5088903903961182,"62":-0.24139967560768127,"63":0.009532224386930466,"64":-0.385489821434021,"65":-0.18410858511924744,"66":-0.2314276099205017,"67":-0.22731076180934906,"68":0.36567094922065735,"69":0.00002032072916335892,"70":-0.24020935595035553,"71":-0.3666936755180359,"72":-0.015273602679371834,"73":-0.13419131934642792,"74":0.31900689005851746,"75":-0.4671183228492737,"76":0.3431260883808136,"77":-0.32381492853164673,"78":-0.0003652391314972192,"79":0.5616076588630676,"80":0.5192581415176392,"81":0.4975811243057251,"82":1.3043781518936157,"83":-0.03148680552840233,"84":0.5379940867424011,"85":0.3766220808029175,"86":0.3958079516887665,"87":0.3802655339241028,"88":0.06520121544599533,"89":0.34981971979141235,"90":0.5999525189399719,"91":1.0203171968460083,"92":0.5840654373168945,"93":-0.6029565930366516,"94":0.0054614730179309845,"95":-0.6344156265258789,"96":-0.06860163062810898,"97":-0.28943932056427,"98":0.06349167227745056,"99":0.1463381052017212,"100":0.08831021934747696,"101":-0.13320483267307281,"102":1.4121263027191162,"103":-0.5117570161819458,"104":-0.35300111770629883,"105":1.2388300895690918,"106":-0.060271967202425,"107":0.21993619203567505,"108":0.03900175914168358,"109":0.6662210822105408,"110":0.4205476939678192,"111":1.3802326917648315,"112":-0.2689875662326813,"113":0.14445124566555023,"114":-0.026868971064686775,"115":-0.22806985676288605,"116":-0.3627811074256897,"117":0.2802164554595947,"118":-0.5247341990470886,"119":0.02832193858921528,"120":-0.9012940526008606,"121":-0.18126317858695984,"122":0.5134748816490173,"123":0.08745970577001572,"124":-0.7683743834495544,"125":0.1993086338043213,"126":0.419695645570755,"127":-0.11410669982433319,"128":-1.4280469417572021,"129":0.2152656763792038,"130":0.021084468811750412,"131":0.22347910702228546,"132":-0.9571359753608704,"133":0.12997566163539886,"134":-0.9500705599784851,"135":0.6835908889770508,"136":-1.2213430404663086,"137":1.059362530708313,"138":-0.09765800833702087,"139":-0.2856309115886688,"140":0.2216096818447113,"141":0.8614689111709595,"142":0.14044372737407684,"143":0.542098343372345,"144":0.5485580563545227,"145":0.456976979970932,"146":0.030613437294960022,"147":0.43543675541877747,"148":0.005323229823261499,"149":-0.17635652422904968,"150":0.29257652163505554,"151":0.342323362827301,"152":0.6687979698181152,"153":-0.09094919264316559,"154":0.19496971368789673,"155":-0.32279857993125916,"156":0.6120332479476929,"157":0.2980487048625946,"158":0.7431419491767883,"159":1.2501088380813599,"160":0.017728926613926888,"161":0.08733724057674408,"162":-0.20599453151226044,"163":0.6702530980110168,"164":0.08539652079343796,"165":-0.41187769174575806,"166":-0.26869747042655945,"167":-0.5420825481414795,"168":0.04049232229590416,"169":-0.6199928522109985,"170":-0.945786714553833,"171":-0.0896986871957779,"172":-0.22165636718273163,"173":-0.590868353843689,"174":0.13528835773468018,"175":0.0003238039498683065,"176":-0.2823847532272339,"177":-0.08069974184036255,"178":0.19090764224529266,"179":-0.24658334255218506,"180":0.3768225908279419,"181":0.3611404001712799,"182":-0.6371318697929382,"183":0.033048439770936966,"184":-0.14188621938228607,"185":-0.15074828267097473,"186":-0.49403777718544006,"187":-0.3771572709083557,"188":0.3491021394729614,"189":-0.37167030572891235,"190":-0.20072005689144135,"191":-0.6791539788246155,"192":-0.09616558253765106,"193":-0.32449615001678467,"194":0.31516823172569275,"195":-0.42222917079925537,"196":0.27567675709724426,"197":-0.3911936283111572,"198":0.052964985370635986,"199":0.33301419019699097,"200":-0.50604248046875,"201":-0.2599053680896759,"202":0.21136292815208435,"203":-0.3111935555934906,"204":-1.2328293323516846,"205":0.056493595242500305,"206":0.08103418350219727,"207":-0.2050616443157196,"208":-0.8247101902961731,"209":0.528963029384613,"210":-0.38874197006225586,"211":0.08550134301185608,"212":-0.4679754078388214,"213":0.2539660930633545,"214":-0.5747236609458923,"215":0.49180537462234497,"216":-1.2220107316970825,"217":0.9601971507072449,"218":-0.3940262794494629,"219":-0.3994470238685608,"220":0.0276445634663105,"221":-0.2817242443561554,"222":1.1092549562454224,"223":0.16378353536128998,"224":-0.5417588353157043,"225":1.1879041194915771,"226":-0.1418045610189438,"227":0.2416442334651947,"228":-0.01816134713590145,"229":0.03208480402827263,"230":0.30679768323898315,"231":1.0456205606460571,"232":0.36705830693244934,"233":-0.44413456320762634,"234":-0.40052446722984314,"235":-0.058906398713588715,"236":0.2856387794017792,"237":-0.1043815016746521,"238":0.3075301945209503,"239":0.24731729924678802,"240":0.01594182662665844,"241":0.03208346292376518,"242":-0.13242670893669128,"243":0.5788522958755493,"244":0.522358238697052,"245":-0.07058648020029068,"246":-0.28571850061416626,"247":0.05821311101317406,"248":0.015609710477292538,"249":-0.2953187823295593,"250":-0.39528799057006836,"251":-0.006997016258537769,"252":0.29148736596107483,"253":-0.2850615084171295,"254":0.024194804951548576,"255":-0.10403873771429062,"256":0.24734748899936676,"257":-0.06693629175424576,"258":0.5791226029396057,"259":0.2900088429450989,"260":0.14103050529956818,"261":-0.0817953422665596,"262":0.5244134664535522,"263":-0.5549921989440918,"264":-0.17998044192790985,"265":0.1635407656431198,"266":0.42648425698280334,"267":0.278012216091156,"268":0.08832696825265884,"269":0.6763477921485901,"270":0.2506806552410126,"271":0.547558605670929,"272":-0.15400618314743042,"273":0.19185900688171387,"274":0.0458371676504612,"275":-0.1388341337442398,"276":-0.33336004614830017,"277":0.20524390041828156,"278":-0.6589521169662476,"279":-0.26245346665382385,"280":0.23215460777282715,"281":0.4786226451396942,"282":-0.8697127103805542,"283":0.40646305680274963,"284":0.10357560217380524,"285":-0.8589988350868225,"286":-0.2754485607147217,"287":-0.7631241679191589,"288":0.3288154602050781,"289":-0.5652589201927185,"290":-0.4022834897041321,"291":-0.8730655312538147,"292":-0.033280760049819946,"293":-0.4709785580635071,"294":0.4256814122200012,"295":-0.2906738221645355,"296":0.12280330806970596,"297":-0.3843640983104706,"298":0.04910324513912201,"299":-0.006169269792735577,"300":-0.10822456330060959,"301":0.582304060459137,"302":-0.7183346748352051,"303":1.0204952955245972,"304":0.5628749132156372,"305":-0.6501403450965881,"306":-0.1320447474718094,"307":-0.747648298740387,"308":-0.08538810908794403,"309":-1.1654586791992188,"310":-1.0534837245941162,"311":-0.6010598540306091,"312":-0.0641857162117958,"313":-1.102236032485962,"314":0.05454721674323082,"315":0.0451807901263237,"316":-0.09196524322032928,"317":0.10724348574876785,"318":1.1040818691253662,"319":0.3184114098548889,"320":-0.1967112272977829,"321":-0.16837617754936218,"322":1.1660207509994507,"323":0.49847859144210815,"324":-0.38298434019088745,"325":0.8561274409294128,"326":0.43021926283836365,"327":0.31203630566596985,"328":-0.8202782869338989,"329":0.22908762097358704,"330":0.8192360401153564,"331":1.1176204681396484,"332":-0.056872688233852386,"333":0.14485327899456024,"334":-0.6922863721847534,"335":0.38163548707962036,"336":-0.8957203030586243,"337":0.7555395364761353,"338":0.22361594438552856,"339":-0.23508764803409576,"340":-0.5058896541595459,"341":-0.5022634267807007,"342":0.19122803211212158,"343":-0.2206960767507553,"344":-0.1166079044342041,"345":0.1919664591550827,"346":0.26878952980041504,"347":0.12028689682483673,"348":-0.682964563369751,"349":0.2638925015926361,"350":0.2522442638874054,"351":0.30782434344291687,"352":-0.5776861310005188,"353":0.3435463011264801,"354":-0.5912808775901794,"355":0.4682835638523102,"356":-0.4370311200618744,"357":0.5715410709381104,"358":-0.3386349081993103,"359":-0.4702828526496887,"360":0.5511783957481384,"361":0.3011663556098938,"362":-0.168508380651474,"363":-0.0639495998620987,"364":0.09068895131349564,"365":-0.19337591528892517,"366":-0.5189657211303711,"367":0.001032553263939917,"368":0.4613083302974701,"369":-0.02314070798456669,"370":-0.2298201471567154,"371":-0.18385204672813416,"372":0.39568981528282166,"373":-0.11588581651449203,"374":0.5312145948410034,"375":-0.581118106842041,"376":0.44087186455726624,"377":-0.5321317315101624,"378":0.10936875641345978,"379":0.23992833495140076,"380":-0.12940119206905365,"381":0.11258421838283539,"382":0.5438985228538513,"383":1.0362448692321777,"384":0.9026153087615967,"385":0.2642919719219208,"386":-0.7896931767463684,"387":-0.272731751203537,"388":-0.22013215720653534,"389":-0.9642711877822876,"390":-1.0876185894012451,"391":0.5507030487060547,"392":0.20759302377700806,"393":-0.8927711248397827,"394":-0.21992090344429016,"395":0.039916783571243286,"396":0.05555557459592819,"397":0.03984345495700836,"398":1.0753569602966309,"399":0.1312193125486374}},"forgetBias":{"rows":20,"columns":1,"weights":{"0":0,"1":0,"2":0,"3":0,"4":0,"5":0,"6":0,"7":0,"8":0,"9":0,"10":0,"11":0,"12":0,"13":0,"14":0,"15":0,"16":0,"17":0,"18":0,"19":0}},"outputMatrix":{"rows":20,"columns":18,"weights":{"0":-0.375997394323349,"1":-0.07675934582948685,"2":-0.23727405071258545,"3":-0.07220948487520218,"4":-0.14341600239276886,"5":-0.8807383179664612,"6":1.2831650972366333,"7":0.7019306421279907,"8":0.5380666851997375,"9":-0.7896355390548706,"10":-0.5219650864601135,"11":1.0342111587524414,"12":-0.11001273989677429,"13":-1.6583784818649292,"14":0.2864149510860443,"15":0.700852632522583,"16":0.5543032884597778,"17":1.1718885898590088,"18":-0.2536683678627014,"19":-0.14817221462726593,"20":-0.12161119282245636,"21":0.24259957671165466,"22":-0.0368114672601223,"23":-0.6180928349494934,"24":0.997699499130249,"25":0.6034526228904724,"26":0.19079715013504028,"27":-0.4282672703266144,"28":-0.33791324496269226,"29":0.5683866143226624,"30":-0.314155250787735,"31":-0.9524228572845459,"32":0.3034435212612152,"33":0.5190948843955994,"34":0.40087392926216125,"35":0.7656127214431763,"36":0.3688269555568695,"37":0.625338077545166,"38":0.4619807302951813,"39":-0.34969988465309143,"40":-0.5716654062271118,"41":0.427899032831192,"42":-0.5812162160873413,"43":-0.3629918396472931,"44":-0.7204229831695557,"45":0.4942437410354614,"46":0.5253893136978149,"47":-0.5822040438652039,"48":-0.24032378196716309,"49":0.5960994958877563,"50":0.014615446329116821,"51":-0.5559954643249512,"52":-0.4963403642177582,"53":-0.50965416431427,"54":-0.6172460913658142,"55":-0.7491844892501831,"56":-0.8743953108787537,"57":1.0964198112487793,"58":1.1039148569107056,"59":-0.6679185628890991,"60":0.7423690557479858,"61":0.8423128724098206,"62":-0.2711585462093353,"63":-0.8117437958717346,"64":-0.740938127040863,"65":0.7345697283744812,"66":0.823530912399292,"67":-0.9861747622489929,"68":0.40919238328933716,"69":1.096978783607483,"70":0.9130005836486816,"71":1.0275771617889404,"72":-0.20176264643669128,"73":0.21945112943649292,"74":-0.53886479139328,"75":1.7241212129592896,"76":0.3825598955154419,"77":-0.8492188453674316,"78":-0.5576192140579224,"79":0.6488684415817261,"80":-1.8069206476211548,"81":0.043357208371162415,"82":-0.44423457980155945,"83":-0.9241383075714111,"84":0.39328905940055847,"85":0.961592972278595,"86":0.7757444381713867,"87":-0.12155962735414505,"88":-0.6060389876365662,"89":-0.14374174177646637,"90":-0.2210419625043869,"91":0.6231025457382202,"92":0.5559311509132385,"93":-0.565786600112915,"94":-0.8138555884361267,"95":0.03353084996342659,"96":-0.44521135091781616,"97":-0.02696511708199978,"98":-0.39815229177474976,"99":0.559054434299469,"100":0.17657235264778137,"101":-0.49446824193000793,"102":-0.7722514867782593,"103":0.49049675464630127,"104":0.43247896432876587,"105":-0.41240835189819336,"106":-0.6348252296447754,"107":-0.7305660247802734,"108":0.4882587492465973,"109":0.03603130578994751,"110":0.3054134249687195,"111":0.24139799177646637,"112":-0.1183839961886406,"113":-0.3228309154510498,"114":0.1760568767786026,"115":0.3756054937839508,"116":0.6159311532974243,"117":-0.6015815138816833,"118":0.005526160355657339,"119":0.7034611105918884,"120":-0.8306106925010681,"121":-1.0098718404769897,"122":0.8491963148117065,"123":0.45865222811698914,"124":0.162109375,"125":1.4885075092315674,"126":-0.08017048239707947,"127":0.2778318524360657,"128":0.2475060522556305,"129":-0.17205598950386047,"130":-0.40350082516670227,"131":-0.10160475969314575,"132":0.1980343759059906,"133":0.16829732060432434,"134":-0.031020140275359154,"135":-0.20888882875442505,"136":0.05946911871433258,"137":0.15099968016147614,"138":-0.1696033626794815,"139":-0.2827805280685425,"140":0.20219513773918152,"141":0.2069026231765747,"142":0.34034308791160583,"143":0.3285861015319824,"144":-0.3930332660675049,"145":-0.22503985464572906,"146":0.1972925215959549,"147":-0.48408883810043335,"148":-0.35164302587509155,"149":-0.837700605392456,"150":0.00042171479435637593,"151":0.6740041971206665,"152":0.014490393921732903,"153":-0.5486834049224854,"154":-0.30866584181785583,"155":1.2157458066940308,"156":0.12810280919075012,"157":-0.5013524889945984,"158":0.8984910249710083,"159":0.6029359698295593,"160":0.7237123250961304,"161":0.40817126631736755,"162":-0.6556516289710999,"163":-0.6836512088775635,"164":-0.5043266415596008,"165":1.1649502515792847,"166":1.2422609329223633,"167":-0.6776536107063293,"168":0.562065839767456,"169":0.701427698135376,"170":-0.6540399193763733,"171":-0.5896283984184265,"172":-0.6493727564811707,"173":0.37801170349121094,"174":0.8708592057228088,"175":-0.552851676940918,"176":0.3229142427444458,"177":0.8860171437263489,"178":0.5129187703132629,"179":0.6626995205879211,"180":0.5939275622367859,"181":-0.004797738045454025,"182":-0.1593014895915985,"183":0.2535625100135803,"184":-0.35589027404785156,"185":0.021085388958454132,"186":-0.21096171438694,"187":-0.05920057371258736,"188":0.3076428174972534,"189":0.083442322909832,"190":0.04237431660294533,"191":-0.2065761536359787,"192":-0.7409012317657471,"193":0.01888192631304264,"194":-0.2448863387107849,"195":-0.2874590754508972,"196":-0.41737645864486694,"197":0.07700362056493759,"198":0.6785889267921448,"199":0.7968910932540894,"200":0.7878795862197876,"201":-0.5224353075027466,"202":-0.7547072172164917,"203":0.4495486915111542,"204":-0.3020375967025757,"205":-0.183124840259552,"206":0.44972851872444153,"207":0.2774743139743805,"208":0.6371431350708008,"209":-0.15768711268901825,"210":-0.2502439618110657,"211":0.0933215543627739,"212":0.15354737639427185,"213":-0.2369450330734253,"214":-0.34053874015808105,"215":-0.1876479983329773,"216":-0.6114668846130371,"217":-0.8219040632247925,"218":-0.5895153284072876,"219":0.3546399474143982,"220":0.8381651043891907,"221":-0.363502562046051,"222":0.18792057037353516,"223":0.5891184210777283,"224":-0.553310751914978,"225":-0.2736341059207916,"226":-0.7019814252853394,"227":0.16487479209899902,"228":1.0606290102005005,"229":0.1783890724182129,"230":0.19859154522418976,"231":0.5396471619606018,"232":0.13066913187503815,"233":-0.04658278450369835,"234":-0.2941034436225891,"235":-0.8817456364631653,"236":-0.04020159691572189,"237":0.7956070303916931,"238":0.6896840929985046,"239":-1.165018081665039,"240":-0.2771470844745636,"241":1.099604845046997,"242":-0.5471541285514832,"243":-0.761063277721405,"244":-0.5685895681381226,"245":0.7459006905555725,"246":0.5424274206161499,"247":0.11803356558084488,"248":0.7541018724441528,"249":0.917026698589325,"250":0.6500600576400757,"251":-0.29778969287872314,"252":-0.17965976893901825,"253":-0.20868906378746033,"254":-0.0021076404955238104,"255":-0.37453439831733704,"256":-0.23760604858398438,"257":-0.7515920400619507,"258":0.9807633757591248,"259":0.4628533124923706,"260":0.5839938521385193,"261":-0.7228202223777771,"262":-0.2608606517314911,"263":1.1061099767684937,"264":-0.233722522854805,"265":-1.294187068939209,"266":0.47766780853271484,"267":0.48864156007766724,"268":0.7490536570549011,"269":0.7925217747688293,"270":-0.01743365451693535,"271":-0.27228230237960815,"272":-0.08379550278186798,"273":-0.11299007385969162,"274":-0.024826621636748314,"275":-0.3825211822986603,"276":1.5249676704406738,"277":0.24363386631011963,"278":0.3974516689777374,"279":-0.3993529975414276,"280":-0.23520511388778687,"281":0.8277028203010559,"282":0.22203414142131805,"283":-1.249670386314392,"284":0.04601066932082176,"285":0.33482515811920166,"286":0.42563512921333313,"287":1.0266432762145996,"288":-0.32369464635849,"289":-1.3286538124084473,"290":-1.1015242338180542,"291":1.149908423423767,"292":1.558292269706726,"293":-0.6371939778327942,"294":0.6765945553779602,"295":0.6929555535316467,"296":-0.1592264175415039,"297":-0.5445330739021301,"298":-0.8213608860969543,"299":0.4893489480018616,"300":0.8307771682739258,"301":-0.14916279911994934,"302":0.4266808032989502,"303":0.5888971090316772,"304":0.12606191635131836,"305":0.4330008029937744,"306":-1.2280912399291992,"307":-0.7516101002693176,"308":-0.7677172422409058,"309":-0.1418561339378357,"310":0.315809428691864,"311":-0.9330363869667053,"312":0.7667537331581116,"313":0.8032687306404114,"314":0.19267666339874268,"315":-0.8838165998458862,"316":-1.057548999786377,"317":1.1210477352142334,"318":1.0786052942276,"319":-0.4445461630821228,"320":-0.10999523103237152,"321":0.8740131258964539,"322":0.9849186539649963,"323":0.43487679958343506,"324":-0.7737063765525818,"325":-0.4237477779388428,"326":-0.4682668149471283,"327":0.8148691058158875,"328":0.4534465968608856,"329":-0.7329543232917786,"330":0.47244322299957275,"331":0.8944715261459351,"332":-0.059001605957746506,"333":-0.7281488180160522,"334":-0.5973240733146667,"335":0.7404320240020752,"336":0.904393196105957,"337":-0.6139397025108337,"338":0.52997887134552,"339":1.1667492389678955,"340":0.6914528608322144,"341":0.6905395984649658,"342":-0.08554178476333618,"343":-0.04132893681526184,"344":-0.347430020570755,"345":-0.02529994584619999,"346":-0.29368478059768677,"347":-0.6262335777282715,"348":0.3350355923175812,"349":0.4481012523174286,"350":0.14309188723564148,"351":-0.5797311663627625,"352":-0.40119192004203796,"353":0.6607003211975098,"354":0.19438056647777557,"355":-0.7177484035491943,"356":0.29921823740005493,"357":0.5811013579368591,"358":0.4560379683971405,"359":0.16795064508914948}},"outputHidden":{"rows":20,"columns":20,"weights":{"0":0.7167235016822815,"1":0.44680869579315186,"2":0.7570694088935852,"3":0.2885368764400482,"4":-0.006798442453145981,"5":0.06970595568418503,"6":-0.8810778260231018,"7":0.541407585144043,"8":0.5098055005073547,"9":0.19000378251075745,"10":-0.6317276358604431,"11":0.6813303828239441,"12":0.037258896976709366,"13":-0.24127967655658722,"14":0.3256903290748596,"15":-0.5782495141029358,"16":0.545781135559082,"17":-0.525330662727356,"18":0.22023922204971313,"19":0.36794358491897583,"20":0.13281743228435516,"21":0.2162868231534958,"22":-0.28671544790267944,"23":0.3146530091762543,"24":-0.08039998263120651,"25":-0.3981286585330963,"26":-0.4504851698875427,"27":-0.8140827417373657,"28":0.13458187878131866,"29":-0.3260655105113983,"30":-0.3262471556663513,"31":-0.19641396403312683,"32":0.02524101361632347,"33":-0.4729773700237274,"34":0.07636506855487823,"35":-0.04258688911795616,"36":0.12669843435287476,"37":-0.35778534412384033,"38":0.3166176676750183,"39":0.20535977184772491,"40":-0.47579458355903625,"41":-0.5002380013465881,"42":0.17362523078918457,"43":-0.7822498083114624,"44":-0.42717108130455017,"45":0.1304072141647339,"46":0.4488917291164398,"47":-0.11535904556512833,"48":-0.5577783584594727,"49":0.5704672336578369,"50":1.0787572860717773,"51":0.04049304500222206,"52":-0.17524820566177368,"53":-0.10200739651918411,"54":-0.6839712858200073,"55":0.618606686592102,"56":0.042384859174489975,"57":0.2865186929702759,"58":-0.6474419832229614,"59":-0.5613176822662354,"60":0.5532081127166748,"61":0.32992660999298096,"62":-0.4476415514945984,"63":-0.29344630241394043,"64":-0.267568975687027,"65":-0.5195319652557373,"66":0.007228650152683258,"67":-0.5803101658821106,"68":0.5473254919052124,"69":0.19924339652061462,"70":0.9558410048484802,"71":-0.6723791360855103,"72":0.13392417132854462,"73":-0.030460719019174576,"74":0.6363474130630493,"75":-0.2589607238769531,"76":0.44597551226615906,"77":-0.5688579082489014,"78":-0.15938496589660645,"79":0.482099324464798,"80":-1.1753877401351929,"81":-1.3656575679779053,"82":0.4828951060771942,"83":-0.8239248394966125,"84":-0.30555498600006104,"85":-0.13161367177963257,"86":1.2106693983078003,"87":0.07194682955741882,"88":-0.046576812863349915,"89":1.1944770812988281,"90":1.2019572257995605,"91":0.13019265234470367,"92":0.26978573203086853,"93":1.4754317998886108,"94":-0.520690381526947,"95":0.14609859883785248,"96":-0.4774404764175415,"97":1.0813523530960083,"98":-0.8647862672805786,"99":-1.3944084644317627,"100":-0.09136626124382019,"101":0.16897261142730713,"102":1.1316442489624023,"103":0.4039847254753113,"104":-0.48926132917404175,"105":1.1885656118392944,"106":0.5901645421981812,"107":0.5573039054870605,"108":-0.10333234816789627,"109":-0.1903756558895111,"110":1.3703253269195557,"111":0.8196836709976196,"112":0.29033005237579346,"113":-0.34527865052223206,"114":-0.034066516906023026,"115":0.2171911597251892,"116":-0.5591283440589905,"117":0.18860310316085815,"118":0.3012365996837616,"119":0.18449346721172333,"120":-0.3859115540981293,"121":-0.792509138584137,"122":0.9684321880340576,"123":-1.932713270187378,"124":-0.9039140343666077,"125":0.7007776498794556,"126":0.1758851408958435,"127":-0.4838111996650696,"128":0.3263057768344879,"129":1.7164788246154785,"130":0.6593982577323914,"131":1.1984989643096924,"132":0.16486339271068573,"133":1.7736930847167969,"134":-0.49782899022102356,"135":0.17639374732971191,"136":-0.37453970313072205,"137":0.27403897047042847,"138":-1.3857824802398682,"139":-0.5825560688972473,"140":0.7518998384475708,"141":0.40838101506233215,"142":-1.4131377935409546,"143":0.5592696666717529,"144":0.43594542145729065,"145":-1.073522925376892,"146":-0.253682017326355,"147":-0.3031877279281616,"148":1.0151455402374268,"149":-0.6864499449729919,"150":-0.06356539577245712,"151":-1.2948805093765259,"152":0.16433386504650116,"153":-0.6322013735771179,"154":1.153130292892456,"155":-0.8034802675247192,"156":0.6512188911437988,"157":-1.051338791847229,"158":0.17186295986175537,"159":1.1233654022216797,"160":0.27470847964286804,"161":0.661230742931366,"162":0.9963846206665039,"163":0.6987760066986084,"164":0.8172957897186279,"165":0.9118359684944153,"166":-0.8331575989723206,"167":-0.7411646246910095,"168":-0.2085377424955368,"169":-0.5519577860832214,"170":-1.565159559249878,"171":0.8393210768699646,"172":-0.9776825308799744,"173":-0.9284868836402893,"174":0.22689901292324066,"175":-0.3195629119873047,"176":0.13133224844932556,"177":-0.13203446567058563,"178":0.7421529293060303,"179":0.1264738142490387,"180":0.5524543523788452,"181":0.4365755617618561,"182":-0.6008210778236389,"183":-0.12824328243732452,"184":0.4576812982559204,"185":-0.5241429209709167,"186":0.033236172050237656,"187":-0.8124856948852539,"188":0.593901515007019,"189":-0.040162257850170135,"190":0.6611771583557129,"191":-0.6678301095962524,"192":0.03507416695356369,"193":-0.14531975984573364,"194":0.5305517911911011,"195":-0.21708382666110992,"196":0.680647611618042,"197":-0.5957942008972168,"198":-0.10143667459487915,"199":0.6274148225784302,"200":-0.12792415916919708,"201":0.002814274048432708,"202":2.2135424613952637,"203":-0.714885413646698,"204":-0.43345561623573303,"205":1.5494906902313232,"206":-0.4081588387489319,"207":0.43745186924934387,"208":-0.14498542249202728,"209":0.7692140340805054,"210":-0.5955620408058167,"211":2.294891595840454,"212":-0.029880378395318985,"213":0.7939534783363342,"214":-0.2047187238931656,"215":-0.11306461691856384,"216":-0.8119263648986816,"217":0.5827720165252686,"218":-0.5703326463699341,"219":0.23504282534122467,"220":-0.35526803135871887,"221":-0.5234283804893494,"222":0.5511015057563782,"223":-0.9835520386695862,"224":-1.1320440769195557,"225":0.3803795576095581,"226":0.5365627408027649,"227":-0.46249738335609436,"228":-0.7335585355758667,"229":0.5618025064468384,"230":1.280309796333313,"231":0.2768848240375519,"232":-0.1996978372335434,"233":-0.0648217722773552,"234":-0.6620512008666992,"235":0.5765796899795532,"236":-0.744648814201355,"237":0.37131255865097046,"238":-0.6466847658157349,"239":-0.4224320948123932,"240":0.09607526659965515,"241":0.13037316501140594,"242":-0.7851731777191162,"243":0.644223690032959,"244":0.4455103278160095,"245":-0.9989257454872131,"246":-0.13388362526893616,"247":0.08036180585622787,"248":0.13610467314720154,"249":-0.45671430230140686,"250":-0.2415166050195694,"251":-1.2189842462539673,"252":0.09115460515022278,"253":-0.21026718616485596,"254":0.02643178589642048,"255":-0.07199306786060333,"256":0.029936399310827255,"257":0.09646274149417877,"258":0.626578688621521,"259":0.11441344022750854,"260":-0.4890272915363312,"261":0.117515429854393,"262":0.27425360679626465,"263":-0.056089650839567184,"264":0.15276814997196198,"265":0.22575217485427856,"266":0.7369742393493652,"267":0.3809248208999634,"268":-0.425987184047699,"269":0.12159059941768646,"270":1.2724040746688843,"271":0.20909510552883148,"272":0.3560982644557953,"273":-0.056728802621364594,"274":-0.4909181594848633,"275":0.3070719242095947,"276":-0.18536488711833954,"277":0.16171693801879883,"278":-0.03564320504665375,"279":-0.02433016151189804,"280":0.4581693112850189,"281":0.6891047358512878,"282":0.2694658637046814,"283":0.5032939314842224,"284":-0.2848591208457947,"285":0.3537806570529938,"286":-0.5875701904296875,"287":-0.6010581851005554,"288":0.38961684703826904,"289":-0.4690341353416443,"290":-1.148087501525879,"291":0.3170255720615387,"292":-0.2491755336523056,"293":-0.6356175541877747,"294":0.35041481256484985,"295":-0.32342973351478577,"296":0.2927863895893097,"297":-0.3645596504211426,"298":0.5078225135803223,"299":0.23818248510360718,"300":0.3671800494194031,"301":0.8833941221237183,"302":-0.05443370342254639,"303":0.8547990918159485,"304":0.11307524889707565,"305":0.2920728921890259,"306":-0.6813353896141052,"307":-0.40274977684020996,"308":0.2828853130340576,"309":-0.9207327961921692,"310":-1.4371488094329834,"311":0.025033634155988693,"312":-0.4325515925884247,"313":-0.6428125500679016,"314":0.4017617106437683,"315":-0.4752790033817291,"316":0.16041302680969238,"317":-0.3719455301761627,"318":0.8771347999572754,"319":0.3766416311264038,"320":0.04288862645626068,"321":-0.11176250874996185,"322":1.421819806098938,"323":0.2085479497909546,"324":0.6928271055221558,"325":0.7086246609687805,"326":-0.7205870151519775,"327":0.4404506981372833,"328":-0.573959231376648,"329":0.5643637180328369,"330":-0.5202717185020447,"331":1.641379952430725,"332":0.12490790337324142,"333":0.6049098372459412,"334":-0.6623561978340149,"335":-0.14424879848957062,"336":-0.35408535599708557,"337":0.5546950101852417,"338":0.11628367751836777,"339":0.05597035586833954,"340":-0.30249282717704773,"341":-0.216183140873909,"342":0.7991237640380859,"343":0.120049849152565,"344":0.1510353982448578,"345":0.45786309242248535,"346":-0.3601183295249939,"347":0.25180572271347046,"348":-0.3237212300300598,"349":0.07511569559574127,"350":-0.5661247968673706,"351":0.8351839184761047,"352":0.06756258755922318,"353":0.08485910296440125,"354":-0.3670060932636261,"355":0.22694721817970276,"356":-0.10397819429636002,"357":0.10147766768932343,"358":0.03607591614127159,"359":-0.3455599844455719,"360":0.4184572100639343,"361":0.31552833318710327,"362":-0.6073595881462097,"363":-0.03300923481583595,"364":0.08656779676675797,"365":-0.6123561263084412,"366":-0.15510770678520203,"367":-0.4554588794708252,"368":0.38648468255996704,"369":-0.0488697811961174,"370":0.32988739013671875,"371":-0.6678072214126587,"372":0.36008816957473755,"373":-0.15844231843948364,"374":0.3703555464744568,"375":-0.42270445823669434,"376":0.47028592228889465,"377":-0.4627890884876251,"378":0.12509025633335114,"379":0.3815082907676697,"380":0.2189948856830597,"381":0.3975257873535156,"382":0.5669125318527222,"383":1.0072238445281982,"384":1.0408602952957153,"385":-0.06752874702215195,"386":-0.7839263677597046,"387":-0.9366307258605957,"388":-0.0925188884139061,"389":-1.0186784267425537,"390":-0.9028573632240295,"391":0.5891003608703613,"392":-0.05381157621741295,"393":-0.9604058861732483,"394":0.0008851778693497181,"395":-0.20178544521331787,"396":0.5359363555908203,"397":-0.375839501619339,"398":1.0489239692687988,"399":0.3745776414871216}},"outputBias":{"rows":20,"columns":1,"weights":{"0":-0.03835851326584816,"1":-0.1477050930261612,"2":0.48643404245376587,"3":-0.44418495893478394,"4":-0.12815462052822113,"5":0.7659358978271484,"6":-0.2661396563053131,"7":-0.4269390106201172,"8":-0.0075882417149841785,"9":-0.35860031843185425,"10":-0.2189592570066452,"11":0.6327834129333496,"12":-0.45254072546958923,"13":-0.428617924451828,"14":-0.04657549038529396,"15":-0.15036748349666595,"16":-0.2761162221431732,"17":-0.06423782557249069,"18":-0.5247759819030762,"19":-0.24533076584339142}},"cellActivationMatrix":{"rows":20,"columns":18,"weights":{"0":0.9546439051628113,"1":-0.06861068308353424,"2":0.6543751955032349,"3":-0.5480227470397949,"4":-0.37446412444114685,"5":0.09541899710893631,"6":0.44685500860214233,"7":-0.1641053557395935,"8":0.9100556373596191,"9":-0.3867630362510681,"10":0.4332900941371918,"11":0.3107722997665405,"12":-0.7539210915565491,"13":-1.141763687133789,"14":0.08709307760000229,"15":0.030299924314022064,"16":0.3384837210178375,"17":1.1480770111083984,"18":0.7680527567863464,"19":0.3064655363559723,"20":0.20176367461681366,"21":-1.2083626985549927,"22":-0.7443585991859436,"23":0.3858477473258972,"24":-0.6582383513450623,"25":-0.4996185600757599,"26":0.13344095647335052,"27":-0.06698406487703323,"28":0.5014140605926514,"29":0.0014566078316420317,"30":-0.1307888776063919,"31":-0.4133159816265106,"32":-0.09260760992765427,"33":-0.38753077387809753,"34":0.09759151935577393,"35":-0.025706319138407707,"36":1.0636494159698486,"37":0.3312929570674896,"38":0.8343199491500854,"39":-0.06341899931430817,"40":-0.3103235363960266,"41":0.4178372919559479,"42":-0.5843327641487122,"43":-0.6023329496383667,"44":-0.23252631723880768,"45":0.6089919805526733,"46":0.6817134618759155,"47":-0.5381885766983032,"48":-0.7886815667152405,"49":0.4969710111618042,"50":-0.24951669573783875,"51":-0.7258472442626953,"52":-0.5556304454803467,"53":-0.2703302502632141,"54":0.19635070860385895,"55":0.23662272095680237,"56":0.4336196482181549,"57":-0.26709428429603577,"58":-0.3918691575527191,"59":0.2609400749206543,"60":-0.4142268896102905,"61":-0.5996620059013367,"62":-0.013365448452532291,"63":0.5887788534164429,"64":0.378800630569458,"65":-0.5685264468193054,"66":-0.07378672808408737,"67":0.5166264772415161,"68":-0.510029137134552,"69":-0.628866970539093,"70":-0.7427979707717896,"71":-0.7973102927207947,"72":0.4383908808231354,"73":1.0104748010635376,"74":1.3507263660430908,"75":-0.24938203394412994,"76":-1.7406905889511108,"77":-0.005820891819894314,"78":-0.4661894142627716,"79":-0.4912865459918976,"80":0.8758137822151184,"81":0.22243762016296387,"82":0.6747538447380066,"83":-0.294684499502182,"84":-1.7182639837265015,"85":0.30458366870880127,"86":-0.11643046885728836,"87":-0.628822386264801,"88":0.03397936746478081,"89":0.10345508903265,"90":1.283981204032898,"91":0.0779733806848526,"92":0.5683858394622803,"93":-0.31109416484832764,"94":-0.0626862570643425,"95":0.8470062613487244,"96":0.16354037821292877,"97":-0.8257154226303101,"98":-0.09870240837335587,"99":0.004657921381294727,"100":0.8804323673248291,"101":-0.056757401674985886,"102":-0.2017371654510498,"103":-0.03999537602066994,"104":-0.027055874466896057,"105":-0.13630414009094238,"106":-0.05574629083275795,"107":0.4939892292022705,"108":-0.782150149345398,"109":-0.16592541337013245,"110":-0.966350257396698,"111":0.787553071975708,"112":0.4089359939098358,"113":0.011239675804972649,"114":0.12789037823677063,"115":-0.089739590883255,"116":-1.0301246643066406,"117":0.3870624005794525,"118":-0.26977962255477905,"119":-0.72870272397995,"120":1.7438913583755493,"121":1.0620121955871582,"122":0.08472968637943268,"123":-0.38491585850715637,"124":-0.4210784137248993,"125":-0.884939432144165,"126":-0.1333940029144287,"127":-0.04711652919650078,"128":-0.2856188416481018,"129":-0.10466188192367554,"130":0.07059252262115479,"131":-0.08879148215055466,"132":0.9123257398605347,"133":0.2039804458618164,"134":0.6197682619094849,"135":-0.12625418603420258,"136":-0.19142629206180573,"137":0.021260619163513184,"138":-0.22631461918354034,"139":-0.8963470458984375,"140":-0.08663814514875412,"141":0.17311401665210724,"142":0.2114330530166626,"143":0.672389805316925,"144":0.5216955542564392,"145":0.05212956666946411,"146":-0.10431145131587982,"147":-0.7345939874649048,"148":-0.2617312967777252,"149":0.24111659824848175,"150":0.7592726349830627,"151":-0.251694917678833,"152":0.8753744959831238,"153":-0.35344257950782776,"154":0.13980695605278015,"155":0.6521793007850647,"156":-0.06427856534719467,"157":-1.3893355131149292,"158":-0.08851304650306702,"159":0.21826758980751038,"160":0.4389510452747345,"161":0.857308566570282,"162":-0.5559636354446411,"163":-0.5254930853843689,"164":-0.5582398176193237,"165":0.8013550639152527,"166":0.6252092719078064,"167":-0.493295818567276,"168":0.23052085936069489,"169":0.5216353535652161,"170":-0.34720689058303833,"171":-0.05317072942852974,"172":-0.49977946281433105,"173":-0.001546315848827362,"174":0.14580762386322021,"175":0.11910218000411987,"176":0.3877077102661133,"177":0.22199688851833344,"178":0.041403040289878845,"179":0.10436718910932541,"180":-0.8681864142417908,"181":0.2308850735425949,"182":-0.5719003081321716,"183":-0.13354384899139404,"184":0.13030949234962463,"185":0.14009694755077362,"186":0.2855517566204071,"187":-0.2520633637905121,"188":-0.7381397485733032,"189":0.49829718470573425,"190":-0.34675294160842896,"191":-0.6543143391609192,"192":1.7559431791305542,"193":0.3872658312320709,"194":-0.8443028926849365,"195":-0.4489566385746002,"196":-0.6279749274253845,"197":-0.920058012008667,"198":0.9289541840553284,"199":0.09442488849163055,"200":0.9356666207313538,"201":-0.23385721445083618,"202":-0.1534164547920227,"203":0.15439020097255707,"204":-0.2342061549425125,"205":-0.35174471139907837,"206":-0.18982726335525513,"207":0.6658442616462708,"208":0.744007408618927,"209":-0.4790107011795044,"210":-0.5195778012275696,"211":0.045661088079214096,"212":-0.07521926611661911,"213":-0.46065568923950195,"214":-0.45485636591911316,"215":-0.10838770121335983,"216":0.015153798274695873,"217":-0.22049742937088013,"218":0.0922502651810646,"219":-0.036706771701574326,"220":0.19944237172603607,"221":-0.03012542612850666,"222":0.37200772762298584,"223":-0.18814991414546967,"224":0.9624233245849609,"225":-0.12181712687015533,"226":0.05221424251794815,"227":0.3093159794807434,"228":-0.625123918056488,"229":-0.37365004420280457,"230":-0.19409777224063873,"231":0.03477160260081291,"232":0.29929879307746887,"233":0.3010706603527069,"234":-0.6103820204734802,"235":-0.7414179444313049,"236":-0.8504638075828552,"237":0.04789683595299721,"238":1.0919853448867798,"239":0.10528820008039474,"240":0.6095275282859802,"241":0.7493143081665039,"242":-0.2345760464668274,"243":-0.512163519859314,"244":-0.32880687713623047,"245":0.3766859769821167,"246":1.080519199371338,"247":-0.5649147629737854,"248":0.22819876670837402,"249":0.7965186834335327,"250":0.3399604558944702,"251":-0.1047840490937233,"252":0.3050228953361511,"253":-0.31287968158721924,"254":0.06503336131572723,"255":-0.4654795229434967,"256":-0.028105607256293297,"257":-0.141287162899971,"258":0.24277710914611816,"259":0.12711110711097717,"260":1.0564181804656982,"261":-0.5503501296043396,"262":-0.0486658439040184,"263":0.8098204731941223,"264":-0.09824807941913605,"265":-0.8810752034187317,"266":-0.13161896169185638,"267":0.430288165807724,"268":0.5622954964637756,"269":0.644737720489502,"270":-0.30038687586784363,"271":0.3074881136417389,"272":0.1432456076145172,"273":0.26144081354141235,"274":-0.026616346091032028,"275":0.1816563457250595,"276":-0.3632187843322754,"277":-0.046154122799634933,"278":-0.9239714741706848,"279":0.5149489045143127,"280":0.12158460170030594,"281":-0.617856502532959,"282":0.5009205937385559,"283":0.831616997718811,"284":-0.2726706862449646,"285":-0.45491236448287964,"286":-0.6504486203193665,"287":-0.6968465447425842,"288":0.41815391182899475,"289":-0.09528418630361557,"290":0.6378710269927979,"291":-0.0825175940990448,"292":-0.043424975126981735,"293":-0.021279871463775635,"294":0.1805313676595688,"295":-0.16278500854969025,"296":1.7290217876434326,"297":-0.282825231552124,"298":0.07400668412446976,"299":0.38785073161125183,"300":-1.5554181337356567,"301":-0.42075008153915405,"302":0.10552553832530975,"303":0.1485360860824585,"304":0.23098888993263245,"305":0.6295186877250671,"306":-0.7251960039138794,"307":0.1511448621749878,"308":-0.22164979577064514,"309":0.2805019021034241,"310":0.07414525002241135,"311":-0.2200578898191452,"312":-0.7302219271659851,"313":0.23474439978599548,"314":-1.139435887336731,"315":0.43773093819618225,"316":-0.19833731651306152,"317":-0.5779861211776733,"318":1.636121392250061,"319":0.8810389041900635,"320":0.062441740185022354,"321":-0.17301172018051147,"322":-0.34801217913627625,"323":-0.8494499325752258,"324":0.3597213327884674,"325":0.5244837999343872,"326":0.8785693049430847,"327":-0.5459128618240356,"328":-0.8044680953025818,"329":0.12226735055446625,"330":-0.6697997450828552,"331":-0.49000418186187744,"332":0.17173290252685547,"333":0.49796146154403687,"334":0.654331386089325,"335":-0.6485369205474854,"336":-0.44316616654396057,"337":0.49154722690582275,"338":-0.25127825140953064,"339":-0.6396009922027588,"340":-0.463499516248703,"341":-0.6987482309341431,"342":0.3308522403240204,"343":-0.14560243487358093,"344":-0.1757902204990387,"345":-0.3757023215293884,"346":-0.21269191801548004,"347":0.28040045499801636,"348":-0.17433172464370728,"349":-0.2728492021560669,"350":1.262694239616394,"351":-0.1774922013282776,"352":0.006220428738743067,"353":0.4412483870983124,"354":-0.9827982783317566,"355":-0.14216332137584686,"356":-0.139239102602005,"357":-0.10926833003759384,"358":0.2320726066827774,"359":-0.04094929248094559}},"cellActivationHidden":{"rows":20,"columns":20,"weights":{"0":-0.3696522116661072,"1":0.3880727291107178,"2":0.28496894240379333,"3":-0.1383705884218216,"4":-0.17038804292678833,"5":1.298392653465271,"6":-0.14146515727043152,"7":0.33516132831573486,"8":0.2870798110961914,"9":-0.30309075117111206,"10":0.09067649394273758,"11":-0.03368958458304405,"12":-0.38862356543540955,"13":-0.15354950726032257,"14":0.44732898473739624,"15":0.26034316420555115,"16":-0.3098463714122772,"17":0.18129923939704895,"18":-0.3336506485939026,"19":-0.20285701751708984,"20":-0.469980388879776,"21":0.23550358414649963,"22":-0.26375022530555725,"23":1.0693504810333252,"24":-0.793502688407898,"25":0.4479658603668213,"26":0.39634522795677185,"27":-0.6756232976913452,"28":-0.025041870772838593,"29":-0.8539527654647827,"30":-1.5030549764633179,"31":-0.320582777261734,"32":-0.5958981513977051,"33":-0.7972465753555298,"34":-0.044958144426345825,"35":0.38645926117897034,"36":-0.802635133266449,"37":0.24090120196342468,"38":0.15474794805049896,"39":-0.19639790058135986,"40":-0.3443964123725891,"41":-0.3479357659816742,"42":0.24275723099708557,"43":-0.184945747256279,"44":-0.6307416558265686,"45":1.0345486402511597,"46":0.8706356883049011,"47":-0.7554534673690796,"48":-0.08865506947040558,"49":0.12399238348007202,"50":0.8203064799308777,"51":0.17453598976135254,"52":-0.433310866355896,"53":0.25868654251098633,"54":-0.4055602252483368,"55":-0.21639734506607056,"56":-0.8192547559738159,"57":0.2740103006362915,"58":-0.8118020296096802,"59":-0.7185083031654358,"60":0.05651315674185753,"61":0.0712038204073906,"62":-0.2733098864555359,"63":-0.19435343146324158,"64":-0.05345359072089195,"65":0.4057891070842743,"66":-0.16113992035388947,"67":0.21091321110725403,"68":0.20619332790374756,"69":0.15659688413143158,"70":0.07757129520177841,"71":-0.35044530034065247,"72":-0.2534036934375763,"73":-0.6239485740661621,"74":0.24922922253608704,"75":-0.11870303750038147,"76":-0.08085501939058304,"77":-0.07598520070314407,"78":-0.2970046401023865,"79":-0.026112085208296776,"80":0.13075551390647888,"81":-0.49090537428855896,"82":-0.10751944780349731,"83":-0.09368148446083069,"84":-0.2976350784301758,"85":0.7228003144264221,"86":-0.26797398924827576,"87":-0.14003801345825195,"88":-0.3734125792980194,"89":-0.2895859479904175,"90":0.0960751473903656,"91":-0.46082863211631775,"92":-0.29139792919158936,"93":0.4089242219924927,"94":0.3436548709869385,"95":0.1485407054424286,"96":0.04782708361744881,"97":-0.2083318531513214,"98":-0.1671045869588852,"99":0.3568481504917145,"100":-0.6979087591171265,"101":0.309866338968277,"102":0.4143204391002655,"103":0.21304941177368164,"104":-0.9093421101570129,"105":1.2966303825378418,"106":1.4522349834442139,"107":0.009559566155076027,"108":-0.4016306400299072,"109":-0.3097614049911499,"110":0.3238457441329956,"111":0.6134576797485352,"112":-0.7601473331451416,"113":-0.32612067461013794,"114":-0.47831636667251587,"115":0.46467238664627075,"116":-1.5864819288253784,"117":0.7081214189529419,"118":-0.2598119080066681,"119":-0.016882436349987984,"120":0.9884778261184692,"121":0.45815059542655945,"122":-0.42492425441741943,"123":-0.0663905143737793,"124":0.43638768792152405,"125":-1.0027961730957031,"126":-0.2961953282356262,"127":0.33825576305389404,"128":0.2465837448835373,"129":0.5746756196022034,"130":-0.2333284467458725,"131":-0.34257954359054565,"132":0.15267834067344666,"133":-0.3342495560646057,"134":0.5994792580604553,"135":-0.657221794128418,"136":0.2939930856227875,"137":-0.9234837293624878,"138":0.139229416847229,"139":0.8123064041137695,"140":0.719663143157959,"141":1.0285875797271729,"142":-0.59107905626297,"143":0.8912854790687561,"144":-0.31818869709968567,"145":0.11932150274515152,"146":-0.542455792427063,"147":0.07050764560699463,"148":0.5178669691085815,"149":-0.8559189438819885,"150":-0.6330313682556152,"151":-0.5098996162414551,"152":0.06770670413970947,"153":-0.8397066593170166,"154":0.5954158902168274,"155":-0.6155340671539307,"156":-0.21680831909179688,"157":-0.5595812201499939,"158":0.5720059871673584,"159":0.8071146607398987,"160":-0.16154344379901886,"161":0.3164973258972168,"162":0.22587242722511292,"163":0.4925396144390106,"164":-0.38528165221214294,"165":0.8433597683906555,"166":-0.01679905317723751,"167":0.17739146947860718,"168":0.27896738052368164,"169":-0.32819485664367676,"170":-0.7759675979614258,"171":0.18250006437301636,"172":-0.28967124223709106,"173":-0.22939486801624298,"174":0.29583975672721863,"175":-0.1324324905872345,"176":-0.2527865171432495,"177":-0.22879931330680847,"178":-0.24023933708667755,"179":-0.307204008102417,"180":-0.352277547121048,"181":0.4523279368877411,"182":0.6778343915939331,"183":0.4301813244819641,"184":0.3850596249103546,"185":0.4849705100059509,"186":0.02137339860200882,"187":-0.1999606490135193,"188":-0.401752769947052,"189":0.10863951593637466,"190":0.0024402663111686707,"191":0.6526203155517578,"192":0.1584472954273224,"193":0.08834768831729889,"194":-0.46094951033592224,"195":0.34920749068260193,"196":-0.14040428400039673,"197":0.3375787138938904,"198":0.44216975569725037,"199":0.5267871022224426,"200":0.7388586401939392,"201":0.884883463382721,"202":-0.23345398902893066,"203":0.6010677218437195,"204":1.0643672943115234,"205":-1.1064269542694092,"206":-0.4202391803264618,"207":1.0170836448669434,"208":-0.12894880771636963,"209":0.14392538368701935,"210":-0.8633642196655273,"211":-0.07767914235591888,"212":0.09131158143281937,"213":-1.1297781467437744,"214":0.5330297350883484,"215":-0.5287851095199585,"216":-0.12463320046663284,"217":-0.24836266040802002,"218":0.7415198087692261,"219":0.7038091421127319,"220":-0.4217091500759125,"221":0.3021061420440674,"222":0.3465031683444977,"223":0.2567633092403412,"224":-0.8511372804641724,"225":1.0945327281951904,"226":1.1487762928009033,"227":-0.2679533362388611,"228":-0.5756546258926392,"229":-0.3397798538208008,"230":0.8368836641311646,"231":0.3977201581001282,"232":-0.8300808668136597,"233":-0.2753661870956421,"234":-0.4315285086631775,"235":0.26781895756721497,"236":-1.7499101161956787,"237":0.8237641453742981,"238":-0.3202657401561737,"239":0.03447720408439636,"240":0.25606054067611694,"241":0.21782536804676056,"242":0.5995263457298279,"243":0.34354281425476074,"244":-0.7256097197532654,"245":1.20259690284729,"246":-0.12005334347486496,"247":0.07433326542377472,"248":0.20780444145202637,"249":-0.37145617604255676,"250":-0.09574156254529953,"251":0.6756748557090759,"252":-0.5592352151870728,"253":0.17998698353767395,"254":0.24642901122570038,"255":-0.17375198006629944,"256":-0.5434999465942383,"257":-0.2668151557445526,"258":-0.2716769576072693,"259":-0.2528025209903717,"260":-0.0971595048904419,"261":0.04130998253822327,"262":-0.12853531539440155,"263":-0.43477264046669006,"264":-0.4775933623313904,"265":-0.6781808137893677,"266":0.500597357749939,"267":-0.030972376465797424,"268":-0.053442616015672684,"269":0.8556556105613708,"270":0.7637155652046204,"271":0.09225638210773468,"272":-0.09806771576404572,"273":0.12386573106050491,"274":0.17432236671447754,"275":-0.08313440531492233,"276":-0.34656068682670593,"277":0.21065036952495575,"278":-0.481981486082077,"279":-0.0764605775475502,"280":0.13179320096969604,"281":0.4750160574913025,"282":-0.4123823344707489,"283":0.5443499088287354,"284":-0.46226221323013306,"285":0.7829620838165283,"286":-0.22745151817798615,"287":0.16783514618873596,"288":0.4720863401889801,"289":-0.38309380412101746,"290":-0.9800207018852234,"291":-0.6172913312911987,"292":-0.34829822182655334,"293":-0.06359662860631943,"294":0.3392006456851959,"295":-0.4948466718196869,"296":-0.21440869569778442,"297":-0.4760742485523224,"298":-0.118363156914711,"299":0.27093374729156494,"300":-0.2220885157585144,"301":-0.62026047706604,"302":0.1082262322306633,"303":-0.4363631010055542,"304":0.5075719356536865,"305":-0.5157321095466614,"306":-0.1284739077091217,"307":-0.4258492887020111,"308":-0.6596654653549194,"309":0.32670825719833374,"310":0.39618876576423645,"311":-0.23883673548698425,"312":0.1811780035495758,"313":0.2558753788471222,"314":-0.6443312168121338,"315":0.19746696949005127,"316":-0.06196439266204834,"317":0.5461262464523315,"318":0.16413997113704681,"319":-0.5765183568000793,"320":-0.9820137619972229,"321":0.48094111680984497,"322":0.11871135234832764,"323":0.9867461323738098,"324":-0.11486901342868805,"325":1.0004321336746216,"326":0.46349361538887024,"327":0.3963565528392792,"328":-0.39593449234962463,"329":-0.8172077536582947,"330":0.23436515033245087,"331":0.3508947193622589,"332":-0.34441477060317993,"333":-0.17755253612995148,"334":-0.13163398206233978,"335":0.9287412762641907,"336":-0.7910513877868652,"337":0.9329982995986938,"338":0.22334448993206024,"339":-0.3059249222278595,"340":0.5623179078102112,"341":-0.01036912016570568,"342":-0.06800027191638947,"343":-0.10967575013637543,"344":0.08612558245658875,"345":-1.047199010848999,"346":-0.0865597128868103,"347":-0.18803375959396362,"348":-0.06293604522943497,"349":0.5809473395347595,"350":0.24131932854652405,"351":-0.04594476893544197,"352":0.2301996797323227,"353":-0.4745227098464966,"354":-0.1095290407538414,"355":-0.49694886803627014,"356":0.3443557620048523,"357":-0.4930596351623535,"358":0.1503915935754776,"359":0.30159056186676025,"360":-0.4846799969673157,"361":0.308845579624176,"362":-0.20041212439537048,"363":0.47618502378463745,"364":0.05564163252711296,"365":0.5125622749328613,"366":0.0932808667421341,"367":0.07371215522289276,"368":-0.010528811253607273,"369":-0.5479276180267334,"370":-0.2594089210033417,"371":-0.1017446219921112,"372":-0.25438186526298523,"373":-0.6488823890686035,"374":-0.20636677742004395,"375":0.3387543857097626,"376":0.014685291796922684,"377":0.017107980325818062,"378":-0.07448171824216843,"379":-0.14348521828651428,"380":-0.09682842344045639,"381":0.26203957200050354,"382":-0.2692923843860626,"383":0.809746265411377,"384":-0.32486042380332947,"385":0.586946964263916,"386":-0.12925221025943756,"387":-0.4493805468082428,"388":0.3210400342941284,"389":-0.6565350890159607,"390":-1.4554460048675537,"391":0.6023248434066772,"392":-0.25369101762771606,"393":-0.3813588619232178,"394":0.23812398314476013,"395":0.08459878712892532,"396":-0.3203015625476837,"397":-0.16047845780849457,"398":0.1506732702255249,"399":-0.20154814422130585}},"cellActivationBias":{"rows":20,"columns":1,"weights":{"0":-0.6105799078941345,"1":-0.5731315612792969,"2":-0.2561650276184082,"3":0.012509136460721493,"4":0.4502946436405182,"5":-0.22978632152080536,"6":0.45454102754592896,"7":-0.16969214379787445,"8":-0.7440379858016968,"9":0.326562762260437,"10":0.5088769793510437,"11":-0.2809271812438965,"12":-0.05904318764805794,"13":0.08388824015855789,"14":-0.7406058311462402,"15":0.6094908118247986,"16":-0.20602937042713165,"17":0.7302359342575073,"18":0.05434563755989075,"19":-0.4828033745288849}}},{"inputMatrix":{"rows":20,"columns":20,"weights":{"0":-0.13872167468070984,"1":0.13962113857269287,"2":0.2417638897895813,"3":1.255542278289795,"4":2.3046717643737793,"5":-0.35704511404037476,"6":-0.26692330837249756,"7":1.2156310081481934,"8":-0.263163298368454,"9":-0.9244412183761597,"10":0.004155165050178766,"11":0.14281132817268372,"12":0.4326469600200653,"13":-1.8698419332504272,"14":0.007076081354171038,"15":0.28262099623680115,"16":0.25791871547698975,"17":0.38055530190467834,"18":1.497348427772522,"19":-0.4915785491466522,"20":0.14659260213375092,"21":0.3844444155693054,"22":0.7612268924713135,"23":0.5399155616760254,"24":1.3576899766921997,"25":0.2356078028678894,"26":-0.4006127715110779,"27":-1.0913246870040894,"28":0.08460842818021774,"29":-0.5043896436691284,"30":-0.5774648785591125,"31":0.6050227284431458,"32":-0.06447217613458633,"33":-0.8069701790809631,"34":0.0450000986456871,"35":-0.07690420746803284,"36":0.2953975200653076,"37":-0.1300738900899887,"38":0.5346614122390747,"39":0.2341040074825287,"40":0.32500210404396057,"41":0.4321325421333313,"42":1.0737522840499878,"43":-0.2736314833164215,"44":0.714198648929596,"45":1.2477920055389404,"46":-1.2680907249450684,"47":0.44001999497413635,"48":0.520359456539154,"49":0.4993229806423187,"50":-0.9946571588516235,"51":1.269877552986145,"52":0.26954782009124756,"53":0.011008383706212044,"54":0.19555030763149261,"55":-0.6699932217597961,"56":1.335546851158142,"57":-0.4139528274536133,"58":0.1421486884355545,"59":0.47789597511291504,"60":-0.06360140442848206,"61":0.18555212020874023,"62":-0.3558565080165863,"63":0.585435152053833,"64":0.6251901984214783,"65":-0.526660680770874,"66":0.028278376907110214,"67":-0.46839669346809387,"68":-0.1547514796257019,"69":-0.3547665774822235,"70":0.3313780426979065,"71":-0.3629361391067505,"72":0.16053706407546997,"73":-0.49719420075416565,"74":-0.051510825753211975,"75":0.12177111208438873,"76":0.04317137226462364,"77":-0.09271952509880066,"78":0.8709604144096375,"79":0.20638780295848846,"80":0.25641682744026184,"81":0.21056099236011505,"82":-0.19010433554649353,"83":0.3242689371109009,"84":0.45829135179519653,"85":-0.4818797707557678,"86":-0.47644320130348206,"87":-0.5860326290130615,"88":0.3570369482040405,"89":-0.372926265001297,"90":-0.3447601795196533,"91":-0.4763778746128082,"92":0.2926732003688812,"93":-0.36286669969558716,"94":0.39485204219818115,"95":-0.3743104040622711,"96":0.4760166108608246,"97":-0.47157320380210876,"98":0.36090338230133057,"99":0.3108968138694763,"100":0.41799405217170715,"101":-0.4897463023662567,"102":-0.517345666885376,"103":-0.13676860928535461,"104":1.5041377544403076,"105":-0.8881787061691284,"106":-1.1303155422210693,"107":0.533641517162323,"108":0.2693897485733032,"109":0.27592217922210693,"110":-0.2364218384027481,"111":-0.7350323796272278,"112":1.1701759099960327,"113":-0.9418719410896301,"114":0.39749082922935486,"115":-0.6507672667503357,"116":1.2144311666488647,"117":-0.8123946189880371,"118":0.33714747428894043,"119":-0.0780823826789856,"120":0.29129084944725037,"121":0.00019742378208320588,"122":0.5480849146842957,"123":0.4256357252597809,"124":1.0553231239318848,"125":0.09376070648431778,"126":-0.5354204177856445,"127":-1.2365862131118774,"128":0.2273658812046051,"129":-0.3773263394832611,"130":-0.3994736671447754,"131":0.420864999294281,"132":0.11672215908765793,"133":-0.4715573489665985,"134":0.2548118531703949,"135":-0.19340094923973083,"136":0.47942090034484863,"137":-0.45094040036201477,"138":0.36055517196655273,"139":0.11463946849107742,"140":0.2298375517129898,"141":0.30134472250938416,"142":-0.044253312051296234,"143":0.59293133020401,"144":0.647491991519928,"145":-0.2909979820251465,"146":-0.6086965799331665,"147":-1.4240700006484985,"148":0.06524087488651276,"149":-0.5969321131706238,"150":-0.999004602432251,"151":0.10082294046878815,"152":0.026979589834809303,"153":-0.7114278674125671,"154":0.11258094757795334,"155":0.005850654561072588,"156":0.17128834128379822,"157":-0.4539906978607178,"158":0.5303818583488464,"159":0.19166840612888336,"160":0.2580852210521698,"161":0.24379371106624603,"162":-0.1645478457212448,"163":0.4005845785140991,"164":0.39659786224365234,"165":-0.31233373284339905,"166":-0.19554179906845093,"167":-0.4075136184692383,"168":0.20120130479335785,"169":-0.404641717672348,"170":-0.19296807050704956,"171":-0.3505276143550873,"172":0.27743667364120483,"173":-0.3311931788921356,"174":0.23929795622825623,"175":-0.24946874380111694,"176":0.31246718764305115,"177":-0.39702942967414856,"178":0.36730945110321045,"179":0.2768276035785675,"180":-0.3843041658401489,"181":-0.8323149681091309,"182":0.7045473456382751,"183":-0.8446141481399536,"184":-0.43157216906547546,"185":0.26509445905685425,"186":0.1331494152545929,"187":-0.7928970456123352,"188":-0.3005112409591675,"189":0.7400861382484436,"190":0.3401319682598114,"191":0.6279840469360352,"192":-0.27839237451553345,"193":0.7960855960845947,"194":-0.3228421211242676,"195":0.03144088387489319,"196":-0.1951310783624649,"197":0.418708473443985,"198":-0.9481356143951416,"199":-0.6082744002342224,"200":0.5529658198356628,"201":0.33406761288642883,"202":-0.26122456789016724,"203":0.15623942017555237,"204":0.42507418990135193,"205":-0.39462268352508545,"206":-0.5377053022384644,"207":0.35272589325904846,"208":0.5810327529907227,"209":-0.20822371542453766,"210":-0.5771111249923706,"211":-0.11241555213928223,"212":0.34386077523231506,"213":-0.3630293011665344,"214":0.512997031211853,"215":-0.6316134333610535,"216":0.5854521989822388,"217":-0.5848093628883362,"218":0.18082204461097717,"219":0.44673576951026917,"220":0.030678607523441315,"221":-0.5453876852989197,"222":0.7299560308456421,"223":-0.5653023719787598,"224":0.5527090430259705,"225":0.20695960521697998,"226":-0.7205833196640015,"227":1.2530685663223267,"228":0.763218879699707,"229":0.6511144638061523,"230":0.4341293275356293,"231":0.17320756614208221,"232":0.4294777512550354,"233":0.22703151404857635,"234":0.534322202205658,"235":-0.43302324414253235,"236":0.14090536534786224,"237":-0.244221493601799,"238":-0.2868485748767853,"239":-0.27366530895233154,"240":0.0012397365644574165,"241":-0.08690880984067917,"242":-0.2495923787355423,"243":0.43415263295173645,"244":1.5252662897109985,"245":-0.7472841739654541,"246":-0.5572448968887329,"247":0.5308582782745361,"248":-0.09930948168039322,"249":-0.15637709200382233,"250":-0.404446542263031,"251":-0.25202012062072754,"252":0.49595746397972107,"253":-1.509530782699585,"254":-0.05719468370079994,"255":-0.14251863956451416,"256":0.6077356338500977,"257":-0.41810405254364014,"258":0.9222797155380249,"259":0.1316487342119217,"260":0.12270857393741608,"261":0.24461200833320618,"262":0.39215347170829773,"263":0.49093183875083923,"264":1.265745759010315,"265":0.002268834039568901,"266":-0.4021722972393036,"267":-1.5216716527938843,"268":0.11410427838563919,"269":-0.43472445011138916,"270":-0.3303552269935608,"271":0.16716191172599792,"272":0.011700550094246864,"273":-0.6470775604248047,"274":0.07030931860208511,"275":-0.07504846155643463,"276":0.33549728989601135,"277":-0.34524664282798767,"278":0.5006595849990845,"279":0.1566515564918518,"280":0.003856827737763524,"281":0.3055970072746277,"282":0.2446611374616623,"283":0.5665359497070312,"284":1.2550654411315918,"285":-0.0719182938337326,"286":0.01042610127478838,"287":-1.4022642374038696,"288":-0.10987771302461624,"289":-0.5210235118865967,"290":0.06462230533361435,"291":0.2116568386554718,"292":-0.02732478827238083,"293":-0.6738051772117615,"294":-0.037970222532749176,"295":0.044902876019477844,"296":0.1837344765663147,"297":-0.25466108322143555,"298":0.504319429397583,"299":0.013193346560001373,"300":-0.27556636929512024,"301":-0.29221799969673157,"302":-0.49775421619415283,"303":0.8637004494667053,"304":2.0868146419525146,"305":-1.0111496448516846,"306":-1.057133674621582,"307":0.4145732820034027,"308":-0.7158657908439636,"309":-0.42087653279304504,"310":-1.0011556148529053,"311":-0.36939114332199097,"312":0.3194585144519806,"313":-1.9115930795669556,"314":-0.41089028120040894,"315":0.436667799949646,"316":0.8881608843803406,"317":0.05787934362888336,"318":1.1791549921035767,"319":-0.3944358229637146,"320":0.48800885677337646,"321":0.21897076070308685,"322":-0.5052924156188965,"323":0.2260730117559433,"324":0.39883002638816833,"325":-0.7262192964553833,"326":-0.33116576075553894,"327":0.31764426827430725,"328":0.6195907592773438,"329":-0.28614217042922974,"330":-0.28787463903427124,"331":-0.8343435525894165,"332":0.40658536553382874,"333":-0.2792462110519409,"334":0.6273425221443176,"335":-0.4915229380130768,"336":0.4430586099624634,"337":-0.5338076949119568,"338":0.24713805317878723,"339":0.2760285437107086,"340":-0.03440243750810623,"341":0.36623069643974304,"342":0.4698958992958069,"343":0.3919418752193451,"344":1.413418173789978,"345":0.23394791781902313,"346":-0.27964141964912415,"347":-1.3659690618515015,"348":-0.16710436344146729,"349":-0.49715232849121094,"350":-0.3110254406929016,"351":0.544492244720459,"352":-0.20387428998947144,"353":-0.5955411195755005,"354":-0.06905163079500198,"355":0.17381837964057922,"356":0.13658039271831512,"357":-0.01864788867533207,"358":0.5656090378761292,"359":0.11819067597389221,"360":0.5505971312522888,"361":0.2326984852552414,"362":0.8305416703224182,"363":0.363151490688324,"364":1.2505030632019043,"365":0.5970526933670044,"366":-0.9429652094841003,"367":-0.08878812193870544,"368":0.4650843143463135,"369":-0.35937005281448364,"370":-0.9739126563072205,"371":0.5463303327560425,"372":0.379241019487381,"373":-0.535670816898346,"374":0.5278900265693665,"375":-0.568980872631073,"376":0.6387390494346619,"377":-0.5532950162887573,"378":0.30542153120040894,"379":0.35486817359924316,"380":-0.0429370179772377,"381":0.2685195505619049,"382":0.7531515955924988,"383":0.7186534404754639,"384":1.150338053703308,"385":0.16721734404563904,"386":-0.17972956597805023,"387":-1.2056413888931274,"388":-0.09991781413555145,"389":-0.6871500015258789,"390":-0.4300244450569153,"391":0.6719506978988647,"392":-0.19796225428581238,"393":-0.6908355951309204,"394":-0.2302611917257309,"395":0.19826820492744446,"396":0.039973411709070206,"397":0.1680988073348999,"398":0.6786050200462341,"399":0.029381411150097847}},"inputHidden":{"rows":20,"columns":20,"weights":{"0":0.10293339937925339,"1":-0.2619667649269104,"2":-1.1044371128082275,"3":-0.8983092308044434,"4":0.3776598870754242,"5":-0.10820314288139343,"6":-0.28979161381721497,