{
  "weights": {
    "type": "LSTM",
    "options": {
      "inputSize": 17,
      "inputRange": 17,
      "hiddenSizes": [
        20,
        20
      ],
      "outputSize": 17,
      "learningRate": 0.01,
      "decayRate": 0.999,
      "smoothEps": 1e-8,
      "regc": 0.000001,
      "clipval": 5,
      "json": null,
      "dataFormatter": {
        "values": [
          "i do this",
          "i like laravel",
          "i work with laravel",
          "laravel",
          "no"
        ],
        "indexTable": {
          "i": 0,
          " ": 1,
          "d": 2,
          "o": 3,
          "t": 4,
          "h": 5,
          "s": 6,
          "l": 7,
          "k": 8,
          "e": 9,
          "a": 10,
          "r": 11,
          "v": 12,
          "w": 13,
          "n": 14,
          "stop-input": 15,
          "start-output": 16
        },
        "characterTable": {
          "0": "i",
          "1": " ",
          "2": "d",
          "3": "o",
          "4": "t",
          "5": "h",
          "6": "s",
          "7": "l",
          "8": "k",
          "9": "e",
          "10": "a",
          "11": "r",
          "12": "v",
          "13": "w",
          "14": "n",
          "15": "stop-input",
          "16": "start-output"
        },
        "characters": [
          "i",
          " ",
          "d",
          "o",
          "t",
          "h",
          "s",
          "l",
          "k",
          "e",
          "a",
          "r",
          "v",
          "w",
          "n",
          "stop-input",
          "start-output"
        ]
      }
    },
    "input": {
      "rows": 18,
      "columns": 17,
      "weights": {
        "0": -0.09254959970712662,
        "1": -0.5980406403541565,
        "2": 0.2786184251308441,
        "3": 0.5912498831748962,
        "4": 0.15287691354751587,
        "5": -0.6462316513061523,
        "6": 0.616929829120636,
        "7": -0.04721597582101822,
        "8": 0.23192450404167175,
        "9": -0.03474840894341469,
        "10": -0.3008985221385956,
        "11": 0.12278718501329422,
        "12": 0.10744166374206543,
        "13": -0.15642614662647247,
        "14": 1.0186039209365845,
        "15": -1.0881012678146362,
        "16": -1.4395191669464111,
        "17": -0.8346972465515137,
        "18": -0.1176246702671051,
        "19": -0.5800077319145203,
        "20": -0.06712444126605988,
        "21": 0.047728437930345535,
        "22": 0.09542533755302429,
        "23": -1.627124309539795,
        "24": 0.28489363193511963,
        "25": 0.19868552684783936,
        "26": -0.6660811305046082,
        "27": -0.17680925130844116,
        "28": 0.24220019578933716,
        "29": 0.2848767936229706,
        "30": -0.2722099721431732,
        "31": -0.18401385843753815,
        "32": 0.12510204315185547,
        "33": 0.2520984709262848,
        "34": 0.71238774061203,
        "35": -0.5679578185081482,
        "36": -0.36430802941322327,
        "37": 0.47334882616996765,
        "38": -1.0773799419403076,
        "39": -0.9795202612876892,
        "40": -0.15877413749694824,
        "41": 0.3548830449581146,
        "42": 0.49535447359085083,
        "43": -0.36618974804878235,
        "44": -1.6529181003570557,
        "45": 0.6889309287071228,
        "46": 0.244339257478714,
        "47": 0.37460148334503174,
        "48": 0.5215222835540771,
        "49": -0.41097286343574524,
        "50": 0.01997208409011364,
        "51": 2.286010980606079,
        "52": 0.1448904126882553,
        "53": 2.7413530349731445,
        "54": 0.1764254868030548,
        "55": 0.09763864427804947,
        "56": -0.277446985244751,
        "57": 2.7245864868164062,
        "58": -0.6120740175247192,
        "59": 0.42140713334083557,
        "60": 1.9984240531921387,
        "61": -1.0742019414901733,
        "62": -0.555000901222229,
        "63": 0.6856175065040588,
        "64": 1.0373036861419678,
        "65": 0.3956206440925598,
        "66": -0.4530685842037201,
        "67": -1.5971364974975586,
        "68": 0.4314117729663849,
        "69": -1.5418031215667725,
        "70": -0.15124370157718658,
        "71": 0.5467774271965027,
        "72": -1.3160088062286377,
        "73": -1.5687710046768188,
        "74": -0.6736511588096619,
        "75": -0.20822644233703613,
        "76": 1.5511293411254883,
        "77": -1.1730899810791016,
        "78": -0.9755179286003113,
        "79": 0.3062165081501007,
        "80": -0.40423229336738586,
        "81": 0.12142007797956467,
        "82": 0.46134060621261597,
        "83": -1.2263987064361572,
        "84": 0.8093993067741394,
        "85": 1.079460620880127,
        "86": 0.5128796696662903,
        "87": 1.4778711795806885,
        "88": -1.2185578346252441,
        "89": 0.26295575499534607,
        "90": 0.7278677225112915,
        "91": 0.38174471259117126,
        "92": -1.2233668565750122,
        "93": -0.5797586441040039,
        "94": 1.358849287033081,
        "95": 1.1042686700820923,
        "96": -0.9669040441513062,
        "97": -1.0654370784759521,
        "98": -0.042135972529649734,
        "99": -0.9060834646224976,
        "100": 1.5562776327133179,
        "101": -1.2599166631698608,
        "102": 0.47207731008529663,
        "103": -0.15863607823848724,
        "104": 0.47933048009872437,
        "105": 0.5661659240722656,
        "106": -0.7425378561019897,
        "107": -0.6692919731140137,
        "108": 1.3258355855941772,
        "109": 0.3367982506752014,
        "110": 0.15136012434959412,
        "111": -0.21043644845485687,
        "112": -1.7079800367355347,
        "113": 0.8743334412574768,
        "114": 0.340742826461792,
        "115": 0.8852058053016663,
        "116": 0.7403484582901001,
        "117": -0.6617845892906189,
        "118": 0.6196549534797668,
        "119": 2.314239978790283,
        "120": -0.25180694460868835,
        "121": 1.520527720451355,
        "122": 0.21941067278385162,
        "123": -0.7549233436584473,
        "124": -0.5930907726287842,
        "125": 1.5813497304916382,
        "126": -1.5332564115524292,
        "127": 0.7020789384841919,
        "128": 2.123358726501465,
        "129": -1.170508861541748,
        "130": -1.4986456632614136,
        "131": -1.216930627822876,
        "132": 0.5533206462860107,
        "133": 0.16583912074565887,
        "134": -0.41661062836647034,
        "135": -1.4919193983078003,
        "136": -0.9459837079048157,
        "137": 0.2083551287651062,
        "138": 0.24149703979492188,
        "139": 0.16641324758529663,
        "140": -0.383132666349411,
        "141": 0.1724918931722641,
        "142": 0.3320085108280182,
        "143": -0.5137718319892883,
        "144": 1.4250686168670654,
        "145": 0.5197358131408691,
        "146": 1.1402500867843628,
        "147": -0.9182463884353638,
        "148": -0.7296510934829712,
        "149": 0.5836619734764099,
        "150": 0.026786481961607933,
        "151": -0.6556909680366516,
        "152": 1.7069281339645386,
        "153": -1.268140435218811,
        "154": -0.3003863990306854,
        "155": -1.1771814823150635,
        "156": -0.4728463590145111,
        "157": -0.4389715790748596,
        "158": -0.05232926085591316,
        "159": -0.5492120981216431,
        "160": 0.505342960357666,
        "161": 0.6336243152618408,
        "162": -0.9059062004089355,
        "163": 0.19664131104946136,
        "164": 0.24278680980205536,
        "165": 0.28334447741508484,
        "166": -0.5866929292678833,
        "167": -0.6207205057144165,
        "168": -0.2900674343109131,
        "169": 1.3795017004013062,
        "170": -0.5377103686332703,
        "171": -0.4222378432750702,
        "172": 0.178742915391922,
        "173": 1.5201942920684814,
        "174": -1.1478663682937622,
        "175": -0.5621711015701294,
        "176": -1.415359616279602,
        "177": 1.5623072385787964,
        "178": 0.635553777217865,
        "179": -0.668390691280365,
        "180": -1.5264599323272705,
        "181": 2.340360403060913,
        "182": 2.202111005783081,
        "183": 1.8896287679672241,
        "184": 1.2111696004867554,
        "185": -0.3938523530960083,
        "186": -0.08283169567584991,
        "187": -0.07205700129270554,
        "188": 1.3177108764648438,
        "189": -0.24338409304618835,
        "190": -2.156475305557251,
        "191": 0.8646253347396851,
        "192": 1.0185647010803223,
        "193": -0.9580214023590088,
        "194": 0.3819667100906372,
        "195": 0.029296863824129105,
        "196": -0.3184579610824585,
        "197": -0.3035118877887726,
        "198": 0.4934612512588501,
        "199": 0.6813993453979492,
        "200": -1.420147180557251,
        "201": -2.1676368713378906,
        "202": 2.270577907562256,
        "203": -1.1023249626159668,
        "204": 1.053406834602356,
        "205": 0.2807173430919647,
        "206": 0.897990345954895,
        "207": 1.0697249174118042,
        "208": 0.6963123083114624,
        "209": 0.7965040802955627,
        "210": -0.3455795645713806,
        "211": -0.5107093453407288,
        "212": -0.5597736835479736,
        "213": 0.6970987319946289,
        "214": -0.08689405769109726,
        "215": -0.48353010416030884,
        "216": -0.5961560010910034,
        "217": 1.716847538948059,
        "218": 1.1990864276885986,
        "219": 0.8057778477668762,
        "220": -1.217406988143921,
        "221": 1.3783615827560425,
        "222": -0.5426064133644104,
        "223": 1.5440598726272583,
        "224": 1.1743487119674683,
        "225": 1.145025610923767,
        "226": 0.5109042525291443,
        "227": -2.8612594604492188,
        "228": -1.5461617708206177,
        "229": -1.2067956924438477,
        "230": 0.9074591398239136,
        "231": 0.69536954164505,
        "232": -0.9440974593162537,
        "233": -1.835343599319458,
        "234": 2.8332886695861816,
        "235": 1.107252597808838,
        "236": 1.610128402709961,
        "237": -2.2393975257873535,
        "238": 0.7906671762466431,
        "239": 0.1702631115913391,
        "240": 0.7564547061920166,
        "241": -0.8502498865127563,
        "242": 0.25767600536346436,
        "243": 0.438670814037323,
        "244": -0.8993668556213379,
        "245": -0.5929585695266724,
        "246": -0.3339555859565735,
        "247": 0.7389605045318604,
        "248": 0.25532403588294983,
        "249": -0.42694681882858276,
        "250": -0.5244678258895874,
        "251": -1.163527011871338,
        "252": -0.5354676842689514,
        "253": 0.6478363871574402,
        "254": -1.367911696434021,
        "255": 3.5954513549804688,
        "256": -0.901982307434082,
        "257": 1.7276719808578491,
        "258": 0.2251831442117691,
        "259": -1.5667047500610352,
        "260": -1.17855966091156,
        "261": 2.7410848140716553,
        "262": -1.3655542135238647,
        "263": 1.6164145469665527,
        "264": 2.016173839569092,
        "265": -1.9031708240509033,
        "266": -1.2076979875564575,
        "267": -0.9829813838005066,
        "268": 0.6091338992118835,
        "269": 0.24321295320987701,
        "270": -0.757013201713562,
        "271": -1.9954935312271118,
        "272": 1.1629524230957031,
        "273": -0.662918210029602,
        "274": 1.0838427543640137,
        "275": 0.5399000644683838,
        "276": -0.7984768152236938,
        "277": -0.5987471342086792,
        "278": 0.8057432174682617,
        "279": -1.286142349243164,
        "280": 0.9477168321609497,
        "281": 1.3763525485992432,
        "282": 1.1669601202011108,
        "283": -1.3142763376235962,
        "284": -1.4152724742889404,
        "285": 0.3666660487651825,
        "286": 0.4007450044155121,
        "287": -0.7187885046005249,
        "288": -0.2703624665737152,
        "289": 0.007467749062925577,
        "290": -0.18876971304416656,
        "291": 0.09577015042304993,
        "292": 0.5150262117385864,
        "293": -0.014572073705494404,
        "294": -0.26717615127563477,
        "295": -0.14606735110282898,
        "296": 0.14404183626174927,
        "297": -0.12493934482336044,
        "298": -0.27935951948165894,
        "299": -1.070960521697998,
        "300": 0.716318666934967,
        "301": 0.30082201957702637,
        "302": 0.898972749710083,
        "303": 0.6376222372055054,
        "304": -0.020042171701788902,
        "305": -0.6718536019325256
      }
    },
    "hiddenLayers": [
      {
        "inputMatrix": {
          "rows": 20,
          "columns": 17,
          "weights": {
            "0": 0.04798226058483124,
            "1": -0.8552463054656982,
            "2": -1.0088480710983276,
            "3": 0.13208183646202087,
            "4": -1.1788654327392578,
            "5": -1.0032042264938354,
            "6": -0.19478823244571686,
            "7": -0.15232789516448975,
            "8": 0.6978918313980103,
            "9": -0.355464905500412,
            "10": -0.23679116368293762,
            "11": -0.06429628282785416,
            "12": -0.6080655455589294,
            "13": -0.6802603602409363,
            "14": 0.03484116867184639,
            "15": -0.23392720520496368,
            "16": -0.19219158589839935,
            "17": 0.3728910982608795,
            "18": -0.1089065819978714,
            "19": 0.17081297934055328,
            "20": -0.18704643845558167,
            "21": -0.09272057563066483,
            "22": 0.05418156832456589,
            "23": -0.48560264706611633,
            "24": -0.34888315200805664,
            "25": 0.09122508019208908,
            "26": 0.4064885973930359,
            "27": 0.5767215490341187,
            "28": -0.7587079405784607,
            "29": -0.5899673700332642,
            "30": 0.04793710261583328,
            "31": -0.2194855958223343,
            "32": 0.18781664967536926,
            "33": -0.22617222368717194,
            "34": 0.120791956782341,
            "35": -0.6652388572692871,
            "36": -0.11628369987010956,
            "37": 0.7968320846557617,
            "38": -1.5356546640396118,
            "39": -1.864905595779419,
            "40": -0.03485741466283798,
            "41": 0.18186703324317932,
            "42": 0.8984230756759644,
            "43": -0.12907814979553223,
            "44": -0.980431079864502,
            "45": 0.2917672395706177,
            "46": 0.18804694712162018,
            "47": 1.0069468021392822,
            "48": 0.967933177947998,
            "49": -0.6540854573249817,
            "50": -0.20051029324531555,
            "51": 0.9988963007926941,
            "52": -0.3663003742694855,
            "53": 0.9656671285629272,
            "54": 0.4552925229072571,
            "55": -0.43002185225486755,
            "56": 0.04707585647702217,
            "57": -0.39498281478881836,
            "58": -1.3474645614624023,
            "59": 0.26674675941467285,
            "60": 0.4914277493953705,
            "61": 0.09064546227455139,
            "62": -0.46761074662208557,
            "63": -1.6811035871505737,
            "64": 1.3769227266311646,
            "65": 0.6801393628120422,
            "66": 0.4577120542526245,
            "67": -0.713667094707489,
            "68": 0.3416285216808319,
            "69": -0.2771514058113098,
            "70": -0.042129211127758026,
            "71": 1.4570730924606323,
            "72": -0.014935684390366077,
            "73": -0.3140645921230316,
            "74": -0.41159480810165405,
            "75": 0.3955160677433014,
            "76": -0.35628756880760193,
            "77": -0.5596627593040466,
            "78": -1.2740426063537598,
            "79": 0.6880494952201843,
            "80": 0.42296767234802246,
            "81": 1.3045432567596436,
            "82": 1.781618595123291,
            "83": -0.0942639485001564,
            "84": -0.9192273616790771,
            "85": 0.022813433781266212,
            "86": 0.3344455361366272,
            "87": 0.5567185282707214,
            "88": -0.12294397503137589,
            "89": 0.37978801131248474,
            "90": 0.22261467576026917,
            "91": -0.3588833212852478,
            "92": -0.745991051197052,
            "93": -0.24185484647750854,
            "94": 0.07540646940469742,
            "95": 0.2096678763628006,
            "96": -0.2629053294658661,
            "97": -0.6219948530197144,
            "98": 0.21783117949962616,
            "99": -0.03077740967273712,
            "100": 0.5462460517883301,
            "101": -0.5402560830116272,
            "102": -1.2663357257843018,
            "103": 0.18689386546611786,
            "104": -0.832743763923645,
            "105": -0.7736689448356628,
            "106": 0.08929159492254257,
            "107": 0.16735270619392395,
            "108": -0.6416980028152466,
            "109": 0.8435136675834656,
            "110": 0.06427548825740814,
            "111": -0.7030990719795227,
            "112": 0.5305243730545044,
            "113": 0.11563646048307419,
            "114": 0.6285789608955383,
            "115": -1.21637761592865,
            "116": -0.7594942450523376,
            "117": -0.3595545291900635,
            "118": 1.061269760131836,
            "119": -0.5040671825408936,
            "120": 0.751815915107727,
            "121": 0.3281300663948059,
            "122": -1.3381158113479614,
            "123": 0.40795835852622986,
            "124": 0.799733579158783,
            "125": -0.2396843433380127,
            "126": -0.14820800721645355,
            "127": -0.055528461933135986,
            "128": -0.01848548837006092,
            "129": 0.5208015441894531,
            "130": -0.23416262865066528,
            "131": 0.1562565714120865,
            "132": -0.7596897482872009,
            "133": -1.5806360244750977,
            "134": 0.6345691680908203,
            "135": 0.14674735069274902,
            "136": 1.4246944189071655,
            "137": -0.04610598832368851,
            "138": 1.1352758407592773,
            "139": -0.12152562290430069,
            "140": -0.026520835235714912,
            "141": 0.279680460691452,
            "142": 0.8789641261100769,
            "143": -1.3945232629776,
            "144": -0.18799318373203278,
            "145": 1.6190149784088135,
            "146": 1.048479437828064,
            "147": -1.5477824211120605,
            "148": -1.1906439065933228,
            "149": -0.29092273116111755,
            "150": -0.29919034242630005,
            "151": 0.07267693430185318,
            "152": -0.19620804488658905,
            "153": -0.6188222169876099,
            "154": -0.4975346028804779,
            "155": -0.024506529793143272,
            "156": 0.13135656714439392,
            "157": -0.4472656846046448,
            "158": -0.5930677056312561,
            "159": 0.30878475308418274,
            "160": 0.19687065482139587,
            "161": 0.761171817779541,
            "162": -0.1081862598657608,
            "163": -1.0486786365509033,
            "164": 0.3100692927837372,
            "165": 0.3853926360607147,
            "166": -0.09611958265304565,
            "167": 0.16164307296276093,
            "168": -0.9578511714935303,
            "169": -0.033065181225538254,
            "170": 0.55838543176651,
            "171": -0.20239125192165375,
            "172": 0.3908873498439789,
            "173": 0.5788903832435608,
            "174": -0.04359816759824753,
            "175": -0.583516538143158,
            "176": 0.19220243394374847,
            "177": 0.05943486839532852,
            "178": -0.19746199250221252,
            "179": -0.16512621939182281,
            "180": -1.5276747941970825,
            "181": 0.748473584651947,
            "182": 0.44354447722435,
            "183": 0.877602219581604,
            "184": 0.7451813817024231,
            "185": 0.00977434404194355,
            "186": -0.6544917821884155,
            "187": -0.46004587411880493,
            "188": -0.5765336155891418,
            "189": -0.6112586259841919,
            "190": 0.3992535471916199,
            "191": -1.5026214122772217,
            "192": -1.3739089965820312,
            "193": -0.7348176836967468,
            "194": 0.8262032866477966,
            "195": 0.33411258459091187,
            "196": -1.2602471113204956,
            "197": -0.4975891411304474,
            "198": 1.2359187602996826,
            "199": 0.5291422605514526,
            "200": 0.15499673783779144,
            "201": 0.5201355218887329,
            "202": -0.40428030490875244,
            "203": 1.331234335899353,
            "204": 0.8799551725387573,
            "205": 0.857373058795929,
            "206": 0.31126007437705994,
            "207": -0.7859629392623901,
            "208": 0.7102634906768799,
            "209": 0.9301721453666687,
            "210": 0.4246976971626282,
            "211": -0.25868403911590576,
            "212": -0.5318099856376648,
            "213": 0.48712044954299927,
            "214": -0.3450108766555786,
            "215": -0.5859588384628296,
            "216": -0.18516233563423157,
            "217": -0.6929953694343567,
            "218": -0.8326511979103088,
            "219": 0.9569448828697205,
            "220": -0.6299084424972534,
            "221": -0.09895820170640945,
            "222": -0.14358080923557281,
            "223": 0.2180141806602478,
            "224": -0.5474759936332703,
            "225": -0.22575990855693817,
            "226": -0.16683247685432434,
            "227": 1.5451191663742065,
            "228": -0.3068603575229645,
            "229": 0.31177833676338196,
            "230": 0.5176905989646912,
            "231": 0.6756554841995239,
            "232": -0.6652011275291443,
            "233": -0.24732042849063873,
            "234": -0.8924520015716553,
            "235": -0.40403956174850464,
            "236": -0.328646183013916,
            "237": -0.08689070492982864,
            "238": -0.5535348057746887,
            "239": 0.5330183506011963,
            "240": -1.1655805110931396,
            "241": -0.6753867268562317,
            "242": 0.07713887840509415,
            "243": 0.22479857504367828,
            "244": -1.6132270097732544,
            "245": 0.8707724809646606,
            "246": -0.26400068402290344,
            "247": -0.9082899689674377,
            "248": -1.3446191549301147,
            "249": 1.2053345441818237,
            "250": 0.9895241260528564,
            "251": -1.3113110065460205,
            "252": -0.8993884921073914,
            "253": 0.4551467001438141,
            "254": -0.036549363285303116,
            "255": -1.162624478340149,
            "256": 0.7758864164352417,
            "257": -0.5258591175079346,
            "258": -0.9078633189201355,
            "259": 0.5627530217170715,
            "260": 0.8969759345054626,
            "261": -0.424915611743927,
            "262": 0.08330168575048447,
            "263": 0.21412332355976105,
            "264": -0.14133743941783905,
            "265": 0.7072264552116394,
            "266": -0.12035110592842102,
            "267": -0.031503014266490936,
            "268": -0.6659323573112488,
            "269": -1.2479735612869263,
            "270": 0.6427984237670898,
            "271": 0.8233815431594849,
            "272": -0.8114743232727051,
            "273": 0.21389995515346527,
            "274": -0.5170724987983704,
            "275": -0.3871818482875824,
            "276": -0.20508602261543274,
            "277": 0.1825646013021469,
            "278": -0.7544844746589661,
            "279": 0.5626906752586365,
            "280": 0.5059693455696106,
            "281": -0.7433400750160217,
            "282": 0.055947721004486084,
            "283": 0.5987975597381592,
            "284": 0.599606990814209,
            "285": -0.03864949569106102,
            "286": -0.7633334398269653,
            "287": 0.27443885803222656,
            "288": 0.8003350496292114,
            "289": -1.5378568172454834,
            "290": -0.23497313261032104,
            "291": 0.27068600058555603,
            "292": 0.8755655288696289,
            "293": -0.8870235085487366,
            "294": -0.24179424345493317,
            "295": -1.462077021598816,
            "296": 0.20268715918064117,
            "297": 0.8374916315078735,
            "298": -0.5478156208992004,
            "299": 0.6898939609527588,
            "300": 0.14834679663181305,
            "301": 0.07764307409524918,
            "302": 1.2186235189437866,
            "303": 0.6369072198867798,
            "304": -0.3256402313709259,
            "305": 0.9108653664588928,
            "306": -0.07604997605085373,
            "307": -0.3702988028526306,
            "308": -0.19400227069854736,
            "309": 0.23988084495067596,
            "310": -0.41390305757522583,
            "311": -0.4450739920139313,
            "312": -0.18621952831745148,
            "313": -0.26761379837989807,
            "314": 0.3361760973930359,
            "315": 0.17907752096652985,
            "316": -0.2646348774433136,
            "317": -0.1826281100511551,
            "318": -0.4518764317035675,
            "319": -0.5426961779594421,
            "320": 0.3932233154773712,
            "321": -0.6625431180000305,
            "322": -0.06856755167245865,
            "323": 0.6604185104370117,
            "324": 0.37007543444633484,
            "325": 0.1557054966688156,
            "326": -0.4921664297580719,
            "327": 0.5317507386207581,
            "328": 0.769375741481781,
            "329": 0.223819762468338,
            "330": -1.039326786994934,
            "331": -0.18493959307670593,
            "332": 1.028254508972168,
            "333": 0.7945958971977234,
            "334": -1.2191898822784424,
            "335": -1.4522135257720947,
            "336": -0.3695214092731476,
            "337": -0.7371983528137207,
            "338": 0.8264675736427307,
            "339": -0.6784123182296753
          }
        },
        "inputHidden": {
          "rows": 20,
          "columns": 20,
          "weights": {
            "0": -0.8127275109291077,
            "1": -1.1978248357772827,
            "2": -1.3937301635742188,
            "3": -0.6114485859870911,
            "4": -0.8118634819984436,
            "5": 1.4237173795700073,
            "6": -2.093008279800415,
            "7": -0.8234302401542664,
            "8": -0.5937148332595825,
            "9": -0.38694706559181213,
            "10": -1.062340497970581,
            "11": 0.9251072406768799,
            "12": -0.9533722996711731,
            "13": -0.01189419161528349,
            "14": -0.7901157736778259,
            "15": 0.7791809439659119,
            "16": 0.6066584587097168,
            "17": -1.607470154762268,
            "18": 1.1119168996810913,
            "19": 0.8586075305938721,
            "20": -0.622637927532196,
            "21": -0.3531992435455322,
            "22": -1.6545330286026,
            "23": -0.36227259039878845,
            "24": -0.5511940717697144,
            "25": 0.26051825284957886,
            "26": -1.5573757886886597,
            "27": -0.8223695158958435,
            "28": -1.0056661367416382,
            "29": -1.6059420108795166,
            "30": -1.471009373664856,
            "31": 0.9619654417037964,
            "32": -0.9140046834945679,
            "33": 1.1392427682876587,
            "34": -1.1275852918624878,
            "35": 0.4110042452812195,
            "36": 0.9207758903503418,
            "37": -0.30387771129608154,
            "38": 0.3877062499523163,
            "39": 1.5030341148376465,
            "40": 0.2822429835796356,
            "41": 0.00199264963157475,
            "42": 0.9720268249511719,
            "43": -0.011192437261343002,
            "44": 0.5787293314933777,
            "45": -0.1491052210330963,
            "46": 0.32499730587005615,
            "47": 0.5151259303092957,
            "48": 0.7506384253501892,
            "49": 0.44574394822120667,
            "50": 0.34989431500434875,
            "51": -1.0814497470855713,
            "52": -0.2278914898633957,
            "53": 0.02505410835146904,
            "54": -0.012722690589725971,
            "55": -0.7418464422225952,
            "56": -0.9128764271736145,
            "57": -0.004129556007683277,
            "58": -0.3745897710323334,
            "59": -0.6982296109199524,
            "60": -0.013049589470028877,
            "61": -0.02980242855846882,
            "62": -1.0963244438171387,
            "63": 0.6680436730384827,
            "64": 0.20765651762485504,
            "65": 0.2083808332681656,
            "66": -0.47683343291282654,
            "67": -1.0163816213607788,
            "68": 0.4843520224094391,
            "69": -1.9304523468017578,
            "70": -1.5510534048080444,
            "71": -0.4598972499370575,
            "72": -0.46115586161613464,
            "73": 1.303508996963501,
            "74": -1.1958409547805786,
            "75": 0.5624853372573853,
            "76": 0.6225486397743225,
            "77": -0.16356338560581207,
            "78": 0.02482946217060089,
            "79": 0.7359100580215454,
            "80": 0.7647436261177063,
            "81": 0.23568616807460785,
            "82": 0.602668285369873,
            "83": 0.614959716796875,
            "84": 3.1472976207733154,
            "85": -0.0857848972082138,
            "86": 0.17563872039318085,
            "87": -0.180120050907135,
            "88": 0.9057705998420715,
            "89": 0.17566637694835663,
            "90": 0.546428918838501,
            "91": -0.6570788025856018,
            "92": 0.4997614026069641,
            "93": -1.0225199460983276,
            "94": 0.29939335584640503,
            "95": -0.0061670513823628426,
            "96": -0.3676566779613495,
            "97": 0.7289530634880066,
            "98": -0.9066340923309326,
            "99": -1.1364753246307373,
            "100": -0.05410097911953926,
            "101": 0.2966500222682953,
            "102": -2.3658294677734375,
            "103": 0.40978437662124634,
            "104": -1.0347015857696533,
            "105": 0.29781869053840637,
            "106": -0.5701540112495422,
            "107": -0.9218254685401917,
            "108": 0.22249746322631836,
            "109": -2.1155121326446533,
            "110": -2.2247118949890137,
            "111": 0.6734919548034668,
            "112": -1.5524309873580933,
            "113": 2.1989798545837402,
            "114": -0.42107120156288147,
            "115": 1.0186680555343628,
            "116": 1.2114356756210327,
            "117": 0.7107252478599548,
            "118": -0.1240929514169693,
            "119": 0.18216529488563538,
            "120": -1.1462441682815552,
            "121": -1.7214771509170532,
            "122": -1.3606805801391602,
            "123": -0.6890838742256165,
            "124": 0.6318966150283813,
            "125": 0.7061342597007751,
            "126": 0.5212268233299255,
            "127": -0.6865227222442627,
            "128": 0.19059735536575317,
            "129": -1.3053762912750244,
            "130": -1.4851199388504028,
            "131": 0.007167086936533451,
            "132": 0.26116472482681274,
            "133": -0.14242993295192719,
            "134": -0.2775755524635315,
            "135": 1.4125537872314453,
            "136": 0.8091257214546204,
            "137": 0.8867165446281433,
            "138": 1.0978355407714844,
            "139": 0.17399005591869354,
            "140": -0.4044352173805237,
            "141": 0.2772939205169678,
            "142": 0.3385346829891205,
            "143": 0.49137037992477417,
            "144": -2.2340445518493652,
            "145": -1.6262810230255127,
            "146": -0.35965609550476074,
            "147": 0.42292624711990356,
            "148": -0.3957403600215912,
            "149": 0.7026338577270508,
            "150": -0.1983841061592102,
            "151": -0.2151271402835846,
            "152": -0.6263734102249146,
            "153": 0.012135490775108337,
            "154": -0.7821293473243713,
            "155": -1.0108674764633179,
            "156": -0.5213055610656738,
            "157": -1.2281476259231567,
            "158": 0.20280951261520386,
            "159": 0.7023239135742188,
            "160": -0.5734846591949463,
            "161": -0.3670377731323242,
            "162": -0.4078475534915924,
            "163": -0.1737995594739914,
            "164": -0.5891355276107788,
            "165": 0.7451005578041077,
            "166": -0.3545197546482086,
            "167": -0.30491819977760315,
            "168": -0.15384569764137268,
            "169": -0.21252073347568512,
            "170": -0.5846058130264282,
            "171": 0.17432767152786255,
            "172": 0.08420855551958084,
            "173": -0.5998795032501221,
            "174": -0.08317947387695312,
            "175": 0.8038089871406555,
            "176": 0.40953943133354187,
            "177": -0.6125239729881287,
            "178": 0.03250332921743393,
            "179": -0.14348608255386353,
            "180": 1.548266887664795,
            "181": 0.3603106439113617,
            "182": 2.4132513999938965,
            "183": 0.23491433262825012,
            "184": 1.0805041790008545,
            "185": -0.4788627624511719,
            "186": 0.01909572072327137,
            "187": -0.13283415138721466,
            "188": 1.6627254486083984,
            "189": 1.403889536857605,
            "190": 1.9869976043701172,
            "191": -0.16411647200584412,
            "192": -0.6535927057266235,
            "193": -0.9615678191184998,
            "194": -0.41716206073760986,
            "195": -0.31810081005096436,
            "196": -0.3014489412307739,
            "197": -0.17294123768806458,
            "198": -1.3298084735870361,
            "199": 0.15573322772979736,
            "200": 1.594093680381775,
            "201": 0.8098136186599731,
            "202": 0.6823452711105347,
            "203": 1.4458218812942505,
            "204": 1.9445700645446777,
            "205": -0.1110578328371048,
            "206": 0.9123391509056091,
            "207": -1.1540944576263428,
            "208": 2.552882194519043,
            "209": 0.9568248987197876,
            "210": 0.8142532110214233,
            "211": 0.33258041739463806,
            "212": -0.19177904725074768,
            "213": -0.480489045381546,
            "214": 0.5586431622505188,
            "215": 0.7867687940597534,
            "216": 0.5394970774650574,
            "217": -0.09801031649112701,
            "218": -1.0164740085601807,
            "219": -0.3973125219345093,
            "220": 0.7071529626846313,
            "221": 0.9098328948020935,
            "222": 0.6584213376045227,
            "223": 0.9528371095657349,
            "224": 1.7155863046646118,
            "225": -1.381526231765747,
            "226": 0.4027654528617859,
            "227": 0.4059081971645355,
            "228": 0.9054762721061707,
            "229": 0.4866408407688141,
            "230": 0.5871006846427917,
            "231": -0.9139477610588074,
            "232": 0.37038421630859375,
            "233": -0.9064753651618958,
            "234": -0.42102837562561035,
            "235": -0.439685583114624,
            "236": -0.7136685848236084,
            "237": 0.8169263005256653,
            "238": -1.2160406112670898,
            "239": -0.518642246723175,
            "240": -0.6043214201927185,
            "241": -0.45798152685165405,
            "242": -0.003638806752860546,
            "243": -0.6805398464202881,
            "244": 0.2392776906490326,
            "245": 0.1151028499007225,
            "246": -1.2342485189437866,
            "247": -0.34895050525665283,
            "248": -0.017019184306263924,
            "249": -0.09579049795866013,
            "250": 0.1513124704360962,
            "251": 0.10312986373901367,
            "252": 0.42665091156959534,
            "253": -0.15394540131092072,
            "254": -0.25386542081832886,
            "255": 0.3421783745288849,
            "256": 0.4507000148296356,
            "257": -1.1400748491287231,
            "258": 0.3584728240966797,
            "259": 1.0438158512115479,
            "260": 0.3097890019416809,
            "261": 0.08235377073287964,
            "262": 0.9001774191856384,
            "263": -0.28722095489501953,
            "264": 1.2410732507705688,
            "265": -0.9270098805427551,
            "266": -0.20736031234264374,
            "267": 0.294490784406662,
            "268": -0.1790504902601242,
            "269": 0.6678845286369324,
            "270": 1.5192793607711792,
            "271": -0.4279749393463135,
            "272": -0.6570516228675842,
            "273": -0.11524461954832077,
            "274": -0.7098584771156311,
            "275": -0.43568986654281616,
            "276": -0.3605770766735077,
            "277": -1.1262043714523315,
            "278": -0.8390511274337769,
            "279": 1.1574357748031616,
            "280": -0.49827489256858826,
            "281": -0.24029457569122314,
            "282": -0.5424200892448425,
            "283": -0.1473972648382187,
            "284": 0.24354921281337738,
            "285": 0.33688992261886597,
            "286": 0.4742915630340576,
            "287": -0.20180481672286987,
            "288": 0.9699521064758301,
            "289": 0.1202419176697731,
            "290": -0.23514704406261444,
            "291": -0.5499669909477234,
            "292": 1.2181519269943237,
            "293": -0.3570651710033417,
            "294": 0.8118006587028503,
            "295": -0.15299931168556213,
            "296": -0.3113996088504791,
            "297": 0.38213860988616943,
            "298": -0.456012099981308,
            "299": -0.9227920174598694,
            "300": -1.2272567749023438,
            "301": -1.0130358934402466,
            "302": 0.9095131158828735,
            "303": -0.20433945953845978,
            "304": -1.3730347156524658,
            "305": 0.004727738909423351,
            "306": 0.379705548286438,
            "307": 0.01818486675620079,
            "308": 0.10531346499919891,
            "309": -0.5789952278137207,
            "310": 0.2923238277435303,
            "311": 0.006617202423512936,
            "312": -0.2998310625553131,
            "313": -0.835098922252655,
            "314": 0.17736303806304932,
            "315": -0.34605199098587036,
            "316": -0.5168847441673279,
            "317": -0.6752547025680542,
            "318": 0.43058133125305176,
            "319": -0.15173305571079254,
            "320": -0.7060116529464722,
            "321": -0.5508596897125244,
            "322": -1.0355859994888306,
            "323": 0.22751151025295258,
            "324": -1.1179885864257812,
            "325": -0.18005190789699554,
            "326": 0.18876683712005615,
            "327": 0.09200207889080048,
            "328": 0.22192849218845367,
            "329": -1.2208725214004517,
            "330": -1.628353238105774,
            "331": 0.24113252758979797,
            "332": -0.3194291889667511,
            "333": 0.24561330676078796,
            "334": 0.717403769493103,
            "335": 0.18744929134845734,
            "336": -0.06242816522717476,
            "337": 0.25899359583854675,
            "338": 0.5617640018463135,
            "339": 0.45764151215553284,
            "340": 0.8422546982765198,
            "341": 0.1421276479959488,
            "342": 0.13907520473003387,
            "343": 0.9760615825653076,
            "344": 0.135614275932312,
            "345": 0.14203986525535583,
            "346": 0.8713842630386353,
            "347": -0.19143448770046234,
            "348": 1.1651265621185303,
            "349": 0.47058385610580444,
            "350": -0.5125706195831299,
            "351": 0.107142873108387,
            "352": 0.42921435832977295,
            "353": -0.5848231911659241,
            "354": 0.021755021065473557,
            "355": 0.35323232412338257,
            "356": 0.44473186135292053,
            "357": 0.8485072255134583,
            "358": -0.9048172235488892,
            "359": -0.522829532623291,
            "360": -0.2718055844306946,
            "361": -0.21046514809131622,
            "362": -2.04213809967041,
            "363": -0.13875602185726166,
            "364": -0.7882106900215149,
            "365": 1.035069465637207,
            "366": -1.4863717555999756,
            "367": -0.9256558418273926,
            "368": -0.24872863292694092,
            "369": -1.6644635200500488,
            "370": -1.9596577882766724,
            "371": 1.66339910030365,
            "372": -1.5078355073928833,
            "373": 0.6188035011291504,
            "374": -0.3740190267562866,
            "375": 0.9858186841011047,
            "376": 1.558335781097412,
            "377": 0.1419174075126648,
            "378": 0.45675718784332275,
            "379": 1.1289465427398682,
            "380": -0.7452138662338257,
            "381": -0.8625274300575256,
            "382": -0.17985832691192627,
            "383": -0.5808791518211365,
            "384": -0.2266823649406433,
            "385": 0.8327008485794067,
            "386": -0.11137467622756958,
            "387": -0.20506876707077026,
            "388": -0.3226188123226166,
            "389": -0.38737839460372925,
            "390": -0.03208460658788681,
            "391": 0.3829313814640045,
            "392": -0.7119460105895996,
            "393": -0.005567971151322126,
            "394": 0.2092980593442917,
            "395": 0.39887985587120056,
            "396": 0.4676027297973633,
            "397": -0.4152109920978546,
            "398": 0.6559333801269531,
            "399": 0.39208173751831055
          }
        },
        "inputBias": {
          "rows": 20,
          "columns": 1,
          "weights": {
            "0": -0.1377684324979782,
            "1": -1.5579335689544678,
            "2": 0.03226783126592636,
            "3": -1.0875065326690674,
            "4": 0.4927487075328827,
            "5": -1.2315140962600708,
            "6": -0.17294220626354218,
            "7": 0.15150436758995056,
            "8": -1.4979161024093628,
            "9": 0.39779722690582275,
            "10": -0.2536762058734894,
            "11": -0.6418288946151733,
            "12": -0.17166973650455475,
            "13": 0.8733228445053101,
            "14": 0.1095970943570137,
            "15": 0.0864882841706276,
            "16": 0.020033976063132286,
            "17": -0.16932250559329987,
            "18": 0.1596599668264389,
            "19": -0.29871654510498047
          }
        },
        "forgetMatrix": {
          "rows": 20,
          "columns": 17,
          "weights": {
            "0": -0.3104947805404663,
            "1": 0.47753891348838806,
            "2": -0.311677485704422,
            "3": -0.6620391607284546,
            "4": 0.5439335107803345,
            "5": 0.42388370633125305,
            "6": -1.1908934116363525,
            "7": 0.6428913474082947,
            "8": -0.9286710619926453,
            "9": -0.5713954567909241,
            "10": -0.666340172290802,
            "11": 0.8135136961936951,
            "12": 1.0011017322540283,
            "13": -0.17561301589012146,
            "14": 0.13548634946346283,
            "15": 1.2140347957611084,
            "16": -0.39681491255760193,
            "17": 0.03980294615030289,
            "18": -0.48629388213157654,
            "19": 0.33887985348701477,
            "20": 0.17797191441059113,
            "21": -0.4274704158306122,
            "22": -0.6258447766304016,
            "23": -0.3539595901966095,
            "24": -0.26315823197364807,
            "25": 0.10982505977153778,
            "26": 0.3859947919845581,
            "27": -0.3908984959125519,
            "28": -0.290495902299881,
            "29": -0.18328839540481567,
            "30": 0.5078930258750916,
            "31": 0.601714551448822,
            "32": -0.32175251841545105,
            "33": -0.4970266819000244,
            "34": -0.5729628205299377,
            "35": 0.50065678358078,
            "36": -0.1696222573518753,
            "37": -0.41889941692352295,
            "38": 0.8825092911720276,
            "39": 1.0402023792266846,
            "40": -0.37483495473861694,
            "41": -0.18568478524684906,
            "42": -0.6608691811561584,
            "43": 0.11616699397563934,
            "44": 0.7724906802177429,
            "45": -0.5389350652694702,
            "46": -0.6425900459289551,
            "47": -0.43403735756874084,
            "48": -0.3886525630950928,
            "49": 0.32102707028388977,
            "50": 0.29305288195610046,
            "51": -0.3836299479007721,
            "52": 1.5819672346115112,
            "53": 0.05205141007900238,
            "54": -1.0504295825958252,
            "55": 1.466793179512024,
            "56": 1.4794143438339233,
            "57": -0.5386877655982971,
            "58": -0.15093864500522614,
            "59": -1.1042500734329224,
            "60": 0.0976094901561737,
            "61": -0.0646446943283081,
            "62": -0.3226480782032013,
            "63": -0.18008601665496826,
            "64": -0.4090263843536377,
            "65": -1.1902235746383667,
            "66": 1.5967435836791992,
            "67": -0.3839929401874542,
            "68": -0.36990633606910706,
            "69": -0.8566576838493347,
            "70": -0.965951681137085,
            "71": 0.8752810955047607,
            "72": -0.7923925518989563,
            "73": -0.6228423118591309,
            "74": -0.8481100797653198,
            "75": 0.8207489848136902,
            "76": 0.3794894218444824,
            "77": -0.9329952001571655,
            "78": -0.05687703564763069,
            "79": 0.3731148838996887,
            "80": 0.6678242087364197,
            "81": 0.7318971157073975,
            "82": 0.8754186034202576,
            "83": -0.7182723879814148,
            "84": 0.647637128829956,
            "85": -0.136665478348732,
            "86": 0.0949459820985794,
            "87": -0.06261096894741058,
            "88": -1.4883486032485962,
            "89": 0.3850400447845459,
            "90": 0.5285388231277466,
            "91": -0.602526068687439,
            "92": -0.13589535653591156,
            "93": 0.4193885624408722,
            "94": 0.5409311056137085,
            "95": 0.0391509011387825,
            "96": -0.7866411209106445,
            "97": -0.14611367881298065,
            "98": -1.2783734798431396,
            "99": -1.5352141857147217,
            "100": -0.027351515367627144,
            "101": -0.3022690415382385,
            "102": 0.7175833582878113,
            "103": -0.1168208122253418,
            "104": 0.7366514801979065,
            "105": 0.0007012971909716725,
            "106": -0.009783484973013401,
            "107": 0.27447521686553955,
            "108": -0.024107957258820534,
            "109": -1.4894500970840454,
            "110": 0.37533241510391235,
            "111": 0.48693859577178955,
            "112": 1.081345558166504,
            "113": -1.1350890398025513,
            "114": -1.7721912860870361,
            "115": 0.45874732732772827,
            "116": -0.22010035812854767,
            "117": 0.4757145047187805,
            "118": -0.11890172958374023,
            "119": -0.6382068991661072,
            "120": 0.1548791080713272,
            "121": -1.0770326852798462,
            "122": -1.053471565246582,
            "123": 0.2092372626066208,
            "124": 0.13532578945159912,
            "125": -0.25028374791145325,
            "126": 0.03615866228938103,
            "127": -0.064462810754776,
            "128": -0.441516250371933,
            "129": 0.6852738261222839,
            "130": 0.4285157322883606,
            "131": -0.24364560842514038,
            "132": -1.05547034740448,
            "133": -1.1195374727249146,
            "134": 0.1501040905714035,
            "135": 0.21888872981071472,
            "136": 0.5963341593742371,
            "137": 0.6619302034378052,
            "138": 0.387691468000412,
            "139": -0.15905100107192993,
            "140": 0.615007221698761,
            "141": 0.7107058763504028,
            "142": 0.012186168693006039,
            "143": -0.7009997367858887,
            "144": -0.6387887597084045,
            "145": 0.8282138705253601,
            "146": 0.2942766845226288,
            "147": -0.6868835091590881,
            "148": -0.5902761816978455,
            "149": -0.10842517018318176,
            "150": -0.22993609309196472,
            "151": 0.6354292631149292,
            "152": -1.2456002235412598,
            "153": -0.9518728256225586,
            "154": 0.8333512544631958,
            "155": 0.12719331681728363,
            "156": -0.47484591603279114,
            "157": 1.1359610557556152,
            "158": 1.1050764322280884,
            "159": -0.5286775231361389,
            "160": 0.1468740701675415,
            "161": -1.1946438550949097,
            "162": -0.10291523486375809,
            "163": 0.17360757291316986,
            "164": 0.20719562470912933,
            "165": 0.19184362888336182,
            "166": -0.299969881772995,
            "167": -0.8126252889633179,
            "168": 0.7991578578948975,
            "169": -0.5135059952735901,
            "170": -0.6154860854148865,
            "171": 1.1846462488174438,
            "172": -0.27569809556007385,
            "173": -0.7177150845527649,
            "174": 1.0652190446853638,
            "175": 1.1577826738357544,
            "176": -0.09676189720630646,
            "177": 0.174733966588974,
            "178": -1.1787288188934326,
            "179": -0.4390656352043152,
            "180": 0.06008567661046982,
            "181": 0.21584928035736084,
            "182": 0.17580895125865936,
            "183": -0.6075593829154968,
            "184": -0.7047837376594543,
            "185": 0.884204089641571,
            "186": -0.19867078959941864,
            "187": -0.3825039565563202,
            "188": -0.3876248002052307,
            "189": -0.8684625029563904,
            "190": 0.3291592597961426,
            "191": 0.04111673682928085,
            "192": -0.17821373045444489,
            "193": -1.0651235580444336,
            "194": 0.8377821445465088,
            "195": -0.4873184263706207,
            "196": -1.269353985786438,
            "197": -0.6166300177574158,
            "198": 1.0420001745224,
            "199": 0.5410277843475342,
            "200": -0.08085990697145462,
            "201": 0.39624324440956116,
            "202": -0.1594749391078949,
            "203": 0.03120739944279194,
            "204": -0.3770179748535156,
            "205": 1.3152096271514893,
            "206": -0.2761187255382538,
            "207": -0.28146088123321533,
            "208": 1.2249152660369873,
            "209": 1.3823215961456299,
            "210": -0.9333871603012085,
            "211": 0.1437586396932602,
            "212": -1.0853660106658936,
            "213": -0.014839820563793182,
            "214": 0.1437537670135498,
            "215": 0.10317056626081467,
            "216": 0.16736796498298645,
            "217": -0.0674741268157959,
            "218": -0.23219303786754608,
            "219": 1.301005482673645,
            "220": -0.6931089758872986,
            "221": 0.042824529111385345,
            "222": 1.2571040391921997,
            "223": 0.08789407461881638,
            "224": -1.3456268310546875,
            "225": 0.6526679396629333,
            "226": 1.340004324913025,
            "227": -0.10359717160463333,
            "228": -1.5540610551834106,
            "229": -0.1980300396680832,
            "230": 1.677863597869873,
            "231": 0.7694303393363953,
            "232": -1.4045064449310303,
            "233": -1.4320874214172363,
            "234": -1.1259944438934326,
            "235": -1.6607855558395386,
            "236": 1.069574236869812,
            "237": -1.181778907775879,
            "238": 0.42721879482269287,
            "239": 0.8445894122123718,
            "240": 0.5915859341621399,
            "241": -0.010532709769904613,
            "242": 1.2062580585479736,
            "243": 1.1734317541122437,
            "244": 1.359923005104065,
            "245": -0.577668309211731,
            "246": -0.6785779595375061,
            "247": 0.926932156085968,
            "248": 1.0441535711288452,
            "249": -0.676810622215271,
            "250": -0.6997469067573547,
            "251": 0.35644838213920593,
            "252": -0.059484176337718964,
            "253": 1.1593798398971558,
            "254": -0.27577584981918335,
            "255": -0.24867497384548187,
            "256": -0.22862273454666138,
            "257": -0.34596148133277893,
            "258": 0.05591082572937012,
            "259": 0.1468641459941864,
            "260": -0.04084504023194313,
            "261": -0.1877104640007019,
            "262": -0.2222556620836258,
            "263": 0.23203632235527039,
            "264": -0.0673409178853035,
            "265": 0.22147434949874878,
            "266": 0.08308320492506027,
            "267": -0.4376733899116516,
            "268": -0.2702198922634125,
            "269": -0.12413166463375092,
            "270": -0.2568855285644531,
            "271": 0.4599992632865906,
            "272": -0.5582295656204224,
            "273": -0.5292984843254089,
            "274": -0.38678979873657227,
            "275": 0.760886013507843,
            "276": -0.3144398629665375,
            "277": -0.27140527963638306,
            "278": -0.20932967960834503,
            "279": 0.2901321351528168,
            "280": 0.09113507717847824,
            "281": -0.5936136245727539,
            "282": -0.022866753861308098,
            "283": 0.2968063950538635,
            "284": -0.10572458058595657,
            "285": 0.4603399932384491,
            "286": 0.6278842091560364,
            "287": -0.6839640140533447,
            "288": 0.6690028309822083,
            "289": -0.7922912240028381,
            "290": 0.8360539078712463,
            "291": 0.4183371067047119,
            "292": 0.7052423357963562,
            "293": 1.5042214393615723,
            "294": 1.4494553804397583,
            "295": -0.8558565378189087,
            "296": -0.3143434226512909,
            "297": -0.858203113079071,
            "298": -0.0892406478524208,
            "299": 0.5300567150115967,
            "300": -0.3351637125015259,
            "301": -0.32799971103668213,
            "302": 0.7511623501777649,
            "303": 0.4716271162033081,
            "304": 1.5118826627731323,
            "305": -0.8252965211868286,
            "306": -0.8408834934234619,
            "307": -0.11769349128007889,
            "308": -0.8053073883056641,
            "309": -0.5453892946243286,
            "310": 0.015548880212008953,
            "311": 0.09613198041915894,
            "312": -0.8956592082977295,
            "313": 0.8046972751617432,
            "314": 0.2915481626987457,
            "315": -0.5752013921737671,
            "316": -0.18122553825378418,
            "317": 0.35135751962661743,
            "318": 0.9986891150474548,
            "319": -0.339468389749527,
            "320": -0.045331936329603195,
            "321": -0.10386990010738373,
            "322": 0.8618021011352539,
            "323": -0.5522106289863586,
            "324": 1.7472076416015625,
            "325": -0.8436824083328247,
            "326": -0.8490637540817261,
            "327": 0.8917481303215027,
            "328": 1.2974129915237427,
            "329": -0.3723882734775543,
            "330": 0.6811298131942749,
            "331": -0.8893187046051025,
            "332": -0.3280097246170044,
            "333": 0.049594998359680176,
            "334": 0.514267086982727,
            "335": 0.7361993789672852,
            "336": -0.9010465741157532,
            "337": -0.7646542191505432,
            "338": 0.7307201623916626,
            "339": -0.35209059715270996
          }
        },
        "forgetHidden": {
          "rows": 20,
          "columns": 20,
          "weights": {
            "0": 0.367125004529953,
            "1": 0.5062780380249023,
            "2": -0.48453348875045776,
            "3": 0.1933801770210266,
            "4": -1.0054094791412354,
            "5": -0.22618559002876282,
            "6": -0.9883480072021484,
            "7": -0.32899558544158936,
            "8": -0.08482877165079117,
            "9": 0.01905718445777893,
            "10": 1.2391489744186401,
            "11": -0.2645929455757141,
            "12": -0.9107903838157654,
            "13": 0.6266615986824036,
            "14": -0.38825929164886475,
            "15": 0.3914828896522522,
            "16": 0.0006441627629101276,
            "17": -0.8454367518424988,
            "18": 0.4000570774078369,
            "19": 0.4581639766693115,
            "20": 0.06581391394138336,
            "21": 0.18928086757659912,
            "22": -0.8817499279975891,
            "23": -0.3949138820171356,
            "24": -0.27197346091270447,
            "25": 0.20647679269313812,
            "26": -1.1724447011947632,
            "27": -0.6161710619926453,
            "28": 0.02479078806936741,
            "29": 0.19793963432312012,
            "30": -0.6228358149528503,
            "31": -0.26544898748397827,
            "32": -0.7088280320167542,
            "33": 0.22894278168678284,
            "34": -0.7432227730751038,
            "35": 0.5385392904281616,
            "36": 0.05400468036532402,
            "37": -1.5604544878005981,
            "38": 0.17984014749526978,
            "39": 0.8728878498077393,
            "40": -0.6540107727050781,
            "41": -0.801422119140625,
            "42": 0.8191363215446472,
            "43": 1.8828446865081787,
            "44": -1.3313508033752441,
            "45": -0.7658359408378601,
            "46": 0.7240650653839111,
            "47": 0.9656071066856384,
            "48": -0.4445449411869049,
            "49": 0.43196162581443787,
            "50": 0.2512313723564148,
            "51": 0.5749724507331848,
            "52": -0.14060766994953156,
            "53": -0.08528392016887665,
            "54": 0.45583632588386536,
            "55": -0.8983601927757263,
            "56": -0.4801320433616638,
            "57": 1.161702275276184,
            "58": 0.7209291458129883,
            "59": -0.04327699542045593,
            "60": -0.013613458722829819,
            "61": -0.20489297807216644,
            "62": 0.5694064497947693,
            "63": 0.1782865822315216,
            "64": -0.30759695172309875,
            "65": 0.4002555012702942,
            "66": -1.232778549194336,
            "67": -0.8678500652313232,
            "68": 0.8741610050201416,
            "69": -0.2789599299430847,
            "70": -0.26618245244026184,
            "71": 0.2607493996620178,
            "72": 0.9110956788063049,
            "73": -1.2828396558761597,
            "74": -0.3123081922531128,
            "75": 0.38551533222198486,
            "76": 0.013131747953593731,
            "77": 0.02796129509806633,
            "78": 0.19153469800949097,
            "79": -0.8418517112731934,
            "80": -1.03866708278656,
            "81": -0.5369414687156677,
            "82": -0.24228528141975403,
            "83": -0.6835423111915588,
            "84": 0.2288825660943985,
            "85": 0.39594337344169617,
            "86": -0.4598531723022461,
            "87": 0.52074134349823,
            "88": -0.3768750727176666,
            "89": -0.5025579929351807,
            "90": -0.1530013382434845,
            "91": -0.7320722937583923,
            "92": -0.43604302406311035,
            "93": 0.20851455628871918,
            "94": -0.49017494916915894,
            "95": -0.020791111513972282,
            "96": -0.5140483379364014,
            "97": -0.6036503911018372,
            "98": 1.392911434173584,
            "99": 0.056150857359170914,
            "100": -0.18738703429698944,
            "101": -0.33777448534965515,
            "102": 0.33249127864837646,
            "103": -0.3806397020816803,
            "104": -0.2787366509437561,
            "105": 0.023444321006536484,
            "106": -0.8529104590415955,
            "107": 0.8941445350646973,
            "108": -0.7759097814559937,
            "109": 0.16642498970031738,
            "110": -0.3400033712387085,
            "111": -0.06758201867341995,
            "112": -1.2581580877304077,
            "113": 0.15525799989700317,
            "114": -0.7982121706008911,
            "115": -0.2992783188819885,
            "116": -0.25254374742507935,
            "117": -1.0559080839157104,
            "118": 0.206065371632576,
            "119": 1.0931291580200195,
            "120": -0.5332043170928955,
            "121": -0.0339941680431366,
            "122": -0.2814425230026245,
            "123": 0.41967859864234924,
            "124": -0.3315405249595642,
            "125": -0.2548840045928955,
            "126": 0.2203795164823532,
            "127": -0.19926343858242035,
            "128": 0.5326737761497498,
            "129": 0.2204768806695938,
            "130": 0.09455838054418564,
            "131": 0.42426183819770813,
            "132": 0.31498730182647705,
            "133": -0.5208802223205566,
            "134": 0.49268779158592224,
            "135": 0.51054447889328,
            "136": 0.6707370281219482,
            "137": -0.05408358946442604,
            "138": 0.23700258135795593,
            "139": -0.8602503538131714,
            "140": -0.7588860988616943,
            "141": -0.5806987881660461,
            "142": 0.41477105021476746,
            "143": -0.3107950985431671,
            "144": -0.9002380967140198,
            "145": -0.23048153519630432,
            "146": -0.3892381489276886,
            "147": 0.224433034658432,
            "148": 0.09980218857526779,
            "149": -0.21979020535945892,
            "150": 0.5286844372749329,
            "151": -0.15850208699703217,
            "152": -0.11313864588737488,
            "153": -0.24606560170650482,
            "154": 0.06944581866264343,
            "155": -0.40780016779899597,
            "156": -0.3484819233417511,
            "157": -1.0293021202087402,
            "158": 0.8505215048789978,
            "159": -0.041226524859666824,
            "160": 0.5771349668502808,
            "161": 0.19204533100128174,
            "162": -0.7080508470535278,
            "163": 0.34129583835601807,
            "164": 0.0738450437784195,
            "165": -0.07166101783514023,
            "166": 0.5478499531745911,
            "167": 0.02218153327703476,
            "168": 0.6628172397613525,
            "169": -0.8406240344047546,
            "170": -1.1054304838180542,
            "171": -0.07182222604751587,
            "172": 0.3257833421230316,
            "173": 0.20035836100578308,
            "174": 0.730143666267395,
            "175": 0.12119628489017487,
            "176": -0.02478165365755558,
            "177": 0.24971941113471985,
            "178": -0.48675861954689026,
            "179": -0.24443939328193665,
            "180": 1.2465633153915405,
            "181": 0.8278130888938904,
            "182": 0.15360593795776367,
            "183": 1.2864789962768555,
            "184": -0.7020248770713806,
            "185": -0.0912603959441185,
            "186": 0.9354972243309021,
            "187": -0.0054626441560685635,
            "188": 1.385719895362854,
            "189": 0.11352896690368652,
            "190": -0.013805696740746498,
            "191": 0.8690904378890991,
            "192": -0.4634542763233185,
            "193": -0.23400850594043732,
            "194": 1.1935843229293823,
            "195": -0.12063116580247879,
            "196": 0.4973622262477875,
            "197": 1.2550628185272217,
            "198": -1.7349129915237427,
            "199": 0.11253279447555542,
            "200": 1.1419278383255005,
            "201": 0.7386896014213562,
            "202": 0.38835716247558594,
            "203": 0.7179930806159973,
            "204": -0.15278059244155884,
            "205": 0.07197554409503937,
            "206": 0.6048294901847839,
            "207": 0.5910843014717102,
            "208": 1.007726788520813,
            "209": 0.23177537322044373,
            "210": 0.3153703808784485,
            "211": 0.39000174403190613,
            "212": 0.08045952022075653,
            "213": -0.2626160979270935,
            "214": 1.045668601989746,
            "215": -0.7799365520477295,
            "216": -0.17551977932453156,
            "217": 0.42658358812332153,
            "218": -0.7228327989578247,
            "219": 0.430379718542099,
            "220": 0.2571372389793396,
            "221": 0.34006911516189575,
            "222": -0.48734021186828613,
            "223": 0.3640536665916443,
            "224": -0.219881072640419,
            "225": -0.5372811555862427,
            "226": -0.1314384639263153,
            "227": 0.3691549301147461,
            "228": -0.2208690643310547,
            "229": -0.32356369495391846,
            "230": -0.27093762159347534,
            "231": 0.28122302889823914,
            "232": -0.1641729772090912,
            "233": -0.20676761865615845,
            "234": 0.11067914217710495,
            "235": -0.25842320919036865,
            "236": 0.07168056815862656,
            "237": 0.4765479564666748,
            "238": -0.2986069917678833,
            "239": 0.27770525217056274,
            "240": -0.31728366017341614,
            "241": -0.4951694905757904,
            "242": -0.35210731625556946,
            "243": 0.01470849197357893,
            "244": -1.1941567659378052,
            "245": 0.3734115958213806,
            "246": 0.7175316214561462,
            "247": -0.23176376521587372,
            "248": 0.07377685606479645,
            "249": 0.7116042375564575,
            "250": 0.4613221287727356,
            "251": 0.919005811214447,
            "252": 0.379580557346344,
            "253": -0.7180832028388977,
            "254": 0.5951507687568665,
            "255": 0.21221740543842316,
            "256": 0.32647672295570374,
            "257": -0.00936923548579216,
            "258": 0.33099186420440674,
            "259": -0.1498931497335434,
            "260": 0.920117199420929,
            "261": 0.470272034406662,
            "262": 0.26739245653152466,
            "263": 0.882739245891571,
            "264": 0.24031734466552734,
            "265": -0.6465471982955933,
            "266": -0.08712459355592728,
            "267": 0.8651871085166931,
            "268": -0.38989055156707764,
            "269": 0.22757509350776672,
            "270": 0.7333109974861145,
            "271": -0.7758163809776306,
            "272": 0.834048330783844,
            "273": -0.0004930440918542445,
            "274": -0.1559775471687317,
            "275": -0.8799100518226624,
            "276": -0.49923616647720337,
            "277": 0.6893032789230347,
            "278": -0.021711157634854317,
            "279": -0.8662141561508179,
            "280": 0.39922696352005005,
            "281": 0.23361782729625702,
            "282": -0.35666754841804504,
            "283": 0.2730928063392639,
            "284": -0.8368672132492065,
            "285": -0.1559971272945404,
            "286": 0.04564415663480759,
            "287": -0.005779117811471224,
            "288": 0.017082994803786278,
            "289": -0.24016480147838593,
            "290": -0.29671767354011536,
            "291": 0.8941594958305359,
            "292": 0.23072519898414612,
            "293": 0.5272747874259949,
            "294": -0.006473278161138296,
            "295": 0.07917937636375427,
            "296": 0.26375505328178406,
            "297": 0.2149353176355362,
            "298": -0.26742270588874817,
            "299": 0.13932985067367554,
            "300": -1.3374261856079102,
            "301": -1.3299479484558105,
            "302": -0.09044646471738815,
            "303": 0.00009788089664652944,
            "304": -1.5878281593322754,
            "305": 0.11532019078731537,
            "306": -0.015349840745329857,
            "307": 0.3590553402900696,
            "308": 0.17909538745880127,
            "309": -0.9526771903038025,
            "310": -0.7557826638221741,
            "311": 0.5850592851638794,
            "312": -0.15803544223308563,
            "313": -0.36855125427246094,
            "314": 0.1730322390794754,
            "315": -0.22491931915283203,
            "316": -0.2761325240135193,
            "317": -0.6027863025665283,
            "318": 1.3987131118774414,
            "319": -0.06845951825380325,
            "320": -0.7859354615211487,
            "321": -0.9081496596336365,
            "322": -0.824718713760376,
            "323": -0.6909647583961487,
            "324": -0.8907821774482727,
            "325": 0.9825846552848816,
            "326": -0.6029514074325562,
            "327": 0.19796863198280334,
            "328": -0.3992634415626526,
            "329": -1.0463348627090454,
            "330": -0.9752520322799683,
            "331": 0.6758539080619812,
            "332": -0.6138178110122681,
            "333": 0.6054808497428894,
            "334": -0.11727194488048553,
            "335": -0.11380168050527573,
            "336": 0.08545751124620438,
            "337": -0.14744450151920319,
            "338": 0.6973111629486084,
            "339": 0.4993039667606354,
            "340": 0.012936496175825596,
            "341": -0.17909158766269684,
            "342": -0.805018424987793,
            "343": 0.6264009475708008,
            "344": -0.6928467750549316,
            "345": -0.22433190047740936,
            "346": 0.9389932155609131,
            "347": -0.7858763337135315,
            "348": -0.14635403454303741,
            "349": -1.298771619796753,
            "350": -0.1364847719669342,
            "351": 0.94242262840271,
            "352": -0.40201789140701294,
            "353": 0.3695939779281616,
            "354": 1.5738892555236816,
            "355": 0.729279637336731,
            "356": 0.5626446604728699,
            "357": 0.47583284974098206,
            "358": 0.16272203624248505,
            "359": 0.5387150049209595,
            "360": -1.1811163425445557,
            "361": -0.48800745606422424,
            "362": 0.7477768063545227,
            "363": -0.4898906350135803,
            "364": -0.8938971161842346,
            "365": 0.35737454891204834,
            "366": -0.017242465168237686,
            "367": 0.5300907492637634,
            "368": -0.4732299745082855,
            "369": -0.5373286008834839,
            "370": 0.01056313794106245,
            "371": -0.6236072182655334,
            "372": -0.6386545896530151,
            "373": 0.3845486640930176,
            "374": 0.5049984455108643,
            "375": -0.2830421030521393,
            "376": -1.1169004440307617,
            "377": -0.6254113912582397,
            "378": 1.0765799283981323,
            "379": 0.5472891330718994,
            "380": -0.4634222388267517,
            "381": -0.43729278445243835,
            "382": -0.389117568731308,
            "383": -0.37477999925613403,
            "384": -1.1373382806777954,
            "385": 0.890947163105011,
            "386": 0.4276449382305145,
            "387": 0.24592582881450653,
            "388": -0.16684263944625854,
            "389": 0.11746951192617416,
            "390": 0.24201346933841705,
            "391": 0.7886901497840881,
            "392": 1.4028159379959106,
            "393": -0.792267382144928,
            "394": 0.33544617891311646,
            "395": -0.08955851942300797,
            "396": 0.0019322637235745788,
            "397": 0.8677350282669067,
            "398": 0.38690561056137085,
            "399": -0.3852657377719879
          }
        },
        "forgetBias": {
          "rows": 20,
          "columns": 1,
          "weights": {
            "0": 0,
            "1": 0,
            "2": 0,
            "3": 0,
            "4": 0,
            "5": 0,
            "6": 0,
            "7": 0,
            "8": 0,
            "9": 0,
            "10": 0,
            "11": 0,
            "12": 0,
            "13": 0,
            "14": 0,
            "15": 0,
            "16": 0,
            "17": 0,
            "18": 0,
            "19": 0
          }
        },
        "outputMatrix": {
          "rows": 20,
          "columns": 17,
          "weights": {
            "0": 0.4957064092159271,
            "1": -0.8669407963752747,
            "2": -0.5028080344200134,
            "3": -0.17734891176223755,
            "4": -0.9535084962844849,
            "5": -0.8674210906028748,
            "6": -0.5259459614753723,
            "7": -0.19365471601486206,
            "8": 0.3970879316329956,
            "9": -0.21610747277736664,
            "10": -0.4918888509273529,
            "11": -0.11637340486049652,
            "12": -0.39853930473327637,
            "13": -0.6422351002693176,
            "14": 0.14691205322742462,
            "15": -0.1163211241364479,
            "16": -1.029444694519043,
            "17": 0.4877955913543701,
            "18": -0.6089873313903809,
            "19": 0.4703950583934784,
            "20": -0.09081999957561493,
            "21": -0.5337533354759216,
            "22": -0.40388160943984985,
            "23": -0.40577808022499084,
            "24": -0.5161517262458801,
            "25": 0.24586278200149536,
            "26": 0.46968239545822144,
            "27": 0.36661407351493835,
            "28": -0.15963342785835266,
            "29": -0.4164274334907532,
            "30": -0.3566015362739563,
            "31": 0.015247882343828678,
            "32": -0.4157235324382782,
            "33": 0.2489415556192398,
            "34": -0.2412479817867279,
            "35": -0.2924814522266388,
            "36": -0.13453839719295502,
            "37": 0.14927884936332703,
            "38": -1.403613805770874,
            "39": -1.3482426404953003,
            "40": 0.024818046018481255,
            "41": 0.041715871542692184,
            "42": 0.7285084128379822,
            "43": 0.009109018370509148,
            "44": -1.0431411266326904,
            "45": 0.11569330841302872,
            "46": -0.00023154413793236017,
            "47": 0.49049052596092224,
            "48": 0.38952258229255676,
            "49": -0.7213718891143799,
            "50": 0.046874333173036575,
            "51": 1.0671720504760742,
            "52": 0.3534088134765625,
            "53": 1.125701665878296,
            "54": -0.2906040847301483,
            "55": 0.02669375203549862,
            "56": 0.5805178880691528,
            "57": -1.030234694480896,
            "58": -1.5203431844711304,
            "59": 0.36274775862693787,
            "60": 0.7809095978736877,
            "61": -0.6537516713142395,
            "62": -1.159064531326294,
            "63": -1.6092199087142944,
            "64": 1.238302230834961,
            "65": 0.0581030510365963,
            "66": 1.2428169250488281,
            "67": -0.7520166635513306,
            "68": 0.03963516280055046,
            "69": -0.10026209056377411,
            "70": -0.5597369074821472,
            "71": 1.2268083095550537,
            "72": 0.4389697313308716,
            "73": -0.1394772231578827,
            "74": -1.3160265684127808,
            "75": 1.1497257947921753,
            "76": -1.0643284320831299,
            "77": -1.2005358934402466,
            "78": -1.9449832439422607,
            "79": 1.4770679473876953,
            "80": 1.211553692817688,
            "81": 0.361645370721817,
            "82": 1.2859396934509277,
            "83": -0.43155691027641296,
            "84": -0.6851106882095337,
            "85": -0.01995597779750824,
            "86": 0.20724943280220032,
            "87": 0.4170146882534027,
            "88": 0.10282495617866516,
            "89": 0.5259109735488892,
            "90": 0.21552225947380066,
            "91": -0.8420681357383728,
            "92": -0.7856765985488892,
            "93": -0.2233295887708664,
            "94": 0.04899723455309868,
            "95": 0.4473605751991272,
            "96": -0.5654375553131104,
            "97": -0.7714521884918213,
            "98": 0.15601354837417603,
            "99": 0.12531514465808868,
            "100": 0.8323126435279846,
            "101": -0.427206426858902,
            "102": -1.301748275756836,
            "103": 0.12831026315689087,
            "104": -0.46240100264549255,
            "105": -0.2973558008670807,
            "106": 0.16945719718933105,
            "107": 0.5197925567626953,
            "108": 0.06700921058654785,
            "109": -0.28495705127716064,
            "110": 1.0358370542526245,
            "111": 0.10929583013057709,
            "112": 1.5421100854873657,
            "113": -0.885257363319397,
            "114": -0.6565149426460266,
            "115": -0.21170450747013092,
            "116": -0.4748725891113281,
            "117": -0.3826345205307007,
            "118": 1.5045143365859985,
            "119": -0.4892295002937317,
            "120": 0.6698353886604309,
            "121": -0.4805384874343872,
            "122": -2.277937412261963,
            "123": 0.622428834438324,
            "124": 0.8161143660545349,
            "125": 0.15530350804328918,
            "126": -0.5546363592147827,
            "127": -0.4179994463920593,
            "128": 0.14328473806381226,
            "129": 1.07818603515625,
            "130": -0.6251694560050964,
            "131": -0.14277392625808716,
            "132": -1.4226924180984497,
            "133": -2.338188648223877,
            "134": 0.9684275388717651,
            "135": 0.24667996168136597,
            "136": 1.8232007026672363,
            "137": 0.03564870357513428,
            "138": 0.8576902747154236,
            "139": -0.39787018299102783,
            "140": 0.4893624484539032,
            "141": 0.18841363489627838,
            "142": 0.23180162906646729,
            "143": -0.8082404732704163,
            "144": -0.5918898582458496,
            "145": 1.1743719577789307,
            "146": 0.47904765605926514,
            "147": -0.8325321674346924,
            "148": -0.6842454671859741,
            "149": -0.5571913123130798,
            "150": -0.5438377261161804,
            "151": 0.6604909300804138,
            "152": -1.1614590883255005,
            "153": -0.6984311938285828,
            "154": -1.1824393272399902,
            "155": -0.41658711433410645,
            "156": 0.4855731725692749,
            "157": -1.0704076290130615,
            "158": -1.4409831762313843,
            "159": 0.5309890508651733,
            "160": 0.5887374877929688,
            "161": 1.5418020486831665,
            "162": -0.518482506275177,
            "163": -0.7588352560997009,
            "164": 0.39094972610473633,
            "165": 0.5625004172325134,
            "166": -0.08745287358760834,
            "167": 0.3280926048755646,
            "168": -1.396317720413208,
            "169": 0.8470346927642822,
            "170": -0.05999802425503731,
            "171": -1.3475582599639893,
            "172": 0.28168681263923645,
            "173": 1.034812569618225,
            "174": -1.1876909732818604,
            "175": -1.2444899082183838,
            "176": 0.5909101963043213,
            "177": -0.175282821059227,
            "178": 1.416154384613037,
            "179": 0.20732226967811584,
            "180": -0.4135304391384125,
            "181": -0.34879109263420105,
            "182": -0.09930673241615295,
            "183": 0.6960150003433228,
            "184": 0.941709041595459,
            "185": -1.5594152212142944,
            "186": 0.5902521014213562,
            "187": -0.3583526611328125,
            "188": -0.27966949343681335,
            "189": -0.5837716460227966,
            "190": 0.1722300797700882,
            "191": -0.3263898193836212,
            "192": -0.794888973236084,
            "193": -1.0829530954360962,
            "194": 1.1701878309249878,
            "195": -0.47892066836357117,
            "196": -1.6005674600601196,
            "197": -0.7652939558029175,
            "198": 1.5173568725585938,
            "199": 1.0242310762405396,
            "200": -0.05690249800682068,
            "201": 0.35849106311798096,
            "202": 0.149212047457695,
            "203": 0.37600693106651306,
            "204": 1.1626982688903809,
            "205": 0.9632845520973206,
            "206": 0.753864049911499,
            "207": -0.9106921553611755,
            "208": 0.7995513081550598,
            "209": 0.9998434782028198,
            "210": 0.7004842162132263,
            "211": -0.619563102722168,
            "212": -0.42675960063934326,
            "213": 1.1517664194107056,
            "214": -0.08719360828399658,
            "215": -0.9399958848953247,
            "216": -0.7412682771682739,
            "217": -0.6660358905792236,
            "218": -0.7412207126617432,
            "219": 0.8464774489402771,
            "220": -0.8848338723182678,
            "221": -0.016628623008728027,
            "222": -0.21832245588302612,
            "223": 0.2007535696029663,
            "224": 0.07957040518522263,
            "225": -0.2923363149166107,
            "226": -0.2917118966579437,
            "227": 1.2703436613082886,
            "228": -0.5077164769172668,
            "229": 0.25488758087158203,
            "230": 0.574151873588562,
            "231": 0.3467409312725067,
            "232": -0.6790614724159241,
            "233": -0.447579950094223,
            "234": 0.2801881730556488,
            "235": 0.2802850902080536,
            "236": -0.23653660714626312,
            "237": -0.021487493067979813,
            "238": -0.12182443588972092,
            "239": 0.8567803502082825,
            "240": -0.6271539330482483,
            "241": -0.5861480832099915,
            "242": 0.7585551738739014,
            "243": 0.7189207077026367,
            "244": -1.5505470037460327,
            "245": 0.47117215394973755,
            "246": -1.0389299392700195,
            "247": -0.4415455758571625,
            "248": -0.46462950110435486,
            "249": 0.669474720954895,
            "250": 0.503680944442749,
            "251": -0.6009528636932373,
            "252": -0.594059407711029,
            "253": 1.275209665298462,
            "254": -0.8891734480857849,
            "255": -0.6641905307769775,
            "256": 0.5701462626457214,
            "257": -0.4904651343822479,
            "258": -0.9433971643447876,
            "259": 0.4877220690250397,
            "260": 0.699760913848877,
            "261": -0.5268936157226562,
            "262": -0.16722580790519714,
            "263": -0.10957169532775879,
            "264": -0.19573870301246643,
            "265": 0.9420799612998962,
            "266": -0.32576632499694824,
            "267": -0.30449339747428894,
            "268": -0.6282815337181091,
            "269": -1.2683448791503906,
            "270": 0.7356295585632324,
            "271": 0.41411930322647095,
            "272": -0.7518617510795593,
            "273": 0.22321514785289764,
            "274": -0.6675900220870972,
            "275": 0.13026700913906097,
            "276": -0.03188729286193848,
            "277": 0.15382371842861176,
            "278": -1.1056617498397827,
            "279": 0.4985697865486145,
            "280": 0.41067150235176086,
            "281": -0.8007282614707947,
            "282": 0.18563465774059296,
            "283": 0.5456687211990356,
            "284": 0.5755340456962585,
            "285": 0.034158553928136826,
            "286": -0.4827880859375,
            "287": 0.047061946243047714,
            "288": 0.4943971633911133,
            "289": -1.2880265712738037,
            "290": -0.28707459568977356,
            "291": -0.4220382571220398,
            "292": 0.6099541783332825,
            "293": -0.399130254983902,
            "294": -0.11805452406406403,
            "295": -1.4262827634811401,
            "296": 0.5322369337081909,
            "297": 0.5695293545722961,
            "298": -0.4477720260620117,
            "299": 0.6259845495223999,
            "300": 0.3740435540676117,
            "301": 0.33865228295326233,
            "302": 1.773583173751831,
            "303": 0.5561032891273499,
            "304": -0.1797536313533783,
            "305": 1.181601643562317,
            "306": 0.20340636372566223,
            "307": -0.3505067527294159,
            "308": 0.1761210560798645,
            "309": -0.07771237939596176,
            "310": -0.47935718297958374,
            "311": -0.19255702197551727,
            "312": 0.00208311271853745,
            "313": -0.6769042015075684,
            "314": 0.6082819700241089,
            "315": 0.33314764499664307,
            "316": 0.20843596756458282,
            "317": -0.7624165415763855,
            "318": -1.0387346744537354,
            "319": -0.704130232334137,
            "320": -0.0800187736749649,
            "321": -0.6635772585868835,
            "322": 0.15107591450214386,
            "323": 0.6594257950782776,
            "324": 0.7578513622283936,
            "325": 0.3486826419830322,
            "326": -0.5782833695411682,
            "327": 0.6918287873268127,
            "328": 0.6475062370300293,
            "329": 0.19806374609470367,
            "330": -0.6279218792915344,
            "331": -0.42217251658439636,
            "332": 0.7894570827484131,
            "333": -0.12450733780860901,
            "334": -0.6103192567825317,
            "335": -0.6744077205657959,
            "336": -0.4186927080154419,
            "337": -0.7028251886367798,
            "338": 0.910607635974884,
            "339": -1.3613851070404053
          }
        },
        "outputHidden": {
          "rows": 20,
          "columns": 20,
          "weights": {
            "0": -0.7187665700912476,
            "1": -0.34740975499153137,
            "2": -1.4514747858047485,
            "3": -0.15632164478302002,
            "4": -1.0573920011520386,
            "5": 0.9835436344146729,
            "6": -2.112922191619873,
            "7": -1.0820796489715576,
            "8": -0.2605757713317871,
            "9": -0.37740182876586914,
            "10": -0.9889754056930542,
            "11": 0.7508541941642761,
            "12": -1.7096997499465942,
            "13": 0.6404616832733154,
            "14": -0.8424879908561707,
            "15": 0.7502363920211792,
            "16": 0.4098586142063141,
            "17": -1.8750007152557373,
            "18": 1.038076639175415,
            "19": 1.7368950843811035,
            "20": -0.054470617324113846,
            "21": 0.2550261318683624,
            "22": -1.6973901987075806,
            "23": -0.1422962099313736,
            "24": -0.45132169127464294,
            "25": -0.14265933632850647,
            "26": -1.4469131231307983,
            "27": -1.2330242395401,
            "28": -0.7901283502578735,
            "29": -1.2151390314102173,
            "30": -1.2242127656936646,
            "31": 1.0665773153305054,
            "32": -2.2835214138031006,
            "33": 0.7341066002845764,
            "34": -1.0165950059890747,
            "35": 0.9360589981079102,
            "36": 1.2193360328674316,
            "37": -0.6621367335319519,
            "38": 0.06662096828222275,
            "39": 2.0562942028045654,
            "40": 0.23359008133411407,
            "41": 0.19241651892662048,
            "42": 1.0992405414581299,
            "43": 0.4692451059818268,
            "44": 0.3948088586330414,
            "45": -0.030859747901558876,
            "46": 0.46235159039497375,
            "47": 0.44458505511283875,
            "48": 0.8170074820518494,
            "49": 0.6241852045059204,
            "50": 0.8313729763031006,
            "51": -0.8123019933700562,
            "52": 0.02496059238910675,
            "53": 0.019204404205083847,
            "54": 0.32723918557167053,
            "55": -0.6975125670433044,
            "56": -0.7110719680786133,
            "57": 0.5872528553009033,
            "58": -0.2388233095407486,
            "59": -0.4376957416534424,
            "60": 0.017862940207123756,
            "61": 0.6700722575187683,
            "62": -0.6634196043014526,
            "63": 1.0733453035354614,
            "64": -0.7304561734199524,
            "65": -0.10946188122034073,
            "66": -0.49557363986968994,
            "67": -0.61614590883255,
            "68": 0.34562918543815613,
            "69": -2.764082908630371,
            "70": -2.015174150466919,
            "71": -0.7445353269577026,
            "72": -1.0594147443771362,
            "73": 1.672128438949585,
            "74": -1.053646206855774,
            "75": 0.5113343596458435,
            "76": 0.4072763919830322,
            "77": 0.001346650067716837,
            "78": -0.8263952136039734,
            "79": 0.914919912815094,
            "80": 0.14846272766590118,
            "81": 0.5176449418067932,
            "82": -0.7012242674827576,
            "83": 0.5699265003204346,
            "84": -0.3244384527206421,
            "85": 0.3894236981868744,
            "86": 0.44596394896507263,
            "87": -0.7390524744987488,
            "88": 1.0083633661270142,
            "89": -0.32349061965942383,
            "90": -0.4824824035167694,
            "91": 0.6526692509651184,
            "92": 0.5132429599761963,
            "93": -1.082880973815918,
            "94": 0.7516758441925049,
            "95": 0.8430671691894531,
            "96": 0.5329295992851257,
            "97": 0.0832815170288086,
            "98": -0.32583585381507874,
            "99": -0.6481883525848389,
            "100": 0.2652031481266022,
            "101": 0.47519221901893616,
            "102": -2.077225923538208,
            "103": 0.430561900138855,
            "104": -0.7817579507827759,
            "105": 0.051504556089639664,
            "106": -0.0931924432516098,
            "107": -0.7316082715988159,
            "108": -0.041713014245033264,
            "109": -1.9439539909362793,
            "110": -2.3317203521728516,
            "111": 0.8871532678604126,
            "112": -1.7391237020492554,
            "113": 2.28007435798645,
            "114": -0.38921239972114563,
            "115": 1.0541367530822754,
            "116": 1.3475359678268433,
            "117": 0.4507294297218323,
            "118": -0.35437676310539246,
            "119": 0.6323055028915405,
            "120": -0.7243313789367676,
            "121": -1.297215223312378,
            "122": -1.2497559785842896,
            "123": 0.6387218236923218,
            "124": 0.09087282419204712,
            "125": 0.5700409412384033,
            "126": 0.4848286509513855,
            "127": -1.4023040533065796,
            "128": 1.0127843618392944,
            "129": -0.011380714364349842,
            "130": -0.8624480366706848,
            "131": -0.27358198165893555,
            "132": 0.7229388952255249,
            "133": -0.6527940034866333,
            "134": -0.12357920408248901,
            "135": 1.7326948642730713,
            "136": 0.7104479074478149,
            "137": -0.6933969855308533,
            "138": 0.16986370086669922,
            "139": 0.0042887539602816105,
            "140": -0.4698861241340637,
            "141": -0.7523007988929749,
            "142": 0.9254997968673706,
            "143": -0.1697162240743637,
            "144": -2.965794086456299,
            "145": -1.134719729423523,
            "146": -0.27264419198036194,
            "147": 0.7056830525398254,
            "148": -0.7279828190803528,
            "149": 0.8871438503265381,
            "150": 0.3946305215358734,
            "151": 0.1915188878774643,
            "152": -0.35224804282188416,
            "153": -0.134194016456604,
            "154": -0.3515705466270447,
            "155": -0.8884293437004089,
            "156": -0.39251846075057983,
            "157": -0.8087688088417053,
            "158": 0.8179745078086853,
            "159": 0.6189021468162537,
            "160": 0.2162478268146515,
            "161": 0.615836501121521,
            "162": -0.8423604965209961,
            "163": 0.3884924054145813,
            "164": -0.7010087370872498,
            "165": -0.29594847559928894,
            "166": 0.2620787024497986,
            "167": -0.35017454624176025,
            "168": 0.38559579849243164,
            "169": -0.732327938079834,
            "170": -1.147951602935791,
            "171": 0.6058669090270996,
            "172": 0.13996100425720215,
            "173": -0.08322509378194809,
            "174": 0.34306979179382324,
            "175": 0.6787558197975159,
            "176": 0.7694423794746399,
            "177": 0.06513819843530655,
            "178": -0.9462890625,
            "179": 0.08657056838274002,
            "180": 1.1382194757461548,
            "181": -0.04668217897415161,
            "182": 1.379097819328308,
            "183": 0.29205429553985596,
            "184": 0.37363243103027344,
            "185": -0.30799487233161926,
            "186": 0.5594270825386047,
            "187": 0.1417052298784256,
            "188": 1.1824837923049927,
            "189": 0.9154274463653564,
            "190": 0.9623850584030151,
            "191": -0.004240729846060276,
            "192": -0.47451674938201904,
            "193": -0.9461227655410767,
            "194": 0.2478598803281784,
            "195": -0.054710231721401215,
            "196": -0.2826467752456665,
            "197": 0.3736385107040405,
            "198": -0.6564598083496094,
            "199": -0.3257652521133423,
            "200": 0.5386165976524353,
            "201": 0.8853020071983337,
            "202": 0.4699966311454773,
            "203": 1.1998422145843506,
            "204": 1.2038495540618896,
            "205": -0.7805469036102295,
            "206": 0.9823527932167053,
            "207": -0.7741948962211609,
            "208": 1.5529643297195435,
            "209": 0.6039317846298218,
            "210": 0.7644143104553223,
            "211": 0.20912179350852966,
            "212": -0.8141475915908813,
            "213": -0.8205413222312927,
            "214": 0.5724434852600098,
            "215": 0.2959972321987152,
            "216": 0.1520361751317978,
            "217": 0.5395733714103699,
            "218": -0.5479311347007751,
            "219": -0.9333013892173767,
            "220": 0.7434559464454651,
            "221": 0.6582303643226624,
            "222": -0.21106287837028503,
            "223": 0.6444773077964783,
            "224": -0.16213487088680267,
            "225": -1.1258203983306885,
            "226": -0.20821093022823334,
            "227": 0.014202638529241085,
            "228": 0.911582887172699,
            "229": -0.18761959671974182,
            "230": -0.4007004201412201,
            "231": -0.32821404933929443,
            "232": 0.39967450499534607,
            "233": -0.5321791768074036,
            "234": -0.21316802501678467,
            "235": -0.12861984968185425,
            "236": 0.08183672279119492,
            "237": 0.5288563966751099,
            "238": -0.5772072672843933,
            "239": -0.25613003969192505,
            "240": -0.4210678040981293,
            "241": -0.5434651970863342,
            "242": -0.024641135707497597,
            "243": 0.03292558342218399,
            "244": 0.19038335978984833,
            "245": 0.21541988849639893,
            "246": -0.5396565198898315,
            "247": -0.6649389863014221,
            "248": 0.3192986249923706,
            "249": -0.004039010964334011,
            "250": 0.23312130570411682,
            "251": 0.18394052982330322,
            "252": -0.2110985368490219,
            "253": -0.3502176105976105,
            "254": -0.2042567878961563,
            "255": 0.4132966995239258,
            "256": 0.8069800138473511,
            "257": -0.8399322032928467,
            "258": 0.3174300789833069,
            "259": 0.8063399791717529,
            "260": 1.8008909225463867,
            "261": 1.082585334777832,
            "262": 0.9185540080070496,
            "263": 1.4112287759780884,
            "264": 2.2470896244049072,
            "265": -1.264801025390625,
            "266": -0.190166637301445,
            "267": -0.426341712474823,
            "268": 0.4313405454158783,
            "269": 0.6142473816871643,
            "270": 1.3669644594192505,
            "271": -0.14042748510837555,
            "272": 0.7959967255592346,
            "273": -0.5596499443054199,
            "274": -0.20044271647930145,
            "275": 0.515291690826416,
            "276": 0.5501953959465027,
            "277": -1.0974323749542236,
            "278": -1.8723214864730835,
            "279": -0.5951776504516602,
            "280": -0.23950088024139404,
            "281": -0.14183443784713745,
            "282": 0.637816846370697,
            "283": 0.21115970611572266,
            "284": 1.2074085474014282,
            "285": -0.21424539387226105,
            "286": 0.721329927444458,
            "287": -0.562092125415802,
            "288": 0.6181160807609558,
            "289": 0.583529531955719,
            "290": 1.4682018756866455,
            "291": -0.40699872374534607,
            "292": 0.6597016453742981,
            "293": -1.1524138450622559,
            "294": 0.9468934535980225,
            "295": 0.3808978199958801,
            "296": -0.14950895309448242,
            "297": -0.29395827651023865,
            "298": -0.2267524152994156,
            "299": -0.4528409242630005,
            "300": -1.5494558811187744,
            "301": -1.496329426765442,
            "302": 0.9120343923568726,
            "303": -0.12034350633621216,
            "304": -1.105438232421875,
            "305": -0.5778549313545227,
            "306": -0.026898076757788658,
            "307": 0.061062153428792953,
            "308": -0.03159266337752342,
            "309": -0.774209201335907,
            "310": -0.09548910707235336,
            "311": 0.12302618473768234,
            "312": -0.6932768225669861,
            "313": -0.7217901945114136,
            "314": 0.32820218801498413,
            "315": -0.09055405855178833,
            "316": -0.737398087978363,
            "317": -0.8346235156059265,
            "318": 1.7510952949523926,
            "319": 0.10473757982254028,
            "320": -0.8723865747451782,
            "321": -0.7172670364379883,
            "322": -1.1030949354171753,
            "323": -0.29872095584869385,
            "324": -1.1479294300079346,
            "325": 0.3896462321281433,
            "326": -0.18156367540359497,
            "327": 0.5626606941223145,
            "328": 0.17995648086071014,
            "329": -2.0240941047668457,
            "330": -1.9376966953277588,
            "331": 0.3432156443595886,
            "332": -0.22224003076553345,
            "333": 0.28480371832847595,
            "334": 0.4949418306350708,
            "335": -0.1830350160598755,
            "336": -0.35816457867622375,
            "337": 0.21100349724292755,
            "338": 1.0629559755325317,
            "339": 0.3084709644317627,
            "340": -0.9738579392433167,
            "341": -0.25804603099823,
            "342": 0.06298396736383438,
