{"weights":{"type":"LSTM","options":{"inputSize":17,"inputRange":17,"hiddenSizes":[20,20],"outputSize":17,"learningRate":0.01,"decayRate":0.999,"smoothEps":1e-8,"regc":0.000001,"clipval":5,"json":null,"dataFormatter":{"values":["i do this","i like laravel","i work with laravel","laravel","no"],"indexTable":{"i":0," ":1,"d":2,"o":3,"t":4,"h":5,"s":6,"l":7,"k":8,"e":9,"a":10,"r":11,"v":12,"w":13,"n":14,"stop-input":15,"start-output":16},"characterTable":{"0":"i","1":" ","2":"d","3":"o","4":"t","5":"h","6":"s","7":"l","8":"k","9":"e","10":"a","11":"r","12":"v","13":"w","14":"n","15":"stop-input","16":"start-output"},"characters":["i"," ","d","o","t","h","s","l","k","e","a","r","v","w","n","stop-input","start-output"]}},"input":{"rows":18,"columns":17,"weights":{"0":-0.08829054981470108,"1":-0.3678644895553589,"2":0.4003962576389313,"3":-0.1748329997062683,"4":-1.0624290704727173,"5":0.44212958216667175,"6":-0.18245501816272736,"7":-0.31876978278160095,"8":-0.34074029326438904,"9":-0.26544517278671265,"10":0.07281660288572311,"11":0.5200828313827515,"12":-0.3428509533405304,"13":0.12700189650058746,"14":-0.7231013774871826,"15":-0.2820536494255066,"16":1.0576930046081543,"17":0.13401088118553162,"18":-0.10273531824350357,"19":0.2659473419189453,"20":0.31635451316833496,"21":0.01528313010931015,"22":0.014305181801319122,"23":0.25337091088294983,"24":-0.07693933695554733,"25":1.1019198894500732,"26":-0.2216203659772873,"27":0.47943761944770813,"28":-0.9464412927627563,"29":-0.24821943044662476,"30":-0.7884323000907898,"31":1.178684115409851,"32":1.0787034034729004,"33":-1.041873812675476,"34":-0.2673153877258301,"35":-0.37710028886795044,"36":-0.4221225082874298,"37":-0.02387477084994316,"38":0.2967558801174164,"39":-0.26086941361427307,"40":-0.2634420692920685,"41":0.24183690547943115,"42":1.0628530979156494,"43":0.19078335165977478,"44":0.4764368236064911,"45":-0.40299874544143677,"46":-0.4798469841480255,"47":-0.47742125391960144,"48":0.40290936827659607,"49":0.7443830370903015,"50":-0.31004559993743896,"51":-1.188915491104126,"52":0.607172429561615,"53":-0.6752572059631348,"54":-0.08892341703176498,"55":0.6641817092895508,"56":-0.28402525186538696,"57":0.4817996919155121,"58":-0.21115192770957947,"59":0.9518880248069763,"60":0.5029366612434387,"61":-0.41412290930747986,"62":-0.813021183013916,"63":0.49831244349479675,"64":-0.824410617351532,"65":0.3358103334903717,"66":0.989801287651062,"67":-0.7659382224082947,"68":0.545303225517273,"69":0.02738826908171177,"70":-0.08573714643716812,"71":-0.004828940145671368,"72":0.49001479148864746,"73":-0.47596612572669983,"74":-0.4968293011188507,"75":-0.4284234046936035,"76":1.1882878541946411,"77":0.17798186838626862,"78":0.4567038416862488,"79":-0.3152156174182892,"80":-0.43430349230766296,"81":-0.007020432967692614,"82":1.0132873058319092,"83":0.552284300327301,"84":-0.6581698060035706,"85":-0.6815923452377319,"86":-0.34022560715675354,"87":0.6738596558570862,"88":0.02901661954820156,"89":-0.13349159061908722,"90":0.8801652193069458,"91":0.18864156305789948,"92":0.4763879179954529,"93":-0.25380319356918335,"94":-1.6778080463409424,"95":0.03602498397231102,"96":0.28985491394996643,"97":-0.07061237096786499,"98":0.5191895961761475,"99":-0.9102697372436523,"100":-0.2935340106487274,"101":1.0460931062698364,"102":-0.6579473614692688,"103":0.06864593178033829,"104":-0.1520366072654724,"105":-0.25928759574890137,"106":-0.2058001607656479,"107":1.5729401111602783,"108":0.6570981740951538,"109":0.9784350991249084,"110":-0.12413835525512695,"111":-1.5380420684814453,"112":-0.10007257759571075,"113":-0.18913564085960388,"114":0.1065269336104393,"115":0.1099759116768837,"116":-0.8781870603561401,"117":-0.22088316082954407,"118":1.0022250413894653,"119":-0.7195485830307007,"120":-0.8556296825408936,"121":1.5267647504806519,"122":-0.13816070556640625,"123":-1.0441176891326904,"124":2.1685426235198975,"125":1.3926081657409668,"126":1.33501136302948,"127":0.13977861404418945,"128":-2.2311229705810547,"129":0.4994889497756958,"130":-0.424492210149765,"131":-0.34234166145324707,"132":-0.06838717311620712,"133":-1.1672661304473877,"134":0.38445356488227844,"135":1.254123568534851,"136":1.1786940097808838,"137":-0.5174478888511658,"138":-0.13284116983413696,"139":0.44808757305145264,"140":-0.7293054461479187,"141":-0.10550534725189209,"142":-0.6589645147323608,"143":-1.0064072608947754,"144":-1.218809723854065,"145":0.39229464530944824,"146":0.6349749565124512,"147":1.2645808458328247,"148":-0.78641277551651,"149":1.4577568769454956,"150":-0.7564120292663574,"151":-1.4137364625930786,"152":0.04716644808650017,"153":1.2638568878173828,"154":0.1656654179096222,"155":0.6895296573638916,"156":0.677553653717041,"157":0.8683744668960571,"158":-0.93768709897995,"159":0.5917373895645142,"160":-0.5664495825767517,"161":1.009130835533142,"162":1.3002485036849976,"163":-0.25745877623558044,"164":-0.606817364692688,"165":-0.26120367646217346,"166":0.13591040670871735,"167":2.0776798725128174,"168":0.6130273342132568,"169":-1.1832112073898315,"170":1.2770696878433228,"171":0.35641953349113464,"172":-0.7638756632804871,"173":-0.7015682458877563,"174":0.3753664195537567,"175":-0.758072018623352,"176":-1.5050874948501587,"177":0.14446453750133514,"178":0.6151936650276184,"179":-0.32738640904426575,"180":0.6335704326629639,"181":-0.5101626515388489,"182":-0.24663779139518738,"183":0.030807960778474808,"184":0.8138218522071838,"185":0.5721896290779114,"186":-0.7617430090904236,"187":-0.15219199657440186,"188":0.20260940492153168,"189":-0.36574459075927734,"190":-0.14464183151721954,"191":-0.05014397203922272,"192":0.4691435992717743,"193":-0.3855477571487427,"194":0.03194199502468109,"195":-0.7870702743530273,"196":-0.3927749991416931,"197":-0.2471913993358612,"198":0.1985885202884674,"199":0.10028178244829178,"200":0.37991100549697876,"201":0.011182814836502075,"202":-1.174680471420288,"203":0.5430207848548889,"204":0.13752995431423187,"205":0.35535168647766113,"206":-0.5917207598686218,"207":-0.3825667202472687,"208":-0.3157801628112793,"209":-0.16019850969314575,"210":-1.0568130016326904,"211":0.3584081828594208,"212":-0.053610436618328094,"213":0.41128066182136536,"214":-0.497943252325058,"215":-0.027403876185417175,"216":0.38743358850479126,"217":-0.5015245676040649,"218":-0.2768571674823761,"219":0.0994185283780098,"220":-0.05959243327379227,"221":-0.10920904576778412,"222":0.31575310230255127,"223":-0.7932206988334656,"224":-0.16358084976673126,"225":1.011857032775879,"226":-1.34712815284729,"227":0.02134542725980282,"228":0.07617045193910599,"229":0.3844688832759857,"230":1.1965248584747314,"231":-0.5993672609329224,"232":-0.45657211542129517,"233":0.42953985929489136,"234":-0.23353886604309082,"235":0.752589762210846,"236":0.560330331325531,"237":-0.8410614728927612,"238":-0.9353063702583313,"239":-0.23006781935691833,"240":-0.6525030136108398,"241":0.1427791863679886,"242":1.138033390045166,"243":0.7735084891319275,"244":0.7653505206108093,"245":-0.9080142974853516,"246":0.788140058517456,"247":-0.4502042531967163,"248":0.41267549991607666,"249":0.8419179320335388,"250":0.1041865199804306,"251":0.5125632286071777,"252":1.7876116037368774,"253":-0.8172798752784729,"254":-2.9260427951812744,"255":-1.6605626344680786,"256":-1.7978968620300293,"257":1.3969144821166992,"258":-0.9737130403518677,"259":2.610835313796997,"260":1.5724440813064575,"261":1.3069158792495728,"262":1.8893221616744995,"263":0.4294492304325104,"264":-1.8297818899154663,"265":1.0670815706253052,"266":-0.4768853485584259,"267":-1.6020644903182983,"268":0.1872664839029312,"269":-1.230224370956421,"270":0.29880833625793457,"271":1.2491974830627441,"272":0.6277047991752625,"273":-0.945967972278595,"274":0.05742177739739418,"275":0.7379655241966248,"276":-0.047578055411577225,"277":-0.6671027541160583,"278":-0.15939876437187195,"279":-1.0911020040512085,"280":-0.6434391736984253,"281":0.9743577837944031,"282":0.7965068221092224,"283":0.7671041488647461,"284":-0.2811519503593445,"285":1.0560424327850342,"286":-0.621593177318573,"287":-0.7536709904670715,"288":-0.10321176052093506,"289":-0.9290618300437927,"290":0.06898603588342667,"291":-0.457908034324646,"292":-0.4535714089870453,"293":-0.08025011420249939,"294":-0.030865594744682312,"295":-0.6884936094284058,"296":0.6503880023956299,"297":0.014893605373799801,"298":-0.10987377911806107,"299":-0.6824626922607422,"300":-0.375783771276474,"301":0.253167062997818,"302":-0.05343969166278839,"303":-0.30872493982315063,"304":0.26416730880737305,"305":0.36045220494270325}},"hiddenLayers":[{"inputMatrix":{"rows":20,"columns":17,"weights":{"0":0.0653468444943428,"1":-0.07802638411521912,"2":0.02366623468697071,"3":-0.2878147065639496,"4":-0.08605073392391205,"5":0.04136909171938896,"6":0.033288612961769104,"7":0.9604886174201965,"8":0.5976049900054932,"9":-0.22634924948215485,"10":-0.12527962028980255,"11":-0.8428438901901245,"12":0.0895262286067009,"13":-1.1727957725524902,"14":-0.2209712713956833,"15":0.8189289569854736,"16":0.1021820604801178,"17":0.31252771615982056,"18":0.201168492436409,"19":-0.03961721062660217,"20":0.031782202422618866,"21":0.31449392437934875,"22":-0.36843636631965637,"23":-0.31840771436691284,"24":-0.7187866568565369,"25":-1.108540654182434,"26":0.25382235646247864,"27":-0.4576804041862488,"28":1.0085060596466064,"29":0.2332981377840042,"30":1.2138526439666748,"31":-0.07603802531957626,"32":-1.3866602182388306,"33":0.18948690593242645,"34":-0.0930088683962822,"35":0.2233993411064148,"36":0.3747606575489044,"37":0.34252500534057617,"38":1.0291143655776978,"39":0.14417749643325806,"40":1.1846095323562622,"41":0.10157059878110886,"42":0.5000642538070679,"43":0.007012553513050079,"44":-0.7451599836349487,"45":-0.46983474493026733,"46":0.6931891441345215,"47":-0.5472123622894287,"48":1.1750158071517944,"49":0.19985519349575043,"50":-1.1195186376571655,"51":0.4443484842777252,"52":-0.11915791779756546,"53":0.31526845693588257,"54":0.34360599517822266,"55":0.9185725450515747,"56":-0.30250754952430725,"57":0.1855347752571106,"58":-0.35008856654167175,"59":-0.10334999859333038,"60":0.5304563045501709,"61":-0.11288905888795853,"62":0.8050680756568909,"63":-0.16183581948280334,"64":0.7508407235145569,"65":0.6817436218261719,"66":-0.9392693638801575,"67":-0.4910188913345337,"68":0.18160471320152283,"69":0.4016718566417694,"70":-0.36762282252311707,"71":-0.2449454963207245,"72":0.8965373635292053,"73":0.051894623786211014,"74":0.6458839774131775,"75":-0.23741565644741058,"76":-0.1183236837387085,"77":0.4763736128807068,"78":0.11035498976707458,"79":0.18109416961669922,"80":0.3321610689163208,"81":0.3773171603679657,"82":0.19067953526973724,"83":-0.13327984511852264,"84":-0.6980631351470947,"85":0.6799770593643188,"86":0.4316515624523163,"87":-0.27036693692207336,"88":-0.2819236218929291,"89":0.1919485479593277,"90":-0.8931597471237183,"91":-0.7989032864570618,"92":-0.3225235939025879,"93":0.0064314124174416065,"94":1.0054895877838135,"95":-0.16083203256130219,"96":0.13984555006027222,"97":0.05028583109378815,"98":0.07848027348518372,"99":0.6036974191665649,"100":0.17755655944347382,"101":-0.3599697947502136,"102":-0.4217015504837036,"103":-0.3906950056552887,"104":0.3797609210014343,"105":0.5612733960151672,"106":0.06333254277706146,"107":0.32450154423713684,"108":0.6963472962379456,"109":-0.48457613587379456,"110":0.8614392280578613,"111":-0.2385234832763672,"112":0.2546067237854004,"113":-0.5542529821395874,"114":-0.17495453357696533,"115":-0.41651439666748047,"116":0.5212516784667969,"117":0.48091328144073486,"118":-0.494556725025177,"119":0.1444116234779358,"120":0.13322310149669647,"121":-0.5496730208396912,"122":-0.21743197739124298,"123":0.2442343682050705,"124":-0.304677814245224,"125":-0.6780470609664917,"126":-0.11104630678892136,"127":0.8300232887268066,"128":0.26982149481773376,"129":-0.09011035412549973,"130":-0.43926191329956055,"131":0.11218801140785217,"132":-0.5221187472343445,"133":1.0258762836456299,"134":0.7547549605369568,"135":-0.8639131188392639,"136":-1.264621615409851,"137":0.5016017556190491,"138":-0.7361947298049927,"139":-0.6987398862838745,"140":0.538082480430603,"141":-0.09597998112440109,"142":-0.2110186517238617,"143":1.4626833200454712,"144":0.6439875960350037,"145":0.40676990151405334,"146":-0.6896195411682129,"147":-0.7145410776138306,"148":0.305368572473526,"149":-0.9118152856826782,"150":0.4422522485256195,"151":0.5454288125038147,"152":-0.1685044765472412,"153":0.14822790026664734,"154":0.3785094618797302,"155":-0.5501136779785156,"156":-0.2509709596633911,"157":0.570342481136322,"158":-0.6242440938949585,"159":-0.6170337200164795,"160":-0.10402978956699371,"161":0.9775365591049194,"162":0.7374282479286194,"163":-0.10303600877523422,"164":-0.30816569924354553,"165":0.14779718220233917,"166":-0.6207598447799683,"167":1.0539610385894775,"168":0.6923831105232239,"169":-0.8913629651069641,"170":0.008603180758655071,"171":0.024667706340551376,"172":0.08634378761053085,"173":-0.3330463767051697,"174":-0.06712010502815247,"175":0.25410163402557373,"176":0.09589682519435883,"177":1.2137508392333984,"178":0.33839669823646545,"179":-0.303210586309433,"180":-0.18652373552322388,"181":-0.8811736702919006,"182":0.16809241473674774,"183":-0.8312022089958191,"184":-0.33357948064804077,"185":0.5306536555290222,"186":0.27018994092941284,"187":0.0567500963807106,"188":0.02628258429467678,"189":0.02702024020254612,"190":-0.17605122923851013,"191":0.4988655745983124,"192":-0.32852837443351746,"193":-0.13255684077739716,"194":-0.3935586214065552,"195":0.5128449201583862,"196":0.0206201933324337,"197":0.05432606488466263,"198":-0.2961961328983307,"199":-0.03698454424738884,"200":0.06968327611684799,"201":1.2939382791519165,"202":0.40054571628570557,"203":-0.9664227366447449,"204":0.1574173867702484,"205":-0.10831619054079056,"206":-0.6840835213661194,"207":0.3339559733867645,"208":-0.06319627910852432,"209":-0.44066521525382996,"210":-0.8604788184165955,"211":-0.607595682144165,"212":-0.7497372627258301,"213":0.6480501890182495,"214":-0.24691547453403473,"215":0.3736818730831146,"216":0.3456254303455353,"217":0.6295247077941895,"218":-0.5385322570800781,"219":-0.7272185683250427,"220":-0.3641981780529022,"221":0.6286960244178772,"222":-0.1262516975402832,"223":0.43286874890327454,"224":0.18942058086395264,"225":0.08704873919487,"226":-0.34675905108451843,"227":0.3266508877277374,"228":-0.5446498394012451,"229":-0.47476422786712646,"230":0.5191049575805664,"231":0.18646974861621857,"232":1.0847904682159424,"233":-0.05595574155449867,"234":0.8865590691566467,"235":-0.09260160475969315,"236":-1.0508216619491577,"237":-0.7756429314613342,"238":-0.37411800026893616,"239":1.1434324979782104,"240":-0.8436695337295532,"241":-1.1297550201416016,"242":0.5885452032089233,"243":-0.9994181990623474,"244":-0.33288148045539856,"245":0.20745019614696503,"246":0.18861523270606995,"247":0.7645066380500793,"248":-0.7623247504234314,"249":-0.26486366987228394,"250":0.8708335161209106,"251":-0.06387095898389816,"252":1.0337146520614624,"253":0.33536380529403687,"254":-0.6362057328224182,"255":-0.3174767792224884,"256":-0.5494179129600525,"257":0.1991158276796341,"258":0.42532816529273987,"259":-0.28733474016189575,"260":0.7183673977851868,"261":0.4089949429035187,"262":-0.6389031410217285,"263":-0.6866225600242615,"264":-0.5171806812286377,"265":0.4918273091316223,"266":0.7359883785247803,"267":-0.4019850194454193,"268":0.9753377437591553,"269":-0.9670480489730835,"270":-1.24483060836792,"271":0.5138518810272217,"272":-0.2921332120895386,"273":0.43745309114456177,"274":-0.40712419152259827,"275":-0.18076111376285553,"276":1.3998780250549316,"277":-1.6665047407150269,"278":-0.26226675510406494,"279":0.08293429017066956,"280":0.45756810903549194,"281":1.6908302307128906,"282":-0.587115466594696,"283":0.04104284942150116,"284":0.23880329728126526,"285":-0.03150804340839386,"286":0.6965987086296082,"287":0.14736974239349365,"288":-0.9195932745933533,"289":0.4221864938735962,"290":-0.6249693036079407,"291":1.0509285926818848,"292":0.3468609154224396,"293":0.245157390832901,"294":0.030621903017163277,"295":0.5329921841621399,"296":-0.8978639841079712,"297":-0.1874408721923828,"298":-0.17078141868114471,"299":0.48474758863449097,"300":1.0540461540222168,"301":-0.6166357398033142,"302":1.4590864181518555,"303":-0.5289446115493774,"304":-0.43668290972709656,"305":0.32735225558280945,"306":-0.8510448336601257,"307":-0.14949743449687958,"308":-0.6979584097862244,"309":-0.7590649127960205,"310":-0.29617738723754883,"311":0.362507700920105,"312":0.006772898603230715,"313":1.083787441253662,"314":0.4351063370704651,"315":-0.3639596700668335,"316":0.05602376535534859,"317":-0.9468859434127808,"318":0.21159346401691437,"319":-1.0509365797042847,"320":-0.2576754093170166,"321":0.9769315719604492,"322":0.38617143034935,"323":0.3754447400569916,"324":0.2830567955970764,"325":-0.6043347120285034,"326":-0.4087051749229431,"327":0.2641942799091339,"328":-0.6651472449302673,"329":-0.9048616886138916,"330":-0.18503764271736145,"331":0.8286305069923401,"332":0.604544997215271,"333":0.045694053173065186,"334":-0.46048468351364136,"335":0.04655199125409126,"336":-0.44166308641433716,"337":1.342093825340271,"338":0.7364023923873901,"339":-1.1200281381607056}},"inputHidden":{"rows":20,"columns":20,"weights":{"0":-1.1531788110733032,"1":-1.1092253923416138,"2":0.5674796104431152,"3":-0.4501408338546753,"4":0.5588229894638062,"5":0.4571370780467987,"6":0.6735804080963135,"7":0.6752482652664185,"8":-0.1646108478307724,"9":0.6700289845466614,"10":0.08690522611141205,"11":0.4757579267024994,"12":-0.6954183578491211,"13":-0.29155951738357544,"14":0.6234741806983948,"15":0.5402661561965942,"16":0.4177596867084503,"17":-0.5286613702774048,"18":-0.5768494606018066,"19":0.5903013944625854,"20":-0.14550328254699707,"21":1.089858055114746,"22":-0.19320279359817505,"23":0.583028256893158,"24":-0.2754460573196411,"25":-0.054366741329431534,"26":0.003543547121807933,"27":-0.4437324106693268,"28":-0.25438231229782104,"29":-0.1665176898241043,"30":0.14638015627861023,"31":-0.45798248052597046,"32":0.873710036277771,"33":-0.10033860802650452,"34":-0.4205552935600281,"35":0.11687804013490677,"36":0.26132628321647644,"37":-0.09013846516609192,"38":-0.21930962800979614,"39":-0.5602158308029175,"40":0.09245295822620392,"41":-0.2263045758008957,"42":-0.1815417855978012,"43":-0.42348071932792664,"44":0.21739545464515686,"45":0.6686806082725525,"46":-0.05689821392297745,"47":-0.48054197430610657,"48":-0.38821616768836975,"49":-0.5028120875358582,"50":-0.15704184770584106,"51":-0.3226597011089325,"52":0.49938878417015076,"53":-0.1034785807132721,"54":0.03578454256057739,"55":-1.260250449180603,"56":0.06015070155262947,"57":-0.6428733468055725,"58":-0.12327013909816742,"59":-0.5181006789207458,"60":-0.421565443277359,"61":-0.3461799919605255,"62":0.26879680156707764,"63":-0.6017628908157349,"64":0.5873298645019531,"65":-0.5377510786056519,"66":1.0049526691436768,"67":0.12002618610858917,"68":0.6425616145133972,"69":0.27117079496383667,"70":0.4152984917163849,"71":0.21961767971515656,"72":-0.8951432108879089,"73":-1.1821908950805664,"74":0.09780466556549072,"75":0.7264147400856018,"76":1.0186575651168823,"77":-1.2210707664489746,"78":-0.36567386984825134,"79":-0.1215040385723114,"80":0.32955190539360046,"81":-0.8199436068534851,"82":0.6963422894477844,"83":-0.27135351300239563,"84":0.5280165672302246,"85":0.8491371273994446,"86":0.46436813473701477,"87":0.8905522227287292,"88":-0.9586827158927917,"89":1.1110029220581055,"90":0.33052220940589905,"91":0.7041293382644653,"92":-0.3938368260860443,"93":-1.425171971321106,"94":0.6821116805076599,"95":-0.6480292677879333,"96":0.3258633613586426,"97":-1.1797339916229248,"98":-0.18463538587093353,"99":0.9288843870162964,"100":1.236009120941162,"101":-0.32222068309783936,"102":-0.4744989573955536,"103":-0.6573162078857422,"104":0.3036557137966156,"105":0.3680446743965149,"106":-0.6450961828231812,"107":-0.4688762426376343,"108":0.47191154956817627,"109":-0.6009790301322937,"110":-0.4916635751724243,"111":0.1540103554725647,"112":-0.05306732654571533,"113":-1.0453264713287354,"114":0.03889606148004532,"115":-0.8225120306015015,"116":-0.09653465449810028,"117":-0.9090087413787842,"118":-1.0780895948410034,"119":-0.5851655602455139,"120":-0.6178312301635742,"121":0.1848340779542923,"122":0.6284447312355042,"123":0.34216567873954773,"124":0.32917946577072144,"125":0.27042874693870544,"126":0.3407434821128845,"127":0.491335391998291,"128":-0.6321201920509338,"129":0.46303775906562805,"130":0.8320949077606201,"131":0.5214232802391052,"132":0.01581411436200142,"133":-0.5376091003417969,"134":0.5842263102531433,"135":-0.06564968079328537,"136":-0.03588385507464409,"137":-0.3384394645690918,"138":1.0323694944381714,"139":0.4179472029209137,"140":0.19729425013065338,"141":0.07014370709657669,"142":-0.44836854934692383,"143":0.5707962512969971,"144":0.18376295268535614,"145":-0.5083954334259033,"146":-0.41034993529319763,"147":-0.3024139404296875,"148":-0.2492046058177948,"149":-0.3677310049533844,"150":0.408439964056015,"151":-0.20238816738128662,"152":0.5657169222831726,"153":-0.7030707001686096,"154":-0.28247949481010437,"155":0.01715107262134552,"156":-0.24304839968681335,"157":0.03150530904531479,"158":-0.10914815217256546,"159":-0.37047767639160156,"160":-0.59397953748703,"161":-1.636965274810791,"162":-0.03148913383483887,"163":-0.5832500457763672,"164":0.2812905013561249,"165":-0.2548709213733673,"166":-0.13085401058197021,"167":0.0145997554063797,"168":1.2834933996200562,"169":-0.16703255474567413,"170":0.3974614143371582,"171":0.19379690289497375,"172":-0.8717076778411865,"173":-0.9450381398200989,"174":-0.12146954983472824,"175":0.4032147526741028,"176":0.8517990112304688,"177":-0.6663029193878174,"178":-0.2226569652557373,"179":-0.18383899331092834,"180":0.37989747524261475,"181":-0.2400190383195877,"182":-0.3563694357872009,"183":-0.4316987693309784,"184":0.004739486612379551,"185":0.09735125303268433,"186":-0.29805999994277954,"187":-0.1364024430513382,"188":-0.1108902171254158,"189":-0.23560890555381775,"190":-0.28815603256225586,"191":-0.2695045471191406,"192":0.36144545674324036,"193":-0.8402019739151001,"194":-0.3657665252685547,"195":-0.07063017040491104,"196":-0.023757068440318108,"197":-1.0358904600143433,"198":-0.32364213466644287,"199":-0.2741275429725647,"200":-0.5797666311264038,"201":-1.5043567419052124,"202":0.477448433637619,"203":-0.5534082651138306,"204":0.7141236066818237,"205":0.362088143825531,"206":0.5778158903121948,"207":0.5875958800315857,"208":0.3078341484069824,"209":0.5678296685218811,"210":0.13978135585784912,"211":0.4715827703475952,"212":-0.5831964612007141,"213":-0.49559319019317627,"214":0.7157405018806458,"215":0.6548881530761719,"216":0.43748024106025696,"217":-0.5225894451141357,"218":-0.08428862690925598,"219":0.5082271099090576,"220":-0.212529256939888,"221":0.806738018989563,"222":0.2112836241722107,"223":0.18033286929130554,"224":0.7749276161193848,"225":0.0223323293030262,"226":0.31497064232826233,"227":0.2753694951534271,"228":-0.8958923816680908,"229":0.17695318162441254,"230":0.9305728077888489,"231":0.14005714654922485,"232":0.5155355334281921,"233":-0.4615008234977722,"234":0.32457712292671204,"235":0.4879344403743744,"236":0.4014323651790619,"237":-0.26777657866477966,"238":-0.10756560415029526,"239":0.20982709527015686,"240":0.7042306065559387,"241":0.2017689198255539,"242":0.14208653569221497,"243":-0.9127242565155029,"244":0.35331425070762634,"245":0.8848835229873657,"246":0.11311396211385727,"247":0.29590141773223877,"248":0.5832850337028503,"249":0.48366406559944153,"250":-0.4916470944881439,"251":0.18522469699382782,"252":0.4805178642272949,"253":0.720978319644928,"254":0.9721626043319702,"255":-0.03905872628092766,"256":-0.3647541105747223,"257":0.22114573419094086,"258":-0.6236854195594788,"259":0.4303169250488281,"260":0.44876545667648315,"261":-0.2605736553668976,"262":-0.8542516827583313,"263":-0.8897169828414917,"264":-0.9977505207061768,"265":-0.14935272932052612,"266":-0.6685311794281006,"267":-1.0169765949249268,"268":0.33056363463401794,"269":-0.8900863528251648,"270":-0.29906395077705383,"271":-1.1832072734832764,"272":-0.9681485891342163,"273":-0.34006625413894653,"274":-0.48130735754966736,"275":1.0642471313476562,"276":0.10503362119197845,"277":-0.4656533896923065,"278":-0.9439535737037659,"279":-1.190643548965454,"280":0.8520781993865967,"281":-0.9266252517700195,"282":0.6451877355575562,"283":-0.8855943083763123,"284":0.664031445980072,"285":0.7320693731307983,"286":0.9824433922767639,"287":0.5690872669219971,"288":-0.04332255944609642,"289":0.5815306305885315,"290":-0.7518921494483948,"291":0.9193893671035767,"292":-0.20404215157032013,"293":-1.1800923347473145,"294":0.2192353755235672,"295":-0.4057367742061615,"296":1.0272316932678223,"297":-1.1481130123138428,"298":-1.3300789594650269,"299":0.38975122570991516,"300":-0.4319017827510834,"301":-0.6780964732170105,"302":0.5351295471191406,"303":-0.814888060092926,"304":0.46716198325157166,"305":0.5070727467536926,"306":0.5765882730484009,"307":0.4407261312007904,"308":-0.6298977732658386,"309":0.4144412875175476,"310":0.4328851103782654,"311":0.11717269569635391,"312":0.03582508862018585,"313":-0.4801589250564575,"314":0.40058261156082153,"315":0.6833813190460205,"316":0.6872360706329346,"317":0.28404682874679565,"318":0.3642561435699463,"319":0.19168901443481445,"320":-1.2494900226593018,"321":-1.3710309267044067,"322":-0.12597425282001495,"323":-0.47892025113105774,"324":0.3663386106491089,"325":-0.9362179636955261,"326":0.2787887752056122,"327":-0.26688352227211,"328":-0.2789091467857361,"329":-0.14326012134552002,"330":1.2622020244598389,"331":-0.33130642771720886,"332":-1.0283706188201904,"333":-1.9294793605804443,"334":-0.8634300827980042,"335":0.09957199543714523,"336":0.836106538772583,"337":-1.0668716430664062,"338":0.8406243324279785,"339":-0.30640241503715515,"340":-1.090014934539795,"341":-0.24357526004314423,"342":0.35836732387542725,"343":-1.1287033557891846,"344":-0.43863850831985474,"345":-0.19819633662700653,"346":1.0922223329544067,"347":-0.523411214351654,"348":-1.0815820693969727,"349":0.31883740425109863,"350":0.9309735894203186,"351":-0.790084183216095,"352":0.4714108407497406,"353":-0.4876601994037628,"354":-0.16559751331806183,"355":1.4161044359207153,"356":1.9075862169265747,"357":0.20147448778152466,"358":0.677278995513916,"359":-0.581893265247345,"360":-0.42677590250968933,"361":-0.42277461290359497,"362":-0.04115744307637215,"363":-0.4536914527416229,"364":-0.016961876302957535,"365":0.33664941787719727,"366":0.03686174377799034,"367":0.15831923484802246,"368":0.8107287883758545,"369":0.1872199922800064,"370":0.5199745297431946,"371":-0.19202210009098053,"372":-0.5067873001098633,"373":0.287465363740921,"374":0.48145389556884766,"375":0.10931120812892914,"376":0.668367326259613,"377":0.6364666223526001,"378":-0.4700097441673279,"379":0.17531976103782654,"380":0.2017311155796051,"381":-0.2013573944568634,"382":-0.3628828227519989,"383":0.47599127888679504,"384":-0.3591468036174774,"385":-0.23386327922344208,"386":-0.21780265867710114,"387":-0.12773606181144714,"388":-0.21953555941581726,"389":-0.20945772528648376,"390":0.026161549612879753,"391":-0.11245004087686539,"392":0.10857940465211868,"393":-0.3713376522064209,"394":-0.13236451148986816,"395":-0.04741987586021423,"396":0.2611928880214691,"397":0.06812773644924164,"398":-0.2436389923095703,"399":-0.24373938143253326}},"inputBias":{"rows":20,"columns":1,"weights":{"0":-0.08603917807340622,"1":0.6063092350959778,"2":-0.661267101764679,"3":-0.5087427496910095,"4":-0.24440093338489532,"5":-0.3725813627243042,"6":-0.2021247148513794,"7":-0.2926931381225586,"8":0.20063121616840363,"9":-0.18806013464927673,"10":-0.1716838777065277,"11":-0.5464608073234558,"12":-0.3109111785888672,"13":-0.05923163890838623,"14":0.1311737596988678,"15":0.40590155124664307,"16":-0.24477499723434448,"17":0.3754255175590515,"18":0.04420509934425354,"19":-0.38310185074806213}},"forgetMatrix":{"rows":20,"columns":17,"weights":{"0":-0.05070329084992409,"1":-0.0614762119948864,"2":0.21137502789497375,"3":-0.06562276929616928,"4":-0.7384141683578491,"5":1.3851068019866943,"6":-0.1337156444787979,"7":0.02727845497429371,"8":-0.33314940333366394,"9":-1.0701978206634521,"10":0.16917487978935242,"11":-0.13038206100463867,"12":0.06426087766885757,"13":0.256609171628952,"14":-0.32559141516685486,"15":0.1782691329717636,"16":0.3537258803844452,"17":0.12036556750535965,"18":0.36608123779296875,"19":-0.28400716185569763,"20":-0.3904097378253937,"21":1.3634480237960815,"22":-0.8051215410232544,"23":-0.11910036951303482,"24":-0.8919390439987183,"25":-0.9846680760383606,"26":0.8136897087097168,"27":-0.3429892957210541,"28":0.6874889135360718,"29":0.32407382130622864,"30":2.2542641162872314,"31":0.8461728692054749,"32":-1.85548996925354,"33":-0.30802860856056213,"34":0.8819938898086548,"35":-0.8609365820884705,"36":1.0124987363815308,"37":1.6386005878448486,"38":0.14202812314033508,"39":-0.034033019095659256,"40":1.5134872198104858,"41":-0.8903381824493408,"42":-0.2452973872423172,"43":-0.05313066765666008,"44":0.5622461438179016,"45":0.4127222001552582,"46":-0.5972797870635986,"47":0.42462673783302307,"48":-0.008831365033984184,"49":-0.22647468745708466,"50":0.0027113333344459534,"51":-0.5305202603340149,"52":0.4847337305545807,"53":-0.36048102378845215,"54":-0.8515318632125854,"55":0.20004378259181976,"56":-0.10714368522167206,"57":-0.6959660053253174,"58":0.2271232008934021,"59":-0.04132695123553276,"60":-0.3058512806892395,"61":0.0007118327193893492,"62":-0.02702082321047783,"63":0.3811189830303192,"64":-0.12973855435848236,"65":-0.013842887245118618,"66":-0.0029659660067409277,"67":-0.05572275072336197,"68":0.708587646484375,"69":-0.6907180547714233,"70":0.8261058926582336,"71":0.5271499156951904,"72":-0.10372503846883774,"73":0.8817505836486816,"74":0.9903218746185303,"75":-0.8683300018310547,"76":-0.42445093393325806,"77":-0.5268700122833252,"78":0.6601780652999878,"79":0.9535471796989441,"80":-0.5212501883506775,"81":0.7534114718437195,"82":-0.3151229918003082,"83":-0.8863778710365295,"84":0.15008790791034698,"85":0.9615817070007324,"86":-0.5251327753067017,"87":0.5535247921943665,"88":0.49305444955825806,"89":-0.7474126219749451,"90":0.5172419548034668,"91":0.4884169399738312,"92":-0.4154030382633209,"93":-0.29001104831695557,"94":-0.5926973223686218,"95":0.5469481945037842,"96":0.24518807232379913,"97":-0.281916081905365,"98":0.24695967137813568,"99":-0.1584172397851944,"100":-0.30060866475105286,"101":0.36582091450691223,"102":0.69548100233078,"103":-0.844896674156189,"104":0.7251176834106445,"105":1.0862867832183838,"106":0.3278985619544983,"107":0.17774853110313416,"108":0.7249148488044739,"109":-0.9544530510902405,"110":-0.5206650495529175,"111":0.5156345367431641,"112":0.07021647691726685,"113":0.682914137840271,"114":-0.6703551411628723,"115":0.7953047752380371,"116":-0.9457672238349915,"117":-0.6284262537956238,"118":0.9967619776725769,"119":0.49038299918174744,"120":-0.8683661222457886,"121":0.6299307942390442,"122":0.7639161944389343,"123":-1.0155656337738037,"124":1.15529203414917,"125":0.7192932963371277,"126":-0.5522031188011169,"127":-0.5788039565086365,"128":-0.725291907787323,"129":0.7642243504524231,"130":0.48581501841545105,"131":-0.5364026427268982,"132":0.19351454079151154,"133":-0.794924795627594,"134":-0.31544890999794006,"135":0.8820176720619202,"136":-0.7123101949691772,"137":0.624503493309021,"138":-1.2913480997085571,"139":-0.679774820804596,"140":0.6733775734901428,"141":-0.797905445098877,"142":-0.010382411070168018,"143":0.23716986179351807,"144":-0.734427809715271,"145":1.528757929801941,"146":-1.399605631828308,"147":0.2276224046945572,"148":1.139796257019043,"149":-0.5458997488021851,"150":-0.9445573091506958,"151":-0.53397536277771,"152":0.2060512751340866,"153":0.41507256031036377,"154":-0.9288384914398193,"155":0.6165385842323303,"156":1.116963505744934,"157":-1.0565710067749023,"158":1.3376867771148682,"159":0.9359522461891174,"160":-0.35913562774658203,"161":-0.2545434534549713,"162":-0.7718097567558289,"163":0.5339375734329224,"164":0.17470307648181915,"165":-0.3558409810066223,"166":-0.2702189087867737,"167":-0.6234002113342285,"168":-0.04650019481778145,"169":0.8575514554977417,"170":-0.3681546151638031,"171":0.3529869318008423,"172":-0.20817460119724274,"173":-0.4243261218070984,"174":-0.5048955678939819,"175":0.8177073001861572,"176":0.16220290958881378,"177":0.3115774095058441,"178":-0.08930165320634842,"179":-0.7195274829864502,"180":-0.4318928122520447,"181":-0.10719530284404755,"182":0.5473856329917908,"183":-0.09570658206939697,"184":-0.880480170249939,"185":0.050705477595329285,"186":0.8357353210449219,"187":0.7397813200950623,"188":-0.18636588752269745,"189":0.790433943271637,"190":0.19510997831821442,"191":-0.37923964858055115,"192":0.15211491286754608,"193":0.05944954603910446,"194":-0.5053218603134155,"195":-0.18392087519168854,"196":-0.20945127308368683,"197":0.25546708703041077,"198":0.36331576108932495,"199":-0.11197852343320847,"200":0.2098453938961029,"201":-0.25662779808044434,"202":-0.09129727631807327,"203":0.533253014087677,"204":-0.41248923540115356,"205":1.1423442363739014,"206":-0.8447892665863037,"207":-1.0058040618896484,"208":0.6535627841949463,"209":-0.580390453338623,"210":0.026683852076530457,"211":0.47459104657173157,"212":-0.373805433511734,"213":0.5613333582878113,"214":-1.0384855270385742,"215":0.4037109613418579,"216":1.1801494359970093,"217":0.0828327089548111,"218":0.5533409118652344,"219":-0.2860521376132965,"220":-0.3272361755371094,"221":0.31907251477241516,"222":0.5792756080627441,"223":-0.46057450771331787,"224":-0.6224059462547302,"225":-0.21065457165241241,"226":-0.4740566611289978,"227":-0.8996899724006653,"228":-0.10076581686735153,"229":-0.3034597337245941,"230":0.6721770763397217,"231":-0.4510936439037323,"232":0.08912153542041779,"233":0.2800050377845764,"234":-0.23305478692054749,"235":-0.21886175870895386,"236":0.022331375628709793,"237":-0.0597723089158535,"238":0.07158639281988144,"239":-0.9321566820144653,"240":1.3011939525604248,"241":1.0389317274093628,"242":0.11418599635362625,"243":1.3194494247436523,"244":1.7650717496871948,"245":-1.1198089122772217,"246":-0.4583638906478882,"247":-0.6355005502700806,"248":0.15992920100688934,"249":1.173931360244751,"250":-0.07046318054199219,"251":0.840745210647583,"252":-0.3206908702850342,"253":-0.7265308499336243,"254":0.16398730874061584,"255":-0.8923476934432983,"256":0.11726275086402893,"257":0.7516182065010071,"258":-0.2336270958185196,"259":0.6435186862945557,"260":-0.25556984543800354,"261":0.558173656463623,"262":0.22116458415985107,"263":0.5846543312072754,"264":0.16619421541690826,"265":-0.3152275085449219,"266":-0.2693929970264435,"267":0.09849091619253159,"268":-0.5008796453475952,"269":0.5679605603218079,"270":0.48566582798957825,"271":-0.2729913294315338,"272":-0.2901497185230255,"273":-0.40821534395217896,"274":-0.3307240903377533,"275":-0.266370564699173,"276":-0.460210919380188,"277":0.05744846537709236,"278":-0.7317104339599609,"279":0.187038853764534,"280":0.015714658424258232,"281":-0.01905500702559948,"282":-0.5503706932067871,"283":0.08265899866819382,"284":0.026256917044520378,"285":-0.29052481055259705,"286":-0.6216610074043274,"287":0.17643927037715912,"288":0.7860766053199768,"289":-0.6170266270637512,"290":1.1856495141983032,"291":-1.1482658386230469,"292":-1.0023211240768433,"293":-0.21298904716968536,"294":-0.14612066745758057,"295":-0.5141868591308594,"296":0.3328762650489807,"297":-1.1113002300262451,"298":0.34316807985305786,"299":-0.7692177891731262,"300":0.0025756959803402424,"301":1.2298606634140015,"302":0.26086536049842834,"303":-0.6983516812324524,"304":-0.8513489961624146,"305":0.20699195563793182,"306":0.37354668974876404,"307":1.4592483043670654,"308":-0.7889379262924194,"309":-0.5353267192840576,"310":-0.2274552285671234,"311":0.13919371366500854,"312":-0.432919979095459,"313":-0.4880130887031555,"314":-0.881597638130188,"315":0.7196875810623169,"316":-0.8741490840911865,"317":0.019756289198994637,"318":0.5654833912849426,"319":-0.01784779503941536,"320":-0.5009700059890747,"321":-0.6254326105117798,"322":0.062209416180849075,"323":0.3837025463581085,"324":-0.7537018060684204,"325":0.6008929014205933,"326":0.9126130938529968,"327":-1.2154353857040405,"328":1.232416033744812,"329":0.7238483428955078,"330":-0.3222024440765381,"331":-0.34033626317977905,"332":-0.7449687123298645,"333":0.6549354791641235,"334":0.25062432885169983,"335":-0.5373258590698242,"336":-0.14396657049655914,"337":-0.8447579145431519,"338":-0.15992708504199982,"339":1.1078532934188843}},"forgetHidden":{"rows":20,"columns":20,"weights":{"0":-0.08143751323223114,"1":-0.23306098580360413,"2":0.540570080280304,"3":0.08862746506929398,"4":0.8271535038948059,"5":0.5205017924308777,"6":0.707465648651123,"7":0.7167308926582336,"8":0.16307413578033447,"9":0.6276865601539612,"10":0.06686647981405258,"11":0.5706830620765686,"12":-0.5890085697174072,"13":0.3248317539691925,"14":0.9580729603767395,"15":1.139846920967102,"16":-0.5254746675491333,"17":0.12952587008476257,"18":0.050710007548332214,"19":0.6564739942550659,"20":-0.48337522149086,"21":0.8059266805648804,"22":0.01991470344364643,"23":0.5531572103500366,"24":-1.0433000326156616,"25":-0.10088473558425903,"26":-0.4837714433670044,"27":-0.1617143452167511,"28":-0.9320934414863586,"29":-0.1588396430015564,"30":0.777586817741394,"31":0.17704525589942932,"32":0.4646443724632263,"33":0.04563035070896149,"34":0.4036329984664917,"35":0.23403111100196838,"36":0.5883252024650574,"37":0.8706520199775696,"38":0.4980079233646393,"39":0.06769799441099167,"40":0.6020480394363403,"41":0.4831126928329468,"42":0.002036120044067502,"43":0.7740225791931152,"44":-0.5065438151359558,"45":-0.4053630232810974,"46":-0.13062679767608643,"47":-0.03778596222400665,"48":-0.33686161041259766,"49":0.06253998726606369,"50":-0.4507961869239807,"51":0.010179240256547928,"52":-0.14031632244586945,"53":0.8711297512054443,"54":-0.7809569835662842,"55":-0.13351453840732574,"56":-1.2308510541915894,"57":0.0430905856192112,"58":-0.4103377163410187,"59":0.12094995379447937,"60":0.19169233739376068,"61":0.5133318305015564,"62":-0.37390756607055664,"63":1.0213860273361206,"64":-0.4162754416465759,"65":0.2843284010887146,"66":-0.4745030999183655,"67":0.2893509566783905,"68":-0.6875708103179932,"69":0.1759376972913742,"70":-0.2920268476009369,"71":0.28344908356666565,"72":0.15275938808918,"73":0.7739360332489014,"74":0.08204642683267593,"75":1.106680989265442,"76":-0.8733577132225037,"77":0.6597397327423096,"78":0.1030394583940506,"79":0.012406328693032265,"80":0.5062747597694397,"81":-0.6033923625946045,"82":-0.5884262323379517,"83":-0.00979346688836813,"84":-0.6017879843711853,"85":-0.4169267416000366,"86":-0.4225001931190491,"87":-0.6707258224487305,"88":-0.01620611548423767,"89":-0.39580145478248596,"90":-0.5594483613967896,"91":-0.733483076095581,"92":0.6087037920951843,"93":0.4140641391277313,"94":-0.1753166764974594,"95":0.2042837291955948,"96":-0.21360111236572266,"97":-0.6504756212234497,"98":0.04466044157743454,"99":-0.5792664885520935,"100":1.1638561487197876,"101":0.11955594271421432,"102":-0.2979026436805725,"103":0.03630499914288521,"104":0.6278244853019714,"105":0.2242952287197113,"106":0.10166694968938828,"107":-0.6537788510322571,"108":0.5229716897010803,"109":0.16887377202510834,"110":-1.10715913772583,"111":-0.42730987071990967,"112":0.563832700252533,"113":0.878323495388031,"114":0.5244981050491333,"115":-1.0890213251113892,"116":-0.7797378301620483,"117":-0.2925681471824646,"118":-1.0767959356307983,"119":-0.12372574210166931,"120":0.6912294626235962,"121":0.019743453711271286,"122":-0.06024783477187157,"123":0.19756610691547394,"124":0.05456892028450966,"125":-0.23319385945796967,"126":-0.009081254713237286,"127":0.11735296249389648,"128":0.6670602560043335,"129":-0.009753832593560219,"130":-0.5928847193717957,"131":0.05984799563884735,"132":-0.16360659897327423,"133":0.09047384560108185,"134":-0.5656393766403198,"135":-0.1501014083623886,"136":-1.0568060874938965,"137":-0.45880454778671265,"138":-0.771717369556427,"139":0.12179765850305557,"140":0.6985795497894287,"141":0.2618178725242615,"142":-0.01885833963751793,"143":0.6200986504554749,"144":-0.5122356414794922,"145":-0.4894154667854309,"146":0.05783051624894142,"147":0.3234958350658417,"148":-0.37314745783805847,"149":0.31879228353500366,"150":-0.6011956930160522,"151":0.0775279551744461,"152":-0.13330794870853424,"153":0.5404704213142395,"154":0.3423326015472412,"155":-0.439322292804718,"156":-0.732585608959198,"157":0.2905465364456177,"158":-0.5107250213623047,"159":0.2794080376625061,"160":0.07946561276912689,"161":-0.2877693772315979,"162":-0.67142653465271,"163":0.2945554554462433,"164":0.06805319339036942,"165":0.6382334232330322,"166":-0.48052388429641724,"167":0.2974935472011566,"168":0.06767673790454865,"169":-0.015696614980697632,"170":-0.0722905844449997,"171":-0.2939280569553375,"172":-0.19038932025432587,"173":-0.676891565322876,"174":0.2927617132663727,"175":1.2603766918182373,"176":0.7555876970291138,"177":-0.4132789373397827,"178":0.11308182030916214,"179":-0.05739458277821541,"180":0.8170604705810547,"181":0.6707731485366821,"182":0.015587088651955128,"183":1.3474711179733276,"184":-0.26295205950737,"185":0.24366435408592224,"186":0.07077464461326599,"187":0.2756977677345276,"188":-0.1945454329252243,"189":0.2013682723045349,"190":-0.8245737552642822,"191":0.2919267416000366,"192":-0.23526661098003387,"193":0.8078904747962952,"194":0.7168993353843689,"195":-0.35575592517852783,"196":-1.14714777469635,"197":0.6349020004272461,"198":-0.5032727718353271,"199":0.3872379660606384,"200":0.005969751626253128,"201":-0.7155528664588928,"202":0.5832452178001404,"203":-0.09948594123125076,"204":0.6762419939041138,"205":0.7489750981330872,"206":0.5380299687385559,"207":0.5575891137123108,"208":-0.10628728568553925,"209":0.6654335260391235,"210":0.029642144218087196,"211":0.33598592877388,"212":-0.4820648431777954,"213":0.13186240196228027,"214":0.6837823390960693,"215":0.610611081123352,"216":-0.23197074234485626,"217":0.23433157801628113,"218":-0.11928814649581909,"219":0.567699134349823,"220":0.803729772567749,"221":-0.022634392604231834,"222":-0.3682420551776886,"223":0.23258495330810547,"224":-0.33760225772857666,"225":-0.7250325679779053,"226":-0.4083270728588104,"227":-0.5963331460952759,"228":0.21319985389709473,"229":-0.41771399974823,"230":-0.8178701996803284,"231":-0.3335009217262268,"232":0.2665799856185913,"233":0.8975314497947693,"234":-0.2053862363100052,"235":-0.4593920409679413,"236":-1.2870597839355469,"237":-0.9624337553977966,"238":-0.8553944230079651,"239":-0.31753814220428467,"240":0.5803595781326294,"241":0.4197064936161041,"242":-0.6684800386428833,"243":0.5668219327926636,"244":-0.6589412093162537,"245":-0.7810313105583191,"246":-0.6176903247833252,"247":-0.698562502861023,"248":-0.15525412559509277,"249":-0.8366779088973999,"250":-0.5571919679641724,"251":-0.7129604816436768,"252":0.8846285939216614,"253":1.0736730098724365,"254":-0.7390877604484558,"255":-0.3612619638442993,"256":-0.27843907475471497,"257":0.5371894836425781,"258":-0.12952269613742828,"259":-0.6586766839027405,"260":-0.12907257676124573,"261":0.9869294166564941,"262":-0.5641276240348816,"263":1.0892671346664429,"264":-0.6733313798904419,"265":-0.3119920790195465,"266":-0.3976675570011139,"267":-0.4934411346912384,"268":-0.862190842628479,"269":-0.3804151117801666,"270":0.16770273447036743,"271":-0.055295854806900024,"272":1.1495156288146973,"273":0.9620911478996277,"274":-0.08970624208450317,"275":-0.6915293335914612,"276":-0.06474445760250092,"277":1.4565738439559937,"278":0.3190750777721405,"279":-0.08901749551296234,"280":-0.014180873520672321,"281":0.4643331468105316,"282":-0.7297453284263611,"283":0.4020327031612396,"284":-0.5895960330963135,"285":-0.673148512840271,"286":-0.7929724454879761,"287":0.04395921155810356,"288":-0.2233753353357315,"289":0.1989525407552719,"290":0.13610577583312988,"291":-0.15262116491794586,"292":0.02370535209774971,"293":0.06130104511976242,"294":0.23472245037555695,"295":0.49485641717910767,"296":-1.0907272100448608,"297":0.46400097012519836,"298":0.2161184698343277,"299":-0.053928375244140625,"300":-0.41074034571647644,"301":0.7499345541000366,"302":0.17337095737457275,"303":0.1702491044998169,"304":-0.4817807078361511,"305":0.4494619071483612,"306":0.4020044207572937,"307":0.26801449060440063,"308":-0.7446038722991943,"309":0.04281968995928764,"310":0.32423636317253113,"311":0.21398745477199554,"312":0.5381562113761902,"313":0.27014845609664917,"314":-0.5758037567138672,"315":0.7338094115257263,"316":0.5073349475860596,"317":1.647047996520996,"318":-0.6374837160110474,"319":0.16730839014053345,"320":0.6125166416168213,"321":0.5468462109565735,"322":0.7390978336334229,"323":0.8695264458656311,"324":0.7728606462478638,"325":0.8542479276657104,"326":0.19383464753627777,"327":1.1196140050888062,"328":0.6181879639625549,"329":1.3587068319320679,"330":-0.8317095637321472,"331":1.1460202932357788,"332":0.4959140717983246,"333":0.5147817730903625,"334":1.0753700733184814,"335":-0.5557950139045715,"336":-0.37125423550605774,"337":0.833504855632782,"338":-0.5216242074966431,"339":1.1786094903945923,"340":0.44667771458625793,"341":1.1038604974746704,"342":0.5643832087516785,"343":0.32759422063827515,"344":0.36810892820358276,"345":0.6928889751434326,"346":0.0009393448126502335,"347":0.9038475751876831,"348":0.12395691126585007,"349":1.1331660747528076,"350":-0.5358954071998596,"351":1.2049990892410278,"352":0.7686707973480225,"353":0.8543923497200012,"354":0.955522894859314,"355":0.6103147268295288,"356":-0.4970894455909729,"357":0.9640420079231262,"358":-0.614760160446167,"359":1.0988991260528564,"360":0.5178173780441284,"361":0.21076613664627075,"362":0.4610447883605957,"363":-0.3242540657520294,"364":0.18757595121860504,"365":0.6413039565086365,"366":-0.07450085878372192,"367":0.3778243064880371,"368":1.0457828044891357,"369":0.22620199620723724,"370":-0.9055200815200806,"371":0.3714880347251892,"372":-0.4444722533226013,"373":0.8285804390907288,"374":0.0900966227054596,"375":-0.20825842022895813,"376":0.16469337046146393,"377":0.1328192800283432,"378":0.11147169768810272,"379":0.1546427458524704,"380":0.6378583908081055,"381":0.6306662559509277,"382":-0.09066702425479889,"383":1.4381076097488403,"384":-0.8573477864265442,"385":-0.6395014524459839,"386":-0.023737367242574692,"387":0.21474680304527283,"388":-0.037732645869255066,"389":0.13872042298316956,"390":-0.6518062353134155,"391":-0.06718172878026962,"392":-0.38951048254966736,"393":1.3114312887191772,"394":-0.2936883568763733,"395":-0.5884763598442078,"396":-1.4750781059265137,"397":0.7618706822395325,"398":-0.5542757511138916,"399":0.10351574420928955}},"forgetBias":{"rows":20,"columns":1,"weights":{"0":0,"1":0,"2":0,"3":0,"4":0,"5":0,"6":0,"7":0,"8":0,"9":0,"10":0,"11":0,"12":0,"13":0,"14":0,"15":0,"16":0,"17":0,"18":0,"19":0}},"outputMatrix":{"rows":20,"columns":17,"weights":{"0":-0.768491268157959,"1":0.08012080192565918,"2":-0.047269243746995926,"3":-0.29458925127983093,"4":-0.1744602471590042,"5":0.20786991715431213,"6":0.1746288239955902,"7":1.129644513130188,"8":0.5841399431228638,"9":-0.262116402387619,"10":-0.3042983114719391,"11":-1.0414398908615112,"12":0.2629460394382477,"13":-1.0729446411132812,"14":-0.16068096458911896,"15":0.6999885439872742,"16":0.23533667623996735,"17":0.4282379746437073,"18":0.22624188661575317,"19":-0.09111463278532028,"20":0.12745210528373718,"21":0.4214676320552826,"22":-0.455461710691452,"23":-0.45482850074768066,"24":-0.7786588072776794,"25":-0.9940658211708069,"26":0.3931112289428711,"27":-0.5318428874015808,"28":1.0298925638198853,"29":0.28781378269195557,"30":1.386198878288269,"31":0.050242915749549866,"32":-1.4173994064331055,"33":-0.019487835466861725,"34":0.14074091613292694,"35":0.0812646895647049,"36":-0.269174724817276,"37":0.055101729929447174,"38":0.3562786877155304,"39":-0.19311529397964478,"40":0.5864955186843872,"41":-0.3112163543701172,"42":0.22151124477386475,"43":0.31267955899238586,"44":-0.3293163776397705,"45":-0.18555589020252228,"46":0.17137983441352844,"47":-0.24749839305877686,"48":1.3123267889022827,"49":0.07337764650583267,"50":-1.000286340713501,"51":0.6065388917922974,"52":-0.058663900941610336,"53":-0.13301703333854675,"54":0.2122756987810135,"55":1.0867007970809937,"56":-0.6224602460861206,"57":-0.14705875515937805,"58":-0.5880729556083679,"59":-0.0019695409573614597,"60":0.6130514144897461,"61":0.13723477721214294,"62":0.7760848999023438,"63":-0.15999944508075714,"64":0.8397258520126343,"65":0.8809679746627808,"66":-0.3498384654521942,"67":-0.8626728057861328,"68":-0.22934703528881073,"69":-0.21307533979415894,"70":0.1630432903766632,"71":0.43214431405067444,"72":0.8765201568603516,"73":-0.10702645778656006,"74":0.6602393388748169,"75":-0.23586156964302063,"76":0.40144819021224976,"77":0.20149505138397217,"78":0.3823097348213196,"79":0.06527071446180344,"80":-0.24131637811660767,"81":-0.043106161057949066,"82":0.8780364990234375,"83":0.22439223527908325,"84":-0.6606286764144897,"85":0.459441214799881,"86":-0.3543352484703064,"87":0.39497679471969604,"88":0.4483353793621063,"89":0.1219424456357956,"90":-0.022220643237233162,"91":0.01344106812030077,"92":-1.3039567470550537,"93":0.4266531765460968,"94":-0.2522743344306946,"95":0.7169201970100403,"96":0.6301154494285583,"97":-0.569141149520874,"98":0.9322993755340576,"99":0.8355856537818909,"100":-0.6413664221763611,"101":-0.945370614528656,"102":0.5787057280540466,"103":-0.20278114080429077,"104":-0.13463899493217468,"105":0.1808973252773285,"106":0.3035154938697815,"107":-0.11485765129327774,"108":0.28271186351776123,"109":-0.8115973472595215,"110":0.18400909006595612,"111":0.3464492857456207,"112":0.2042466402053833,"113":-0.026124510914087296,"114":0.08788536489009857,"115":0.10507246106863022,"116":0.7513891458511353,"117":-0.04631414636969566,"118":-0.8615448474884033,"119":0.19130656123161316,"120":-0.09102737158536911,"121":-0.44987377524375916,"122":0.13525211811065674,"123":0.21893209218978882,"124":-0.14562208950519562,"125":-0.2336283177137375,"126":-0.3305847942829132,"127":0.6154389381408691,"128":0.23778894543647766,"129":0.05508999526500702,"130":-0.23186273872852325,"131":-0.0871591866016388,"132":-0.30379006266593933,"133":0.7106838822364807,"134":0.34992656111717224,"135":-0.6380860209465027,"136":-1.3338773250579834,"137":0.690261721611023,"138":-0.8940525054931641,"139":-0.7356024384498596,"140":0.5061326026916504,"141":-0.08778855949640274,"142":-0.3392699658870697,"143":1.5694575309753418,"144":0.6102572679519653,"145":0.4468767046928406,"146":-0.9479016065597534,"147":-0.9340152144432068,"148":0.4227173328399658,"149":-1.141487717628479,"150":0.4021714925765991,"151":0.4889300465583801,"152":-0.02543291077017784,"153":0.08153632283210754,"154":0.2455054223537445,"155":-0.5380932092666626,"156":-0.23114153742790222,"157":0.42593300342559814,"158":-0.4543687403202057,"159":-0.15530206263065338,"160":-0.1934831738471985,"161":0.7251131534576416,"162":0.7046296000480652,"163":-0.2023681402206421,"164":-0.3930927515029907,"165":0.16789160668849945,"166":-0.5368552207946777,"167":0.8262783885002136,"168":0.6086876392364502,"169":-0.7458063364028931,"170":-1.0521230697631836,"171":0.16882078349590302,"172":-0.02596738561987877,"173":-0.24159257113933563,"174":-0.1837804913520813,"175":0.21971666812896729,"176":0.19538262486457825,"177":1.6233863830566406,"178":0.45587581396102905,"179":-0.2818306088447571,"180":-0.34010621905326843,"181":-1.0224440097808838,"182":0.32656243443489075,"183":-0.9381241202354431,"184":-0.3541549742221832,"185":0.43179309368133545,"186":0.41368332505226135,"187":0.42009425163269043,"188":0.20908375084400177,"189":-0.128964364528656,"190":-0.16686396300792694,"191":0.36350977420806885,"192":-0.35971692204475403,"193":-0.19062715768814087,"194":-0.4753912091255188,"195":0.7107946872711182,"196":0.2880665957927704,"197":0.0403568260371685,"198":-0.21523435413837433,"199":-0.002124109072610736,"200":-0.29063668847084045,"201":1.174156665802002,"202":0.5366619825363159,"203":-0.9955334663391113,"204":0.3589286208152771,"205":0.2070038914680481,"206":-0.6784813404083252,"207":0.03274059295654297,"208":0.10451830178499222,"209":-0.42786741256713867,"210":-0.453170508146286,"211":-0.7122883200645447,"212":-0.7245444059371948,"213":0.5988160371780396,"214":-0.23249195516109467,"215":0.49848437309265137,"216":0.41668257117271423,"217":0.5013047456741333,"218":-0.5509337782859802,"219":-0.6772952675819397,"220":-0.31336021423339844,"221":0.5571613907814026,"222":0.12040526419878006,"223":-0.23356959223747253,"224":-0.37534940242767334,"225":0.17037884891033173,"226":-0.15854452550411224,"227":-0.5486584901809692,"228":-0.5410791039466858,"229":-0.8726974725723267,"230":0.34266307950019836,"231":-0.003766783978790045,"232":1.450439691543579,"233":0.27374720573425293,"234":0.9090803265571594,"235":-0.5058478116989136,"236":-1.6542428731918335,"237":0.15019696950912476,"238":0.09285309165716171,"239":0.49304357171058655,"240":-0.2138289511203766,"241":0.03513304889202118,"242":1.1636234521865845,"243":-0.7588803172111511,"244":0.6040441989898682,"245":-0.3933655321598053,"246":1.056935429573059,"247":0.2615368664264679,"248":0.37081465125083923,"249":0.06368933618068695,"250":0.13846027851104736,"251":-0.12345132231712341,"252":1.5989539623260498,"253":0.5839683413505554,"254":-1.6994422674179077,"255":-0.3430076837539673,"256":-0.44400331377983093,"257":0.38529708981513977,"258":0.35451173782348633,"259":-0.24687570333480835,"260":0.7594638466835022,"261":0.5184677839279175,"262":-0.8039863705635071,"263":-0.8449839353561401,"264":-0.5047993659973145,"265":0.4157363772392273,"266":0.8334215879440308,"267":-0.42379486560821533,"268":1.179032564163208,"269":-1.0710347890853882,"270":-1.285902976989746,"271":0.6475308537483215,"272":-0.878199577331543,"273":0.20366817712783813,"274":-0.2876957952976227,"275":-0.1903887689113617,"276":1.4568716287612915,"277":-1.5961008071899414,"278":-0.6035337448120117,"279":0.2912552058696747,"280":0.5416851043701172,"281":1.6932947635650635,"282":-0.9244264364242554,"283":-0.20539911091327667,"284":0.30559250712394714,"285":-0.19483770430088043,"286":0.6455063819885254,"287":0.5185611844062805,"288":-0.49552884697914124,"289":0.3267827033996582,"290":-0.6076473593711853,"291":0.6887019872665405,"292":0.03646906837821007,"293":0.4826524257659912,"294":0.14416223764419556,"295":-0.06317050009965897,"296":-1.0825461149215698,"297":0.024762362241744995,"298":-0.4278736114501953,"299":0.2866273820400238,"300":0.28815677762031555,"301":-0.5188632607460022,"302":1.3584712743759155,"303":-0.13485468924045563,"304":-0.6506804823875427,"305":0.16652899980545044,"306":-0.8117990493774414,"307":0.20307870209217072,"308":-0.806442379951477,"309":-0.8160930871963501,"310":-0.2840113937854767,"311":0.2222747504711151,"312":-0.2128758430480957,"313":1.0610607862472534,"314":0.3099205493927002,"315":-0.48286139965057373,"316":-0.049439456313848495,"317":-0.9849953055381775,"318":0.2268897145986557,"319":-1.0514639616012573,"320":-0.2735384404659271,"321":0.9908458590507507,"322":0.33301842212677,"323":0.31082239747047424,"324":0.18936270475387573,"325":-0.742451012134552,"326":-0.18924656510353088,"327":0.25379419326782227,"328":-0.2941591739654541,"329":-0.6033159494400024,"330":-0.2407509982585907,"331":0.6586487889289856,"332":0.340685099363327,"333":-0.00922301970422268,"334":-0.340253084897995,"335":0.043391190469264984,"336":-0.501005232334137,"337":0.9583449363708496,"338":0.47589200735092163,"339":-0.8473052978515625}},"outputHidden":{"rows":20,"columns":20,"weights":{"0":-0.6298486590385437,"1":-0.8068484663963318,"2":0.46551981568336487,"3":-0.9057228565216064,"4":0.6486390233039856,"5":0.6172414422035217,"6":0.6283643245697021,"7":0.6416767835617065,"8":-0.24327610433101654,"9":0.589146077632904,"10":0.6508740782737732,"11":0.3858615756034851,"12":-0.4212901294231415,"13":0.022120188921689987,"14":0.5554860234260559,"15":0.3419324457645416,"16":0.33053553104400635,"17":0.14300791919231415,"18":0.0054863193072378635,"19":0.5420387387275696,"20":-0.15139061212539673,"21":0.8198807239532471,"22":-0.27448973059654236,"23":0.5622420907020569,"24":-0.4515734016895294,"25":-0.15700219571590424,"26":-0.1791081428527832,"27":-0.45807909965515137,"28":-0.18729019165039062,"29":-0.2992232143878937,"30":0.17208069562911987,"31":-0.46620020270347595,"32":0.6713123321533203,"33":-0.28949829936027527,"34":-0.4838551878929138,"35":0.3886779248714447,"36":0.09642833471298218,"37":0.3908890187740326,"38":-0.4393543004989624,"39":-0.5197999477386475,"40":0.2941032350063324,"41":0.1986462026834488,"42":-0.1808582991361618,"43":0.48104777932167053,"44":-0.3388611972332001,"45":-0.19129793345928192,"46":-0.2174854874610901,"47":-0.21128210425376892,"48":-0.5006056427955627,"49":-0.31688427925109863,"50":-0.2776890695095062,"51":-0.2423756867647171,"52":0.25763458013534546,"53":0.3813484013080597,"54":-0.6172383427619934,"55":-0.8197099566459656,"56":-0.18292924761772156,"57":-0.6322845220565796,"58":-0.38591015338897705,"59":-0.21415694057941437,"60":-0.4355802536010742,"61":-0.21134260296821594,"62":-0.4429370164871216,"63":0.4758214056491852,"64":-0.45229336619377136,"65":0.03520171344280243,"66":-0.0682431235909462,"67":0.036910392343997955,"68":0.33039727807044983,"69":-0.10176808387041092,"70":0.3877274990081787,"71":0.8101804256439209,"72":-0.6341738700866699,"73":-0.8125174045562744,"74":-0.8688546419143677,"75":1.4579154253005981,"76":0.5135243535041809,"77":-0.396292507648468,"78":-0.8073717951774597,"79":-0.26321640610694885,"80":-0.6156707406044006,"81":-1.1400154829025269,"82":0.3967883586883545,"83":-0.3791622519493103,"84":0.8052684664726257,"85":0.4435301721096039,"86":0.6292653679847717,"87":0.9358700513839722,"88":0.15725211799144745,"89":1.0559093952178955,"90":0.6912009716033936,"91":0.6877301931381226,"92":-0.2109202742576599,"93":-1.2849806547164917,"94":1.3919241428375244,"95":-0.15435567498207092,"96":0.49952608346939087,"97":-1.1383707523345947,"98":0.8266262412071228,"99":0.8972755074501038,"100":1.2336493730545044,"101":0.08426360040903091,"102":-0.1604561060667038,"103":-0.26211339235305786,"104":0.47368359565734863,"105":0.5254197120666504,"106":-0.43357735872268677,"107":-0.22094182670116425,"108":0.6841117739677429,"109":-0.1498977243900299,"110":-1.428242564201355,"111":-0.09156281501054764,"112":-0.09363725781440735,"113":-0.06714309751987457,"114":0.01978745497763157,"115":-1.0848721265792847,"116":-1.1349647045135498,"117":-1.1087509393692017,"118":-0.7499083280563354,"119":-0.3470046818256378,"120":0.022827010601758957,"121":0.45128974318504333,"122":0.07097524404525757,"123":1.6236906051635742,"124":-0.4453617334365845,"125":0.3607385754585266,"126":-0.08620323985815048,"127":0.019305139780044556,"128":-1.6732429265975952,"129":0.05778218060731888,"130":0.11135808378458023,"131":-0.13676029443740845,"132":0.3318426012992859,"133":0.057932574301958084,"134":-0.12875764071941376,"135":-0.9856091737747192,"136":0.13170577585697174,"137":-0.3507431447505951,"138":0.4231889545917511,"139":0.08922024816274643,"140":0.20597988367080688,"141":0.14977464079856873,"142":-0.4897954761981964,"143":0.4329887330532074,"144":-1.0222235918045044,"145":-0.7879212498664856,"146":-0.13835470378398895,"147":-0.23852959275245667,"148":-0.6766953468322754,"149":-0.34903964400291443,"150":-0.05015277490019798,"151":-0.3815552890300751,"152":0.506436824798584,"153":-0.5785977840423584,"154":-1.3261417150497437,"155":0.1087527647614479,"156":-0.7096318006515503,"157":-0.5192003846168518,"158":0.08519675582647324,"159":-0.28928670287132263,"160":-0.48846912384033203,"161":-1.2720954418182373,"162":-0.0895799845457077,"163":-0.5586662888526917,"164":0.6022530198097229,"165":0.058271944522857666,"166":-0.21864177286624908,"167":-0.0771801546216011,"168":1.3017667531967163,"169":-0.25061652064323425,"170":0.3407664895057678,"171":0.14198750257492065,"172":-1.2003039121627808,"173":-0.8989534974098206,"174":0.047081638127565384,"175":0.6274983286857605,"176":0.8860448598861694,"177":-0.6346697807312012,"178":-0.2582727372646332,"179":-0.2870631515979767,"180":0.4028911292552948,"181":-0.16368936002254486,"182":-0.24247214198112488,"183":0.7263684272766113,"184":-0.22025449573993683,"185":-0.3851737380027771,"186":-0.1525219976902008,"187":-0.12437330931425095,"188":-0.646097719669342,"189":-0.22105848789215088,"190":-0.4219311475753784,"191":-0.18764446675777435,"192":0.28206923604011536,"193":-0.6562948822975159,"194":-0.4746941328048706,"195":-0.2759697437286377,"196":-0.7462700605392456,"197":-0.43452414870262146,"198":-0.30786067247390747,"199":-0.26570403575897217,"200":-0.6782071590423584,"201":-1.3805656433105469,"202":0.3638676106929779,"203":-1.2091310024261475,"204":0.5196938514709473,"205":0.2790801227092743,"206":0.49706003069877625,"207":0.6319531202316284,"208":0.23578417301177979,"209":0.4763934314250946,"210":0.617135763168335,"211":0.27670469880104065,"212":-0.48290538787841797,"213":-0.38549232482910156,"214":0.5393325090408325,"215":0.33542540669441223,"216":0.07064429670572281,"217":-0.1962147206068039,"218":-0.09908391535282135,"219":0.4942041039466858,"220":0.7470072507858276,"221":0.12524449825286865,"222":0.22764107584953308,"223":0.32789382338523865,"224":0.32843467593193054,"225":0.14826400578022003,"226":0.28851035237312317,"227":0.21669085323810577,"228":-0.6127282381057739,"229":0.24271535873413086,"230":-0.33494797348976135,"231":0.07405674457550049,"232":-0.1257745772600174,"233":-0.7220790386199951,"234":0.2771424949169159,"235":-0.08250676840543747,"236":0.2593584656715393,"237":-0.43214449286460876,"238":-0.6746967434883118,"239":0.24718357622623444,"240":0.7637413740158081,"241":0.05730346217751503,"242":0.17745502293109894,"243":-0.5709468722343445,"244":-0.00974047277122736,"245":0.32790350914001465,"246":0.12882296741008759,"247":-0.15875256061553955,"248":0.10889944434165955,"249":0.3501410484313965,"250":-0.6176284551620483,"251":0.18587921559810638,"252":0.4763757288455963,"253":0.7946465015411377,"254":1.0973796844482422,"255":0.13377758860588074,"256":-0.29203179478645325,"257":0.3149566054344177,"258":-0.7075331807136536,"259":0.248053640127182,"260":0.4098163843154907,"261":0.7500705122947693,"262":-0.5922848582267761,"263":0.10357099771499634,"264":-1.1710143089294434,"265":-0.864561140537262,"266":-0.7697840332984924,"267":-0.5604629516601562,"268":0.0589350126683712,"269":-0.023891523480415344,"270":-0.1887785643339157,"271":-0.6354320049285889,"272":-0.5147957801818848,"273":0.3005976676940918,"274":-0.2553922235965729,"275":0.623511552810669,"276":0.6947466135025024,"277":0.4603712558746338,"278":-0.7657746076583862,"279":-0.5291727185249329,"280":0.43214112520217896,"281":-0.6467838883399963,"282":0.3271808624267578,"283":-0.2977149486541748,"284":0.30866169929504395,"285":0.6437417268753052,"286":0.7271468043327332,"287":0.4789494276046753,"288":0.053184788674116135,"289":0.8777492046356201,"290":-0.18368835747241974,"291":0.6123440861701965,"292":-0.9376541972160339,"293":-1.1564627885818481,"294":0.16838082671165466,"295":0.30344870686531067,"296":0.1848239004611969,"297":-1.3699389696121216,"298":0.3788297176361084,"299":0.7146198153495789,"300":-0.4246484339237213,"301":-0.3032134175300598,"302":0.4692334234714508,"303":-0.4507734179496765,"304":0.33765751123428345,"305":0.1542591005563736,"306":0.5777995586395264,"307":0.45017942786216736,"308":-1.0292526483535767,"309":0.38283830881118774,"310":0.3248392939567566,"311":0.22197338938713074,"312":-0.1416511833667755,"313":-0.7096449732780457,"314":0.34527307748794556,"315":0.8693394064903259,"316":1.2219215631484985,"317":0.2233787626028061,"318":0.41411763429641724,"319":0.13287591934204102,"320":-1.4264754056930542,"321":-0.5080294013023376,"322":-0.37095099687576294,"323":0.6734551787376404,"324":-0.12573246657848358,"325":-0.8869420289993286,"326":-0.5902087092399597,"327":-0.26088738441467285,"328":-0.7765260934829712,"329":-0.10224640369415283,"330":1.4128731489181519,"331":-0.19165322184562683,"332":-0.627067506313324,"333":-1.107131838798523,"334":-0.6036807298660278,"335":-0.35308825969696045,"336":1.2281508445739746,"337":-0.29441335797309875,"338":1.5663164854049683,"339":-0.3773699998855591,"340":-1.2775055170059204,"341":1.5015521049499512,"342":0.5856042504310608,"343":-0.01929553970694542,"344":-0.48784172534942627,"345":0.19202911853790283,"346":0.4835357367992401,"347":-0.4896543323993683,"348":-1.3021727800369263,"349":0.09444647282361984,"350":0.8003491759300232,"351":-0.2346513569355011,"352":1.0679057836532593,"353":0.807381808757782,"354":0.07442265003919601,"355":0.04323069378733635,"356":0.8735851049423218,"357":1.4577815532684326,"358":0.14413155615329742,"359":-0.44125083088874817,"360":-0.3937573730945587,"361":-0.48436209559440613,"362":-0.022911593317985535,"363":-0.7916684746742249,"364":0.07878340035676956,"365":0.5780907273292542,"366":0.04680855572223663,"367":0.2615942358970642,"368":1.1827139854431152,"369":0.3836940824985504,"370":0.21581833064556122,"371":-0.18971110880374908,"372":-0.44500771164894104,"373":0.47772660851478577,"374":0.39872413873672485,"375":0.21204009652137756,"376":0.5889290571212769,"377":0.8213995695114136,"378":-0.5365919470787048,"379":0.22079041600227356,"380":0.26352542638778687,"381":-0.015466252341866493,"382":-0.12711450457572937,"383":1.0220832824707031,"384":-0.5649065375328064,"385":-0.3286706805229187,"386":-0.06654416769742966,"387":-0.19628028571605682,"388":-0.6251347064971924,"389":-0.18268826603889465,"390":-0.07582563161849976,"391":-0.1742403507232666,"392":0.2714840769767761,"393":0.6042423248291016,"394":-0.6025009155273438,"395":-0.037820618599653244,"396":-0.2508075535297394,"397":0.09797506034374237,"398":-0.20496457815170288,"399":-0.184646338224411}},"outputBias":{"rows":20,"columns":1,"weights":{"0":-0.05799988657236099,"1":0.5301872491836548,"2":-0.667672336101532,"3":-0.5158434510231018,"4":-0.2368892878293991,"5":-0.34949222207069397,"6":-0.2945670783519745,"7":-0.3051142394542694,"8":0.21347954869270325,"9":-0.21790772676467896,"10":-0.14920422434806824,"11":-0.5403302907943726,"12":-0.3913285732269287,"13":-0.04747302457690239,"14":0.12416362762451172,"15":0.5363578200340271,"16":-0.24921078979969025,"17":0.19325700402259827,"18":0.046963632106781006,"19":-0.4494790732860565}},"cellActivationMatrix":{"rows":20,"columns":17,"weights":{"0":-0.3649870455265045,"1":0.3997177481651306,"2":-0.4604012370109558,"3":-0.05749909207224846,"4":0.2812257707118988,"5":-0.6875218749046326,"6":-0.11151798814535141,"7":0.34315237402915955,"8":-0.18423232436180115,"9":1.5824240446090698,"10":-1.4132837057113647,"11":0.02725037932395935,"12":0.8837644457817078,"13":-0.11514104902744293,"14":-0.12585480511188507,"15":-0.08705469965934753,"16":-0.2811303734779358,"17":1.502886414527893,"18":-0.6104317307472229,"19":-0.2863745093345642,"20":0.7025745511054993,"21":-0.1094081699848175,"22":-0.33414676785469055,"23":-0.19610725343227386,"24":-1.4383349418640137,"25":0.20868851244449615,"26":0.1932022124528885,"27":1.3565505743026733,"28":0.46040666103363037,"29":-0.973581850528717,"30":0.9569653272628784,"31":0.2531822621822357,"32":0.06342709809541702,"33":-0.992292046546936,"34":0.46122661232948303,"35":0.3513193726539612,"36":-0.6862974166870117,"37":-0.4225485920906067,"38":0.3482297658920288,"39":-0.5451512932777405,"40":-0.6399604082107544,"41":0.18705196678638458,"42":0.06963704526424408,"43":0.37758147716522217,"44":-0.2541351616382599,"45":-0.20595376193523407,"46":0.2383001148700714,"47":-0.29016822576522827,"48":0.8606048226356506,"49":0.2575168311595917,"50":-0.6655709147453308,"51":0.9632119536399841,"52":0.08922859281301498,"53":1.3657615184783936,"54":1.0028854608535767,"55":0.2608179450035095,"56":-0.2812426686286926,"57":0.5133528709411621,"58":-1.3056880235671997,"59":-0.30971068143844604,"60":0.46126213669776917,"61":-0.13034947216510773,"62":0.977664053440094,"63":-0.2712934613227844,"64":1.0237956047058105,"65":0.11758363246917725,"66":-0.7043377757072449,"67":-0.1943448781967163,"68":0.48468494415283203,"69":0.6885606050491333,"70":0.36884719133377075,"71":-0.34270742535591125,"72":-0.10143603384494781,"73":-0.08755447715520859,"74":-0.10527795553207397,"75":-0.07629664987325668,"76":-0.04911879077553749,"77":-0.2113015055656433,"78":-0.1759069561958313,"79":-0.3017747700214386,"80":0.4577552080154419,"81":-0.048792511224746704,"82":0.4861224889755249,"83":0.2938205301761627,"84":-0.06927482038736343,"85":0.890803337097168,"86":-0.1997697949409485,"87":0.5288227200508118,"88":0.5138025879859924,"89":-0.46696606278419495,"90":-0.05081935226917267,"91":0.5464326739311218,"92":-0.5609828233718872,"93":0.029168257489800453,"94":-0.07421016693115234,"95":0.4185713827610016,"96":-0.01415630616247654,"97":-0.30030325055122375,"98":0.10377777367830276,"99":0.3226679265499115,"100":0.08994361013174057,"101":-0.3685392737388611,"102":0.4371200203895569,"103":0.38369354605674744,"104":-0.27534422278404236,"105":-0.243150994181633,"106":0.457038938999176,"107":-0.3733626902103424,"108":-0.3920544683933258,"109":0.1647767424583435,"110":0.5556901097297668,"111":0.29609155654907227,"112":-0.30847957730293274,"113":-0.3468667268753052,"114":0.2793195843696594,"115":-0.3570978045463562,"116":1.0799002647399902,"117":0.5102275013923645,"118":-0.5433283448219299,"119":0.7734609842300415,"120":-0.35794052481651306,"121":0.7468530535697937,"122":0.7455050349235535,"123":0.2690524160861969,"124":0.055648334324359894,"125":0.911878764629364,"126":-0.3900377154350281,"127":0.006163356825709343,"128":0.2439737170934677,"129":0.08953159302473068,"130":0.09322420507669449,"131":-0.38608318567276,"132":0.43137189745903015,"133":0.15528365969657898,"134":-0.12473557144403458,"135":0.1261025071144104,"136":-1.0546404123306274,"137":1.138238549232483,"138":-1.5103825330734253,"139":-0.5921652913093567,"140":0.3580165505409241,"141":-0.20688802003860474,"142":-0.3371780514717102,"143":1.1961733102798462,"144":-0.33098018169403076,"145":0.6495133638381958,"146":-1.1371713876724243,"147":-0.42436280846595764,"148":1.1517822742462158,"149":-0.2821689248085022,"150":-0.48111188411712646,"151":-0.3426774740219116,"152":0.37479227781295776,"153":0.8516272306442261,"154":0.1717369109392166,"155":0.7035569548606873,"156":0.4883459210395813,"157":0.11612037569284439,"158":-0.10120443999767303,"159":0.8444287776947021,"160":-0.07586093991994858,"161":0.04651226848363876,"162":0.3070495128631592,"163":-0.3339073061943054,"164":-0.2189902365207672,"165":-0.021391505375504494,"166":-0.057325296103954315,"167":0.3923194110393524,"168":0.2591535747051239,"169":-0.008342853747308254,"170":0.45450907945632935,"171":-1.1937931776046753,"172":0.7331650257110596,"173":0.26891177892684937,"174":-0.5780708193778992,"175":0.6236920952796936,"176":0.3753843903541565,"177":-0.4187680184841156,"178":0.3660166561603546,"179":-1.363239049911499,"180":1.3009275197982788,"181":-0.07318662852048874,"182":-1.2178508043289185,"183":-0.08251851797103882,"184":0.12904103100299835,"185":0.21253909170627594,"186":0.1365421712398529,"187":0.7256008386611938,"188":-0.2608431279659271,"189":0.6210810542106628,"190":0.5877715945243835,"191":0.5991112589836121,"192":-0.09400065988302231,"193":0.669127881526947,"194":-0.7856550812721252,"195":-0.10927624255418777,"196":0.294089674949646,"197":0.09061901271343231,"198":0.2159264087677002,"199":-0.33239662647247314,"200":0.2616003453731537,"201":0.15638241171836853,"202":-0.15069305896759033,"203":-0.4150371849536896,"204":0.40333092212677,"205":-0.05337698385119438,"206":0.5871802568435669,"207":1.2654039859771729,"208":0.744091272354126,"209":-0.7291872501373291,"210":0.37856999039649963,"211":-1.1553544998168945,"212":-0.5409623980522156,"213":0.8126286268234253,"214":0.27935791015625,"215":0.6979624032974243,"216":-0.1332245022058487,"217":1.1076061725616455,"218":0.2090476006269455,"219":-0.7282399535179138,"220":-0.7907122373580933,"221":1.2622519731521606,"222":-0.5901691913604736,"223":0.06350576132535934,"224":0.7990172505378723,"225":0.24948763847351074,"226":-0.5978841781616211,"227":0.29791590571403503,"228":-1.4022655487060547,"229":0.5681895613670349,"230":0.11861607432365417,"231":1.341681718826294,"232":0.5474346280097961,"233":-0.933443009853363,"234":0.947193443775177,"235":0.4452823996543884,"236":-0.32691824436187744,"237":-0.7567316889762878,"238":0.714056134223938,"239":0.45940345525741577,"240":0.3542743921279907,"241":0.1542186588048935,"242":0.23245346546173096,"243":0.20727239549160004,"244":0.6857815384864807,"245":-0.5197150707244873,"246":-0.22403815388679504,"247":0.46193575859069824,"248":-0.10127401351928711,"249":-0.06445515155792236,"250":0.38509830832481384,"251":0.16572748124599457,"252":0.4357834458351135,"253":-0.12893225252628326,"254":-0.33645951747894287,"255":-0.11891487240791321,"256":0.16018426418304443,"257":0.16615159809589386,"258":0.22583813965320587,"259":0.6305071711540222,"260":0.5670016407966614,"261":1.1016510725021362,"262":0.47559836506843567,"263":0.787333071231842,"264":-1.2416948080062866,"265":-0.027682723477482796,"266":-0.6919080018997192,"267":0.1106884554028511,"268":-0.6097921133041382,"269":0.5760561227798462,"270":0.7739860415458679,"271":-0.2850363552570343,"272":0.6346156597137451,"273":-1.023376226425171,"274":0.32379934191703796,"275":0.296184241771698,"276":-0.8966740369796753,"277":-0.10200020670890808,"278":-0.40854743123054504,"279":-0.14636115729808807,"280":0.5075715184211731,"281":-0.09715855866670609,"282":1.1799774169921875,"283":-0.021099677309393883,"284":-0.7308992147445679,"285":0.2799525260925293,"286":-0.053582753986120224,"287":0.3634813129901886,"288":0.2166733741760254,"289":1.2102233171463013,"290":-0.1364985555410385,"291":-0.10143554955720901,"292":0.9202876091003418,"293":-0.16187547147274017,"294":-0.07545885443687439,"295":0.05718309059739113,"296":-0.7546178698539734,"297":-0.05679258704185486,"298":0.1333291232585907,"299":1.4444060325622559,"300":-0.1322035938501358,"301":-0.5500803589820862,"302":0.5664553642272949,"303":0.7198097109794617,"304":-0.08457077294588089,"305":-1.025343894958496,"306":-0.14884041249752045,"307":-1.3025710582733154,"308":1.4807018041610718,"309":0.7241098880767822,"310":-0.22594225406646729,"311":0.8461465835571289,"312":1.2455873489379883,"313":-0.24601681530475616,"314":0.1735680103302002,"315":-0.4978185296058655,"316":0.9083013534545898,"317":0.6221164464950562,"318":-0.9838260412216187,"319":0.7180487513542175,"320":-0.8305506706237793,"321":-0.4682028591632843,"322":0.932902455329895,"323":0.6379839181900024,"324":0.5839294791221619,"325":0.6901950240135193,"326":0.14988327026367188,"327":0.3819991946220398,"328":-0.23332642018795013,"329":0.6605780720710754,"330":-0.005620557814836502,"331":-0.1422855406999588,"332":0.31971636414527893,"333":-0.7070136070251465,"334":-0.020769771188497543,"335":0.4689672589302063,"336":0.09096039831638336,"337":-0.18948553502559662,"338":0.07392416149377823,"339":0.781244158744812}},"cellActivationHidden":{"rows":20,"columns":20,"weights":{"0":0.4235073924064636,"1":0.8086398839950562,"2":-0.7912034392356873,"3":0.3108350932598114,"4":-1.0380107164382935,"5":-0.9163333773612976,"6":-0.5195085406303406,"7":-0.9694204926490784,"8":0.041230980306863785,"9":-1.0116345882415771,"10":-0.5052154064178467,"11":-0.8278001546859741,"12":0.6608660817146301,"13":0.5294122099876404,"14":-0.6547830104827881,"15":-0.17269577085971832,"16":-0.25448405742645264,"17":0.5596528053283691,"18":-0.3195580542087555,"19":-1.055878758430481,"20":-0.05580409988760948,"21":-0.6558994650840759,"22":0.3682270646095276,"23":-0.26358720660209656,"24":0.06411302089691162,"25":0.6555861234664917,"26":0.5522052049636841,"27":0.1720113903284073,"28":0.15039601922035217,"29":0.33555081486701965,"30":-0.3223743736743927,"31":0.3745841085910797,"32":-0.2575768828392029,"33":-0.4244674742221832,"34":0.06359484791755676,"35":-0.8425725102424622,"36":0.31546860933303833,"37":0.37961912155151367,"38":-0.29082155227661133,"39":0.4149594008922577,"40":1.0054298639297485,"41":-0.1035417765378952,"42":0.04950404912233353,"43":-0.1822701394557953,"44":0.20288249850273132,"45":-0.08233889937400818,"46":0.1168462410569191,"47":0.010463071055710316,"48":0.7521210312843323,"49":-0.01859026588499546,"50":-1.110099196434021,"51":-0.07157767564058304,"52":-0.41251370310783386,"53":-0.4428407847881317,"54":0.1011977568268776,"55":-1.580013632774353,"56":-0.29960811138153076,"57":-0.25806453824043274,"58":-1.2440862655639648,"59":0.05166633427143097,"60":0.07951537519693375,"61":0.20669610798358917,"62":0.8038759827613831,"63":-0.028760865330696106,"64":-0.10498270392417908,"65":0.7028799653053284,"66":0.3449096083641052,"67":-0.14241203665733337,"68":0.4197181463241577,"69":-0.00016857263108249754,"70":-0.10405424982309341,"71":-0.18527938425540924,"72":0.2647836208343506,"73":-0.7955027222633362,"74":0.21583537757396698,"75":-0.9522586464881897,"76":1.1010679006576538,"77":0.8022083640098572,"78":-0.25108033418655396,"79":-0.01540345884859562,"80":1.0840836763381958,"81":-0.4924834966659546,"82":-0.4576352834701538,"83":0.03195709362626076,"84":-0.22386611998081207,"85":-0.49026021361351013,"86":-0.5242736339569092,"87":-0.4127897322177887,"88":0.5677945017814636,"89":-0.32468536496162415,"90":-1.0863653421401978,"91":-0.2057133913040161,"92":-0.2648426592350006,"93":-0.3268328011035919,"94":-0.13402757048606873,"95":-1.3927720785140991,"96":-0.7889660596847534,"97":-0.8415992856025696,"98":-1.1643742322921753,"99":-0.38133421540260315,"100":0.8599071502685547,"101":-0.23140518367290497,"102":-0.18876205384731293,"103":-0.15494948625564575,"104":-0.3504660129547119,"105":-0.0424281544983387,"106":-0.20329217612743378,"107":-0.34910595417022705,"108":0.7759026885032654,"109":-0.35391750931739807,"110":-0.9724957346916199,"111":-0.15323570370674133,"112":-0.3129573464393616,"113":0.020186323672533035,"114":-0.25937870144844055,"115":-0.83014315366745,"116":-0.7534359097480774,"117":-0.4198157489299774,"118":-1.6473890542984009,"119":-0.3019248843193054,"120":0.8322709798812866,"121":-0.17770229279994965,"122":-0.2790263891220093,"123":-0.2870982885360718,"124":-0.4547830820083618,"125":-0.5416589975357056,"126":-0.27646520733833313,"127":-0.26413750648498535,"128":0.6417384743690491,"129":-0.24767695367336273,"130":-0.9831302762031555,"131":-0.178020641207695,"132":-0.23995119333267212,"133":-0.2913133203983307,"134":-0.4827536642551422,"135":-0.67010897397995,"136":-1.6132608652114868,"137":-1.5482957363128662,"138":-1.0480071306228638,"139":-0.21921393275260925,"140":0.9123549461364746,"141":-0.32395875453948975,"142":0.06256521493196487,"143":-0.4737790524959564,"144":0.32387059926986694,"145":0.1805737018585205,"146":-0.023600077256560326,"147":-0.19049900770187378,"148":0.2390652745962143,"149":-0.09891912341117859,"150":-0.9599595069885254,"151":-0.20349551737308502,"152":-0.3128649890422821,"153":-0.7949473857879639,"154":0.14183662831783295,"155":-0.6147608160972595,"156":0.3958211839199066,"157":-1.1612510681152344,"158":-0.9802542924880981,"159":-0.18632784485816956,"160":-0.2620497941970825,"161":-0.006140675861388445,"162":-0.4543384909629822,"163":-0.009974739514291286,"164":-1.3229385614395142,"165":-0.03300201892852783,"166":-0.5657176375389099,"167":-0.3978133499622345,"168":0.38489633798599243,"169":-0.4848708510398865,"170":0.1360531747341156,"171":-0.7404271364212036,"172":0.10553847253322601,"173":0.06426022946834564,"174":-0.2182462215423584,"175":0.7134027481079102,"176":0.6893786191940308,"177":0.29776546359062195,"178":0.030246291309595108,"179":-0.4800643026828766,"180":1.0047402381896973,"181":0.02521740086376667,"182":0.07958660274744034,"183":-0.05742589384317398,"184":0.6760638356208801,"185":0.46813684701919556,"186":-0.09003464877605438,"187":-0.03155786544084549,"188":0.46684110164642334,"189":0.0471302755177021,"190":-1.0114173889160156,"191":0.10284474492073059,"192":-0.17899206280708313,"193":-0.38014015555381775,"194":0.6178439855575562,"195":-1.1833597421646118,"196":0.09215634316205978,"197":-0.43161848187446594,"198":-1.1959155797958374,"199":0.07228779047727585,"200":-0.15606166422367096,"201":-0.3670068085193634,"202":0.5972939729690552,"203":0.08804309368133545,"204":0.8115456104278564,"205":0.668016254901886,"206":0.6216025352478027,"207":0.6085227727890015,"208":-0.13516242802143097,"209":0.5574297308921814,"210":0.3047347068786621,"211":0.5949411988258362,"212":-0.6959725022315979,"213":-0.7401143312454224,"214":-0.03781113773584366,"215":-0.19255046546459198,"216":-0.7321935296058655,"217":-0.8521044850349426,"218":0.3518323600292206,"219":0.5730819702148438,"220":0.9600865244865417,"221":-0.21868093311786652,"222":0.10860183089971542,"223":-0.5888054370880127,"224":-0.5410782694816589,"225":-0.22462354600429535,"226":0.016682036221027374,"227":-0.09708120673894882,"228":0.2607753276824951,"229":0.0872507244348526,"230":-0.9009576439857483,"231":0.06321665644645691,"232":-0.23945856094360352,"233":-0.8575395941734314,"234":-0.6853359341621399,"235":-0.7264999151229858,"236":-0.3704052269458771,"237":-1.458153247833252,"238":-1.161057710647583,"239":-0.06412045657634735,"240":-0.5428650379180908,"241":-0.3418721556663513,"242":-0.2776775658130646,"243":-0.3016134202480316,"244":-0.6126490235328674,"245":-0.24966494739055634,"246":-0.40904030203819275,"247":-0.3073725402355194,"248":-0.2811909019947052,"249":-0.2888948917388916,"250":0.5060880184173584,"251":-0.16791796684265137,"252":-0.14913657307624817,"253":-1.1891744136810303,"254":-0.35814347863197327,"255":0.05246349796652794,"256":0.08627015352249146,"257":0.13776880502700806,"258":0.4854714274406433,"259":-0.22802984714508057,"260":-0.07012641429901123,"261":-0.8400083780288696,"262":0.1567215472459793,"263":-0.5068181157112122,"264":0.11846878379583359,"265":0.07039905339479446,"266":-0.36294105648994446,"267":-0.5054841637611389,"268":0.14364100992679596,"269":-0.3931884467601776,"270":-0.43108075857162476,"271":0.06122929975390434,"272":-0.852016806602478,"273":-0.818119466304779,"274":-0.7684308886528015,"275":-0.921566367149353,"276":0.25374558568000793,"277":-0.39318013191223145,"278":0.15960872173309326,"279":-0.35106003284454346,"280":0.983025848865509,"281":-0.7528448104858398,"282":-0.37988945841789246,"283":-0.49406003952026367,"284":-0.12532256543636322,"285":-0.1382562667131424,"286":-0.5373519062995911,"287":-0.45091742277145386,"288":1.0490370988845825,"289":-0.29318967461586,"290":-1.0651428699493408,"291":-0.16923294961452484,"292":-0.49198102951049805,"293":-0.6045160293579102,"294":0.19342197477817535,"295":-1.3854984045028687,"296":0.03376207500696182,"297":-0.47495874762535095,"298":-1.5086700916290283,"299":-0.304666668176651,"300":-0.672579824924469,"301":-1.146791696548462,"302":0.37845972180366516,"303":-0.8601991534233093,"304":-0.505193829536438,"305":0.03982977569103241,"306":0.05415908619761467,"307":0.5788004994392395,"308":-0.5282020568847656,"309":0.422669917345047,"310":0.41979172825813293,"311":0.005865950603038073,"312":-0.6395294666290283,"313":-0.7086439728736877,"314":-1.1679810285568237,"315":-1.5058202743530273,"316":0.44833868741989136,"317":-0.8810770511627197,"318":-0.12716470658779144,"319":0.4735904633998871,"320":0.4263104200363159,"321":-0.48993024230003357,"322":0.37349602580070496,"323":-0.04685896262526512,"324":1.3839303255081177,"325":-0.08386356383562088,"326":0.8770450353622437,"327":0.44553929567337036,"328":0.939070999622345,"329":0.22370842099189758,"330":-0.28484171628952026,"331":0.6191304922103882,"332":-0.17379572987556458,"333":0.1314607560634613,"334":0.5044091939926147,"335":1.161060094833374,"336":-0.672476589679718,"337":-1.4490381479263306,"338":0.012079709209501743,"339":0.4155687987804413,"340":-0.5506858825683594,"341":-0.12457150220870972,"342":0.6630076169967651,"343":0.024222424253821373,"344":0.0934305265545845,"345":0.79897141456604,"346":0.5143052935600281,"347":0.3222753405570984,"348":-0.22642605006694794,"349":0.5058201551437378,"350":0.4612717032432556,"351":0.6461287140846252,"352":-0.3148193657398224,"353":-0.1570703089237213,"354":-0.16238826513290405,"355":-0.787343442440033,"356":0.2997245192527771,"357":0.27856287360191345,"358":0.3547813892364502,"359":0.6526601910591125,"360":-0.15812408924102783,"361":-0.7935767769813538,"362":0.79933100938797,"363":0.2856900691986084,"364":0.6932622790336609,"365":-0.2478003054857254,"366":0.984416663646698,"367":0.18590892851352692,"368":-1.0348153114318848,"369":0.1825837641954422,"370":0.4134138524532318,"371":0.8097055554389954,"372":-0.2923295497894287,"373":-0.8138969540596008,"374":0.19489187002182007,"375":-0.965252161026001,"376":0.6861164569854736,"377":-0.5083723664283752,"378":0.2878410816192627,"379":0.206006720662117,"380":1.0542519092559814,"381":-0.2478908896446228,"382":-0.19381798803806305,"383":-0.5724391341209412,"384":0.2865486741065979,"385":-0.29239222407341003,"386":-0.0420011542737484,"387":-0.020214175805449486,"388":0.4037500023841858,"389":-0.09896218776702881,"390":-1.0265116691589355,"391":-0.16161467134952545,"392":-0.2739860415458679,"393":-0.8343924880027771,"394":0.04777755215764046,"395":-0.526874303817749,"396":0.11779168993234634,"397":-1.1185144186019897,"398":-1.220721960067749,"399":0.0007061667274683714}},"cellActivationBias":{"rows":20,"columns":1,"weights":{"0":0.4219006896018982,"1":-1.0770223140716553,"2":-0.35568150877952576,"3":-0.28703588247299194,"4":-0.3038230538368225,"5":-0.08167554438114166,"6":-0.4424290060997009,"7":-0.37568822503089905,"8":0.23627156019210815,"9":-0.319474458694458,"10":-0.2830740809440613,"11":-0.24915052950382233,"12":-0.7983320951461792,"13":-0.7214838266372681,"14":-0.2304181009531021,"15":-0.7837392091751099,"16":0.07275333255529404,"17":-0.9409955739974976,"18":-0.4720846712589264,"19":-0.39128169417381287}}},{"inputMatrix":{"rows":20,"columns":20,"weights":{"0":-0.9656999111175537,"1":0.46961286664009094,"2":0.04580768197774887,"3":0.0026749316602945328,"4":0.3859587609767914,"5":0.943290114402771,"6":-0.44354355335235596,"7":-0.15530239045619965,"8":-0.7999925017356873,"9":0.015169668942689896,"10":0.9379212260246277,"11":-0.044553663581609726,"12":1.3057435750961304,"13":0.3242262005805969,"14":0.6787953972816467,"15":-0.7597845792770386,"16":2.5263824462890625,"17":-0.07636717706918716,"18":0.6478655934333801,"19":-0.07827696949243546,"20":0.8051416277885437,"21":-0.24227307736873627,"22":2.023844003677368,"23":-1.2895580530166626,"24":1.1372023820877075,"25":1.0381773710250854,"26":0.9579137563705444,"27":0.8047271370887756,"28":0.5547778606414795,"29":1.5870040655136108,"30":-0.7695044279098511,"31":0.035824839025735855,"32":-0.7033857703208923,"33":0.09897300601005554,"34":0.6343353986740112,"35":-0.4109876751899719,"36":1.1875841617584229,"37":0.2148810178041458,"38":-0.8056231737136841,"39":0.9260758757591248,"40":-0.12556825578212738,"41":1.8123925924301147,"42":0.4374186098575592,"43":1.4162216186523438,"44":1.0573097467422485,"45":1.3560655117034912,"46":0.3098697066307068,"47":-0.28352347016334534,"48":-0.842134416103363,"49":0.15737514197826385,"50":0.38035714626312256,"51":0.6962828040122986,"52":2.5850138664245605,"53":1.1920832395553589,"54":1.2112888097763062,"55":-1.4407843351364136,"56":0.15558411180973053,"57":-0.03238765895366669,"58":-1.6487678289413452,"59":-0.6050414443016052,"60":0.5086153149604797,"61":1.0142295360565186,"62":0.37086302042007446,"63":-0.859241783618927,"64":0.8321356773376465,"65":0.9933786988258362,"66":1.1169836521148682,"67":0.3473304808139801,"68":-0.11122561991214752,"69":0.5210916996002197,"70":-0.6586598753929138,"71":0.3165677487850189,"72":2.0101935863494873,"73":1.0999704599380493,"74":0.8563430905342102,"75":-0.8313323855400085,"76":0.8983989953994751,"77":1.254186749458313,"78":-1.1202243566513062,"79":0.35422655940055847,"80":-0.5058037042617798,"81":-0.8568207025527954,"82":0.3737025260925293,"83":-1.0819377899169922,"84":-0.37203449010849,"85":0.02807483822107315,"86":0.9715891480445862,"87":-1.0983452796936035,"88":0.2927398085594177,"89":-0.879734218120575,"90":0.8130510449409485,"91":-0.5684136152267456,"92":-0.6741243600845337,"93":-0.5560435056686401,"94":-0.5248568058013916,"95":0.6153536438941956,"96":0.531559407711029,"97":-0.2817046642303467,"98":-0.47735774517059326,"99":-1.4867429733276367,"100":1.2345846891403198,"101":0.8798044323921204,"102":0.14347229897975922,"103":0.7912307381629944,"104":0.19650931656360626,"105":0.8283748626708984,"106":-0.193431094288826,"107":0.34070128202438354,"108":0.909701943397522,"109":0.46338826417922974,"110":-1.138830542564392,"111":0.28748226165771484,"112":-0.1463780552148819,"113":0.827303409576416,"114":1.1178196668624878,"115":-0.6750711798667908,"116":-1.5371977090835571,"117":0.10891150683164597,"118":0.005891810636967421,"119":0.4258013963699341,"120":0.002836402738466859,"121":0.43921810388565063,"122":0.32039958238601685,"123":2.4373865127563477,"124":-0.05517242103815079,"125":1.6074138879776,"126":0.5903958678245544,"127":0.016564328223466873,"128":1.3251724243164062,"129":-0.06794996559619904,"130":0.01475333608686924,"131":0.8007863163948059,"132":-0.2673327922821045,"133":1.9453359842300415,"134":-0.16166840493679047,"135":-0.11209672689437866,"136":-1.9448310136795044,"137":0.049243245273828506,"138":-0.7976979613304138,"139":-0.2685459852218628,"140":0.889643132686615,"141":0.21529756486415863,"142":0.23160801827907562,"143":-1.7307360172271729,"144":1.4542577266693115,"145":1.2947845458984375,"146":1.6156851053237915,"147":-0.765949547290802,"148":0.8832806348800659,"149":-0.6201221346855164,"150":-0.8507493138313293,"151":0.897602915763855,"152":1.5327072143554688,"153":0.3670279383659363,"154":1.436745524406433,"155":-1.1668298244476318,"156":1.101657509803772,"157":0.9928196668624878,"158":-1.5445749759674072,"159":-0.16624051332473755,"160":0.9683536887168884,"161":0.8233585357666016,"162":0.014524945989251137,"163":0.6699928045272827,"164":0.36748799681663513,"165":0.7158028483390808,"166":-0.15778355300426483,"167":0.24458815157413483,"168":0.8359904289245605,"169":0.3334038555622101,"170":-0.4934619963169098,"171":0.38554492592811584,"172":-0.09641703963279724,"173":0.4262723922729492,"174":1.1177462339401245,"175":0.07966730743646622,"176":-1.7920434474945068,"177":-0.4861091077327728,"178":0.0676484927535057,"179":0.4314337372779846,"180":0.23385190963745117,"181":1.2182252407073975,"182":0.8819225430488586,"183":0.4355815351009369,"184":0.8475035429000854,"185":0.6552032828330994,"186":-0.2702878415584564,"187":0.5628299117088318,"188":-0.6845166683197021,"189":1.5390819311141968,"190":0.1053587943315506,"191":0.30150455236434937,"192":1.3622782230377197,"193":1.5095767974853516,"194":1.6154677867889404,"195":-0.7180874347686768,"196":0.47885775566101074,"197":0.45446598529815674,"198":0.46199831366539,"199":0.7324924468994141,"200":-0.4206772446632385,"201":-0.41192343831062317,"202":-0.34544456005096436,"203":0.0647638589143753,"204":-0.3316400647163391,"205":-0.10827142745256424,"206":-0.06791044026613235,"207":-0.854889452457428,"208":-0.6390855312347412,"209":-0.9580638408660889,"210":0.3345394432544708,"211":-1.0315290689468384,"212":1.7565414905548096,"213":-0.04748960956931114,"214":-0.49659737944602966,"215":-0.6128466725349426,"216":0.625318706035614,"217":0.008578941226005554,"218":1.3549432754516602,"219":-0.9746949076652527,"220":0.09977520257234573,"221":1.555737853050232,"222":0.35539937019348145,"223":1.6599384546279907,"224":1.0798962116241455,"225":0.531112015247345,"226":0.3745405375957489,"227":0.2100035548210144,"228":-0.40009933710098267,"229":0.025315189734101295,"230":0.187820702791214,"231":0.5491602420806885,"232":1.9134923219680786,"233":1.1826658248901367,"234":2.3136072158813477,"235":-1.6231211423873901,"236":0.26786699891090393,"237":-0.07157295197248459,"238":1.0492167472839355,"239":-0.07857519388198853,"240":-0.1182655468583107,"241":-0.5657249093055725,"242":-0.4132442772388458,"243":-0.2068551480770111,"244":-1.4582687616348267,"245":-0.32811951637268066,"246":-0.25593051314353943,"247":-1.5258606672286987,"248":0.6281007528305054,"249":-1.2367439270019531,"250":0.09394561499357224,"251":-1.1507620811462402,"252":-0.14687484502792358,"253":0.05084624141454697,"254":-1.1712218523025513,"255":-1.5300788879394531,"256":0.28808924555778503,"257":0.6546656489372253,"258":-0.7367915511131287,"259":-1.6523573398590088,"260":0.5722588300704956,"261":0.8106409311294556,"262":0.3076925575733185,"263":0.9178578853607178,"264":0.1167602390050888,"265":1.0038065910339355,"266":-0.5077518820762634,"267":0.581034243106842,"268":0.3528379499912262,"269":1.2127476930618286,"270":-0.09830568730831146,"271":0.6257365942001343,"272":0.005114289466291666,"273":0.7605869770050049,"274":1.1184347867965698,"275":-0.32975780963897705,"276":-1.4866341352462769,"277":-1.1180963516235352,"278":0.444612592458725,"279":0.6745566725730896,"280":1.1412781476974487,"281":0.2055368423461914,"282":-0.24702557921409607,"283":1.2504767179489136,"284":0.20433184504508972,"285":1.1904267072677612,"286":-0.4154745936393738,"287":0.2438170313835144,"288":0.018889034166932106,"289":0.3255685567855835,"290":-1.5286606550216675,"291":0.25358909368515015,"292":-0.060903437435626984,"293":1.092079997062683,"294":0.4306173324584961,"295":-0.06380965560674667,"296":-0.8131908774375916,"297":-0.23620477318763733,"298":-0.3977319598197937,"299":0.41225993633270264,"300":-0.6523934006690979,"301":1.029590368270874,"302":0.9374441504478455,"303":-0.2711661756038666,"304":1.0263922214508057,"305":0.3837240934371948,"306":0.3905922472476959,"307":0.47496646642684937,"308":-1.3127610683441162,"309":1.4260846376419067,"310":1.1932640075683594,"311":0.1491137444972992,"312":1.4220209121704102,"313":0.8243499994277954,"314":1.3312994241714478,"315":0.2725343406200409,"316":-0.1781710684299469,"317":-0.5830548405647278,"318":1.1081877946853638,"319":0.8777929544448853,"320":0.8536544442176819,"321":-1.1132882833480835,"322":-0.45652109384536743,"323":-1.0383503437042236,"324":-1.0270280838012695,"325":-0.746155858039856,"326":-0.7031928300857544,"327":-1.0477142333984375,"328":1.271734356880188,"329":0.024314716458320618,"330":-0.8860923051834106,"331":-0.8427982330322266,"332":0.10713445395231247,"333":-1.2591758966445923,"334":-0.7250221967697144,"335":-0.6306389570236206,"336":-0.48253536224365234,"337":-0.5221601724624634,"338":-1.2657760381698608,"339":-1.1368905305862427,"340":0.21364061534404755,"341":1.4072227478027344,"342":-0.47810810804367065,"343":-0.0936853289604187,"344":0.20695693790912628,"345":1.0066311359405518,"346":-0.2125997543334961,"347":0.17815370857715607,"348":-0.27134671807289124,"349":-0.15922747552394867,"350":-0.05011889711022377,"351":0.10910627245903015,"352":-0.003552124835550785,"353":1.5652599334716797,"354":0.9559987187385559,"355":-0.01398123987019062,"356":-0.2803468108177185,"357":0.7365756630897522,"358":-0.4125712215900421,"359":0.2528434097766876,"360":-2.4341728687286377,"361":-0.15667736530303955,"362":0.38835710287094116,"363":0.1550159901380539,"364":0.334976464509964,"365":0.798130989074707,"366":-0.42228615283966064,"367":0.7690137028694153,"368":-1.8314025402069092,"369":0.05065188929438591,"370":2.198179244995117,"371":0.5872283577919006,"372":0.1545889526605606,"373":0.07746303826570511,"374":0.41575708985328674,"375":-1.2044966220855713,"376":0.6704415082931519,"377":-0.18594598770141602,"378":1.5311775207519531,"379":0.6190129518508911,"380":0.45468011498451233,"381":1.2219494581222534,"382":-0.14775113761425018,"383":1.262059211730957,"384":-0.2547721266746521,"385":-0.40670013427734375,"386":-0.0941866859793663,"387":-0.5054027438163757,"388":0.10087617486715317,"389":-0.3318271338939667,"390":-0.27264031767845154,"391":-0.13526710867881775,"392":0.5022975206375122,"393":0.9531319737434387,"394":-0.7858826518058777,"395":0.8394806385040283,"396":-1.828629493713379,"397":-0.6692736744880676,"398":-0.5465437769889832,"399":-0.7381446957588196}},"inputHidden":{"rows":20,"columns":20,"weights":{"0":-0.3722967505455017,"1":-0.8592525720596313,"2":1.0447769165039062,"3":0.8120048642158508,"4":1.0121848583221436,"5":-0.9673494696617126,"6":0.32741472125053406,"7":0.8394179344177246,"8":0.930445671081543,"9":-0.5232905745506287,"10":-0.6375748515129089,"11":0.6552834510803223,"12":-0.24828344583511353,"13":0.26321926712989807,"14":0.017663773149251938,"15":0.40535998344421387,"16":-2.0282461643218994,"17":1.7063966989517212,"18":0.14035429060459137,"19":2.2793567180633545,"20":-1.6857460737228394,"21":-1.3379223346710205,"22":0.14855101704597473,"23":-0.8850730657577515,"24":-0.3874601721763611,"25":-0.17674972116947174,"26":0.39657506346702576,"27":-0.8517937660217285,"28":0.09248044341802597,"29":-0.4556974470615387,"30":-0.5075933933258057,"31":-1.6103079319000244,"32":0.5529084205627441,"33":0.15515801310539246,"34":0.8602393269538879,"35":0.27062302827835083,"36":-1.3915786743164062,"37":0.0958552286028862,"38":-1.154849648475647,"39":0.5710611939430237,"40":-1.2426347732543945,"41":-0.8347166180610657,"42":-1.1544203758239746,"43":1.7431340217590332,"44":-0.9441545009613037,"45":-0.08969184756278992,"46":1.4890844821929932,"47":0.9785918593406677,"48":0.16393524408340454,"49":-0.3963843584060669,"50":0.33943796157836914,"51":-1.1626428365707397,"52":0.671005368232727,"53":-0.04850207269191742,"54":0.5188270807266235,"55":0.6345460414886475,"56":-1.1631433963775635,"57":0.5665391683578491,"58":0.2545005679130554,"59":0.06133147329092026,"60":-1.1096751689910889,"61":-0.7039262652397156,"62":-0.9387518763542175,"63":-1.5275294780731201,"64":1.0896090269088745,"65":-0.4929065406322479,"66":1.1590889692306519,"67":-0.7830341458320618,"68":0.6913135647773743,"69":-0.11460831761360168,"70":-2.318882942199707,"71":-0.5883612632751465,"72":-1.6781030893325806,"73":-1.192345380783081,"74":0.5703355669975281,"75":-0.14387564361095428,"76":-0.45860177278518677,"77":1.062644362449646,"78":-0.6751075983047485,"79":0.21077612042427063,"80":-0.44442784786224365,"81":1.852004051208496,"82":-1.4467973709106445,"83":-0.10680127143859863,"84":0.1456821858882904,"85":-1.8265398740768433,"86":-0.5203251242637634,"87":0.6483632326126099,"88":2.20914363861084,"89":1.4624207019805908,"90":-0.18157626688480377,"91":-1.818437099456787,"92":0.572239875793457,"93":-0.2744854688644409,"94":0.3286496698856354,"95":-0.9166507124900818,"96":1.4566158056259155,"97":1.5272761583328247,"98":0.49869513511657715,"99":-0.521702766418457,"100":0.19792166352272034,"101":-0.4494539797306061,"102":-0.23593734204769135,"103":-0.6779425740242004,"104":-0.6117420196533203,"105":-0.4954192340373993,"106":0.7994170188903809,"107":-0.08290322124958038,"108":0.3560959994792938,"109":-0.3309035003185272,"110":0.2554091811180115,"111":-0.056272149085998535,"112":1.0791938304901123,"113":-0.35337722301483154,"114":-0.3237830102443695,"115":0.2204873263835907,"116":-0.432388037443161,"117":0.5880879759788513,"118":-0.7355124950408936,"119":-0.5124720335006714,"120":-1.6192923784255981,"121":-0.22304753959178925,"122":-1.0955867767333984,"123":0.797936737537384,"124":-1.4276275634765625,"125":1.1947078704833984,"126":0.3673626780509949,"127":1.0402077436447144,"128":-0.8949968814849854,"129":0.07425151765346527,"130":0.007557764183729887,"131":-1.1595827341079712,"132":0.9471936225891113,"133":0.6389156579971313,