{
  "weights": {
    "type": "LSTM",
    "options": {
      "inputSize": 17,
      "inputRange": 17,
      "hiddenSizes": [
        20,
        20
      ],
      "outputSize": 17,
      "learningRate": 0.01,
      "decayRate": 0.999,
      "smoothEps": 1e-8,
      "regc": 0.000001,
      "clipval": 5,
      "json": null,
      "dataFormatter": {
        "values": [
          "i do this",
          "i like laravel",
          "i work with laravel",
          "laravel",
          "no"
        ],
        "indexTable": {
          "i": 0,
          " ": 1,
          "d": 2,
          "o": 3,
          "t": 4,
          "h": 5,
          "s": 6,
          "l": 7,
          "k": 8,
          "e": 9,
          "a": 10,
          "r": 11,
          "v": 12,
          "w": 13,
          "n": 14,
          "stop-input": 15,
          "start-output": 16
        },
        "characterTable": {
          "0": "i",
          "1": " ",
          "2": "d",
          "3": "o",
          "4": "t",
          "5": "h",
          "6": "s",
          "7": "l",
          "8": "k",
          "9": "e",
          "10": "a",
          "11": "r",
          "12": "v",
          "13": "w",
          "14": "n",
          "15": "stop-input",
          "16": "start-output"
        },
        "characters": [
          "i",
          " ",
          "d",
          "o",
          "t",
          "h",
          "s",
          "l",
          "k",
          "e",
          "a",
          "r",
          "v",
          "w",
          "n",
          "stop-input",
          "start-output"
        ]
      }
    },
    "input": {
      "rows": 18,
      "columns": 17,
      "weights": {
        "0": -0.8001728057861328,
        "1": -0.4702256917953491,
        "2": -0.6344299912452698,
        "3": 0.6818539500236511,
        "4": 0.5921369791030884,
        "5": 0.40529635548591614,
        "6": -0.9225858449935913,
        "7": -0.9791705012321472,
        "8": -0.9290282726287842,
        "9": 0.10772862285375595,
        "10": 0.6630644798278809,
        "11": 0.5107450485229492,
        "12": 0.2557721734046936,
        "13": 0.5934144854545593,
        "14": -0.9215430021286011,
        "15": -0.1094692200422287,
        "16": -0.35429543256759644,
        "17": 0.37319257855415344,
        "18": -0.37660300731658936,
        "19": -0.17643237113952637,
        "20": -0.5745689272880554,
        "21": 0.0708438977599144,
        "22": -0.30239441990852356,
        "23": 0.660624086856842,
        "24": -0.43706101179122925,
        "25": -0.44247788190841675,
        "26": 0.8566420674324036,
        "27": -0.7339980602264404,
        "28": -0.7031652331352234,
        "29": -0.05114944279193878,
        "30": -0.21047964692115784,
        "31": -0.4807603061199188,
        "32": 0.25398194789886475,
        "33": 0.5205300450325012,
        "34": 0.3781791925430298,
        "35": 0.0034565948881208897,
        "36": 0.20739096403121948,
        "37": -1.1120233535766602,
        "38": 0.23447221517562866,
        "39": -0.7513076663017273,
        "40": 0.627588152885437,
        "41": 0.11365222185850143,
        "42": 0.05607854947447777,
        "43": 0.3284739851951599,
        "44": -0.8420007228851318,
        "45": -0.36176058650016785,
        "46": 0.057695422321558,
        "47": -0.9182994961738586,
        "48": -0.013669910840690136,
        "49": -0.27792680263519287,
        "50": 0.9937245845794678,
        "51": 2.842012643814087,
        "52": 0.475260853767395,
        "53": 2.403611183166504,
        "54": -1.4666684865951538,
        "55": -0.7622337937355042,
        "56": -0.48845118284225464,
        "57": 2.0740482807159424,
        "58": 0.4297918975353241,
        "59": 1.4950435161590576,
        "60": 0.5155546069145203,
        "61": -1.2990590333938599,
        "62": -1.5623012781143188,
        "63": -1.9784338474273682,
        "64": -2.2052087783813477,
        "65": 0.48052749037742615,
        "66": -1.7003988027572632,
        "67": 1.1537631750106812,
        "68": 0.011804452165961266,
        "69": 0.02194119803607464,
        "70": 0.18157826364040375,
        "71": -1.3039559125900269,
        "72": -0.048377253115177155,
        "73": -1.846134066581726,
        "74": 0.6968696117401123,
        "75": 0.11209271103143692,
        "76": 0.7718505263328552,
        "77": 0.3043719530105591,
        "78": -1.2117438316345215,
        "79": 0.5384896397590637,
        "80": -0.6750003099441528,
        "81": -1.3290317058563232,
        "82": 0.06803393363952637,
        "83": -1.269887924194336,
        "84": 1.0678350925445557,
        "85": 0.3871484100818634,
        "86": 1.9030276536941528,
        "87": 0.8619017004966736,
        "88": 0.6143086552619934,
        "89": -1.8960946798324585,
        "90": 0.24514137208461761,
        "91": -0.3864286243915558,
        "92": 1.396984338760376,
        "93": 2.5436391830444336,
        "94": -1.3791362047195435,
        "95": 0.3805456757545471,
        "96": 1.4233028888702393,
        "97": -0.3637658655643463,
        "98": 0.09987809509038925,
        "99": 1.9153177738189697,
        "100": -2.1797103881835938,
        "101": -0.4493429958820343,
        "102": -1.6607511043548584,
        "103": 1.0334703922271729,
        "104": -1.221866250038147,
        "105": 1.9370808601379395,
        "106": -0.9048479795455933,
        "107": 0.2773509919643402,
        "108": -1.5734339952468872,
        "109": -0.09516136348247528,
        "110": 1.0258060693740845,
        "111": -1.3645457029342651,
        "112": 1.791654348373413,
        "113": 1.4460504055023193,
        "114": 0.6723344326019287,
        "115": 1.6120368242263794,
        "116": -0.17578832805156708,
        "117": -0.6351509094238281,
        "118": -1.7094311714172363,
        "119": 3.9695966243743896,
        "120": -2.4617791175842285,
        "121": -0.9350790977478027,
        "122": -0.2761514484882355,
        "123": 2.5221762657165527,
        "124": 1.5355108976364136,
        "125": -0.24959911406040192,
        "126": -3.325002908706665,
        "127": -0.18114803731441498,
        "128": 1.626634955406189,
        "129": -0.07667107880115509,
        "130": -0.8089516162872314,
        "131": 0.17903971672058105,
        "132": -0.3026028871536255,
        "133": -2.766378402709961,
        "134": 0.20830002427101135,
        "135": 1.3645168542861938,
        "136": -0.17803995311260223,
        "137": -0.023626934736967087,
        "138": 0.4968878924846649,
        "139": 0.6585217714309692,
        "140": -0.07874380052089691,
        "141": 0.22151386737823486,
        "142": -0.3413975238800049,
        "143": 1.325929045677185,
        "144": 0.9774746894836426,
        "145": -0.6356905102729797,
        "146": 0.5138144493103027,
        "147": 0.5465665459632874,
        "148": -0.9447126388549805,
        "149": 0.39110082387924194,
        "150": 0.4107404351234436,
        "151": -0.38539549708366394,
        "152": -0.593291163444519,
        "153": 1.0143606662750244,
        "154": 0.2523394227027893,
        "155": 0.5647352337837219,
        "156": -1.5131683349609375,
        "157": -0.5486369729042053,
        "158": -1.8959598541259766,
        "159": 1.550600290298462,
        "160": -0.6642619371414185,
        "161": 0.7931025624275208,
        "162": 0.11772122234106064,
        "163": -1.3982386589050293,
        "164": -0.3613378405570984,
        "165": -0.3759607970714569,
        "166": -1.6077308654785156,
        "167": 0.5789288282394409,
        "168": -0.4050312638282776,
        "169": 1.3066011667251587,
        "170": 0.7538512349128723,
        "171": -0.23499666154384613,
        "172": -0.5050578713417053,
        "173": -0.5265994668006897,
        "174": 0.9007696509361267,
        "175": -0.13229966163635254,
        "176": 0.6605027318000793,
        "177": -1.1378116607666016,
        "178": -0.2652057111263275,
        "179": 0.17544898390769958,
        "180": -0.8300293684005737,
        "181": -0.32709866762161255,
        "182": 1.8224313259124756,
        "183": -1.8088985681533813,
        "184": -0.22800248861312866,
        "185": 0.8828197121620178,
        "186": 1.1628129482269287,
        "187": 0.8705384135246277,
        "188": -1.89254891872406,
        "189": -1.032575249671936,
        "190": -0.43051648139953613,
        "191": 1.553813099861145,
        "192": 0.2997353971004486,
        "193": 0.4764491319656372,
        "194": -1.7053003311157227,
        "195": -1.529561996459961,
        "196": 0.7062164545059204,
        "197": -0.6592614054679871,
        "198": -0.002312771277502179,
        "199": 1.9376335144042969,
        "200": -0.3136051893234253,
        "201": -2.6282315254211426,
        "202": 1.2667207717895508,
        "203": 0.8385725021362305,
        "204": 0.7555685639381409,
        "205": -0.29787299036979675,
        "206": -0.38191553950309753,
        "207": -0.25392743945121765,
        "208": 0.4697122275829315,
        "209": -0.15671636164188385,
        "210": 0.6431697607040405,
        "211": -0.4663824439048767,
        "212": -1.001436471939087,
        "213": 0.9678025841712952,
        "214": -0.46253979206085205,
        "215": -0.8918769955635071,
        "216": 0.6595927476882935,
        "217": -0.16550225019454956,
        "218": -0.5034855008125305,
        "219": 0.9687764644622803,
        "220": 0.30208703875541687,
        "221": -1.1245222091674805,
        "222": -0.6684999465942383,
        "223": -0.757317841053009,
        "224": -0.415539026260376,
        "225": 0.6408097743988037,
        "226": 0.505882740020752,
        "227": -0.09761680662631989,
        "228": -2.483079433441162,
        "229": -1.3796429634094238,
        "230": -0.107291080057621,
        "231": 0.004493343643844128,
        "232": -0.5198754072189331,
        "233": 1.5808416604995728,
        "234": 0.5757481455802917,
        "235": -0.9806947708129883,
        "236": 2.0825376510620117,
        "237": -0.5278076529502869,
        "238": 1.8485647439956665,
        "239": -1.013183832168579,
        "240": -0.9946026802062988,
        "241": -0.7763922810554504,
        "242": 1.032075047492981,
        "243": -0.5116663575172424,
        "244": 0.780393660068512,
        "245": -1.4198822975158691,
        "246": -0.9420204162597656,
        "247": 1.077208161354065,
        "248": -0.8741500377655029,
        "249": -1.1999080181121826,
        "250": 1.0959277153015137,
        "251": -0.6750792860984802,
        "252": -1.0174185037612915,
        "253": 0.7566967606544495,
        "254": 0.8185909390449524,
        "255": 4.214481830596924,
        "256": -2.010746717453003,
        "257": -1.090881109237671,
        "258": -0.5413052439689636,
        "259": 2.335120916366577,
        "260": 0.47540590167045593,
        "261": 1.7490555047988892,
        "262": -2.854980230331421,
        "263": -0.5150248408317566,
        "264": 0.7761606574058533,
        "265": -1.652288556098938,
        "266": 0.10748408734798431,
        "267": 1.8834890127182007,
        "268": 0.4037599265575409,
        "269": -2.420403242111206,
        "270": 0.3139533996582031,
        "271": 0.26742875576019287,
        "272": 0.8104157447814941,
        "273": -0.2677580714225769,
        "274": -0.4018089771270752,
        "275": -2.0078468322753906,
        "276": 0.06490840762853622,
        "277": -1.4353572130203247,
        "278": 1.3452891111373901,
        "279": -0.708706259727478,
        "280": 0.7486933469772339,
        "281": -0.2951160669326782,
        "282": -2.5401222705841064,
        "283": 0.5173406600952148,
        "284": 0.32289835810661316,
        "285": -1.7922133207321167,
        "286": 0.14413942396640778,
        "287": -0.3758934438228607,
        "288": 1.8760862350463867,
        "289": -0.20227906107902527,
        "290": -0.10488829016685486,
        "291": -0.06467593461275101,
        "292": -0.2502133846282959,
        "293": -0.05697643756866455,
        "294": -0.45707985758781433,
        "295": 0.2754923403263092,
        "296": -0.13552086055278778,
        "297": 0.6573646068572998,
        "298": -0.22634461522102356,
        "299": -0.4339965879917145,
        "300": 0.7541484832763672,
        "301": -0.4294429421424866,
        "302": -0.23564691841602325,
        "303": 0.20100438594818115,
        "304": -0.7226303219795227,
        "305": 0.25111186504364014
      }
    },
    "hiddenLayers": [
      {
        "inputMatrix": {
          "rows": 20,
          "columns": 17,
          "weights": {
            "0": -1.3004491329193115,
            "1": -0.5935001373291016,
            "2": -0.5440396070480347,
            "3": 1.3574579954147339,
            "4": 0.7684440612792969,
            "5": 1.1196359395980835,
            "6": -1.167040228843689,
            "7": -0.06118026375770569,
            "8": 0.3025802671909332,
            "9": -1.276865839958191,
            "10": 0.9151487946510315,
            "11": 2.107910633087158,
            "12": 0.5548868179321289,
            "13": 1.3788279294967651,
            "14": -0.2428378164768219,
            "15": -0.010640542022883892,
            "16": -1.0853543281555176,
            "17": -0.19567365944385529,
            "18": -0.43638622760772705,
            "19": -1.3363748788833618,
            "20": -0.2797815799713135,
            "21": 2.3121497631073,
            "22": -0.3344791829586029,
            "23": -0.47227463126182556,
            "24": 0.006065501365810633,
            "25": 0.10912623256444931,
            "26": -1.3031599521636963,
            "27": -0.3847445249557495,
            "28": 2.108041524887085,
            "29": 3.2684829235076904,
            "30": -0.22899682819843292,
            "31": -0.19534511864185333,
            "32": -0.029466619715094566,
            "33": 0.3396677076816559,
            "34": 0.5788867473602295,
            "35": -0.9340411424636841,
            "36": -0.32540538907051086,
            "37": -0.2488810271024704,
            "38": 1.5231730937957764,
            "39": -0.6577634811401367,
            "40": -0.017497191205620766,
            "41": -0.44387513399124146,
            "42": 0.7087852358818054,
            "43": -0.38363635540008545,
            "44": -0.2906482219696045,
            "45": 1.1024541854858398,
            "46": -0.49087846279144287,
            "47": -0.20481057465076447,
            "48": -0.33563393354415894,
            "49": -0.9431796073913574,
            "50": 0.4272758662700653,
            "51": 0.39909660816192627,
            "52": -0.8474816679954529,
            "53": -0.6974801421165466,
            "54": 0.47342127561569214,
            "55": 0.8623070120811462,
            "56": 0.31630122661590576,
            "57": 0.10091452300548553,
            "58": -0.98763108253479,
            "59": -1.848983883857727,
            "60": -0.009526045061647892,
            "61": 0.31498682498931885,
            "62": -0.4613422751426697,
            "63": 0.7885289192199707,
            "64": 0.4776432514190674,
            "65": -0.7138993144035339,
            "66": 2.3332271575927734,
            "67": -0.47807517647743225,
            "68": 0.6575336456298828,
            "69": -0.8039990663528442,
            "70": -0.05945666506886482,
            "71": 0.18788836896419525,
            "72": 1.2038192749023438,
            "73": 0.9367389678955078,
            "74": 0.01751326397061348,
            "75": -0.6656038761138916,
            "76": -1.6073570251464844,
            "77": -0.1455468237400055,
            "78": 0.06795600056648254,
            "79": -0.12055929750204086,
            "80": 1.9896094799041748,
            "81": 0.3433053493499756,
            "82": -1.1188488006591797,
            "83": 1.5308364629745483,
            "84": -0.10630488395690918,
            "85": 0.07756657153367996,
            "86": -2.2260870933532715,
            "87": -0.9988003969192505,
            "88": -0.7937020659446716,
            "89": 1.7960718870162964,
            "90": 0.012945502996444702,
            "91": 0.24972781538963318,
            "92": -2.119917631149292,
            "93": -0.7685530781745911,
            "94": 0.13458773493766785,
            "95": -0.7783580422401428,
            "96": -0.6023489236831665,
            "97": 1.3685555458068848,
            "98": -0.6144960522651672,
            "99": -1.8179574012756348,
            "100": 0.4107363522052765,
            "101": 0.8541331887245178,
            "102": 0.5471556186676025,
            "103": -0.39724552631378174,
            "104": -1.0947823524475098,
            "105": -0.8114833831787109,
            "106": 1.3717294931411743,
            "107": -0.9043232202529907,
            "108": 0.35770586133003235,
            "109": -0.6262578368186951,
            "110": -0.3363562226295471,
            "111": 0.004976488649845123,
            "112": -0.7926106452941895,
            "113": 0.12898990511894226,
            "114": 2.201462745666504,
            "115": -1.0436021089553833,
            "116": -0.5549374222755432,
            "117": 0.01468098908662796,
            "118": 0.8186904788017273,
            "119": 0.6430104374885559,
            "120": -0.40531519055366516,
            "121": -0.04033936187624931,
            "122": -0.9441404938697815,
            "123": 1.635876178741455,
            "124": -1.099893569946289,
            "125": 0.1489129215478897,
            "126": -0.5259407162666321,
            "127": 0.29990655183792114,
            "128": -0.418918639421463,
            "129": -0.7579447031021118,
            "130": 0.788124680519104,
            "131": 1.2609736919403076,
            "132": -0.8856770396232605,
            "133": -0.10904277861118317,
            "134": 0.03304591402411461,
            "135": 0.7955101728439331,
            "136": 0.7138128876686096,
            "137": -0.15614673495292664,
            "138": -0.1298121064901352,
            "139": -0.9204298853874207,
            "140": 1.5352295637130737,
            "141": -0.1010560542345047,
            "142": 0.04153573885560036,
            "143": -0.3631058931350708,
            "144": 0.9975609183311462,
            "145": -0.8842288851737976,
            "146": -0.8639237284660339,
            "147": 1.070440649986267,
            "148": 1.7127394676208496,
            "149": -0.8447897434234619,
            "150": 0.15902183949947357,
            "151": -0.25422969460487366,
            "152": 0.5729424953460693,
            "153": 0.3183123469352722,
            "154": -0.30163949728012085,
            "155": -0.19560469686985016,
            "156": 0.8837219476699829,
            "157": 0.20213095843791962,
            "158": 0.8579943180084229,
            "159": -0.3805476129055023,
            "160": 0.34367769956588745,
            "161": -3.518990993499756,
            "162": 0.529532790184021,
            "163": 0.892200231552124,
            "164": -0.7297824025154114,
            "165": 0.5034934282302856,
            "166": 1.2055256366729736,
            "167": -0.8006077408790588,
            "168": 3.235762596130371,
            "169": -1.0087491273880005,
            "170": -0.013096981681883335,
            "171": -0.6380415558815002,
            "172": -1.1646959781646729,
            "173": -0.2826872169971466,
            "174": 2.481879472732544,
            "175": -0.25834110379219055,
            "176": -0.07972737401723862,
            "177": -0.4596553444862366,
            "178": 0.21321208775043488,
            "179": -0.6795728206634521,
            "180": -0.6497361063957214,
            "181": 1.0705441236495972,
            "182": 3.1557438373565674,
            "183": -0.26932385563850403,
            "184": -0.403266042470932,
            "185": 0.5819137692451477,
            "186": 0.40327492356300354,
            "187": 0.8521976470947266,
            "188": -0.4285295903682709,
            "189": 0.9468389749526978,
            "190": -0.6731175184249878,
            "191": 0.729442298412323,
            "192": -0.062003735452890396,
            "193": 0.4819839596748352,
            "194": 0.46668195724487305,
            "195": 0.6505639553070068,
            "196": 0.14349471032619476,
            "197": -0.5695024728775024,
            "198": -0.12250059843063354,
            "199": 0.19823957979679108,
            "200": -0.6723382472991943,
            "201": 0.15934711694717407,
            "202": 0.03252064809203148,
            "203": 0.5968952775001526,
            "204": -0.9247912764549255,
            "205": 0.19366644322872162,
            "206": -1.6635770797729492,
            "207": 0.4605480134487152,
            "208": -0.25851690769195557,
            "209": -0.6439376473426819,
            "210": -0.08715378493070602,
            "211": -0.2576228678226471,
            "212": -0.06750908493995667,
            "213": 0.11857083439826965,
            "214": -0.088628850877285,
            "215": 0.6254180669784546,
            "216": 1.278584599494934,
            "217": 0.3147859573364258,
            "218": -0.8450759649276733,
            "219": 0.5947564840316772,
            "220": -0.05974588543176651,
            "221": 0.014320844784379005,
            "222": 0.24664007127285004,
            "223": 0.4898548424243927,
            "224": -0.2208162099123001,
            "225": -0.49295398592948914,
            "226": -0.13017013669013977,
            "227": 0.2549724876880646,
            "228": 0.07405196130275726,
            "229": -0.13109728693962097,
            "230": 0.28068962693214417,
            "231": -0.3031314015388489,
            "232": -0.2253267914056778,
            "233": -0.009828911162912846,
            "234": -0.260740727186203,
            "235": 0.06527707725763321,
            "236": 0.18293754756450653,
            "237": 0.32523664832115173,
            "238": 0.9694633483886719,
            "239": -0.03833625093102455,
            "240": -0.32890889048576355,
            "241": -0.9507507085800171,
            "242": 1.2067517042160034,
            "243": -1.072690725326538,
            "244": 0.5139878392219543,
            "245": 0.09716756641864777,
            "246": 0.6957586407661438,
            "247": -0.2558456361293793,
            "248": -0.7376831769943237,
            "249": -0.009608542546629906,
            "250": 1.097205638885498,
            "251": -1.513826608657837,
            "252": 0.03623901680111885,
            "253": -0.41568952798843384,
            "254": 0.8649881482124329,
            "255": -0.0935516282916069,
            "256": -0.5525053143501282,
            "257": -1.4435079097747803,
            "258": -0.4602857232093811,
            "259": 2.155500650405884,
            "260": -0.29478728771209717,
            "261": -0.4317420721054077,
            "262": -0.26074591279029846,
            "263": 0.09063127636909485,
            "264": -1.2703526020050049,
            "265": -0.47342899441719055,
            "266": 1.7409251928329468,
            "267": 2.8623249530792236,
            "268": -0.40674686431884766,
            "269": -0.33751559257507324,
            "270": 0.24319742619991302,
            "271": 0.3158753216266632,
            "272": -0.622567892074585,
            "273": 0.500434160232544,
            "274": 0.19369079172611237,
            "275": 0.13263961672782898,
            "276": -0.6254003643989563,
            "277": -0.07072320580482483,
            "278": 0.008913777768611908,
            "279": -0.07585211843252182,
            "280": 0.020505838096141815,
            "281": 0.07705232501029968,
            "282": 0.18394455313682556,
            "283": -0.10404616594314575,
            "284": 0.32044777274131775,
            "285": 0.349809467792511,
            "286": 0.33368366956710815,
            "287": -0.038412779569625854,
            "288": -0.026843637228012085,
            "289": 0.92595374584198,
            "290": 1.3171757459640503,
            "291": 0.5467403531074524,
            "292": 0.3678825795650482,
            "293": -1.2710952758789062,
            "294": -0.0913555920124054,
            "295": -0.4738582670688629,
            "296": 0.513157069683075,
            "297": 0.5725570321083069,
            "298": -0.5836687088012695,
            "299": 0.4076886475086212,
            "300": 0.10677667707204819,
            "301": 0.4042355418205261,
            "302": 0.283321738243103,
            "303": 0.7793899774551392,
            "304": 0.1631314605474472,
            "305": -0.4265151023864746,
            "306": -0.20986078679561615,
            "307": -0.29443657398223877,
            "308": -0.5541696548461914,
            "309": 0.557968020439148,
            "310": 0.3621278405189514,
            "311": 0.5488340258598328,
            "312": -0.5739349722862244,
            "313": -0.009771173819899559,
            "314": -0.8012935519218445,
            "315": -0.08075793087482452,
            "316": 0.2508522868156433,
            "317": 0.6269566416740417,
            "318": 0.9537643194198608,
            "319": 0.7075936198234558,
            "320": -0.5697388648986816,
            "321": 0.825577437877655,
            "322": -0.045577824115753174,
            "323": 1.091366171836853,
            "324": -0.7766122817993164,
            "325": -0.23302949965000153,
            "326": -0.18039783835411072,
            "327": 0.7430092096328735,
            "328": 0.42179563641548157,
            "329": 0.26047053933143616,
            "330": -0.3915638029575348,
            "331": -0.4746648073196411,
            "332": -0.5664243102073669,
            "333": -0.35534122586250305,
            "334": 0.6590143442153931,
            "335": 1.136214256286621,
            "336": -0.09691958874464035,
            "337": -0.6443037390708923,
            "338": 1.0764670372009277,
            "339": 0.25430265069007874
          }
        },
        "inputHidden": {
          "rows": 20,
          "columns": 20,
          "weights": {
            "0": -0.39723244309425354,
            "1": -0.9699217677116394,
            "2": -0.4321487545967102,
            "3": -0.3533957302570343,
            "4": 0.47827988862991333,
            "5": -0.13605833053588867,
            "6": -0.46754997968673706,
            "7": 0.12841884791851044,
            "8": 0.22813212871551514,
            "9": -0.6559595465660095,
            "10": -0.6166365742683411,
            "11": 0.1808309555053711,
            "12": 0.6443063020706177,
            "13": 0.05135514214634895,
            "14": -0.12620240449905396,
            "15": 0.4520125687122345,
            "16": 0.037787556648254395,
            "17": -0.5568117499351501,
            "18": 0.06136534735560417,
            "19": -1.8245739936828613,
            "20": 0.9469018578529358,
            "21": -1.7778189182281494,
            "22": -0.860441267490387,
            "23": 0.9165626168251038,
            "24": 0.5491070747375488,
            "25": 0.7094253897666931,
            "26": -0.11626877635717392,
            "27": 0.4180815517902374,
            "28": 0.262726366519928,
            "29": -0.03674038499593735,
            "30": -1.302484393119812,
            "31": 0.615755558013916,
            "32": 0.18317201733589172,
            "33": 0.13865289092063904,
            "34": -0.5367047786712646,
            "35": 1.6819334030151367,
            "36": -0.357710063457489,
            "37": 0.6168616414070129,
            "38": -0.6926122903823853,
            "39": 0.33178821206092834,
            "40": -0.3637964427471161,
            "41": -0.3422343134880066,
            "42": 1.2515019178390503,
            "43": -1.9037806987762451,
            "44": -0.8897565603256226,
            "45": -1.6815017461776733,
            "46": -0.37954235076904297,
            "47": 1.181206226348877,
            "48": 0.49376705288887024,
            "49": 1.5830692052841187,
            "50": -0.3659517467021942,
            "51": -1.0815279483795166,
            "52": -1.7698312997817993,
            "53": -0.31750115752220154,
            "54": -0.8941372632980347,
            "55": 0.2371123880147934,
            "56": -0.9069093465805054,
            "57": 0.23381447792053223,
            "58": 0.6395545601844788,
            "59": -1.0282436609268188,
            "60": 0.6726497411727905,
            "61": -0.11304879188537598,
            "62": -0.7711756825447083,
            "63": -0.4147122800350189,
            "64": -0.6031044125556946,
            "65": 1.3011059761047363,
            "66": 0.28804874420166016,
            "67": -0.2764809727668762,
            "68": -0.7775231003761292,
            "69": -0.5136162638664246,
            "70": -0.13194292783737183,
            "71": 0.9128798842430115,
            "72": 0.24182970821857452,
            "73": 0.3644658327102661,
            "74": 0.19315750896930695,
            "75": -0.5622662305831909,
            "76": -0.3461610972881317,
            "77": 0.26094287633895874,
            "78": 0.18441525101661682,
            "79": -0.4858143627643585,
            "80": 0.9689159989356995,
            "81": 0.13234558701515198,
            "82": -0.6099300980567932,
            "83": 0.6765013337135315,
            "84": -1.2607769966125488,
            "85": 0.764001190662384,
            "86": 0.2192658632993698,
            "87": -0.38286155462265015,
            "88": -1.2077126502990723,
            "89": -2.0485634803771973,
            "90": 0.21322712302207947,
            "91": 0.27551859617233276,
            "92": 0.6948597431182861,
            "93": 0.21804073452949524,
            "94": 0.08927518129348755,
            "95": -0.1273505836725235,
            "96": 0.25746825337409973,
            "97": 0.22542403638362885,
            "98": -0.016254758462309837,
            "99": -0.07799865305423737,
            "100": 0.2918592393398285,
            "101": -0.2173878252506256,
            "102": -0.5572985410690308,
            "103": 0.4543159604072571,
            "104": 0.6042027473449707,
            "105": 0.12162701040506363,
            "106": -0.5100921392440796,
            "107": -0.04733655974268913,
            "108": 0.635338544845581,
            "109": 0.2650197446346283,
            "110": -0.34542253613471985,
            "111": -0.07355573773384094,
            "112": 0.37380364537239075,
            "113": -0.1191227063536644,
            "114": -0.2564490735530853,
            "115": 0.7903199195861816,
            "116": 0.14455851912498474,
            "117": -0.04610314965248108,
            "118": -0.8272488117218018,
            "119": 0.4358435869216919,
            "120": 0.8862559199333191,
            "121": -0.21322427690029144,
            "122": 0.46292030811309814,
            "123": 0.09885940700769424,
            "124": 0.14107123017311096,
            "125": 0.7029485702514648,
            "126": -0.1687241494655609,
            "127": 0.12676963210105896,
            "128": 0.2656483054161072,
            "129": -0.26881828904151917,
            "130": -0.12542128562927246,
            "131": -0.4812842607498169,
            "132": -0.9749757647514343,
            "133": -0.5433958172798157,
            "134": -0.1736181229352951,
            "135": 0.09375160187482834,
            "136": -1.0438153743743896,
            "137": 0.9285866022109985,
            "138": -1.058465838432312,
            "139": 0.3892861008644104,
            "140": 0.5606970191001892,
            "141": -0.10758502036333084,
            "142": 0.09919308125972748,
            "143": 0.11972519010305405,
            "144": -0.5658851861953735,
            "145": -0.08195327967405319,
            "146": -0.012148995883762836,
            "147": 0.16033487021923065,
            "148": 0.30167314410209656,
            "149": -0.66500324010849,
            "150": -0.10775582492351532,
            "151": -0.764411211013794,
            "152": -1.8498923778533936,
            "153": -0.6150827407836914,
            "154": -0.03335871919989586,
            "155": -0.18904387950897217,
            "156": -1.6189225912094116,
            "157": 0.9411246180534363,
            "158": -0.9160404205322266,
            "159": -0.7965678572654724,
            "160": 0.2226303517818451,
            "161": 0.08523241430521011,
            "162": 1.3765504360198975,
            "163": -0.9745379686355591,
            "164": -1.3536758422851562,
            "165": -1.6100447177886963,
            "166": 0.17660683393478394,
            "167": 0.343710720539093,
            "168": 0.3241272270679474,
            "169": 1.8667958974838257,
            "170": 0.16315241158008575,
            "171": -1.0272583961486816,
            "172": -1.3588658571243286,
            "173": -0.619388222694397,
            "174": -0.3197050094604492,
            "175": 0.150607168674469,
            "176": -1.2502119541168213,
            "177": 0.8841405510902405,
            "178": -0.49816828966140747,
            "179": -1.3914742469787598,
            "180": 1.3724220991134644,
            "181": 0.14469128847122192,
            "182": 0.18678425252437592,
            "183": 0.2813144326210022,
            "184": -0.44280949234962463,
            "185": 1.479321002960205,
            "186": 0.8676366209983826,
            "187": -0.27022990584373474,
            "188": -0.6171219348907471,
            "189": 0.4146755039691925,
            "190": 0.24848990142345428,
            "191": 0.40278100967407227,
            "192": -1.305901050567627,
            "193": -0.9557759761810303,
            "194": 0.6272481083869934,
            "195": -0.4632972776889801,
            "196": -0.772120475769043,
            "197": 0.0619807206094265,
            "198": -0.3024674654006958,
            "199": -1.086829662322998,
            "200": 0.7503893375396729,
            "201": -0.37357255816459656,
            "202": -0.18562591075897217,
            "203": -0.6768684983253479,
            "204": -0.19604478776454926,
            "205": -0.8177803158760071,
            "206": -0.03746873512864113,
            "207": 0.2543942928314209,
            "208": 0.03326821327209473,
            "209": -0.43091630935668945,
            "210": -0.11001361906528473,
            "211": 0.7836093306541443,
            "212": -0.3709172010421753,
            "213": 0.03992540016770363,
            "214": -0.15336360037326813,
            "215": 0.2079298198223114,
            "216": -0.3692716360092163,
            "217": 0.1758989691734314,
            "218": -0.30556708574295044,
            "219": 0.7492978572845459,
            "220": 0.8287604451179504,
            "221": -1.137775182723999,
            "222": 1.1199195384979248,
            "223": 0.9150782227516174,
            "224": 0.2529096305370331,
            "225": 0.0018048214260488749,
            "226": -1.1506441831588745,
            "227": 1.0407931804656982,
            "228": 1.1017522811889648,
            "229": 0.4875795543193817,
            "230": -1.0995222330093384,
            "231": -0.5351343750953674,
            "232": -1.4374476671218872,
            "233": -0.559007465839386,
            "234": -1.0720287561416626,
            "235": 0.9565527439117432,
            "236": -0.8608651161193848,
            "237": 0.6591194868087769,
            "238": -0.5722094774246216,
            "239": 0.3917156457901001,
            "240": -2.038325548171997,
            "241": 1.1603771448135376,
            "242": -1.1442749500274658,
            "243": 0.1462746262550354,
            "244": -0.10333092510700226,
            "245": -0.09160874038934708,
            "246": 0.8860594034194946,
            "247": -1.6093757152557373,
            "248": -1.4216434955596924,
            "249": -0.49174410104751587,
            "250": 1.1185137033462524,
            "251": -0.3098844885826111,
            "252": 1.5092359781265259,
            "253": -0.014014997519552708,
            "254": 1.1682957410812378,
            "255": -0.8362281918525696,
            "256": 0.6350050568580627,
            "257": -0.16676583886146545,
            "258": 0.5923584699630737,
            "259": -0.605522632598877,
            "260": -0.8253305554389954,
            "261": 0.7959188222885132,
            "262": -1.1336311101913452,
            "263": -0.6951159834861755,
            "264": -0.27915531396865845,
            "265": 0.2936234474182129,
            "266": 1.0070949792861938,
            "267": -1.054658055305481,
            "268": -1.1545805931091309,
            "269": -0.08532222360372543,
            "270": 1.05829656124115,
            "271": 1.0843663215637207,
            "272": 1.308935284614563,
            "273": 0.5570540428161621,
            "274": 1.0043669939041138,
            "275": -1.0468624830245972,
            "276": 1.213954210281372,
            "277": -0.5714896321296692,
            "278": 0.6787444949150085,
            "279": 0.34819296002388,
            "280": 0.31719642877578735,
            "281": -0.6677016615867615,
            "282": 0.755440354347229,
            "283": 0.633249044418335,
            "284": 0.6593948006629944,
            "285": 0.4988698661327362,
            "286": -0.3822455108165741,
            "287": 0.23951897025108337,
            "288": 0.030185934156179428,
            "289": -0.03290208801627159,
            "290": -0.5157033801078796,
            "291": -1.2046165466308594,
            "292": -1.2633583545684814,
            "293": -1.0020009279251099,
            "294": -0.34925854206085205,
            "295": 0.17995069921016693,
            "296": -1.5395443439483643,
            "297": 1.2527744770050049,
            "298": -1.2156386375427246,
            "299": 0.4994180500507355,
            "300": 1.0288968086242676,
            "301": -1.250471591949463,
            "302": -0.9384211301803589,
            "303": 0.8323230743408203,
            "304": -0.05274709686636925,
            "305": 0.2175007313489914,
            "306": -0.16834421455860138,
            "307": 0.44395866990089417,
            "308": 0.586026132106781,
            "309": -0.32327041029930115,
            "310": -1.0611653327941895,
            "311": 0.47686904668807983,
            "312": -0.259921133518219,
            "313": 0.14705145359039307,
            "314": -0.4609058201313019,
            "315": 1.0798652172088623,
            "316": -0.40358468890190125,
            "317": 0.2876731753349304,
            "318": -0.5372005105018616,
            "319": 0.42705926299095154,
            "320": -2.4506335258483887,
            "321": 1.6085492372512817,
            "322": -0.8891831636428833,
            "323": -1.2780176401138306,
            "324": -0.21972790360450745,
            "325": -0.18284355103969574,
            "326": 1.3672786951065063,
            "327": -1.4028229713439941,
            "328": -1.2306020259857178,
            "329": 2.5490050315856934,
            "330": 1.8065584897994995,
            "331": 0.5757296085357666,
            "332": 1.661120891571045,
            "333": 0.43939298391342163,
            "334": 1.1827054023742676,
            "335": -1.5420703887939453,
            "336": 1.2888550758361816,
            "337": -0.9369205236434937,
            "338": 0.7771288752555847,
            "339": -0.5181900858879089,
            "340": -0.30637869238853455,
            "341": 0.611857533454895,
            "342": -0.4190663993358612,
            "343": 0.40837594866752625,
            "344": -0.9627987742424011,
            "345": -0.012166827917098999,
            "346": 0.6587948799133301,
            "347": -0.8146116137504578,
            "348": -0.8524155616760254,
            "349": 0.2343144565820694,
            "350": 0.5793376564979553,
            "351": 0.6086586117744446,
            "352": 0.5856527090072632,
            "353": 0.8248037099838257,
            "354": 0.5753446221351624,
            "355": -0.9071043729782104,
            "356": 0.5228844881057739,
            "357": -1.0902475118637085,
            "358": 1.5344963073730469,
            "359": -1.1557339429855347,
            "360": -0.9057958126068115,
            "361": 0.29406893253326416,
            "362": -0.7391062378883362,
            "363": -0.17883020639419556,
            "364": -0.3589307963848114,
            "365": 0.07183846831321716,
            "366": 0.6591936945915222,
            "367": -0.8209497928619385,
            "368": -0.7737423777580261,
            "369": -0.6255308389663696,
            "370": 0.45529526472091675,
            "371": 0.605402946472168,
            "372": 0.6304513812065125,
            "373": -0.35401079058647156,
            "374": 0.7017781138420105,
            "375": -0.789187490940094,
            "376": 0.10071174800395966,
            "377": -0.4263971149921417,
            "378": 0.4962088465690613,
            "379": -0.4604209065437317,
            "380": 0.7840022444725037,
            "381": -1.4002066850662231,
            "382": 0.837009072303772,
            "383": 0.7060339450836182,
            "384": -0.13165833055973053,
            "385": 0.8064802885055542,
            "386": -1.7642295360565186,
            "387": 1.0098204612731934,
            "388": 0.8587629199028015,
            "389": -0.5139886140823364,
            "390": -1.6015501022338867,
            "391": -0.7012403607368469,
            "392": 0.41033288836479187,
            "393": 0.32035958766937256,
            "394": -0.8510092496871948,
            "395": 1.5880520343780518,
            "396": 0.7542167901992798,
            "397": -0.39176347851753235,
            "398": 0.09717971086502075,
            "399": -0.43518906831741333
          }
        },
        "inputBias": {
          "rows": 20,
          "columns": 1,
          "weights": {
            "0": -0.2619158625602722,
            "1": 0.5132702589035034,
            "2": 1.7534626722335815,
            "3": 0.6653311252593994,
            "4": 0.16379094123840332,
            "5": 0.3908815085887909,
            "6": 0.34397760033607483,
            "7": 0.36810392141342163,
            "8": 0.5173260569572449,
            "9": 0.40028950572013855,
            "10": 0.35965558886528015,
            "11": 0.05375302955508232,
            "12": 0.48587027192115784,
            "13": -0.8015232682228088,
            "14": -0.5550987720489502,
            "15": 0.3316132724285126,
            "16": -0.796625018119812,
            "17": -0.19859232008457184,
            "18": -0.3238537907600403,
            "19": -0.06435155123472214
          }
        },
        "forgetMatrix": {
          "rows": 20,
          "columns": 17,
          "weights": {
            "0": 0.875841498374939,
            "1": -0.22610355913639069,
            "2": 1.5777394771575928,
            "3": -0.82896888256073,
            "4": -0.3802955448627472,
            "5": -0.12349209934473038,
            "6": 0.7580706477165222,
            "7": 0.640704333782196,
            "8": -0.14827147126197815,
            "9": 1.3642069101333618,
            "10": -0.6251864433288574,
            "11": -0.8859082460403442,
            "12": -2.205671548843384,
            "13": -0.6461201310157776,
            "14": -0.23444239795207977,
            "15": -0.21635425090789795,
            "16": 1.2066066265106201,
            "17": 0.5760299563407898,
            "18": -0.25013500452041626,
            "19": -0.1785815805196762,
            "20": -0.35965442657470703,
            "21": 0.20733195543289185,
            "22": -0.6313223242759705,
            "23": 0.6998381614685059,
            "24": -0.024286320433020592,
            "25": 0.05377432703971863,
            "26": 0.7954541444778442,
            "27": -0.7653207778930664,
            "28": -0.39005815982818604,
            "29": -0.030676227062940598,
            "30": -0.4217414855957031,
            "31": -0.4295147657394409,
            "32": -0.04875421151518822,
            "33": 0.7564983367919922,
            "34": 0.038544364273548126,
            "35": 0.30789220333099365,
            "36": 0.6743713021278381,
            "37": -0.6159720420837402,
            "38": -0.2377968579530716,
            "39": -0.5869790315628052,
            "40": 0.4305358827114105,
            "41": 0.22395996749401093,
            "42": 0.7861747741699219,
            "43": 0.6360819339752197,
            "44": -0.47806480526924133,
            "45": -0.7147749662399292,
            "46": -1.0783753395080566,
            "47": -0.6030496954917908,
            "48": 0.55646151304245,
            "49": -0.6326388120651245,
            "50": 0.4498858153820038,
            "51": -0.32959312200546265,
            "52": -0.508814811706543,
            "53": 0.1472170203924179,
            "54": -0.28017833828926086,
            "55": 0.24266216158866882,
            "56": -0.17158009111881256,
            "57": 0.9888342022895813,
            "58": 0.04230323061347008,
            "59": -0.6166533827781677,
            "60": 0.6257922649383545,
            "61": -0.21757644414901733,
            "62": -0.6557736396789551,
            "63": -0.24112153053283691,
            "64": -0.03041924722492695,
            "65": -0.592584490776062,
            "66": 0.4543754458427429,
            "67": 0.48739007115364075,
            "68": 0.04467754811048508,
            "69": 0.4322828948497772,
            "70": 0.5173245668411255,
            "71": -0.8280089497566223,
            "72": -0.6456426978111267,
            "73": -0.8682629466056824,
            "74": 1.119410753250122,
            "75": 0.883259117603302,
            "76": 0.13737145066261292,
            "77": 0.6260642409324646,
            "78": -1.149394154548645,
            "79": -0.3424322009086609,
            "80": -0.3174445331096649,
            "81": -0.5749101638793945,
            "82": 0.31295502185821533,
            "83": -0.21940326690673828,
            "84": 0.6218872666358948,
            "85": -0.4106859862804413,
            "86": 0.8432988524436951,
            "87": 0.4068078100681305,
            "88": 0.6003952026367188,
            "89": -0.3232729434967041,
            "90": 0.770401120185852,
            "91": -0.8711092472076416,
            "92": 0.43590325117111206,
            "93": 0.27806466817855835,
            "94": -0.9523074626922607,
            "95": 0.9386085867881775,
            "96": 0.5126416087150574,
            "97": 0.45295384526252747,
            "98": 0.41742849349975586,
            "99": 1.078522801399231,
            "100": 0.0282262172549963,
            "101": -0.7951270937919617,
            "102": 0.2009681761264801,
            "103": -0.07305565476417542,
            "104": 0.19770604372024536,
            "105": -0.3432258069515228,
            "106": 0.33568960428237915,
            "107": -0.23280392587184906,
            "108": 0.31347906589508057,
            "109": 0.2969239354133606,
            "110": 0.13516709208488464,
            "111": 0.4158031642436981,
            "112": -0.4361572265625,
            "113": -0.5152404308319092,
            "114": 0.016070935875177383,
            "115": -0.3985045850276947,
            "116": 0.023294642567634583,
            "117": 0.41521310806274414,
            "118": 0.29067564010620117,
            "119": 0.5227005481719971,
            "120": 0.32345154881477356,
            "121": 0.5026837587356567,
            "122": -0.8048890233039856,
            "123": -0.26099342107772827,
            "124": -1.1063175201416016,
            "125": 1.339751124382019,
            "126": 0.5648806691169739,
            "127": 0.3679909408092499,
            "128": 0.8997625112533569,
            "129": -1.4115617275238037,
            "130": -0.6766695976257324,
            "131": -0.7733495235443115,
            "132": -1.0135133266448975,
            "133": 0.5110931396484375,
            "134": -0.5626777410507202,
            "135": 0.7290855646133423,
            "136": 0.3798360526561737,
            "137": -0.23285901546478271,
            "138": 0.0014514614595100284,
            "139": -0.508823037147522,
            "140": 0.08975125849246979,
            "141": -0.6132416129112244,
            "142": 0.7312824130058289,
            "143": -0.26088520884513855,
            "144": 0.10055293887853622,
            "145": 0.9155662655830383,
            "146": -0.6479669213294983,
            "147": -0.7797040939331055,
            "148": -0.28277283906936646,
            "149": -0.44394662976264954,
            "150": -0.38649582862854004,
            "151": -0.0722329244017601,
            "152": 0.6887429356575012,
            "153": -0.5958951711654663,
            "154": -0.08720296621322632,
            "155": -1.4240168333053589,
            "156": 0.6863961219787598,
            "157": 0.8333907127380371,
            "158": 0.6185813546180725,
            "159": -0.20622868835926056,
            "160": -1.0406100749969482,
            "161": 0.008414390496909618,
            "162": 0.3269048035144806,
            "163": 0.45631203055381775,
            "164": 0.04323158785700798,
            "165": 1.2086340188980103,
            "166": 0.06825628131628036,
            "167": -0.2790808081626892,
            "168": 0.7612539529800415,
            "169": -0.3655240833759308,
            "170": -0.06144978106021881,
            "171": 0.40787944197654724,
            "172": 0.4410336911678314,
            "173": -0.3231789469718933,
            "174": -0.3782167434692383,
            "175": -0.3412034213542938,
            "176": 0.3356606662273407,
            "177": 0.33845028281211853,
            "178": 0.2929287254810333,
            "179": 0.2797229588031769,
            "180": -0.36564892530441284,
            "181": -0.39157646894454956,
            "182": -0.7089741230010986,
            "183": -0.20720268785953522,
            "184": 0.2611919343471527,
            "185": 0.2647011876106262,
            "186": 0.2840307056903839,
            "187": 0.29425951838493347,
            "188": -1.0975840091705322,
            "189": 0.1274515986442566,
            "190": -0.6295520663261414,
            "191": 0.9747800230979919,
            "192": 0.03882886841893196,
            "193": 0.5372795462608337,
            "194": -0.010521609336137772,
            "195": -0.38330090045928955,
            "196": 0.45752742886543274,
            "197": -0.6087521314620972,
            "198": -0.6710278391838074,
            "199": -0.32228976488113403,
            "200": -0.4696834981441498,
            "201": -0.7568187713623047,
            "202": 1.0119074583053589,
            "203": 0.6359134316444397,
            "204": -1.6617707014083862,
            "205": 0.04014243185520172,
            "206": 0.04238765686750412,
            "207": 0.8539697527885437,
            "208": 0.02529137395322323,
            "209": 0.4450317919254303,
            "210": -1.3642055988311768,
            "211": -0.1084366887807846,
            "212": -0.17825916409492493,
            "213": -0.7887174487113953,
            "214": 0.7503671050071716,
            "215": 1.197378158569336,
            "216": 0.7088328003883362,
            "217": 0.7416304349899292,
            "218": 0.26145151257514954,
            "219": 0.46472790837287903,
            "220": -0.9248824119567871,
            "221": 0.14755646884441376,
            "222": 0.6225600242614746,
            "223": 0.4862707853317261,
            "224": 0.32193243503570557,
            "225": 0.0677437111735344,
            "226": 0.5938501358032227,
            "227": -0.5978831648826599,
            "228": 0.6660149097442627,
            "229": 0.23651675879955292,
            "230": -0.43557801842689514,
            "231": 0.43721315264701843,
            "232": 0.4548751711845398,
            "233": 0.0937829315662384,
            "234": 0.31288769841194153,
            "235": 0.5819613933563232,
            "236": -0.49562445282936096,
            "237": -0.2860826253890991,
            "238": 0.1909845769405365,
            "239": 0.09349539875984192,
            "240": 0.12825079262256622,
            "241": -0.7404837012290955,
            "242": -0.06241832673549652,
            "243": -0.6946857571601868,
            "244": 0.6924372911453247,
            "245": -0.20511183142662048,
            "246": 0.022568020969629288,
            "247": 0.6556082963943481,
            "248": -0.807318389415741,
            "249": -0.9624517560005188,
            "250": -0.29288652539253235,
            "251": -0.7187058925628662,
            "252": 0.18328873813152313,
            "253": -0.05425779148936272,
            "254": 0.5713637471199036,
            "255": 0.4246956408023834,
            "256": -0.2804921269416809,
            "257": -0.08484059572219849,
            "258": -0.3934440612792969,
            "259": 0.13100139796733856,
            "260": -0.47858160734176636,
            "261": 0.5794833302497864,
            "262": -0.06012853980064392,
            "263": 0.04158036783337593,
            "264": 0.5639469623565674,
            "265": -0.6209908127784729,
            "266": -0.2906835973262787,
            "267": -0.22549834847450256,
            "268": -0.4189973771572113,
            "269": -0.29703590273857117,
            "270": -0.03037051297724247,
            "271": 0.5966371893882751,
            "272": -0.24966353178024292,
            "273": 0.5241349935531616,
            "274": 0.49649354815483093,
            "275": 0.9729347825050354,
            "276": -0.4017627537250519,
            "277": 0.7947543263435364,
            "278": -0.7488883137702942,
            "279": 0.7885541319847107,
            "280": 0.46636614203453064,
            "281": -0.9019692540168762,
            "282": 0.7409127354621887,
            "283": 0.8099213242530823,
            "284": 0.16588203608989716,
            "285": 0.8342534899711609,
            "286": 0.7942785620689392,
            "287": -0.15299703180789948,
            "288": -1.0229612588882446,
            "289": 0.6960402131080627,
            "290": 0.007126798387616873,
            "291": 0.4613889753818512,
            "292": -0.245448037981987,
            "293": 0.033225562423467636,
            "294": 1.5667920112609863,
            "295": -0.03041893243789673,
            "296": -0.6952541470527649,
            "297": -0.37153360247612,
            "298": 0.3155011832714081,
            "299": -0.14762772619724274,
            "300": -0.25575578212738037,
            "301": 0.023374518379569054,
            "302": -0.10009391605854034,
            "303": 0.06927789747714996,
            "304": 0.6694749593734741,
            "305": 0.13204477727413177,
            "306": 0.12753890454769135,
            "307": 0.6857355237007141,
            "308": 0.5620148181915283,
            "309": 0.6232403516769409,
            "310": -0.5183332562446594,
            "311": 0.19921037554740906,
            "312": -0.7135432362556458,
            "313": 0.8963296413421631,
            "314": 0.9717308282852173,
            "315": -0.7961229681968689,
            "316": 0.5060614943504333,
            "317": 0.8383134603500366,
            "318": 0.24655014276504517,
            "319": 0.33716917037963867,
            "320": 0.9025323390960693,
            "321": -0.4927704334259033,
            "322": -0.4698151648044586,
            "323": 0.2927112877368927,
            "324": 0.46055611968040466,
            "325": 0.6249017715454102,
            "326": -0.46522390842437744,
            "327": 0.04431530460715294,
            "328": -0.740460216999054,
            "329": 0.5140353441238403,
            "330": 0.015410304069519043,
            "331": 0.5711436867713928,
            "332": -0.10047223418951035,
            "333": -0.9563866257667542,
            "334": 0.19302360713481903,
            "335": 0.09734684228897095,
            "336": -0.7662839293479919,
            "337": 0.4010981023311615,
            "338": -0.3250183165073395,
            "339": 0.5315526127815247
          }
        },
        "forgetHidden": {
          "rows": 20,
          "columns": 20,
          "weights": {
            "0": -1.3445513248443604,
            "1": -0.809160053730011,
            "2": 0.18524284660816193,
            "3": 0.022789161652326584,
            "4": -0.17293097078800201,
            "5": 0.29964694380760193,
            "6": -0.9108553528785706,
            "7": 0.4581644833087921,
            "8": -0.02589714340865612,
            "9": -0.1283157914876938,
            "10": -0.7073016166687012,
            "11": 0.37054726481437683,
            "12": 1.1757028102874756,
            "13": 0.7369487285614014,
            "14": -0.8575876355171204,
            "15": 0.5924246311187744,
            "16": 1.0182521343231201,
            "17": -0.7811678051948547,
            "18": 0.32957372069358826,
            "19": -0.35797780752182007,
            "20": 0.2375275194644928,
            "21": -0.6303458213806152,
            "22": 0.580990195274353,
            "23": 0.7306472063064575,
            "24": 0.5356665253639221,
            "25": 0.2416244000196457,
            "26": -0.5713348388671875,
            "27": 0.752726674079895,
            "28": 0.5137253403663635,
            "29": -0.0023376785684376955,
            "30": -0.6947881579399109,
            "31": -0.5483248233795166,
            "32": 0.31045857071876526,
            "33": 0.039851509034633636,
            "34": -0.5612479448318481,
            "35": 0.6008328795433044,
            "36": 0.10313936322927475,
            "37": 0.14775528013706207,
            "38": -0.32990291714668274,
            "39": 0.5338138341903687,
            "40": 0.5790109634399414,
            "41": -0.7945530414581299,
            "42": 0.6993919610977173,
            "43": 0.9073376655578613,
            "44": 0.5922406911849976,
            "45": 0.35260841250419617,
            "46": -0.7609726786613464,
            "47": 0.8665146827697754,
            "48": 0.6738840937614441,
            "49": -0.4853983223438263,
            "50": -0.7244049906730652,
            "51": -0.5134098529815674,
            "52": -0.15488873422145844,
            "53": 0.17284201085567474,
            "54": -0.7226861715316772,
            "55": 0.7300805449485779,
            "56": -0.7362934350967407,
            "57": 0.16125774383544922,
            "58": -0.7220132946968079,
            "59": 1.005327820777893,
            "60": -0.207521453499794,
            "61": -0.9074720740318298,
            "62": 0.34320658445358276,
            "63": 0.6784173250198364,
            "64": 0.46503379940986633,
            "65": 0.4256798326969147,
            "66": -0.8249316215515137,
            "67": 0.7576435804367065,
            "68": 0.520882785320282,
            "69": -0.3281448483467102,
            "70": -0.9616860151290894,
            "71": -1.0490515232086182,
            "72": 0.6204295754432678,
            "73": 0.20952436327934265,
            "74": -0.9200839400291443,
            "75": 0.7895267009735107,
            "76": 0.31447482109069824,
            "77": -0.1993919461965561,
            "78": -0.40970379114151,
            "79": 0.1033828929066658,
            "80": -0.40848207473754883,
            "81": -0.7398527264595032,
            "82": 0.4008694887161255,
            "83": 0.6716017723083496,
            "84": 0.4335777759552002,
            "85": 0.40744099020957947,
            "86": -0.6696106791496277,
            "87": 0.5391134023666382,
            "88": 0.3183470666408539,
            "89": 0.10434725880622864,
            "90": -0.6312008500099182,
            "91": -0.4602828621864319,
            "92": -0.2335188090801239,
            "93": 0.5242531895637512,
            "94": -0.6750125885009766,
            "95": 0.5800762176513672,
            "96": 0.05652053654193878,
            "97": -0.2250131070613861,
            "98": 0.044508788734674454,
            "99": 0.3392353653907776,
            "100": -0.40688666701316833,
            "101": 0.5353294610977173,
            "102": -0.2661159336566925,
            "103": -0.5843682885169983,
            "104": -0.8601608276367188,
            "105": -0.5091252326965332,
            "106": 0.6675980091094971,
            "107": -0.4449927806854248,
            "108": -0.6911617517471313,
            "109": 0.16684626042842865,
            "110": 0.5605900883674622,
            "111": 0.6322945356369019,
            "112": -0.3722471296787262,
            "113": -0.36854153871536255,
            "114": 0.6572208404541016,
            "115": -0.6255804300308228,
            "116": -0.43442806601524353,
            "117": 0.08236711472272873,
            "118": 0.04913293570280075,
            "119": -0.6533029079437256,
            "120": 0.012318539433181286,
            "121": -0.7454394698143005,
            "122": 0.8438923954963684,
            "123": 0.8660802245140076,
            "124": 0.5736940503120422,
            "125": -0.19411815702915192,
            "126": -0.730094850063324,
            "127": 0.8757733106613159,
            "128": 0.7704274654388428,
            "129": 0.7582732439041138,
            "130": -0.816896378993988,
            "131": -0.7278075218200684,
            "132": -0.0028804524336010218,
            "133": 0.09686852991580963,
            "134": -0.7969989776611328,
            "135": 0.7315778136253357,
            "136": -0.09498633444309235,
            "137": 0.15469306707382202,
            "138": -0.2041543424129486,
            "139": 0.3069693148136139,
            "140": -0.35139456391334534,
            "141": -0.44777652621269226,
            "142": 0.7116982340812683,
            "143": 0.24302756786346436,
            "144": 0.3089583218097687,
            "145": 0.7169426679611206,
            "146": -0.5154095888137817,
            "147": 0.5086527466773987,
            "148": 0.5256357192993164,
            "149": -1.0605050325393677,
            "150": -0.4651489555835724,
            "151": -0.3108932375907898,
            "152": 0.44700658321380615,
            "153": -0.023654218763113022,
            "154": -0.614952802658081,
            "155": 0.5114883780479431,
            "156": -0.04716263338923454,
            "157": 0.11523528397083282,
            "158": 0.023235920816659927,
            "159": 0.44487303495407104,
            "160": 0.22749558091163635,
            "161": -0.6620466113090515,
            "162": 0.4521794021129608,
            "163": 0.6977575421333313,
            "164": 0.45282018184661865,
            "165": 0.38837766647338867,
            "166": -0.5403625965118408,
            "167": 0.6496109366416931,
            "168": 0.444151908159256,
            "169": 0.14364463090896606,
            "170": -0.6884557604789734,
            "171": -0.5783960819244385,
            "172": 0.3702240586280823,
            "173": 0.09334098547697067,
            "174": -0.5655839443206787,
            "175": 0.5572850108146667,
            "176": -0.17281174659729004,
            "177": 0.094754658639431,
            "178": -0.9341559410095215,
            "179": 0.4691925346851349,
            "180": -0.5830175280570984,
            "181": 0.8413276672363281,
            "182": 0.983657956123352,
            "183": -0.46776527166366577,
            "184": -1.362844705581665,
            "185": -0.06386498361825943,
            "186": 0.5708975791931152,
            "187": 0.2178824096918106,
            "188": 0.5461643934249878,
            "189": 0.16251935064792633,
            "190": 0.7660598754882812,
            "191": 0.12491098791360855,
            "192": 0.04332631453871727,
            "193": -0.5004648566246033,
            "194": 0.8108556866645813,
            "195": -0.29382258653640747,
            "196": 0.06048541143536568,
            "197": 0.28304675221443176,
            "198": 1.4713445901870728,
            "199": -0.45385798811912537,
            "200": 0.9783240556716919,
            "201": -0.9194620847702026,
            "202": 0.9244838356971741,
            "203": 0.7629410624504089,
            "204": 0.4549296498298645,
            "205": 0.1767222285270691,
            "206": -0.9080289602279663,
            "207": 0.9772855043411255,
            "208": 0.7936124205589294,
            "209": 0.12630921602249146,
            "210": -0.9051868915557861,
            "211": -0.8446401357650757,
            "212": 0.4829197824001312,
            "213": -0.06438601016998291,
            "214": -0.9220612049102783,
            "215": 0.8179262280464172,
            "216": -0.11428851634263992,
            "217": 0.32727012038230896,
            "218": -0.532720148563385,
            "219": 0.29530927538871765,
            "220": 0.3247961401939392,
            "221": -0.7601462006568909,
            "222": 0.6659337282180786,
            "223": 0.9328941106796265,
            "224": 0.5212188959121704,
            "225": 0.16005228459835052,
            "226": -0.6179407835006714,
            "227": 0.9153363108634949,
            "228": 0.7518138289451599,
            "229": -0.17714691162109375,
            "230": -0.751728355884552,
            "231": -0.504313051700592,
            "232": 0.14485067129135132,
            "233": -0.21985487639904022,
            "234": -0.6889708638191223,
            "235": 0.626658022403717,
            "236": 0.17800574004650116,
            "237": 0.3476508557796478,
            "238": -0.8307856321334839,
            "239": 0.5623512864112854,
            "240": 0.24767932295799255,
            "241": 0.4222604036331177,
            "242": 0.08183456212282181,
            "243": -0.4566379487514496,
            "244": -0.05233374610543251,
            "245": -1.0664970874786377,
            "246": 0.15108318626880646,
            "247": -0.6332190036773682,
            "248": 0.6489371061325073,
            "249": 0.742125391960144,
            "250": 0.36939892172813416,
            "251": -0.12036782503128052,
            "252": -0.2999427914619446,
            "253": -0.9758933186531067,
            "254": 0.05616891756653786,
            "255": -0.4443241357803345,
            "256": -0.35145169496536255,
            "257": 0.7973263263702393,
            "258": -0.7181153297424316,
            "259": 0.18736562132835388,
            "260": 0.23218291997909546,
            "261": 0.2565557658672333,
            "262": -0.6529303193092346,
            "263": -0.3542410135269165,
            "264": -0.39389950037002563,
            "265": -0.19908712804317474,
            "266": 0.6414355635643005,
            "267": -0.384683758020401,
            "268": -0.3394092321395874,
            "269": 0.16819189488887787,
            "270": 0.48746606707572937,
            "271": 0.8132894039154053,
            "272": -0.37583139538764954,
            "273": -0.21247288584709167,
            "274": 0.6783279180526733,
            "275": -0.30232474207878113,
            "276": -0.26742634177207947,
            "277": -0.1176760345697403,
            "278": -0.22535158693790436,
            "279": 0.18497520685195923,
            "280": 0.3107362687587738,
            "281": -0.5465292930603027,
            "282": 0.5659133791923523,
            "283": 0.4542761743068695,
            "284": 0.5481749176979065,
            "285": 0.28228119015693665,
            "286": -0.5194979906082153,
            "287": 0.5113353133201599,
            "288": 0.4424177408218384,
            "289": 0.06347798556089401,
            "290": -0.5023212432861328,
            "291": -0.5292841196060181,
            "292": -0.0794062465429306,
            "293": -0.029299208894371986,
            "294": -0.4735583961009979,
            "295": 0.5146821737289429,
            "296": -0.04688171669840813,
            "297": 0.3002513349056244,
            "298": -0.20678189396858215,
            "299": 0.5859065651893616,
            "300": 0.17484328150749207,
            "301": -0.5655378103256226,
            "302": 0.5862649083137512,
            "303": 0.5302812457084656,
            "304": 0.486941397190094,
            "305": -0.018380697816610336,
            "306": -0.5721160769462585,
            "307": 0.7286398410797119,
            "308": 0.5649080872535706,
            "309": 0.15668486058712006,
            "310": -0.7079225778579712,
            "311": -0.5560240745544434,
            "312": -0.42328616976737976,
            "313": -0.08075370639562607,
            "314": -0.5440320372581482,
            "315": 0.5254582166671753,
            "316": -0.15000931918621063,
            "317": 0.07033582776784897,
            "318": 0.15105967223644257,
            "319": 0.4201488792896271,
            "320": 0.27838602662086487,
            "321": 0.011503521353006363,
            "322": -0.36262401938438416,
            "323": -0.04552129656076431,
            "324": -0.18881550431251526,
            "325": -0.16490128636360168,
            "326": 0.09685926884412766,
            "327": -0.13177183270454407,
            "328": -0.07695645838975906,
            "329": 0.17339180409908295,
            "330": 0.041484929621219635,
            "331": 0.5645994544029236,
            "332": -0.738627016544342,
            "333": -0.602631688117981,
            "334": 0.13362395763397217,
            "335": 0.0024872433859854937,
            "336": -0.8107995986938477,
            "337": 0.5326346158981323,
            "338": -0.6015746593475342,
            "339": 0.07512161880731583,
            "340": 0.9974628686904907,
            "341": 0.21878370642662048,
            "342": -0.7493612170219421,
            "343": -0.33589306473731995,
            "344": -0.37878093123435974,
            "345": 0.008600002154707909,
            "346": 0.5341957807540894,
            "347": -0.3663872480392456,
            "348": -0.3872372806072235,
            "349": -0.1094546839594841,
            "350": 0.22107136249542236,
            "351": 1.1464499235153198,
            "352": -0.23535427451133728,
            "353": -0.29029420018196106,
            "354": 0.4617496132850647,
            "355": -0.31461817026138306,
            "356": -0.47991102933883667,
            "357": 0.6967096924781799,
            "358": -0.737144947052002,
            "359": 0.5516824722290039,
            "360": 0.2577016353607178,
            "361": 0.4320014715194702,
            "362": -0.2588900625705719,
            "363": -0.4911547303199768,
            "364": -0.5647992491722107,
            "365": 0.18581007421016693,
            "366": 0.38292476534843445,
            "367": -0.775134265422821,
            "368": -0.6946456432342529,
            "369": -0.08651912957429886,
            "370": 0.492727130651474,
            "371": 0.8021699786186218,
            "372": -0.052026621997356415,
            "373": -0.6093350052833557,
            "374": 0.5381389856338501,
            "375": -0.6264268159866333,
            "376": -0.45594561100006104,
            "377": 0.2694404125213623,
            "378": -0.1668851673603058,
            "379": -0.1831204742193222,
            "380": 0.5761731266975403,
            "381": -1.0763659477233887,
            "382": 0.49816787242889404,
            "383": 0.1252523511648178,
            "384": -0.3224378824234009,
            "385": -0.9229534268379211,
            "386": -1.173861026763916,
            "387": 1.1321786642074585,
            "388": 0.5749896764755249,
            "389": 0.5701778531074524,
            "390": -1.28311026096344,
            "391": -0.08641138672828674,
            "392": -2.114659070968628,
            "393": 0.6222884654998779,
            "394": -1.1004408597946167,
            "395": 1.2215545177459717,
            "396": -0.3893388509750366,
            "397": 0.07031752169132233,
            "398": 0.16737477481365204,
            "399": 0.08386938273906708
          }
        },
        "forgetBias": {
          "rows": 20,
          "columns": 1,
          "weights": {
            "0": 0,
            "1": 0,
            "2": 0,
            "3": 0,
            "4": 0,
            "5": 0,
            "6": 0,
            "7": 0,
            "8": 0,
            "9": 0,
            "10": 0,
            "11": 0,
            "12": 0,
            "13": 0,
            "14": 0,
            "15": 0,
            "16": 0,
            "17": 0,
            "18": 0,
            "19": 0
          }
        },
        "outputMatrix": {
          "rows": 20,
          "columns": 17,
          "weights": {
            "0": -1.0687016248703003,
            "1": -0.27110734581947327,
            "2": 0.13453105092048645,
            "3": 0.7367232441902161,
            "4": 0.06608390808105469,
            "5": 0.6070472002029419,
            "6": -0.7698473930358887,
            "7": 0.791540801525116,
            "8": 0.1413174569606781,
            "9": -0.17012619972229004,
            "10": 0.8870545029640198,
            "11": 0.764208972454071,
            "12": -0.501492977142334,
            "13": 0.722623348236084,
            "14": -0.5000855326652527,
            "15": -0.4580433666706085,
            "16": -0.43548041582107544,
            "17": 0.8190242648124695,
            "18": -0.2943389415740967,
            "19": -0.542248547077179,
            "20": -1.4483792781829834,
            "21": 0.4572014808654785,
            "22": -1.187501072883606,
            "23": 0.7911252975463867,
            "24": -1.1384621858596802,
            "25": -0.34837260842323303,
            "26": 0.96382737159729,
            "27": -1.2359572649002075,
            "28": -0.7021056413650513,
            "29": 0.9325487613677979,
            "30": -1.3116508722305298,
            "31": -0.6258646249771118,
            "32": 0.2915118932723999,
            "33": 1.5320261716842651,
            "34": 0.21858471632003784,
            "35": -1.2395480871200562,
            "36": -0.13365662097930908,
            "37": -0.30006298422813416,
            "38": 1.0344772338867188,
            "39": -0.5030485391616821,
            "40": 0.2800388038158417,
            "41": -0.7674619555473328,
            "42": -0.4127347469329834,
            "43": 0.6898944973945618,
            "44": -0.44225332140922546,
            "45": -0.5099457502365112,
            "46": -0.4663734436035156,
            "47": -0.044536735862493515,
            "48": -1.0942727327346802,
            "49": 0.3632899224758148,
            "50": 0.38344624638557434,
            "51": 0.41725054383277893,
            "52": -0.7548586130142212,
            "53": -0.6790004968643188,
            "54": 0.571010172367096,
            "55": 0.7276950478553772,
            "56": 0.5417985916137695,
            "57": 0.0970478504896164,
            "58": -0.7618218064308167,
            "59": -2.5334012508392334,
            "60": 0.2034640610218048,
            "61": 0.08604671061038971,
            "62": -0.4254437983036041,
            "63": 1.1121668815612793,
            "64": 0.9140293598175049,
            "65": -0.8357785940170288,
            "66": 2.510105848312378,
            "67": -0.5733339786529541,
            "68": 1.4851149320602417,
            "69": -0.9951618909835815,
            "70": -0.1352171003818512,
            "71": -0.6451478600502014,
            "72": 1.3579667806625366,
            "73": 0.7475632429122925,
            "74": 0.6895996332168579,
            "75": -1.264745831489563,
            "76": -1.0380152463912964,
            "77": 0.27432557940483093,
            "78": -0.6679615378379822,
            "79": -0.6078377962112427,
            "80": 1.5325263738632202,
            "81": -0.29680538177490234,
            "82": -1.3490678071975708,
            "83": 1.4461538791656494,
            "84": 0.5873408913612366,
            "85": 0.3867252469062805,
            "86": -1.7948505878448486,
            "87": -1.6213852167129517,
            "88": -0.5279021859169006,
            "89": 1.6771320104599,
            "90": 0.000798371562268585,
            "91": 0.11534230411052704,
            "92": -2.2917966842651367,
            "93": -0.9407928586006165,
            "94": 0.19628308713436127,
            "95": -0.6397411823272705,
            "96": -0.22416655719280243,
            "97": 1.5899856090545654,
            "98": -0.4605770707130432,
            "99": -2.0378329753875732,
            "100": 0.6527199745178223,
            "101": 0.7030690908432007,
            "102": 0.5293374061584473,
            "103": -0.5572324991226196,
            "104": -0.6709762215614319,
            "105": -0.8693758249282837,
            "106": 0.6207822561264038,
            "107": -0.8545005321502686,
            "108": 0.6670746803283691,
            "109": -0.6996321082115173,
            "110": -0.8761282563209534,
            "111": 0.5676043033599854,
            "112": -0.9481784701347351,
            "113": -0.4581514894962311,
            "114": 0.6520912051200867,
            "115": -0.9092515707015991,
            "116": -0.6976853013038635,
            "117": 0.07415641844272614,
            "118": 0.8369587659835815,
            "119": 0.3718520402908325,
            "120": -0.3639346957206726,
            "121": 0.386717289686203,
            "122": -1.647083044052124,
            "123": 0.4856415092945099,
            "124": -0.7184376120567322,
            "125": 1.34685480594635,
            "126": -1.0218983888626099,
            "127": -0.7934936285018921,
            "128": 1.596290111541748,
            "129": -1.238074779510498,
            "130": -1.820391058921814,
            "131": -0.6168962121009827,
            "132": -0.7962381839752197,
            "133": -0.4817812442779541,
            "134": -0.0031468505039811134,
            "135": 1.3379108905792236,
            "136": 0.233242928981781,
            "137": -0.11715413630008698,
            "138": 0.5637904405593872,
            "139": -1.773170828819275,
            "140": -0.06650546193122864,
            "141": -0.6680577993392944,
            "142": 1.3816019296646118,
            "143": -0.9329151511192322,
            "144": -0.329330176115036,
            "145": 1.561277151107788,
            "146": -1.2678756713867188,
            "147": -2.076669692993164,
            "148": -0.7039350271224976,
            "149": -1.522337794303894,
            "150": -0.38760659098625183,
            "151": -0.3919433355331421,
            "152": 1.35242760181427,
            "153": -0.22688089311122894,
            "154": -1.783993124961853,
            "155": -2.1531360149383545,
            "156": -0.2989700138568878,
            "157": 2.3075625896453857,
            "158": -0.038680363446474075,
            "159": -0.13119663298130035,
            "160": -0.7599353790283203,
            "161": -2.5495975017547607,
            "162": 1.7607229948043823,
            "163": 0.07558929175138474,
            "164": -0.8982257843017578,
            "165": 0.7558488249778748,
            "166": -0.0871504545211792,
            "167": -2.536726951599121,
            "168": 1.1255477666854858,
            "169": 0.35561609268188477,
            "170": 0.9877927303314209,
            "171": -0.20901170372962952,
            "172": -0.5391897559165955,
            "173": -0.9333344101905823,
            "174": 0.806349515914917,
            "175": -0.7404168248176575,
            "176": 0.5939792394638062,
            "177": -0.6883528828620911,
            "178": -0.8904333710670471,
            "179": 0.5210856795310974,
            "180": -0.9498967528343201,
            "181": -0.4651511311531067,
            "182": 1.0884461402893066,
            "183": -1.2277978658676147,
            "184": -0.6014329791069031,
            "185": 0.20939312875270844,
            "186": 0.8842061758041382,
            "187": 0.7190780639648438,
            "188": -0.18157818913459778,
            "189": 1.0745484828948975,
            "190": -0.673412561416626,
            "191": 0.3060586750507355,
            "192": -0.07284580916166306,
            "193": 0.5909796953201294,
            "194": 0.6357532143592834,
            "195": 0.1677253246307373,
            "196": 0.3158634901046753,
            "197": -0.6325806975364685,
            "198": -0.34226107597351074,
            "199": -0.7533210515975952,
            "200": -0.7595526576042175,
            "201": 0.6005201935768127,
            "202": -0.0390104316174984,
            "203": 0.613394558429718,
            "204": -1.2439167499542236,
            "205": 0.11667117476463318,
            "206": -1.4664061069488525,
            "207": 0.5524243712425232,
            "208": -0.12947049736976624,
            "209": -0.3858490288257599,
            "210": -0.39148184657096863,
            "211": -1.2402280569076538,
            "212": 0.44339412450790405,
            "213": 0.10064221918582916,
            "214": 0.5179781913757324,
            "215": 0.16833047568798065,
            "216": 0.5300490260124207,
            "217": 0.6764929890632629,
            "218": -1.364168643951416,
            "219": 0.4472425580024719,
            "220": -0.5684716105461121,
            "221": -0.3351801931858063,
            "222": 0.47280579805374146,
            "223": 0.5245547294616699,
            "224": 0.3234200179576874,
            "225": -0.6199397444725037,
            "226": 0.265032023191452,
            "227": -0.2822639048099518,
            "228": 0.2507270872592926,
            "229": 0.24442993104457855,
            "230": -0.36712923645973206,
            "231": 0.1576644480228424,
            "232": 0.2448303997516632,
            "233": 0.009343331679701805,
            "234": 0.19872595369815826,
            "235": 0.46086007356643677,
            "236": -0.16485008597373962,
            "237": -0.31525373458862305,
            "238": 0.8186127543449402,
            "239": -0.1721273809671402,
            "240": 0.022807221859693527,
            "241": -1.9626795053482056,
            "242": 0.061248645186424255,
            "243": -0.9657310247421265,
            "244": 2.1307501792907715,
            "245": -1.108910322189331,
            "246": -0.341810941696167,
            "247": 0.811435878276825,
            "248": -2.026779890060425,
            "249": -1.0480449199676514,
            "250": -0.4009464383125305,
            "251": -1.6515012979507446,
            "252": -0.19249461591243744,
            "253": -0.12682922184467316,
            "254": 1.56649911403656,
            "255": 1.036741018295288,
            "256": 0.14401498436927795,
            "257": 0.3330022394657135,
            "258": -1.899722933769226,
            "259": 0.08447979390621185,
            "260": -0.8389332294464111,
            "261": 1.116652011871338,
            "262": -0.2683771252632141,
            "263": 0.1736469566822052,
            "264": 0.37233224511146545,
            "265": -1.5892517566680908,
            "266": -0.9021321535110474,
            "267": 0.2355831414461136,
            "268": -2.256924629211426,
            "269": 0.19419434666633606,
            "270": -0.2060760259628296,
            "271": 1.3503751754760742,
            "272": -0.25417184829711914,
            "273": 0.8018324375152588,
            "274": 1.2286872863769531,
            "275": 0.7766972780227661,
            "276": -1.2834467887878418,
            "277": 0.7210509181022644,
            "278": -0.24062864482402802,
            "279": 0.7839339971542358,
            "280": 0.6619529724121094,
            "281": -0.4075945019721985,
            "282": 0.5233635902404785,
            "283": 0.09351044148206711,
            "284": -0.7839246392250061,
            "285": 0.8226817846298218,
            "286": 0.9538912773132324,
            "287": -0.3365994393825531,
            "288": -0.798373281955719,
            "289": 0.7732788920402527,
            "290": 1.4281336069107056,
            "291": 0.5498292446136475,
            "292": 0.3272257447242737,
            "293": -1.2025166749954224,
            "294": -0.08406658470630646,
            "295": -0.5356869101524353,
            "296": 0.49356433749198914,
            "297": 0.5591131448745728,
            "298": -0.6722058653831482,
            "299": 0.3481680154800415,
            "300": 0.23206308484077454,
            "301": 0.7034653425216675,
            "302": 0.334652304649353,
            "303": 0.8804023861885071,
            "304": 0.09564812481403351,
            "305": -0.4274927079677582,
            "306": 0.12956352531909943,
            "307": -0.07612252235412598,
            "308": -0.359195739030838,
            "309": 1.0861181020736694,
            "310": 0.15818525850772858,
            "311": 0.6151185035705566,
            "312": -0.7022231221199036,
            "313": 0.38998278975486755,
            "314": -0.2560521066188812,
            "315": -0.5922119617462158,
            "316": 0.41641587018966675,
            "317": 1.293674111366272,
            "318": 1.0323386192321777,
            "319": 1.0050565004348755,
            "320": -0.4155890941619873,
            "321": 0.5585861802101135,
            "322": -0.47758948802948,
            "323": 0.9838054180145264,
            "324": -0.7890585660934448,
            "325": 0.054435066878795624,
            "326": 0.43488967418670654,
            "327": 0.9646110534667969,
            "328": 1.679085612297058,
            "329": -0.034160543233156204,
            "330": 0.11142983287572861,
            "331": -0.6188381314277649,
            "332": 0.13761094212532043,
            "333": 0.062443166971206665,
            "334": -0.39302802085876465,
            "335": 0.5912941694259644,
            "336": 0.7271735668182373,
            "337": -0.9324541091918945,
            "338": 0.8932403326034546,
            "339": -0.3038803040981293
          }
        },
        "outputHidden": {
          "rows": 20,
          "columns": 20,
          "weights": {
            "0": -2.6536049842834473,
            "1": -0.8833922743797302,
            "2": -0.29699617624282837,
            "3": 0.8290697932243347,
            "4": 1.4054021835327148,
            "5": -0.14254486560821533,
            "6": -0.4683191478252411,
            "7": 0.029308965429663658,
            "8": 0.11454968899488449,
            "9": -0.12862548232078552,
            "10": -0.5638435482978821,
            "11": -0.2059779167175293,
            "12": 1.4391058683395386,
            "13": 0.9279176592826843,
            "14": -0.32969021797180176,
            "15": 0.3814537525177002,
            "16": 0.8529884815216064,
            "17": -1.371265172958374,
            "18": 0.37928307056427,
            "19": -2.4223997592926025,
            "20": 1.0620062351226807,
            "21": 0.25192055106163025,
            "22": 0.24877393245697021,
            "23": 2.0583934783935547,
            "24": -0.8047823309898376,
            "25": 0.8401412963867188,
            "26": -0.1768067479133606,
            "27": 0.0798940360546112,
            "28": -0.2514442205429077,
            "29": 1.1663135290145874,
            "30": 0.04560986906290054,
            "31": -0.1202189028263092,
            "32": -1.422702431678772,
            "33": -0.34577083587646484,
            "34": -0.09119289368391037,
            "35": -0.1038009524345398,
            "36": -0.6637515425682068,
            "37": 0.7704811692237854,
            "38": -0.939055323600769,
            "39": 3.344543695449829,
            "40": 0.5818430781364441,
            "41": -0.7518646121025085,
            "42": 0.8366302251815796,
            "43": -0.8063432574272156,
            "44": 0.5519087314605713,
            "45": 1.0012543201446533,
            "46": -0.8657078146934509,
            "47": 0.7722413539886475,
            "48": 0.7078937292098999,
            "49": -0.461438924074173,
            "50": -0.8786705136299133,
            "51": -0.8180839419364929,
            "52": -0.8364611864089966,
            "53": -0.5210119485855103,
            "54": -0.9355504512786865,
            "55": 0.7489727139472961,
            "56": -1.0421029329299927,
            "57": 0.23723796010017395,
            "58": -0.6127597689628601,
            "59": 0.5458557605743408,
            "60": 1.5152533054351807,
            "61": 0.061170484870672226,
            "62": -0.6476560831069946,
            "63": -0.9407062530517578,
            "64": -0.9530335068702698,
            "65": 2.1201682090759277,
            "66": 0.37524527311325073,
            "67": -0.8939563035964966,
            "68": -1.009082555770874,
            "69": -0.8216482996940613,
            "70": 0.16171114146709442,
            "71": 1.0981754064559937,
            "72": 0.8949072360992432,
            "73": -0.003571348963305354,
            "74": 0.5083767771720886,
            "75": -0.735221803188324,
            "76": -0.728225827217102,
            "77": 0.7896922826766968,
            "78": -0.3937697112560272,
            "79": -0.7613581418991089,
            "80": 1.0256363153457642,
            "81": -0.8161359429359436,
            "82": -0.6736885905265808,
            "83": 1.6083797216415405,
            "84": -0.19927524030208588,
            "85": 0.5267292261123657,
            "86": -0.42623353004455566,
            "87": 0.5226109027862549,
            "88": -0.4945940673351288,
            "89": -0.8576456308364868,
            "90": -0.6832801103591919,
            "91": -0.2548448145389557,
            "92": -0.30459263920783997,
            "93": 0.15874233841896057,
            "94": -0.5651240944862366,
            "95": 0.204469695687294,
            "96": 0.21006686985492706,
            "97": 0.2821374833583832,
            "98": -0.378415584564209,
            "99": 0.4834000766277313,
            "100": 0.004719454795122147,
            "101": 0.0009974429849535227,
            "102": -0.639895498752594,
            "103": 0.5501492023468018,
            "104": 0.4726284146308899,
            "105": -0.16626515984535217,
            "106": -0.2909756600856781,
            "107": -0.007656880654394627,
            "108": 0.5166829824447632,
            "109": 0.3805612623691559,
            "110": -0.23849552869796753,
            "111": -0.02050861343741417,
            "112": -0.21184691786766052,
            "113": -0.265006959438324,
            "114": -0.09281053394079208,
            "115": 0.4879148006439209,
            "116": -0.13031181693077087,
            "117": -0.08289473503828049,
            "118": -0.8607968688011169,
            "119": 0.5813339352607727,
            "120": 1.0178805589675903,
            "121": -0.2704960107803345,
            "122": 0.4416823387145996,
            "123": -0.04289284721016884,
            "124": 0.6115525364875793,
            "125": -0.5760075449943542,
            "126": -0.4755963385105133,
            "127": 0.42081570625305176,
            "128": 0.5302534699440002,
            "129": 0.24288815259933472,
            "130": -0.44777417182922363,
            "131": -0.44105127453804016,
            "132": -0.05041132867336273,
            "133": -0.30956965684890747,
            "134": -0.4975433945655823,
            "135": 0.45708727836608887,
            "136": -0.5811312198638916,
            "137": 0.6334860324859619,
            "138": -0.6352598667144775,
            "139": 1.174971342086792,
            "140": 1.221808910369873,
            "141": 0.16584154963493347,
            "142": 0.14928606152534485,
            "143": 0.6829177737236023,
            "144": 0.41928020119667053,
            "145": -0.1064775288105011,
            "146": -0.1729751080274582,
            "147": -0.03630406782031059,
            "148": 0.048903003334999084,
            "149": 0.8558204770088196,
            "150": 0.053628504276275635,
            "151": -0.6026493310928345,
            "152": -2.1156108379364014,
            "153": -0.28332772850990295,
            "154": -0.43381914496421814,
            "155": -0.4035518169403076,
            "156": -0.07874517142772675,
            "157": -0.11618668586015701,
            "158": 0.07260113209486008,
            "159": 3.0435357093811035,
            "160": 1.550788402557373,
            "161": 0.04220518097281456,
            "162": 0.4237020015716553,
            "163": 0.78897625207901,
            "164": -0.019146008417010307,
            "165": 0.25288766622543335,
            "166": 0.23792804777622223,
            "167": -0.2573336660861969,
            "168": -0.764190137386322,
            "169": 0.7518867254257202,
            "170": 0.09279529005289078,
            "171": -0.5185866951942444,
            "172": -2.577310085296631,
            "173": -0.29219239950180054,
            "174": 0.013427378609776497,
            "175": -0.3963446617126465,
            "176": -0.6853489875793457,
            "177": 0.2550337612628937,
            "178": -0.6607028245925903,
            "179": 2.661362886428833,
            "180": 0.7519213557243347,
            "181": -0.5144851207733154,
            "182": -0.2898498773574829,
            "183": 2.5642499923706055,
            "184": 0.463064968585968,
            "185": 1.0115240812301636,
            "186": -0.08311179280281067,
            "187": 0.3562384247779846,
            "188": -0.0318751223385334,
            "189": -0.4943079352378845,
            "190": -0.7527144551277161,
            "191": -0.33003661036491394,
            "192": 1.3518462181091309,
            "193": 0.4277729392051697,
            "194": 0.02000836469233036,
            "195": 0.22248475253582,
            "196": 0.037605538964271545,
            "197": -0.4183746874332428,
            "198": -0.17949235439300537,
            "199": -0.6016603708267212,
            "200": 0.9244287014007568,
            "201": -0.08719517290592194,
            "202": 0.34880775213241577,
            "203": 0.10644735395908356,
            "204": -0.748911440372467,
            "205": 0.4931585490703583,
            "206": -0.20018236339092255,
            "207": 0.033917468041181564,
            "208": 0.1540461629629135,
            "209": 0.20155809819698334,
            "210": -0.06476277858018875,
            "211": -0.040260352194309235,
            "212": -0.8188551068305969,
            "213": -0.26243776082992554,
            "214": -0.3070243299007416,
            "215": 0.014075344428420067,
            "216": -0.6937030553817749,
            "217": 0.4117542803287506,
            "218": -0.525515079498291,
            "219": 2.211155891418457,
            "220": 0.8474599719047546,
            "221": -1.2494392395019531,
            "222": 0.7939663529396057,
            "223": 1.3508015871047974,
            "224": 0.671963095664978,
            "225": -0.4118921458721161,
            "226": -1.1260390281677246,
            "227": 1.1360929012298584,
            "228": 1.1026760339736938,
            "229": 0.5117818713188171,
            "230": -1.2525279521942139,
            "231": -0.6355792284011841,
            "232": -1.1991058588027954,
            "233": -0.6279869079589844,
            "234": -1.264133095741272,
            "235": 1.110587239265442,
            "236": -0.603909969329834,
            "237": 0.5579506158828735,
            "238": -0.6967668533325195,
            "239": 0.28263166546821594,
            "240": -2.389875888824463,
            "241": 0.7864718437194824,
            "242": -0.86557936668396,
            "243": 0.29949939250946045,
            "244": 0.3184119760990143,
            "245": -0.4733496308326721,
            "246": 0.4187682867050171,
            "247": -1.3029698133468628,
            "248": -0.6818330883979797,
            "249": 0.07046902179718018,
            "250": 0.5403543710708618,
            "251": -0.4767571687698364,
            "252": 0.371786892414093,
            "253": -0.07896607369184494,
            "254": 0.7114255428314209,
            "255": -0.5934448838233948,
            "256": 0.2527412176132202,
            "257": -0.018892884254455566,
            "258": 0.37505555152893066,
            "259": -0.47567877173423767,
            "260": -1.4407188892364502,
            "261": 0.672270655632019,
            "262": -1.0209804773330688,
            "263": -0.588614284992218,
            "264": -0.5349639058113098,
            "265": 0.30354931950569153,
            "266": 0.835835337638855,
            "267": -0.9159113764762878,
            "268": -0.8968517184257507,
            "269": -0.030298123136162758,
            "270": 0.8398429155349731,
            "271": 0.9281209111213684,
            "272": 0.4533536434173584,
            "273": 0.44233793020248413,
            "274": 0.9989781975746155,
            "275": -0.9415028691291809,
            "276": 0.5092552900314331,
            "277": -0.2974880337715149,
            "278": -0.00027575978310778737,
            "279": 0.04591881111264229,
            "280": -0.09119787812232971,
            "281": 0.007240945007652044,
            "282": 0.9256841540336609,
            "283": 0.21319836378097534,
            "284": 0.4949313998222351,
            "285": 0.06969933211803436,
            "286": -0.38189879059791565,
            "287": 0.1889539510011673,
            "288": 0.2024596929550171,
            "289": 0.09122093766927719,
            "290": -0.2146661877632141,
            "291": -0.9774301052093506,
            "292": -1.0983185768127441,
            "293": -0.6934948563575745,
            "294": -0.40369942784309387,
            "295": 0.2613975703716278,
            "296": -0.9845679998397827,
            "297": 0.5970900058746338,
            "298": -0.543827474117279,
            "299": 1.475067377090454,
            "300": 1.0854520797729492,
            "301": 0.35625559091567993,
            "302": 0.5295615196228027,
            "303": 1.3831461668014526,
            "304": -0.37708204984664917,
            "305": 0.5255435705184937,
            "306": -0.01660117879509926,
            "307": -0.007470692973583937,
            "308": -0.15309903025627136,
            "309": 1.3644990921020508,
            "310": 0.2049979865550995,
            "311": 0.24433119595050812,
            "312": -2.3508732318878174,
            "313": -0.6536316871643066,
            "314": 0.0065099033527076244,
            "315": -0.16509881615638733,
            "316": -1.3969252109527588,
            "317": 1.1072897911071777,
            "318": -1.166454553604126,
            "319": 3.1862618923187256,
            "320": -1.692191481590271,
            "321": 0.5963719487190247,
            "322": -0.5489790439605713,
            "323": -0.6012133955955505,
            "324": -0.21717797219753265,
            "325": -0.12183128297328949,
            "326": 0.644711434841156,
            "327": -0.5223734378814697,
            "328": -0.5511269569396973,
            "329": 0.09103050082921982,
            "330": 0.48820582032203674,
            "331": 0.5090597867965698,
            "332": 0.9691039323806763,
            "333": 0.2975618243217468,
            "334": 0.5799099802970886,
            "335": -0.6594045758247375,
            "336": 0.6902715563774109,
            "337": -0.48450687527656555,
            "338": 0.7770766615867615,
            "339": -0.8506027460098267,
            "340": 0.588498592376709,
            "341": 0.8798930048942566,
            "342": -0.5222347974777222,
            "343": 0.5389720797538757,
            "344": -0.7384805083274841,
